{"boosters": ["tree\nversion=v4\nnum_class=1\nnum_tree_per_iteration=1\nlabel_index=0\nmax_feature_idx=2\nfeature_names=TRAIN_TT TRAIN_HE TRAIN_CO\nmonotone_constraints=-1 -1 -1\nfeature_infos=[0:1.0000000000000002] [0:1] [0:0.99999999999999989]\ntree_sizes=363 365 361 362 364 363 366 363 364 365 366 366 364 364 366 366 365 364 364 369 363 366 365 364 363 367 369 367 368 367 365 366 366 368 367 367 366 366 365 367 370 367 369 364 365 365 367 367 365 366 368 369 368 364 366 364 365 368 364 370 364 367 366 364 366 369 367 368 364 367 365 366 366 365 365 362 364 363 365 363 366 364 368 370 364 365 364 365 363 364 364 367 364 364 366 371 366 363 363 364 368 365 365 364 367 371 367 365 363 366 367 367 371 365 365 367 367 366 365 362 364 371 365 371 369 370 366 366 365 365 363 368 367 364 369 366 368 368 370 367 371 371 365 366 367 366 364 369 367 369 365 366 364 369 368 366 368 367 365 365 365 362 366 366 371 367 370 368 368 369 372 366 370 364 367 367 371 362 369 368 367 371 368 363 367 373 365 367 370 365 365 372 372 370 371 369 368 369 367 367 367 369 368 370 370 365 370 367 365 368 364 366 364 369 363 368 366 365 369 367 367 366 369 372 369 367 370 370 366 368 372 363 366 365 368 373 370 367 363 367 373 367 366 369 364 366 365 368 365 366 367 370 366 367 369 369 366 373 372 370 369 368 368 370 367 369 366 368 369 365 371 367 368 370 367 367 366 366 371 369 366 371 366 369 371 368 370 370 366 370 374 373 369 366 371 367 366 369 372 371 368 368 366 368 369 367 365 369 368 367 371 368 374 373 367 372 372 369 369 369 371 371 364 369 375 367 374 367 368 367 365 373 367 370 371 368 373 375 371 367 365 369 368 372 367 368 374 374 371 368 371 364 370 372 370 367 366 369 367 371 368 365 371 368 368 369 366 370 372 367 369 366 366 369 366 370 366 367 371 365 369 366 368 366 367 374 366 371 368 371 375 368 369 368 371 368 362 364 368 369 372 366 367 372 369 367 367 369 373 366 370 372 368 371 366 367 369 374 373 367 371 363 368 368 371 371 373 368 369 368 366 367 367 371 366 368 367 367 368 367 371 372 375 369 370 366 369 367 370 369 367 371 369 370 369 366 370 366 371 368 369 368 364 368 367 369 370 366 367 367 371 366 368 366 365 370 370 371 366 368 368 366 365 371 372 369 367 368 365 368 366 372 368 370 368 363 371 366 368 370 367 370 369 370 372 375 369 363 375 371 368 372 369 366 370 369 369 371 375 368 369 370 370 372 368 368 374 370 367 371 372 370 371 367 367 369 368 371 366 370 365 371 368 371 367 370 369 370 368 370 375 374 368 367 372 367 367 371 369 366 369 367 368 370 370 368 374 373 367 370 367 373 370 369 375 374 375 371 371 373 366 371 370 367 373 370 369 370 369 372 372 371 368 366 370 371 372 370 368 370 368 375 371 368 372 370 371 371 370 365 372 364 369 367 370 368 370 372 371 370 367 373 370 369 369 372 364 370 368 372 370 366 371 371 368 367 372 370 372 372 369 370 375 368 369 366 369 371 373 371 368 371 368 370 373 372 365 366 375 372 372 369 369 367 364 373 368 372 369 368 365 370 373 372 371 373 368 369 365 365 370 372 369 367 369 371 371 369 372 370 367 363 370 368 368 371 373 369 373 369 372 366 368 369 371 369 373 372 370 367 369 367 366 372 370 366 370 370 372 370 371 371 368 371 367 370 371 368 369 366 371 373 368 370 374 370 373 369 366 372 371 372 369 369 372 373 372 373 373 365 367 369 370 370 369 367 369 371 366 369 370 371 372 373 372 372 370 374 368 366 369 370 371 371 371 370 370 372 372 372 368 369 369 369 369 373 370 371 372 372 367 366 368 368 371 370 373 369 368 370 371 372 367 372 369 371 369 371 370 371 368 370 368 370 367 368 369 373 370 370 373 363 373 370 372 371 372 366 370 374\n\nTree=0\nnum_leaves=2\nnum_cat=0\nsplit_feature=0\nsplit_gain=124.883\nthreshold=0.10461689587426329\ndecision_type=2\nleft_child=-1\nright_child=-2\nleaf_value=-0.03503131358967037 -0.076423799800073466\nleaf_weight=1223.6667031347752 1802.6667203903198\nleaf_count=3671 5408\ninternal_value=-0.0596872\ninternal_weight=3026.33\ninternal_count=9079\nis_linear=0\nshrinkage=0.1\n\n\nTree=1\nnum_leaves=2\nnum_cat=0\nsplit_feature=0\nsplit_gain=120.655\nthreshold=0.091846758349705335\ndecision_type=2\nleft_child=-1\nright_child=-2\nleaf_value=-0.027344288967510923 -0.070120063319360368\nleaf_weight=1001.8499659597874 1929.0931349992752\nleaf_count=3081 5998\ninternal_value=-0.0554985\ninternal_weight=2930.94\ninternal_count=9079\nis_linear=0\nshrinkage=0.1\n\n\nTree=2\nnum_leaves=2\nnum_cat=0\nsplit_feature=1\nsplit_gain=11.1267\nthreshold=0.66666666666666674\ndecision_type=2\nleft_child=-1\nright_child=-2\nleaf_value=-0.0472894879978039 -0.060606231700203989\nleaf_weight=1899.6239069998264 936.89881587028503\nleaf_count=6079 3001\ninternal_value=-0.051688\ninternal_weight=2836.52\ninternal_count=9080\nis_linear=0\nshrinkage=0.1\n\n\nTree=3\nnum_leaves=2\nnum_cat=0\nsplit_feature=0\nsplit_gain=123.092\nthreshold=0.10461689587426329\ndecision_type=2\nleft_child=-1\nright_child=-2\nleaf_value=-0.022752576159610925 -0.0658112973827467\nleaf_weight=1125.0732668936253 1619.7034046053886\nleaf_count=3671 5409\ninternal_value=-0.0481617\ninternal_weight=2744.78\ninternal_count=9080\nis_linear=0\nshrinkage=0.1\n\n\nTree=4\nnum_leaves=2\nnum_cat=0\nsplit_feature=0\nsplit_gain=118.298\nthreshold=0.10461689587426329\ndecision_type=2\nleft_child=-1\nright_child=-2\nleaf_value=-0.019809257119277869 -0.062652676800357326\nleaf_weight=1099.6733419299126 1556.9728740751743\nleaf_count=3668 5414\ninternal_value=-0.0449184\ninternal_weight=2656.65\ninternal_count=9082\nis_linear=0\nshrinkage=0.1\n\n\nTree=5\nnum_leaves=2\nnum_cat=0\nsplit_feature=1\nsplit_gain=11.1268\nthreshold=0.66666666666666674\ndecision_type=2\nleft_child=-1\nright_child=-2\nleaf_value=-0.037293894032273248 -0.05129908722776283\nleaf_weight=1727.2783779501915 844.68975129723549\nleaf_count=6082 3000\ninternal_value=-0.0418935\ninternal_weight=2571.97\ninternal_count=9082\nis_linear=0\nshrinkage=0.1\n\n\nTree=6\nnum_leaves=2\nnum_cat=0\nsplit_feature=0\nsplit_gain=117.969\nthreshold=0.091846758349705335\ndecision_type=2\nleft_child=-1\nright_child=-2\nleaf_value=-0.0095856023390287377 -0.055102444254489735\nleaf_weight=880.67459744215012 1611.0435115098953\nleaf_count=3081 5996\ninternal_value=-0.0390149\ninternal_weight=2491.72\ninternal_count=9077\nis_linear=0\nshrinkage=0.1\n\n\nTree=7\nnum_leaves=2\nnum_cat=0\nsplit_feature=0\nsplit_gain=114.712\nthreshold=0.11542239685658155\ndecision_type=2\nleft_child=-1\nright_child=-2\nleaf_value=-0.013416805480371288 -0.057047740498749583\nleaf_weight=1146.1332590579987 1270.6250646114349\nleaf_count=4153 4924\ninternal_value=-0.036356\ninternal_weight=2416.76\ninternal_count=9077\nis_linear=0\nshrinkage=0.1\n\n\nTree=8\nnum_leaves=2\nnum_cat=0\nsplit_feature=0\nsplit_gain=110.922\nthreshold=0.10461689587426329\ndecision_type=2\nleft_child=-1\nright_child=-2\nleaf_value=-0.0088376676644046619 -0.052766887110748208\nleaf_weight=1005.3682995438576 1342.115180760622\nleaf_count=3669 5411\ninternal_value=-0.0339531\ninternal_weight=2347.48\ninternal_count=9080\nis_linear=0\nshrinkage=0.1\n\n\nTree=9\nnum_leaves=2\nnum_cat=0\nsplit_feature=2\nsplit_gain=460.131\nthreshold=1.0000000180025095e-35\ndecision_type=2\nleft_child=-1\nright_child=-2\nleaf_value=0.078014751730103166 -0.049998740123296651\nleaf_weight=327.89957171678543 1954.0326667428017\nleaf_count=1262 7818\ninternal_value=-0.031604\ninternal_weight=2281.93\ninternal_count=9080\nis_linear=0\nshrinkage=0.1\n\n\nTree=10\nnum_leaves=2\nnum_cat=0\nsplit_feature=2\nsplit_gain=409.775\nthreshold=1.0000000180025095e-35\ndecision_type=2\nleft_child=-1\nright_child=-2\nleaf_value=0.071884975834374781 -0.047583714570250589\nleaf_weight=338.75257380306721 1882.9754890352488\nleaf_count=1263 7816\ninternal_value=-0.029368\ninternal_weight=2221.73\ninternal_count=9079\nis_linear=0\nshrinkage=0.1\n\n\nTree=11\nnum_leaves=2\nnum_cat=0\nsplit_feature=0\nsplit_gain=104.073\nthreshold=0.11542239685658155\ndecision_type=2\nleft_child=-1\nright_child=-2\nleaf_value=-0.0049595475795327828 -0.048818484382331016\nleaf_weight=1061.3098287582397 1103.6375185549259\nleaf_count=4152 4927\ninternal_value=-0.0273178\ninternal_weight=2164.95\ninternal_count=9079\nis_linear=0\nshrinkage=0.1\n\n\nTree=12\nnum_leaves=2\nnum_cat=0\nsplit_feature=1\nsplit_gain=12.3929\nthreshold=0.66666666666666674\ndecision_type=2\nleft_child=-1\nright_child=-2\nleaf_value=-0.020008283693688362 -0.036348109124393561\nleaf_weight=1425.359174400568 688.33218042552471\nleaf_count=6082 2999\ninternal_value=-0.0253294\ninternal_weight=2113.69\ninternal_count=9081\nis_linear=0\nshrinkage=0.1\n\n\nTree=13\nnum_leaves=2\nnum_cat=0\nsplit_feature=2\nsplit_gain=377.487\nthreshold=0.032118055555555559\ndecision_type=2\nleft_child=-1\nright_child=-2\nleaf_value=0.065743729501439266 -0.043936780571426547\nleaf_weight=385.76739418506622 1681.8495651036501\nleaf_count=1479 7602\ninternal_value=-0.023473\ninternal_weight=2067.62\ninternal_count=9081\nis_linear=0\nshrinkage=0.1\n\n\nTree=14\nnum_leaves=2\nnum_cat=0\nsplit_feature=0\nsplit_gain=99.3326\nthreshold=0.14587426326129668\ndecision_type=2\nleft_child=-1\nright_child=-2\nleaf_value=-0.0048256792808279601 -0.050658509492160192\nleaf_weight=1269.0875975489616 753.69588160514832\nleaf_count=5449 3634\ninternal_value=-0.0219032\ninternal_weight=2022.78\ninternal_count=9083\nis_linear=0\nshrinkage=0.1\n\n\nTree=15\nnum_leaves=2\nnum_cat=0\nsplit_feature=2\nsplit_gain=335.692\nthreshold=1.0000000180025095e-35\ndecision_type=2\nleft_child=-1\nright_child=-2\nleaf_value=0.069939728989823813 -0.039037990643804289\nleaf_weight=341.47093430161476 1641.2002905458212\nleaf_count=1264 7819\ninternal_value=-0.020269\ninternal_weight=1982.67\ninternal_count=9083\nis_linear=0\nshrinkage=0.1\n\n\nTree=16\nnum_leaves=2\nnum_cat=0\nsplit_feature=0\nsplit_gain=94.8343\nthreshold=0.11542239685658155\ndecision_type=2\nleft_child=-1\nright_child=-2\nleaf_value=0.0030611100631599418 -0.041135833861780269\nleaf_weight=985.28773537278175 957.08379691839218\nleaf_count=4151 4929\ninternal_value=-0.0187165\ninternal_weight=1942.37\ninternal_count=9080\nis_linear=0\nshrinkage=0.1\n\n\nTree=17\nnum_leaves=2\nnum_cat=0\nsplit_feature=0\nsplit_gain=88.8384\nthreshold=0.14587426326129668\ndecision_type=2\nleft_child=-1\nright_child=-2\nleaf_value=-0.001148020750942582 -0.046113898149517149\nleaf_weight=1222.268465384841 685.95887324213982\nleaf_count=5446 3634\ninternal_value=-0.0173121\ninternal_weight=1908.23\ninternal_count=9080\nis_linear=0\nshrinkage=0.1\n\n\nTree=18\nnum_leaves=2\nnum_cat=0\nsplit_feature=0\nsplit_gain=85.8154\nthreshold=0.090864440078585476\ndecision_type=2\nleft_child=-1\nright_child=-2\nleaf_value=0.010764662788075722 -0.033068030466296472\nleaf_weight=731.91567105054855 1145.993472263217\nleaf_count=3026 6057\ninternal_value=-0.0159842\ninternal_weight=1877.91\ninternal_count=9083\nis_linear=0\nshrinkage=0.1\n\n\nTree=19\nnum_leaves=2\nnum_cat=0\nsplit_feature=1\nsplit_gain=13.1058\nthreshold=1.0000000180025095e-35\ndecision_type=2\nleft_child=-1\nright_child=-2\nleaf_value=-0.0029450868027313037 -0.020748303598459712\nleaf_weight=624.32506556808949 1224.4532167166471\nleaf_count=3023 6060\ninternal_value=-0.0147362\ninternal_weight=1848.78\ninternal_count=9083\nis_linear=0\nshrinkage=0.1\n\n\nTree=20\nnum_leaves=2\nnum_cat=0\nsplit_feature=0\nsplit_gain=83.1254\nthreshold=0.14587426326129668\ndecision_type=2\nleft_child=-1\nright_child=-2\nleaf_value=0.002047730162759808 -0.042697681007333371\nleaf_weight=1183.9463554620743 639.4019238203764\nleaf_count=5447 3631\ninternal_value=-0.0136434\ninternal_weight=1823.35\ninternal_count=9078\nis_linear=0\nshrinkage=0.1\n\n\nTree=21\nnum_leaves=2\nnum_cat=0\nsplit_feature=1\nsplit_gain=12.2391\nthreshold=0.66666666666666674\ndecision_type=2\nleft_child=-1\nright_child=-2\nleaf_value=-0.0068663218072685149 -0.024526188928010076\nleaf_weight=1220.7314672768116 578.38185274600983\nleaf_count=6077 3001\ninternal_value=-0.0125437\ninternal_weight=1799.11\ninternal_count=9078\nis_linear=0\nshrinkage=0.1\n\n\nTree=22\nnum_leaves=2\nnum_cat=0\nsplit_feature=2\nsplit_gain=315.459\nthreshold=0.032118055555555559\ndecision_type=2\nleft_child=-1\nright_child=-2\nleaf_value=0.069798831361398125 -0.033265277563379651\nleaf_weight=376.72798098623753 1402.9397730976343\nleaf_count=1480 7606\ninternal_value=-0.0114482\ninternal_weight=1779.67\ninternal_count=9086\nis_linear=0\nshrinkage=0.1\n\n\nTree=23\nnum_leaves=2\nnum_cat=0\nsplit_feature=2\nsplit_gain=278.595\nthreshold=0.047743055555555559\ndecision_type=2\nleft_child=-1\nright_child=-2\nleaf_value=0.056894611215504626 -0.034089007590539865\nleaf_weight=453.7521385550499 1302.9240328967571\nleaf_count=1806 7280\ninternal_value=-0.0105878\ninternal_weight=1756.68\ninternal_count=9086\nis_linear=0\nshrinkage=0.1\n\n\nTree=24\nnum_leaves=2\nnum_cat=0\nsplit_feature=2\nsplit_gain=249.778\nthreshold=0.05989583333333335\ndecision_type=2\nleft_child=-1\nright_child=-2\nleaf_value=0.048440002701612389 -0.034448533368243488\nleaf_weight=518.6324854940176 1215.8013909161091\nleaf_count=2083 7001\ninternal_value=-0.0096631\ninternal_weight=1734.43\ninternal_count=9084\nis_linear=0\nshrinkage=0.1\n\n\nTree=25\nnum_leaves=2\nnum_cat=0\nsplit_feature=1\nsplit_gain=11.9171\nthreshold=0.66666666666666674\ndecision_type=2\nleft_child=-1\nright_child=-2\nleaf_value=-0.0031777329520051266 -0.021069691530883783\nleaf_weight=1167.5187513232231 546.53153029829264\nleaf_count=6081 3003\ninternal_value=-0.00888266\ninternal_weight=1714.05\ninternal_count=9084\nis_linear=0\nshrinkage=0.1\n\n\nTree=26\nnum_leaves=2\nnum_cat=0\nsplit_feature=1\nsplit_gain=11.0578\nthreshold=1.0000000180025095e-35\ndecision_type=2\nleft_child=-1\nright_child=-2\nleaf_value=0.0030548212791644464 -0.013935067881143509\nleaf_weight=583.48137088119984 1115.3442414328456\nleaf_count=3022 6057\ninternal_value=-0.00809969\ninternal_weight=1698.83\ninternal_count=9079\nis_linear=0\nshrinkage=0.1\n\n\nTree=27\nnum_leaves=2\nnum_cat=0\nsplit_feature=1\nsplit_gain=10.3226\nthreshold=0.66666666666666674\ndecision_type=2\nleft_child=-1\nright_child=-2\nleaf_value=-0.0020912164147208934 -0.018940084707098268\nleaf_weight=1155.3277559280396 530.62609408050776\nleaf_count=6079 3000\ninternal_value=-0.00739412\ninternal_weight=1685.95\ninternal_count=9079\nis_linear=0\nshrinkage=0.1\n\n\nTree=28\nnum_leaves=2\nnum_cat=0\nsplit_feature=1\nsplit_gain=9.26033\nthreshold=1.0000000180025095e-35\ndecision_type=2\nleft_child=-1\nright_child=-2\nleaf_value=0.0034364923656268775 -0.01218034266830046\nleaf_weight=581.76302082836628 1093.1955397129059\nleaf_count=3023 6060\ninternal_value=-0.00675615\ninternal_weight=1674.96\ninternal_count=9083\nis_linear=0\nshrinkage=0.1\n\n\nTree=29\nnum_leaves=2\nnum_cat=0\nsplit_feature=1\nsplit_gain=8.68159\nthreshold=0.66666666666666674\ndecision_type=2\nleft_child=-1\nright_child=-2\nleaf_value=-0.0013328871889750427 -0.016936932001824005\nleaf_weight=1147.0942490920424 517.36836240440607\nleaf_count=6083 3000\ninternal_value=-0.00618313\ninternal_weight=1664.46\ninternal_count=9083\nis_linear=0\nshrinkage=0.1\n\n\nTree=30\nnum_leaves=2\nnum_cat=0\nsplit_feature=1\nsplit_gain=7.47514\nthreshold=0.66666666666666674\ndecision_type=2\nleft_child=-1\nright_child=-2\nleaf_value=-0.0011508727328826101 -0.015701700697588677\nleaf_weight=1144.0490793511271 510.6419874355197\nleaf_count=6081 3002\ninternal_value=-0.0056413\ninternal_weight=1654.69\ninternal_count=9083\nis_linear=0\nshrinkage=0.1\n\n\nTree=31\nnum_leaves=2\nnum_cat=0\nsplit_feature=2\nsplit_gain=255.951\nthreshold=0.091145833333333356\ndecision_type=2\nleft_child=-1\nright_child=-2\nleaf_value=0.040847348198796374 -0.038960814981117087\nleaf_weight=697.14037553220987 948.70717130601406\nleaf_count=3274 5809\ninternal_value=-0.00515604\ninternal_weight=1645.85\ninternal_count=9083\nis_linear=0\nshrinkage=0.1\n\n\nTree=32\nnum_leaves=2\nnum_cat=0\nsplit_feature=2\nsplit_gain=226.417\nthreshold=0.091145833333333356\ndecision_type=2\nleft_child=-1\nright_child=-2\nleaf_value=0.037650120523067307 -0.037429036125710829\nleaf_weight=712.53161429613829 920.67604674398899\nleaf_count=3275 5804\ninternal_value=-0.00467369\ninternal_weight=1633.21\ninternal_count=9079\nis_linear=0\nshrinkage=0.1\n\n\nTree=33\nnum_leaves=2\nnum_cat=0\nsplit_feature=1\nsplit_gain=7.00192\nthreshold=1.0000000180025095e-35\ndecision_type=2\nleft_child=-1\nright_child=-2\nleaf_value=0.0045976986054920314 -0.0091555077190401575\nleaf_weight=571.59456760436296 1050.503897421062\nleaf_count=3020 6059\ninternal_value=-0.00430915\ninternal_weight=1622.1\ninternal_count=9079\nis_linear=0\nshrinkage=0.1\n\n\nTree=34\nnum_leaves=2\nnum_cat=0\nsplit_feature=1\nsplit_gain=6.30248\nthreshold=0.66666666666666674\ndecision_type=2\nleft_child=-1\nright_child=-2\nleaf_value=0.00029070210888523855 -0.013275000310929472\nleaf_weight=1123.3654402792454 492.67025694996119\nleaf_count=6082 3001\ninternal_value=-0.00384498\ninternal_weight=1616.04\ninternal_count=9083\nis_linear=0\nshrinkage=0.1\n\n\nTree=35\nnum_leaves=2\nnum_cat=0\nsplit_feature=1\nsplit_gain=5.8266\nthreshold=1.0000000180025095e-35\ndecision_type=2\nleft_child=-1\nright_child=-2\nleaf_value=0.0046475957862800931 -0.0079175272110229827\nleaf_weight=573.0561715811491 1036.6382910907269\nleaf_count=3025 6058\ninternal_value=-0.0034443\ninternal_weight=1609.69\ninternal_count=9083\nis_linear=0\nshrinkage=0.1\n\n\nTree=36\nnum_leaves=2\nnum_cat=0\nsplit_feature=1\nsplit_gain=5.41614\nthreshold=0.66666666666666674\ndecision_type=2\nleft_child=-1\nright_child=-2\nleaf_value=0.00066810135649083093 -0.011990113363870703\nleaf_weight=1120.123530998826 484.11323516070843\nleaf_count=6084 3002\ninternal_value=-0.00315179\ninternal_weight=1604.24\ninternal_count=9086\nis_linear=0\nshrinkage=0.1\n\n\nTree=37\nnum_leaves=2\nnum_cat=0\nsplit_feature=2\nsplit_gain=220.682\nthreshold=0.091145833333333356\ndecision_type=2\nleft_child=-1\nright_child=-2\nleaf_value=0.038880573932958795 -0.035918439288168028\nleaf_weight=707.27381285279989 891.74623147398233\nleaf_count=3277 5809\ninternal_value=-0.00283356\ninternal_weight=1599.02\ninternal_count=9086\nis_linear=0\nshrinkage=0.1\n\n\nTree=38\nnum_leaves=2\nnum_cat=0\nsplit_feature=0\nsplit_gain=77.2708\nthreshold=0.14587426326129668\ndecision_type=2\nleft_child=-1\nright_child=-2\nleaf_value=0.013070832758125962 -0.033685525020140307\nleaf_weight=1058.7669246122241 530.58202813565731\nleaf_count=5447 3632\ninternal_value=-0.00253813\ninternal_weight=1589.35\ninternal_count=9079\nis_linear=0\nshrinkage=0.1\n\n\nTree=39\nnum_leaves=2\nnum_cat=0\nsplit_feature=2\nsplit_gain=199.008\nthreshold=1.0000000180025095e-35\ndecision_type=2\nleft_child=-1\nright_child=-2\nleaf_value=0.064225764003298338 -0.021154832846542446\nleaf_weight=350.6534548997879 1232.6309646293521\nleaf_count=1264 7815\ninternal_value=-0.00224539\ninternal_weight=1583.28\ninternal_count=9079\nis_linear=0\nshrinkage=0.1\n\n\nTree=40\nnum_leaves=2\nnum_cat=0\nsplit_feature=1\nsplit_gain=4.89314\nthreshold=1.0000000180025095e-35\ndecision_type=2\nleft_child=-1\nright_child=-2\nleaf_value=0.0055470279097228703 -0.0060793101959125623\nleaf_weight=564.60652463883162 1008.7428708747029\nleaf_count=3020 6059\ninternal_value=-0.00190712\ninternal_weight=1573.35\ninternal_count=9079\nis_linear=0\nshrinkage=0.1\n\n\nTree=41\nnum_leaves=2\nnum_cat=0\nsplit_feature=1\nsplit_gain=4.46613\nthreshold=0.66666666666666674\ndecision_type=2\nleft_child=-1\nright_child=-2\nleaf_value=0.0017869756985785822 -0.0098619226603142013\nleaf_weight=1100.4632048085332 469.56140591204166\nleaf_count=6079 3000\ninternal_value=-0.00169696\ninternal_weight=1570.02\ninternal_count=9079\nis_linear=0\nshrinkage=0.1\n\n\nTree=42\nnum_leaves=2\nnum_cat=0\nsplit_feature=1\nsplit_gain=3.92041\nthreshold=1.0000000180025095e-35\ndecision_type=2\nleft_child=-1\nright_child=-2\nleaf_value=0.0051447746275695835 -0.0052616004712465018\nleaf_weight=567.39413442462683 1000.1629495024681\nleaf_count=3025 6058\ninternal_value=-0.0014949\ninternal_weight=1567.56\ninternal_count=9083\nis_linear=0\nshrinkage=0.1\n\n\nTree=43\nnum_leaves=2\nnum_cat=0\nsplit_feature=2\nsplit_gain=192.234\nthreshold=0.091145833333333356\ndecision_type=2\nleft_child=-1\nright_child=-2\nleaf_value=0.036930802652981827 -0.033436224701791528\nleaf_weight=713.8438890427351 851.12724686414003\nleaf_count=3275 5808\ninternal_value=-0.0013391\ninternal_weight=1564.97\ninternal_count=9083\nis_linear=0\nshrinkage=0.1\n\n\nTree=44\nnum_leaves=2\nnum_cat=0\nsplit_feature=0\nsplit_gain=69.8203\nthreshold=0.18713163064833011\ndecision_type=2\nleft_child=-1\nright_child=-2\nleaf_value=0.0087767453657813608 -0.046190125868802459\nleaf_weight=1275.695415854454 282.21060518920422\nleaf_count=7148 1934\ninternal_value=-0.00118037\ninternal_weight=1557.91\ninternal_count=9082\nis_linear=0\nshrinkage=0.1\n\n\nTree=45\nnum_leaves=2\nnum_cat=0\nsplit_feature=2\nsplit_gain=171.033\nthreshold=0.10850694444444446\ndecision_type=2\nleft_child=-1\nright_child=-2\nleaf_value=0.030621915413305535 -0.035797128664482827\nleaf_weight=814.71354874968529 739.6990922242403\nleaf_count=3923 5159\ninternal_value=-0.000984946\ninternal_weight=1554.41\ninternal_count=9082\nis_linear=0\nshrinkage=0.1\n\n\nTree=46\nnum_leaves=2\nnum_cat=0\nsplit_feature=1\nsplit_gain=3.62252\nthreshold=0.66666666666666674\ndecision_type=2\nleft_child=-1\nright_child=-2\nleaf_value=0.0021373994711302198 -0.0084508620901029684\nleaf_weight=1089.2705517038703 459.39042681455612\nleaf_count=6081 3003\ninternal_value=-0.00100347\ninternal_weight=1548.66\ninternal_count=9084\nis_linear=0\nshrinkage=0.1\n\n\nTree=47\nnum_leaves=2\nnum_cat=0\nsplit_feature=0\nsplit_gain=61.7231\nthreshold=0.18713163064833011\ndecision_type=2\nleft_child=-1\nright_child=-2\nleaf_value=0.0083259676018409886 -0.044345851174870776\nleaf_weight=1277.0748051330447 269.41448717564344\nleaf_count=7150 1934\ninternal_value=-0.000850015\ninternal_weight=1546.49\ninternal_count=9084\nis_linear=0\nshrinkage=0.1\n\n\nTree=48\nnum_leaves=2\nnum_cat=0\nsplit_feature=0\nsplit_gain=58.4819\nthreshold=0.13703339882121809\ndecision_type=2\nleft_child=-1\nright_child=-2\nleaf_value=0.013890315635686155 -0.02681120533522964\nleaf_weight=994.96064433455467 547.15675438195467\nleaf_count=5052 4024\ninternal_value=-0.000550941\ninternal_weight=1542.12\ninternal_count=9076\nis_linear=0\nshrinkage=0.1\n\n\nTree=49\nnum_leaves=2\nnum_cat=0\nsplit_feature=2\nsplit_gain=151.633\nthreshold=0.05989583333333335\ndecision_type=2\nleft_child=-1\nright_child=-2\nleaf_value=0.042569115081224587 -0.023369591588357087\nleaf_weight=534.07459634542465 1005.0366283878684\nleaf_count=2080 6996\ninternal_value=-0.000488725\ninternal_weight=1539.11\ninternal_count=9076\nis_linear=0\nshrinkage=0.1\n\n\nTree=50\nnum_leaves=2\nnum_cat=0\nsplit_feature=1\nsplit_gain=3.30226\nthreshold=0.66666666666666674\ndecision_type=2\nleft_child=-1\nright_child=-2\nleaf_value=0.0026749614848060035 -0.0075024316991450547\nleaf_weight=1080.8463798388839 452.19863307476044\nleaf_count=6082 3000\ninternal_value=-0.000327038\ninternal_weight=1533.05\ninternal_count=9082\nis_linear=0\nshrinkage=0.1\n\n\nTree=51\nnum_leaves=2\nnum_cat=0\nsplit_feature=1\nsplit_gain=3.01129\nthreshold=1.0000000180025095e-35\ndecision_type=2\nleft_child=-1\nright_child=-2\nleaf_value=0.005687687601791766 -0.0035214387526005851\nleaf_weight=559.38559378683567 972.1381915807724\nleaf_count=3022 6060\ninternal_value=-0.000157823\ninternal_weight=1531.52\ninternal_count=9082\nis_linear=0\nshrinkage=0.1\n\n\nTree=52\nnum_leaves=2\nnum_cat=0\nsplit_feature=1\nsplit_gain=2.64388\nthreshold=0.66666666666666674\ndecision_type=2\nleft_child=-1\nright_child=-2\nleaf_value=0.0026166960919282636 -0.0065222303811877302\nleaf_weight=1081.5073583871126 447.55464631319046\nleaf_count=6077 2999\ninternal_value=-5.82553e-05\ninternal_weight=1529.06\ninternal_count=9076\nis_linear=0\nshrinkage=0.1\n\n\nTree=53\nnum_leaves=2\nnum_cat=0\nsplit_feature=0\nsplit_gain=54.917\nthreshold=0.18713163064833011\ndecision_type=2\nleft_child=-1\nright_child=-2\nleaf_value=0.0085142014258245743 -0.04226920523288466\nleaf_weight=1272.4168066605926 255.74200109392405\nleaf_count=7144 1932\ninternal_value=1.54345e-05\ninternal_weight=1528.16\ninternal_count=9076\nis_linear=0\nshrinkage=0.1\n\n\nTree=54\nnum_leaves=2\nnum_cat=0\nsplit_feature=0\nsplit_gain=53.8556\nthreshold=0.065324165029469569\ndecision_type=2\nleft_child=-1\nright_child=-2\nleaf_value=0.034382601348147294 -0.010194192839490822\nleaf_weight=352.27333743870258 1175.1436465680599\nleaf_count=1578 7503\ninternal_value=8.67067e-05\ninternal_weight=1527.42\ninternal_count=9081\nis_linear=0\nshrinkage=0.1\n\n\nTree=55\nnum_leaves=2\nnum_cat=0\nsplit_feature=2\nsplit_gain=143.395\nthreshold=0.11718750000000001\ndecision_type=2\nleft_child=-1\nright_child=-2\nleaf_value=0.027030986420843523 -0.034808641191809785\nleaf_weight=861.55710315704346 663.93923482298851\nleaf_count=4196 4885\ninternal_value=0.000116624\ninternal_weight=1525.5\ninternal_count=9081\nis_linear=0\nshrinkage=0.1\n\n\nTree=56\nnum_leaves=2\nnum_cat=0\nsplit_feature=1\nsplit_gain=2.51381\nthreshold=0.66666666666666674\ndecision_type=2\nleft_child=-1\nright_child=-2\nleaf_value=0.0027949209794622455 -0.006153824024160706\nleaf_weight=1077.0796479210258 443.0317802131176\nleaf_count=6079 3000\ninternal_value=0.000186834\ninternal_weight=1520.11\ninternal_count=9079\nis_linear=0\nshrinkage=0.1\n\n\nTree=57\nnum_leaves=2\nnum_cat=0\nsplit_feature=2\nsplit_gain=134.886\nthreshold=1.0000000180025095e-35\ndecision_type=2\nleft_child=-1\nright_child=-2\nleaf_value=0.052697869335883211 -0.016671053185033924\nleaf_weight=370.79500366747379 1148.6383729502559\nleaf_count=1263 7816\ninternal_value=0.000257401\ninternal_weight=1519.43\ninternal_count=9079\nis_linear=0\nshrinkage=0.1\n\n\nTree=58\nnum_leaves=2\nnum_cat=0\nsplit_feature=2\nsplit_gain=124.228\nthreshold=0.11718750000000001\ndecision_type=2\nleft_child=-1\nright_child=-2\nleaf_value=0.024864028080039517 -0.033118752256210082\nleaf_weight=870.64629593491554 641.95703712850809\nleaf_count=4192 4884\ninternal_value=0.000255818\ninternal_weight=1512.6\ninternal_count=9076\nis_linear=0\nshrinkage=0.1\n\n\nTree=59\nnum_leaves=2\nnum_cat=0\nsplit_feature=1\nsplit_gain=2.10582\nthreshold=1.0000000180025095e-35\ndecision_type=2\nleft_child=-1\nright_child=-2\nleaf_value=0.0052683428170980737 -0.0024803836128526298\nleaf_weight=554.98867874592543 952.88963542878628\nleaf_count=3023 6053\ninternal_value=0.000371605\ninternal_weight=1507.88\ninternal_count=9076\nis_linear=0\nshrinkage=0.1\n\n\nTree=60\nnum_leaves=2\nnum_cat=0\nsplit_feature=2\nsplit_gain=116.223\nthreshold=0.06684027777777779\ndecision_type=2\nleft_child=-1\nright_child=-2\nleaf_value=0.034633015910636035 -0.022080022824058174\nleaf_weight=600.44310909509659 907.45967173576355\nleaf_count=2360 6719\ninternal_value=0.000502967\ninternal_weight=1507.9\ninternal_count=9079\nis_linear=0\nshrinkage=0.1\n\n\nTree=61\nnum_leaves=2\nnum_cat=0\nsplit_feature=1\nsplit_gain=2.14485\nthreshold=0.66666666666666674\ndecision_type=2\nleft_child=-1\nright_child=-2\nleaf_value=0.0029257736309458771 -0.0054015781014193024\nleaf_weight=1066.8854494020343 435.58197743445635\nleaf_count=6081 2998\ninternal_value=0.000511579\ninternal_weight=1502.47\ninternal_count=9079\nis_linear=0\nshrinkage=0.1\n\n\nTree=62\nnum_leaves=2\nnum_cat=0\nsplit_feature=0\nsplit_gain=45.6466\nthreshold=0.18713163064833011\ndecision_type=2\nleft_child=-1\nright_child=-2\nleaf_value=0.0081848451951713457 -0.039509939775314445\nleaf_weight=1263.9308536350727 238.53185573220253\nleaf_count=7151 1933\ninternal_value=0.000612783\ninternal_weight=1502.46\ninternal_count=9084\nis_linear=0\nshrinkage=0.1\n\n\nTree=63\nnum_leaves=2\nnum_cat=0\nsplit_feature=2\nsplit_gain=110.766\nthreshold=0.13107638888888892\ndecision_type=2\nleft_child=-1\nright_child=-2\nleaf_value=0.021453531953230992 -0.03486279190945174\nleaf_weight=947.85813228040934 553.02146568894386\nleaf_count=4719 4365\ninternal_value=0.000702937\ninternal_weight=1500.88\ninternal_count=9084\nis_linear=0\nshrinkage=0.1\n\n\nTree=64\nnum_leaves=2\nnum_cat=0\nsplit_feature=0\nsplit_gain=39.5286\nthreshold=0.18713163064833011\ndecision_type=2\nleft_child=-1\nright_child=-2\nleaf_value=0.0075364474969570041 -0.037646502828036832\nleaf_weight=1267.7040480673313 228.53031572699547\nleaf_count=7145 1934\ninternal_value=0.000635331\ninternal_weight=1496.23\ninternal_count=9079\nis_linear=0\nshrinkage=0.1\n\n\nTree=65\nnum_leaves=2\nnum_cat=0\nsplit_feature=1\nsplit_gain=1.97297\nthreshold=1.0000000180025095e-35\ndecision_type=2\nleft_child=-1\nright_child=-2\nleaf_value=0.0054099134815723329 -0.0021139533776598969\nleaf_weight=553.36007481068373 941.5584484487772\nleaf_count=3024 6055\ninternal_value=0.000671084\ninternal_weight=1494.92\ninternal_count=9079\nis_linear=0\nshrinkage=0.1\n\n\nTree=66\nnum_leaves=2\nnum_cat=0\nsplit_feature=1\nsplit_gain=1.69887\nthreshold=0.66666666666666674\ndecision_type=2\nleft_child=-1\nright_child=-2\nleaf_value=0.0030705626764354855 -0.0043701971212793912\nleaf_weight=1063.9012986272573 431.22084766626358\nleaf_count=6080 3000\ninternal_value=0.000924507\ninternal_weight=1495.12\ninternal_count=9080\nis_linear=0\nshrinkage=0.1\n\n\nTree=67\nnum_leaves=2\nnum_cat=0\nsplit_feature=2\nsplit_gain=102.828\nthreshold=1.0000000180025095e-35\ndecision_type=2\nleft_child=-1\nright_child=-2\nleaf_value=0.045466200410726569 -0.014535390075715644\nleaf_weight=384.41542740166187 1111.3206135518849\nleaf_count=1263 7817\ninternal_value=0.000885475\ninternal_weight=1495.74\ninternal_count=9080\nis_linear=0\nshrinkage=0.1\n\n\nTree=68\nnum_leaves=2\nnum_cat=0\nsplit_feature=2\nsplit_gain=96.5849\nthreshold=0.10850694444444446\ndecision_type=2\nleft_child=-1\nright_child=-2\nleaf_value=0.022956014862066804 -0.028481446130773309\nleaf_weight=849.39134725928307 640.18326523527503\nleaf_count=3922 5159\ninternal_value=0.00084943\ninternal_weight=1489.57\ninternal_count=9081\nis_linear=0\nshrinkage=0.1\n\n\nTree=69\nnum_leaves=2\nnum_cat=0\nsplit_feature=0\nsplit_gain=36.4379\nthreshold=0.065324165029469569\ndecision_type=2\nleft_child=-1\nright_child=-2\nleaf_value=0.028463689622082317 -0.0080387389024672903\nleaf_weight=361.37040131539106 1124.2746293842793\nleaf_count=1577 7504\ninternal_value=0.000840165\ninternal_weight=1485.65\ninternal_count=9081\nis_linear=0\nshrinkage=0.1\n\n\nTree=70\nnum_leaves=2\nnum_cat=0\nsplit_feature=2\nsplit_gain=88.0428\nthreshold=0.13107638888888892\ndecision_type=2\nleft_child=-1\nright_child=-2\nleaf_value=0.018918473734957392 -0.032051244951057954\nleaf_weight=960.32394230738282 523.71766184642911\nleaf_count=4718 4364\ninternal_value=0.000931275\ninternal_weight=1484.04\ninternal_count=9082\nis_linear=0\nshrinkage=0.1\n\n\nTree=71\nnum_leaves=2\nnum_cat=0\nsplit_feature=0\nsplit_gain=33.4759\nthreshold=0.18713163064833011\ndecision_type=2\nleft_child=-1\nright_child=-2\nleaf_value=0.0071584352143268378 -0.035393332553039107\nleaf_weight=1264.1612635478377 216.55334341153502\nleaf_count=7150 1932\ninternal_value=0.000935263\ninternal_weight=1480.71\ninternal_count=9082\nis_linear=0\nshrinkage=0.1\n\n\nTree=72\nnum_leaves=2\nnum_cat=0\nsplit_feature=1\nsplit_gain=1.55301\nthreshold=0.66666666666666674\ndecision_type=2\nleft_child=-1\nright_child=-2\nleaf_value=0.0032339103672159638 -0.0039230871105818323\nleaf_weight=1053.5431706607342 425.69242408126593\nleaf_count=6079 3000\ninternal_value=0.00117428\ninternal_weight=1479.24\ninternal_count=9079\nis_linear=0\nshrinkage=0.1\n\n\nTree=73\nnum_leaves=2\nnum_cat=0\nsplit_feature=2\nsplit_gain=82.0179\nthreshold=1.0000000180025095e-35\ndecision_type=2\nleft_child=-1\nright_child=-2\nleaf_value=0.040247764488384394 -0.013015817441574271\nleaf_weight=394.01239189505577 1085.75023413077\nleaf_count=1264 7815\ninternal_value=0.00116654\ninternal_weight=1479.76\ninternal_count=9079\nis_linear=0\nshrinkage=0.1\n\n\nTree=74\nnum_leaves=2\nnum_cat=0\nsplit_feature=0\nsplit_gain=31.0599\nthreshold=0.065324165029469569\ndecision_type=2\nleft_child=-1\nright_child=-2\nleaf_value=0.026424849782242021 -0.0071816063752243352\nleaf_weight=365.6792423799634 1109.2114868909121\nleaf_count=1578 7503\ninternal_value=0.00115066\ninternal_weight=1474.89\ninternal_count=9081\nis_linear=0\nshrinkage=0.1\n\n\nTree=75\nnum_leaves=2\nnum_cat=0\nsplit_feature=2\nsplit_gain=76.28\nthreshold=0.13107638888888892\ndecision_type=2\nleft_child=-1\nright_child=-2\nleaf_value=0.017553882489402248 -0.030354869745810205\nleaf_weight=968.11923879384995 506.06072437763214\nleaf_count=4717 4364\ninternal_value=0.00110762\ninternal_weight=1474.18\ninternal_count=9081\nis_linear=0\nshrinkage=0.1\n\n\nTree=76\nnum_leaves=2\nnum_cat=0\nsplit_feature=0\nsplit_gain=29.6108\nthreshold=0.18713163064833011\ndecision_type=2\nleft_child=-1\nright_child=-2\nleaf_value=0.0069450401346393565 -0.033732844960726045\nleaf_weight=1261.609382931143 208.52911718189716\nleaf_count=7146 1933\ninternal_value=0.00117515\ninternal_weight=1470.14\ninternal_count=9079\nis_linear=0\nshrinkage=0.1\n\n\nTree=77\nnum_leaves=2\nnum_cat=0\nsplit_feature=1\nsplit_gain=1.4757\nthreshold=0.66666666666666674\ndecision_type=2\nleft_child=-1\nright_child=-2\nleaf_value=0.0031865953828245277 -0.003819159168972601\nleaf_weight=1047.7580148130655 421.67280166223645\nleaf_count=6080 2999\ninternal_value=0.0011762\ninternal_weight=1469.43\ninternal_count=9079\nis_linear=0\nshrinkage=0.1\n\n\nTree=78\nnum_leaves=2\nnum_cat=0\nsplit_feature=2\nsplit_gain=70.5882\nthreshold=0.089409722222222238\ndecision_type=2\nleft_child=-1\nright_child=-2\nleaf_value=0.022274499945483056 -0.021586784532954494\nleaf_weight=763.16722962260246 706.67633632943034\nleaf_count=3182 5897\ninternal_value=0.00118672\ninternal_weight=1469.84\ninternal_count=9079\nis_linear=0\nshrinkage=0.1\n\n\nTree=79\nnum_leaves=2\nnum_cat=0\nsplit_feature=2\nsplit_gain=63.999\nthreshold=0.13107638888888892\ndecision_type=2\nleft_child=-1\nright_child=-2\nleaf_value=0.015926847592838248 -0.028426390584662883\nleaf_weight=978.50848685950041 487.36444028094411\nleaf_count=4718 4361\ninternal_value=0.00118055\ninternal_weight=1465.87\ninternal_count=9079\nis_linear=0\nshrinkage=0.1\n\n\nTree=80\nnum_leaves=2\nnum_cat=0\nsplit_feature=2\nsplit_gain=61.506\nthreshold=1.0000000180025095e-35\ndecision_type=2\nleft_child=-1\nright_child=-2\nleaf_value=0.034347078367194993 -0.011505419858167254\nleaf_weight=404.20966172218323 1058.9583916068077\nleaf_count=1264 7820\ninternal_value=0.00116163\ninternal_weight=1463.17\ninternal_count=9084\nis_linear=0\nshrinkage=0.1\n\n\nTree=81\nnum_leaves=2\nnum_cat=0\nsplit_feature=2\nsplit_gain=57.7307\nthreshold=0.13107638888888892\ndecision_type=2\nleft_child=-1\nright_child=-2\nleaf_value=0.015103393218520153 -0.027340394360822546\nleaf_weight=982.14559867605567 475.66925564408302\nleaf_count=4718 4366\ninternal_value=0.00125444\ninternal_weight=1457.81\ninternal_count=9084\nis_linear=0\nshrinkage=0.1\n\n\nTree=82\nnum_leaves=2\nnum_cat=0\nsplit_feature=1\nsplit_gain=1.3803\nthreshold=1.0000000180025095e-35\ndecision_type=2\nleft_child=-1\nright_child=-2\nleaf_value=0.0055048757262439489 -0.00086906089725565276\nleaf_weight=540.9422724545002 913.46553162485361\nleaf_count=3022 6059\ninternal_value=0.00150161\ninternal_weight=1454.41\ninternal_count=9081\nis_linear=0\nshrinkage=0.1\n\n\nTree=83\nnum_leaves=2\nnum_cat=0\nsplit_feature=1\nsplit_gain=1.19759\nthreshold=1.0000000180025095e-35\ndecision_type=2\nleft_child=-1\nright_child=-2\nleaf_value=0.0051872788724078829 -0.00074497934794068418\nleaf_weight=542.64583545178175 912.64536174014211\nleaf_count=3022 6059\ninternal_value=0.00146703\ninternal_weight=1455.29\ninternal_count=9081\nis_linear=0\nshrinkage=0.1\n\n\nTree=84\nnum_leaves=2\nnum_cat=0\nsplit_feature=1\nsplit_gain=1.02524\nthreshold=0.66666666666666674\ndecision_type=2\nleft_child=-1\nright_child=-2\nleaf_value=0.002996157279697589 -0.0028796024750251726\nleaf_weight=1039.3582597710192 415.74169737845659\nleaf_count=6076 3001\ninternal_value=0.00131737\ninternal_weight=1455.1\ninternal_count=9077\nis_linear=0\nshrinkage=0.1\n\n\nTree=85\nnum_leaves=2\nnum_cat=0\nsplit_feature=0\nsplit_gain=25.6534\nthreshold=0.19597249508840872\ndecision_type=2\nleft_child=-1\nright_child=-2\nleaf_value=0.0061751126964889776 -0.034521522535327386\nleaf_weight=1279.8912636190653 176.21713180467486\nleaf_count=7418 1659\ninternal_value=0.00125003\ninternal_weight=1456.11\ninternal_count=9077\nis_linear=0\nshrinkage=0.1\n\n\nTree=86\nnum_leaves=2\nnum_cat=0\nsplit_feature=2\nsplit_gain=56.5994\nthreshold=0.06684027777777779\ndecision_type=2\nleft_child=-1\nright_child=-2\nleaf_value=0.023743890782195406 -0.016040666189088316\nleaf_weight=632.35557398200035 822.95782882720232\nleaf_count=2357 6723\ninternal_value=0.00124632\ninternal_weight=1455.31\ninternal_count=9080\nis_linear=0\nshrinkage=0.1\n\n\nTree=87\nnum_leaves=2\nnum_cat=0\nsplit_feature=0\nsplit_gain=24.6417\nthreshold=0.054518664047151291\ndecision_type=2\nleft_child=-1\nright_child=-2\nleaf_value=0.030193189138332917 -0.0046259948092277009\nleaf_weight=244.41789985448122 1206.744996484369\nleaf_count=1021 8059\ninternal_value=0.00123857\ninternal_weight=1451.16\ninternal_count=9080\nis_linear=0\nshrinkage=0.1\n\n\nTree=88\nnum_leaves=2\nnum_cat=0\nsplit_feature=0\nsplit_gain=23.1334\nthreshold=0.18713163064833011\ndecision_type=2\nleft_child=-1\nright_child=-2\nleaf_value=0.006525444144026022 -0.03054810006892214\nleaf_weight=1256.7694105431437 194.33615667000413\nleaf_count=7151 1932\ninternal_value=0.00156044\ninternal_weight=1451.11\ninternal_count=9083\nis_linear=0\nshrinkage=0.1\n\n\nTree=89\nnum_leaves=2\nnum_cat=0\nsplit_feature=2\nsplit_gain=51.7345\nthreshold=0.08246527777777779\ndecision_type=2\nleft_child=-1\nright_child=-2\nleaf_value=0.020330347739993895 -0.017432522599624828\nleaf_weight=727.01168306916952 724.13648483157158\nleaf_count=2882 6201\ninternal_value=0.00148632\ninternal_weight=1451.15\ninternal_count=9083\nis_linear=0\nshrinkage=0.1\n\n\nTree=90\nnum_leaves=2\nnum_cat=0\nsplit_feature=2\nsplit_gain=48.0407\nthreshold=0.13107638888888892\ndecision_type=2\nleft_child=-1\nright_child=-2\nleaf_value=0.013760696757276664 -0.025408476115214958\nleaf_weight=988.72155516222119 458.25534192845225\nleaf_count=4716 4362\ninternal_value=0.00135587\ninternal_weight=1446.98\ninternal_count=9078\nis_linear=0\nshrinkage=0.1\n\n\nTree=91\nnum_leaves=2\nnum_cat=0\nsplit_feature=2\nsplit_gain=45.1704\nthreshold=1.0000000180025095e-35\ndecision_type=2\nleft_child=-1\nright_child=-2\nleaf_value=0.029246845448894662 -0.0098711470304311318\nleaf_weight=413.63349194824696 1030.8675924055278\nleaf_count=1265 7813\ninternal_value=0.00133031\ninternal_weight=1444.5\ninternal_count=9078\nis_linear=0\nshrinkage=0.1\n\n\nTree=92\nnum_leaves=2\nnum_cat=0\nsplit_feature=2\nsplit_gain=41.9396\nthreshold=0.13107638888888892\ndecision_type=2\nleft_child=-1\nright_child=-2\nleaf_value=0.012999167813873528 -0.023873310570811004\nleaf_weight=992.69979654252529 447.54593033343554\nleaf_count=4718 4366\ninternal_value=0.00154131\ninternal_weight=1440.25\ninternal_count=9084\nis_linear=0\nshrinkage=0.1\n\n\nTree=93\nnum_leaves=2\nnum_cat=0\nsplit_feature=1\nsplit_gain=1.06334\nthreshold=0.66666666666666674\ndecision_type=2\nleft_child=-1\nright_child=-2\nleaf_value=0.0032149651210376614 -0.002805018810073754\nleaf_weight=1027.373716827482 410.71351435035467\nleaf_count=6082 3002\ninternal_value=0.00149567\ninternal_weight=1438.09\ninternal_count=9084\nis_linear=0\nshrinkage=0.1\n\n\nTree=94\nnum_leaves=2\nnum_cat=0\nsplit_feature=0\nsplit_gain=20.5321\nthreshold=0.065324165029469569\ndecision_type=2\nleft_child=-1\nright_child=-2\nleaf_value=0.021876755144656444 -0.0054191271878220384\nleaf_weight=371.59284875541925 1066.4701842367649\nleaf_count=1576 7505\ninternal_value=0.00163408\ninternal_weight=1438.06\ninternal_count=9081\nis_linear=0\nshrinkage=0.1\n\n\nTree=95\nnum_leaves=2\nnum_cat=0\nsplit_feature=1\nsplit_gain=0.919358\nthreshold=1.0000000180025095e-35\ndecision_type=2\nleft_child=-1\nright_child=-2\nleaf_value=0.0048649365178968715 -0.00036036517258283173\nleaf_weight=538.13229459524155 899.60271115973592\nleaf_count=3024 6057\ninternal_value=0.00159542\ninternal_weight=1437.74\ninternal_count=9081\nis_linear=0\nshrinkage=0.1\n\n\nTree=96\nnum_leaves=2\nnum_cat=0\nsplit_feature=1\nsplit_gain=0.828922\nthreshold=0.66666666666666674\ndecision_type=2\nleft_child=-1\nright_child=-2\nleaf_value=0.0031133633481400182 -0.0022097237786720325\nleaf_weight=1028.984077911824 408.74704561010003\nleaf_count=6078 3001\ninternal_value=0.00160001\ninternal_weight=1437.73\ninternal_count=9079\nis_linear=0\nshrinkage=0.1\n\n\nTree=97\nnum_leaves=2\nnum_cat=0\nsplit_feature=2\nsplit_gain=41.7009\nthreshold=0.06684027777777779\ndecision_type=2\nleft_child=-1\nright_child=-2\nleaf_value=0.020467536575313496 -0.013768941234934814\nleaf_weight=644.37070782482624 794.33091587200761\nleaf_count=2358 6721\ninternal_value=0.00156501\ninternal_weight=1438.7\ninternal_count=9079\nis_linear=0\nshrinkage=0.1\n\n\nTree=98\nnum_leaves=2\nnum_cat=0\nsplit_feature=2\nsplit_gain=38.3588\nthreshold=0.14496527777777782\ndecision_type=2\nleft_child=-1\nright_child=-2\nleaf_value=0.011298116369598266 -0.025488259508057012\nleaf_weight=1046.333429094404 388.78342297300696\nleaf_count=5253 3826\ninternal_value=0.00133242\ninternal_weight=1435.12\ninternal_count=9079\nis_linear=0\nshrinkage=0.1\n\n\nTree=99\nnum_leaves=2\nnum_cat=0\nsplit_feature=0\nsplit_gain=18.8595\nthreshold=0.19597249508840872\ndecision_type=2\nleft_child=-1\nright_child=-2\nleaf_value=0.0053807538197250997 -0.03084822395231537\nleaf_weight=1271.4325095191598 161.99368610233068\nleaf_count=7418 1661\ninternal_value=0.00128645\ninternal_weight=1433.43\ninternal_count=9079\nis_linear=0\nshrinkage=0.1\n\n\nTree=100\nnum_leaves=2\nnum_cat=0\nsplit_feature=2\nsplit_gain=37.3833\nthreshold=1.0000000180025095e-35\ndecision_type=2\nleft_child=-1\nright_child=-2\nleaf_value=0.026751734344442991 -0.008791800807745772\nleaf_weight=417.53638885915279 1015.8122303150594\nleaf_count=1264 7816\ninternal_value=0.00156208\ninternal_weight=1433.35\ninternal_count=9080\nis_linear=0\nshrinkage=0.1\n\n\nTree=101\nnum_leaves=2\nnum_cat=0\nsplit_feature=2\nsplit_gain=34.7329\nthreshold=0.11718750000000001\ndecision_type=2\nleft_child=-1\nright_child=-2\nleaf_value=0.013020173943140673 -0.019686828196029533\nleaf_weight=930.32501972466707 498.74531522393227\nleaf_count=4195 4885\ninternal_value=0.00160543\ninternal_weight=1429.07\ninternal_count=9080\nis_linear=0\nshrinkage=0.1\n\n\nTree=102\nnum_leaves=2\nnum_cat=0\nsplit_feature=2\nsplit_gain=32.6519\nthreshold=0.047743055555555559\ndecision_type=2\nleft_child=-1\nright_child=-2\nleaf_value=0.021057245457051139 -0.010106745227153588\nleaf_weight=542.4306319206953 884.30266874283552\nleaf_count=1806 7274\ninternal_value=0.00174151\ninternal_weight=1426.73\ninternal_count=9080\nis_linear=0\nshrinkage=0.1\n\n\nTree=103\nnum_leaves=2\nnum_cat=0\nsplit_feature=2\nsplit_gain=29.8376\nthreshold=0.14496527777777782\ndecision_type=2\nleft_child=-1\nright_child=-2\nleaf_value=0.010245810988364017 -0.022722050861084184\nleaf_weight=1052.4446747638285 371.40397275239229\nleaf_count=5255 3825\ninternal_value=0.0016463\ninternal_weight=1423.85\ninternal_count=9080\nis_linear=0\nshrinkage=0.1\n\n\nTree=104\nnum_leaves=2\nnum_cat=0\nsplit_feature=1\nsplit_gain=0.772292\nthreshold=0.66666666666666674\ndecision_type=2\nleft_child=-1\nright_child=-2\nleaf_value=0.0030758146157016733 -0.0020909178058631725\nleaf_weight=1017.5740991383791 404.22178347036242\nleaf_count=6080 3001\ninternal_value=0.00160689\ninternal_weight=1421.8\ninternal_count=9081\nis_linear=0\nshrinkage=0.1\n\n\nTree=105\nnum_leaves=2\nnum_cat=0\nsplit_feature=1\nsplit_gain=0.701715\nthreshold=1.0000000180025095e-35\ndecision_type=2\nleft_child=-1\nright_child=-2\nleaf_value=0.0044405093232972861 -0.0001461635188672224\nleaf_weight=533.92956142127514 888.79186713322997\nleaf_count=3022 6059\ninternal_value=0.00157516\ninternal_weight=1422.72\ninternal_count=9081\nis_linear=0\nshrinkage=0.1\n\n\nTree=106\nnum_leaves=2\nnum_cat=0\nsplit_feature=0\nsplit_gain=17.4841\nthreshold=0.054518664047151291\ndecision_type=2\nleft_child=-1\nright_child=-2\nleaf_value=0.025660968791732686 -0.0035548855050024433\nleaf_weight=248.09133107960224 1174.8227847591043\nleaf_count=1022 8058\ninternal_value=0.00153903\ninternal_weight=1422.91\ninternal_count=9080\nis_linear=0\nshrinkage=0.1\n\n\nTree=107\nnum_leaves=2\nnum_cat=0\nsplit_feature=0\nsplit_gain=16.7337\nthreshold=0.19597249508840872\ndecision_type=2\nleft_child=-1\nright_child=-2\nleaf_value=0.0052834064259558999 -0.029364102933760339\nleaf_weight=1266.2614311501384 156.63850205019116\nleaf_count=7422 1658\ninternal_value=0.00146926\ninternal_weight=1422.9\ninternal_count=9080\nis_linear=0\nshrinkage=0.1\n\n\nTree=108\nnum_leaves=2\nnum_cat=0\nsplit_feature=0\nsplit_gain=15.8043\nthreshold=0.027013752455795677\ndecision_type=2\nleft_child=-1\nright_child=-2\nleaf_value=0.04627335709185959 -0.00082023669446822925\nleaf_weight=75.237175129354 1348.1989032737911\nleaf_count=320 8766\ninternal_value=0.00166895\ninternal_weight=1423.44\ninternal_count=9086\nis_linear=0\nshrinkage=0.1\n\n\nTree=109\nnum_leaves=2\nnum_cat=0\nsplit_feature=2\nsplit_gain=29.9115\nthreshold=0.091145833333333356\ndecision_type=2\nleft_child=-1\nright_child=-2\nleaf_value=0.014246570783639376 -0.015011606030958522\nleaf_weight=809.08388259634376 615.02663543820381\nleaf_count=3278 5808\ninternal_value=0.00161092\ninternal_weight=1424.11\ninternal_count=9086\nis_linear=0\nshrinkage=0.1\n\n\nTree=110\nnum_leaves=2\nnum_cat=0\nsplit_feature=2\nsplit_gain=28.6987\nthreshold=1.0000000180025095e-35\ndecision_type=2\nleft_child=-1\nright_child=-2\nleaf_value=0.023492051986916094 -0.0075963736423361157\nleaf_weight=422.6800380051136 998.14459677413106\nleaf_count=1264 7820\ninternal_value=0.0016521\ninternal_weight=1420.82\ninternal_count=9084\nis_linear=0\nshrinkage=0.1\n\n\nTree=111\nnum_leaves=2\nnum_cat=0\nsplit_feature=1\nsplit_gain=0.668091\nthreshold=0.66666666666666674\ndecision_type=2\nleft_child=-1\nright_child=-2\nleaf_value=0.003074020938009282 -0.0017439037456219793\nleaf_weight=1015.4694618210196 401.65837470814586\nleaf_count=6083 3001\ninternal_value=0.00170847\ninternal_weight=1417.13\ninternal_count=9084\nis_linear=0\nshrinkage=0.1\n\n\nTree=112\nnum_leaves=2\nnum_cat=0\nsplit_feature=1\nsplit_gain=0.610221\nthreshold=1.0000000180025095e-35\ndecision_type=2\nleft_child=-1\nright_child=-2\nleaf_value=0.0045115283198301857 0.00022874136368728986\nleaf_weight=533.19749270379543 884.67563384398818\nleaf_count=3022 6059\ninternal_value=0.00183931\ninternal_weight=1417.87\ninternal_count=9081\nis_linear=0\nshrinkage=0.1\n\n\nTree=113\nnum_leaves=2\nnum_cat=0\nsplit_feature=2\nsplit_gain=28.5576\nthreshold=0.06684027777777779\ndecision_type=2\nleft_child=-1\nright_child=-2\nleaf_value=0.017073921451611889 -0.011382880302266788\nleaf_weight=653.69428253918886 765.77210312336683\nleaf_count=2361 6720\ninternal_value=0.00172208\ninternal_weight=1419.47\ninternal_count=9081\nis_linear=0\nshrinkage=0.1\n\n\nTree=114\nnum_leaves=2\nnum_cat=0\nsplit_feature=1\nsplit_gain=0.58106\nthreshold=0.66666666666666674\ndecision_type=2\nleft_child=-1\nright_child=-2\nleaf_value=0.002999816809957393 -0.0014981977704801785\nleaf_weight=1015.9834993034601 400.3720106780529\nleaf_count=6081 3002\ninternal_value=0.00172833\ninternal_weight=1416.36\ninternal_count=9083\nis_linear=0\nshrinkage=0.1\n\n\nTree=115\nnum_leaves=2\nnum_cat=0\nsplit_feature=1\nsplit_gain=0.506362\nthreshold=0.66666666666666674\ndecision_type=2\nleft_child=-1\nright_child=-2\nleaf_value=0.0028226319020120804 -0.0013766195297012826\nleaf_weight=1017.9420681372285 399.9891840107739\nleaf_count=6081 3002\ninternal_value=0.00163805\ninternal_weight=1417.93\ninternal_count=9083\nis_linear=0\nshrinkage=0.1\n\n\nTree=116\nnum_leaves=2\nnum_cat=0\nsplit_feature=0\nsplit_gain=15.7782\nthreshold=0.090864440078585476\ndecision_type=2\nleft_child=-1\nright_child=-2\nleaf_value=0.012673937196547178 -0.0084541032487096216\nleaf_weight=671.03503839671612 746.85615264624357\nleaf_count=3025 6055\ninternal_value=0.00154501\ninternal_weight=1417.89\ninternal_count=9080\nis_linear=0\nshrinkage=0.1\n\n\nTree=117\nnum_leaves=2\nnum_cat=0\nsplit_feature=0\nsplit_gain=15.3332\nthreshold=0.19793713163064836\ndecision_type=2\nleft_child=-1\nright_child=-2\nleaf_value=0.0050497709113008745 -0.028872331838177962\nleaf_weight=1268.5363902263343 148.88944780081511\nleaf_count=7462 1618\ninternal_value=0.00148651\ninternal_weight=1417.43\ninternal_count=9080\nis_linear=0\nshrinkage=0.1\n\n\nTree=118\nnum_leaves=2\nnum_cat=0\nsplit_feature=2\nsplit_gain=28.9099\nthreshold=0.14496527777777782\ndecision_type=2\nleft_child=-1\nright_child=-2\nleaf_value=0.010102105126424676 -0.022487667468718935\nleaf_weight=1050.0858651250601 367.44432423077524\nleaf_count=5257 3827\ninternal_value=0.00165436\ninternal_weight=1417.53\ninternal_count=9084\nis_linear=0\nshrinkage=0.1\n\n\nTree=119\nnum_leaves=2\nnum_cat=0\nsplit_feature=2\nsplit_gain=25.9629\nthreshold=0.08246527777777779\ndecision_type=2\nleft_child=-1\nright_child=-2\nleaf_value=0.014429598539460967 -0.012690346171213177\nleaf_weight=746.1318421214819 669.9674736764282\nleaf_count=2882 6202\ninternal_value=0.00159894\ninternal_weight=1416.1\ninternal_count=9084\nis_linear=0\nshrinkage=0.1\n\n\nTree=120\nnum_leaves=2\nnum_cat=0\nsplit_feature=0\nsplit_gain=14.3259\nthreshold=0.25982318271119847\ndecision_type=2\nleft_child=-1\nright_child=-2\nleaf_value=0.0034734472295661978 -0.052871994743006169\nleaf_weight=1366.2396993320435 46.664489470422268\nleaf_count=8640 439\ninternal_value=0.00161249\ninternal_weight=1412.9\ninternal_count=9079\nis_linear=0\nshrinkage=0.1\n\n\nTree=121\nnum_leaves=2\nnum_cat=0\nsplit_feature=1\nsplit_gain=0.481878\nthreshold=1.0000000180025095e-35\ndecision_type=2\nleft_child=-1\nright_child=-2\nleaf_value=0.0040442476651520081 0.00023450449379013125\nleaf_weight=533.09259619191289 880.17170891351998\nleaf_count=3022 6057\ninternal_value=0.00167157\ninternal_weight=1413.26\ninternal_count=9079\nis_linear=0\nshrinkage=0.1\n\n\nTree=122\nnum_leaves=2\nnum_cat=0\nsplit_feature=1\nsplit_gain=0.401913\nthreshold=0.66666666666666674\ndecision_type=2\nleft_child=-1\nright_child=-2\nleaf_value=0.002686410955558465 -0.0010616913938683373\nleaf_weight=1017.361459672451 398.02095818519592\nleaf_count=6082 3001\ninternal_value=0.0016324\ninternal_weight=1415.38\ninternal_count=9083\nis_linear=0\nshrinkage=0.1\n\n\nTree=123\nnum_leaves=2\nnum_cat=0\nsplit_feature=1\nsplit_gain=0.373414\nthreshold=1.0000000180025095e-35\ndecision_type=2\nleft_child=-1\nright_child=-2\nleaf_value=0.0036792771089944696 0.00033051278051510994\nleaf_weight=535.26881394535303 881.11287727206945\nleaf_count=3023 6060\ninternal_value=0.00159606\ninternal_weight=1416.38\ninternal_count=9083\nis_linear=0\nshrinkage=0.1\n\n\nTree=124\nnum_leaves=2\nnum_cat=0\nsplit_feature=1\nsplit_gain=0.351026\nthreshold=1.0000000180025095e-35\ndecision_type=2\nleft_child=-1\nright_child=-2\nleaf_value=0.003626713234367078 0.00037996291719370143\nleaf_weight=535.70198784396052 880.04512208327651\nleaf_count=3020 6055\ninternal_value=0.0016085\ninternal_weight=1415.75\ninternal_count=9075\nis_linear=0\nshrinkage=0.1\n\n\nTree=125\nnum_leaves=2\nnum_cat=0\nsplit_feature=1\nsplit_gain=0.305424\nthreshold=1.0000000180025095e-35\ndecision_type=2\nleft_child=-1\nright_child=-2\nleaf_value=0.0034517240906530426 0.00042494776672901986\nleaf_weight=536.7083546705544 880.01847852952778\nleaf_count=3020 6055\ninternal_value=0.00157161\ninternal_weight=1416.73\ninternal_count=9075\nis_linear=0\nshrinkage=0.1\n\n\nTree=126\nnum_leaves=2\nnum_cat=0\nsplit_feature=2\nsplit_gain=26.229\nthreshold=0.047743055555555559\ndecision_type=2\nleft_child=-1\nright_child=-2\nleaf_value=0.018521173909686574 -0.0094107848060782442\nleaf_weight=547.33599541336298 871.44334443472326\nleaf_count=1805 7275\ninternal_value=0.00136479\ninternal_weight=1418.78\ninternal_count=9080\nis_linear=0\nshrinkage=0.1\n\n\nTree=127\nnum_leaves=2\nnum_cat=0\nsplit_feature=0\nsplit_gain=14.5716\nthreshold=0.027013752455795677\ndecision_type=2\nleft_child=-1\nright_child=-2\nleaf_value=0.043968623124169603 -0.0011030137579469657\nleaf_weight=75.786294385790825 1340.1308847479522\nleaf_count=320 8760\ninternal_value=0.00130943\ninternal_weight=1415.92\ninternal_count=9080\nis_linear=0\nshrinkage=0.1\n\n\nTree=128\nnum_leaves=2\nnum_cat=0\nsplit_feature=2\nsplit_gain=25.682\nthreshold=0.14496527777777782\ndecision_type=2\nleft_child=-1\nright_child=-2\nleaf_value=0.0093844683083301392 -0.021472585055799843\nleaf_weight=1053.0891230367124 362.59463392943144\nleaf_count=5255 3825\ninternal_value=0.00148114\ninternal_weight=1415.68\ninternal_count=9080\nis_linear=0\nshrinkage=0.1\n\n\nTree=129\nnum_leaves=2\nnum_cat=0\nsplit_feature=2\nsplit_gain=22.9081\nthreshold=0.13107638888888892\ndecision_type=2\nleft_child=-1\nright_child=-2\nleaf_value=0.0094984750814972457 -0.01860303031263667\nleaf_weight=1006.9262066707015 407.47987039200962\nleaf_count=4717 4363\ninternal_value=0.00140264\ninternal_weight=1414.41\ninternal_count=9080\nis_linear=0\nshrinkage=0.1\n\n\nTree=130\nnum_leaves=2\nnum_cat=0\nsplit_feature=0\nsplit_gain=13.509\nthreshold=0.25982318271119847\ndecision_type=2\nleft_child=-1\nright_child=-2\nleaf_value=0.003057595233926064 -0.052334836731475987\nleaf_weight=1367.4985989928246 45.491615045815706\nleaf_count=8643 439\ninternal_value=0.00127421\ninternal_weight=1412.99\ninternal_count=9082\nis_linear=0\nshrinkage=0.1\n\n\nTree=131\nnum_leaves=2\nnum_cat=0\nsplit_feature=1\nsplit_gain=0.316052\nthreshold=0.66666666666666674\ndecision_type=2\nleft_child=-1\nright_child=-2\nleaf_value=0.0021946648682281606 -0.0011349375941897587\nleaf_weight=1017.1416108757257 396.10282781906426\nleaf_count=6081 3001\ninternal_value=0.00126144\ninternal_weight=1413.24\ninternal_count=9082\nis_linear=0\nshrinkage=0.1\n\n\nTree=132\nnum_leaves=2\nnum_cat=0\nsplit_feature=0\nsplit_gain=13.2353\nthreshold=0.065324165029469569\ndecision_type=2\nleft_child=-1\nright_child=-2\nleaf_value=0.017422029312596659 -0.0044680971241805407\nleaf_weight=376.60192476958036 1036.1148735452443\nleaf_count=1578 7499\ninternal_value=0.00136737\ninternal_weight=1412.72\ninternal_count=9077\nis_linear=0\nshrinkage=0.1\n\n\nTree=133\nnum_leaves=2\nnum_cat=0\nsplit_feature=2\nsplit_gain=22.6778\nthreshold=0.06684027777777779\ndecision_type=2\nleft_child=-1\nright_child=-2\nleaf_value=0.014967366990050477 -0.010434130753902706\nleaf_weight=659.46890906244516 752.52307164855301\nleaf_count=2359 6718\ninternal_value=0.0014296\ninternal_weight=1411.99\ninternal_count=9077\nis_linear=0\nshrinkage=0.1\n\n\nTree=134\nnum_leaves=2\nnum_cat=0\nsplit_feature=1\nsplit_gain=0.221783\nthreshold=0.66666666666666674\ndecision_type=2\nleft_child=-1\nright_child=-2\nleaf_value=0.0021937714763465323 -0.00060072527524502499\nleaf_weight=1014.8683615773916 394.35632581263781\nleaf_count=6080 2998\ninternal_value=0.00141176\ninternal_weight=1409.22\ninternal_count=9078\nis_linear=0\nshrinkage=0.1\n\n\nTree=135\nnum_leaves=2\nnum_cat=0\nsplit_feature=2\nsplit_gain=21.7792\nthreshold=0.14496527777777782\ndecision_type=2\nleft_child=-1\nright_child=-2\nleaf_value=0.0086480160822596294 -0.020065827778878532\nleaf_weight=1057.7515835314989 352.08182468637824\nleaf_count=5251 3827\ninternal_value=0.00147722\ninternal_weight=1409.83\ninternal_count=9078\nis_linear=0\nshrinkage=0.1\n\n\nTree=136\nnum_leaves=2\nnum_cat=0\nsplit_feature=1\nsplit_gain=0.214743\nthreshold=0.66666666666666674\ndecision_type=2\nleft_child=-1\nright_child=-2\nleaf_value=0.0021522726362470991 -0.0005975509151207039\nleaf_weight=1014.8034807480872 394.35187069140375\nleaf_count=6078 3002\ninternal_value=0.00138273\ninternal_weight=1409.16\ninternal_count=9080\nis_linear=0\nshrinkage=0.1\n\n\nTree=137\nnum_leaves=2\nnum_cat=0\nsplit_feature=1\nsplit_gain=0.184864\nthreshold=0.66666666666666674\ndecision_type=2\nleft_child=-1\nright_child=-2\nleaf_value=0.0020616082141693948 -0.00049008142851880482\nleaf_weight=1015.9369783326983 394.03953287564218\nleaf_count=6078 3002\ninternal_value=0.0013485\ninternal_weight=1409.98\ninternal_count=9080\nis_linear=0\nshrinkage=0.1\n\n\nTree=138\nnum_leaves=2\nnum_cat=0\nsplit_feature=1\nsplit_gain=0.202547\nthreshold=1.0000000180025095e-35\ndecision_type=2\nleft_child=-1\nright_child=-2\nleaf_value=0.0029027653767963462 0.00043289080574400088\nleaf_weight=535.31006882339716 874.36516942083836\nleaf_count=3021 6054\ninternal_value=0.0013708\ninternal_weight=1409.68\ninternal_count=9075\nis_linear=0\nshrinkage=0.1\n\n\nTree=139\nnum_leaves=2\nnum_cat=0\nsplit_feature=2\nsplit_gain=21.7157\nthreshold=1.0000000180025095e-35\ndecision_type=2\nleft_child=-1\nright_child=-2\nleaf_value=0.020146271667310825 -0.006860017088358334\nleaf_weight=426.94814530014992 983.8825295753777\nleaf_count=1264 7811\ninternal_value=0.00131268\ninternal_weight=1410.83\ninternal_count=9075\nis_linear=0\nshrinkage=0.1\n\n\nTree=140\nnum_leaves=2\nnum_cat=0\nsplit_feature=1\nsplit_gain=0.178154\nthreshold=1.0000000180025095e-35\ndecision_type=2\nleft_child=-1\nright_child=-2\nleaf_value=0.0027970864997648118 0.00048021879768336481\nleaf_weight=535.39443831145763 873.16468549333513\nleaf_count=3024 6057\ninternal_value=0.00136087\ninternal_weight=1408.56\ninternal_count=9081\nis_linear=0\nshrinkage=0.1\n\n\nTree=141\nnum_leaves=2\nnum_cat=0\nsplit_feature=1\nsplit_gain=0.154362\nthreshold=1.0000000180025095e-35\ndecision_type=2\nleft_child=-1\nright_child=-2\nleaf_value=0.0027072464305126767 0.00055141309791143379\nleaf_weight=536.09076685830951 872.99287183582783\nleaf_count=3024 6057\ninternal_value=0.00137161\ninternal_weight=1409.08\ninternal_count=9081\nis_linear=0\nshrinkage=0.1\n\n\nTree=142\nnum_leaves=2\nnum_cat=0\nsplit_feature=0\nsplit_gain=13.1829\nthreshold=0.19597249508840872\ndecision_type=2\nleft_child=-1\nright_child=-2\nleaf_value=0.0046493554318986878 -0.026872815119761403\nleaf_weight=1260.7944199889898 148.27476013824344\nleaf_count=7419 1660\ninternal_value=0.0013323\ninternal_weight=1409.07\ninternal_count=9079\nis_linear=0\nshrinkage=0.1\n\n\nTree=143\nnum_leaves=2\nnum_cat=0\nsplit_feature=2\nsplit_gain=20.8222\nthreshold=0.072048611111111119\ndecision_type=2\nleft_child=-1\nright_child=-2\nleaf_value=0.013798006265723882 -0.010524536044437005\nleaf_weight=685.50252830982208 723.40918126516044\nleaf_count=2514 6565\ninternal_value=0.00130953\ninternal_weight=1408.91\ninternal_count=9079\nis_linear=0\nshrinkage=0.1\n\n\nTree=144\nnum_leaves=2\nnum_cat=0\nsplit_feature=0\nsplit_gain=12.6541\nthreshold=0.027013752455795677\ndecision_type=2\nleft_child=-1\nright_child=-2\nleaf_value=0.040822323484517288 -0.00096157472320965165\nleaf_weight=76.655704975128174 1330.2085856981575\nleaf_count=320 8759\ninternal_value=0.00131511\ninternal_weight=1406.86\ninternal_count=9079\nis_linear=0\nshrinkage=0.1\n\n\nTree=145\nnum_leaves=2\nnum_cat=0\nsplit_feature=2\nsplit_gain=19.3472\nthreshold=0.14496527777777782\ndecision_type=2\nleft_child=-1\nright_child=-2\nleaf_value=0.0079752216601170732 -0.019192554346781021\nleaf_weight=1059.1496805548668 348.33439671620727\nleaf_count=5253 3826\ninternal_value=0.00125154\ninternal_weight=1407.48\ninternal_count=9079\nis_linear=0\nshrinkage=0.1\n\n\nTree=146\nnum_leaves=2\nnum_cat=0\nsplit_feature=0\nsplit_gain=12.2586\nthreshold=0.25982318271119847\ndecision_type=2\nleft_child=-1\nright_child=-2\nleaf_value=0.0031318969914284536 -0.050980798932603592\nleaf_weight=1362.6463937722147 43.190865736454725\nleaf_count=8643 438\ninternal_value=0.0014694\ninternal_weight=1405.84\ninternal_count=9081\nis_linear=0\nshrinkage=0.1\n\n\nTree=147\nnum_leaves=2\nnum_cat=0\nsplit_feature=1\nsplit_gain=0.168474\nthreshold=0.66666666666666674\ndecision_type=2\nleft_child=-1\nright_child=-2\nleaf_value=0.0020576722766644565 -0.00038248682607386407\nleaf_weight=1014.2757075428963 392.40465165488422\nleaf_count=6079 3002\ninternal_value=0.00137697\ninternal_weight=1406.68\ninternal_count=9081\nis_linear=0\nshrinkage=0.1\n\n\nTree=148\nnum_leaves=2\nnum_cat=0\nsplit_feature=0\nsplit_gain=11.8738\nthreshold=0.090864440078585476\ndecision_type=2\nleft_child=-1\nright_child=-2\nleaf_value=0.010735789198284662 -0.0076528078966292728\nleaf_weight=674.18438287079334 732.85965416021645\nleaf_count=3026 6051\ninternal_value=0.00115808\ninternal_weight=1407.04\ninternal_count=9077\nis_linear=0\nshrinkage=0.1\n\n\nTree=149\nnum_leaves=2\nnum_cat=0\nsplit_feature=1\nsplit_gain=0.142355\nthreshold=0.66666666666666674\ndecision_type=2\nleft_child=-1\nright_child=-2\nleaf_value=0.0017589431794213313 -0.00048566191006071545\nleaf_weight=1014.6980462856591 391.58433113433421\nleaf_count=6078 2999\ninternal_value=0.00113392\ninternal_weight=1406.28\ninternal_count=9077\nis_linear=0\nshrinkage=0.1\n\n\nTree=150\nnum_leaves=2\nnum_cat=0\nsplit_feature=0\nsplit_gain=11.5165\nthreshold=0.25982318271119847\ndecision_type=2\nleft_child=-1\nright_child=-2\nleaf_value=0.0028537128616747936 -0.050234853706536214\nleaf_weight=1364.0203817784786 42.123493645340204\nleaf_count=8636 439\ninternal_value=0.00126334\ninternal_weight=1406.14\ninternal_count=9075\nis_linear=0\nshrinkage=0.1\n\n\nTree=151\nnum_leaves=2\nnum_cat=0\nsplit_feature=0\nsplit_gain=11.5398\nthreshold=0.054518664047151291\ndecision_type=2\nleft_child=-1\nright_child=-2\nleaf_value=0.02065131779748516 -0.0029272063304293561\nleaf_weight=253.14102042466402 1153.0251500252634\nleaf_count=1021 8054\ninternal_value=0.00131745\ninternal_weight=1406.17\ninternal_count=9075\nis_linear=0\nshrinkage=0.1\n\n\nTree=152\nnum_leaves=2\nnum_cat=0\nsplit_feature=2\nsplit_gain=19.1433\nthreshold=0.10850694444444446\ndecision_type=2\nleft_child=-1\nright_child=-2\nleaf_value=0.009833057568310313 -0.014555076485743588\nleaf_weight=907.91345197334886 498.61048092506826\nleaf_count=3923 5158\ninternal_value=0.0011875\ninternal_weight=1406.52\ninternal_count=9081\nis_linear=0\nshrinkage=0.1\n\n\nTree=153\nnum_leaves=2\nnum_cat=0\nsplit_feature=2\nsplit_gain=17.8873\nthreshold=1.0000000180025095e-35\ndecision_type=2\nleft_child=-1\nright_child=-2\nleaf_value=0.018151675385839092 -0.0063429912248480925\nleaf_weight=429.35345563292503 975.41945738717914\nleaf_count=1263 7818\ninternal_value=0.00114354\ninternal_weight=1404.77\ninternal_count=9081\nis_linear=0\nshrinkage=0.1\n\n\nTree=154\nnum_leaves=2\nnum_cat=0\nsplit_feature=1\nsplit_gain=0.152664\nthreshold=0.66666666666666674\ndecision_type=2\nleft_child=-1\nright_child=-2\nleaf_value=0.0018180741992256976 -0.0005097274039550534\nleaf_weight=1011.5922044552863 390.49115371704102\nleaf_count=6080 3001\ninternal_value=0.00116976\ninternal_weight=1402.08\ninternal_count=9081\nis_linear=0\nshrinkage=0.1\n\n\nTree=155\nnum_leaves=2\nnum_cat=0\nsplit_feature=2\nsplit_gain=17.0061\nthreshold=0.14496527777777782\ndecision_type=2\nleft_child=-1\nright_child=-2\nleaf_value=0.0074836442285227747 -0.018194732265361734\nleaf_weight=1061.8008600436151 340.65508899651468\nleaf_count=5257 3824\ninternal_value=0.00124639\ninternal_weight=1402.46\ninternal_count=9081\nis_linear=0\nshrinkage=0.1\n\n\nTree=156\nnum_leaves=2\nnum_cat=0\nsplit_feature=1\nsplit_gain=0.107519\nthreshold=0.66666666666666674\ndecision_type=2\nleft_child=-1\nright_child=-2\nleaf_value=0.0018967944010481936 -5.8306937293721777e-05\nleaf_weight=1011.6901214905083 389.60492969863117\nleaf_count=6080 2999\ninternal_value=0.00135321\ninternal_weight=1401.3\ninternal_count=9079\nis_linear=0\nshrinkage=0.1\n\n\nTree=157\nnum_leaves=2\nnum_cat=0\nsplit_feature=0\nsplit_gain=11.2574\nthreshold=0.027013752455795677\ndecision_type=2\nleft_child=-1\nright_child=-2\nleaf_value=0.038408369135323334 -0.00084197409230210335\nleaf_weight=77.337196789681911 1324.7835267111659\nleaf_count=320 8759\ninternal_value=0.00132298\ninternal_weight=1402.12\ninternal_count=9079\nis_linear=0\nshrinkage=0.1\n\n\nTree=158\nnum_leaves=2\nnum_cat=0\nsplit_feature=0\nsplit_gain=10.6294\nthreshold=0.14587426326129668\ndecision_type=2\nleft_child=-1\nright_child=-2\nleaf_value=0.0064918252498938683 -0.013441366992125479\nleaf_weight=1042.5370620563626 359.86140723153949\nleaf_count=5448 3631\ninternal_value=0.00137688\ninternal_weight=1402.4\ninternal_count=9079\nis_linear=0\nshrinkage=0.1\n\n\nTree=159\nnum_leaves=2\nnum_cat=0\nsplit_feature=2\nsplit_gain=16.3614\nthreshold=0.05989583333333335\ndecision_type=2\nleft_child=-1\nright_child=-2\nleaf_value=0.013554273681695445 -0.0082227921237790266\nleaf_weight=612.82406541705132 789.4293513931334\nleaf_count=2083 6996\ninternal_value=0.00129439\ninternal_weight=1402.25\ninternal_count=9079\nis_linear=0\nshrinkage=0.1\n\n\nTree=160\nnum_leaves=2\nnum_cat=0\nsplit_feature=0\nsplit_gain=10.3508\nthreshold=0.25982318271119847\ndecision_type=2\nleft_child=-1\nright_child=-2\nleaf_value=0.0027105042678421346 -0.048878695571395479\nleaf_weight=1359.1191414557397 40.036988757550716\nleaf_count=8640 438\ninternal_value=0.00123426\ninternal_weight=1399.16\ninternal_count=9078\nis_linear=0\nshrinkage=0.1\n\n\nTree=161\nnum_leaves=2\nnum_cat=0\nsplit_feature=0\nsplit_gain=9.5197\nthreshold=0.30500982318271125\ndecision_type=2\nleft_child=-1\nright_child=-2\nleaf_value=0.0021401793584949875 -0.070393664205575315\nleaf_weight=1381.410383168608 18.334113467484713\nleaf_count=8906 172\ninternal_value=0.0011901\ninternal_weight=1399.74\ninternal_count=9078\nis_linear=0\nshrinkage=0.1\n\n\nTree=162\nnum_leaves=2\nnum_cat=0\nsplit_feature=2\nsplit_gain=15.4331\nthreshold=0.06684027777777779\ndecision_type=2\nleft_child=-1\nright_child=-2\nleaf_value=0.012232677105269029 -0.0087866015389790417\nleaf_weight=666.82405810058117 733.62317631579936\nleaf_count=2360 6719\ninternal_value=0.00122174\ninternal_weight=1400.45\ninternal_count=9079\nis_linear=0\nshrinkage=0.1\n\n\nTree=163\nnum_leaves=2\nnum_cat=0\nsplit_feature=2\nsplit_gain=14.1812\nthreshold=0.13107638888888892\ndecision_type=2\nleft_child=-1\nright_child=-2\nleaf_value=0.0073959051643848516 -0.015185319305803777\nleaf_weight=1014.9515247866511 383.08068049140275\nleaf_count=4718 4361\ninternal_value=0.00120832\ninternal_weight=1398.03\ninternal_count=9079\nis_linear=0\nshrinkage=0.1\n\n\nTree=164\nnum_leaves=2\nnum_cat=0\nsplit_feature=1\nsplit_gain=0.0873297\nthreshold=1.0000000180025095e-35\ndecision_type=2\nleft_child=-1\nright_child=-2\nleaf_value=0.0023237667457655991 0.00069472568075272436\nleaf_weight=531.21594945341349 864.83492567390203\nleaf_count=3022 6056\ninternal_value=0.0013146\ninternal_weight=1396.05\ninternal_count=9078\nis_linear=0\nshrinkage=0.1\n\n\nTree=165\nnum_leaves=2\nnum_cat=0\nsplit_feature=0\nsplit_gain=9.61899\nthreshold=0.027013752455795677\ndecision_type=2\nleft_child=-1\nright_child=-2\nleaf_value=0.035309470868485585 -0.00074167716672925003\nleaf_weight=78.411543816328049 1318.4135035425425\nleaf_count=320 8758\ninternal_value=0.00128208\ninternal_weight=1396.83\ninternal_count=9078\nis_linear=0\nshrinkage=0.1\n\n\nTree=166\nnum_leaves=2\nnum_cat=0\nsplit_feature=1\nsplit_gain=0.0978223\nthreshold=0.66666666666666674\ndecision_type=2\nleft_child=-1\nright_child=-2\nleaf_value=0.0018379470920426213 -2.9419787914165652e-05\nleaf_weight=1009.0873785261065 388.54128198139369\nleaf_count=6080 3003\ninternal_value=0.00131882\ninternal_weight=1397.63\ninternal_count=9083\nis_linear=0\nshrinkage=0.1\n\n\nTree=167\nnum_leaves=2\nnum_cat=0\nsplit_feature=2\nsplit_gain=14.4775\nthreshold=1.0000000180025095e-35\ndecision_type=2\nleft_child=-1\nright_child=-2\nleaf_value=0.016479891648587704 -0.0055368538785257153\nleaf_weight=432.24461688101292 966.45676422864199\nleaf_count=1265 7818\ninternal_value=0.00126704\ninternal_weight=1398.7\ninternal_count=9083\nis_linear=0\nshrinkage=0.1\n\n\nTree=168\nnum_leaves=2\nnum_cat=0\nsplit_feature=1\nsplit_gain=0.114385\nthreshold=0.66666666666666674\ndecision_type=2\nleft_child=-1\nright_child=-2\nleaf_value=0.0017646578264328878 -0.00025659091828911343\nleaf_weight=1007.9251566473395 387.66507336497307\nleaf_count=6082 3001\ninternal_value=0.0012032\ninternal_weight=1395.59\ninternal_count=9083\nis_linear=0\nshrinkage=0.1\n\n\nTree=169\nnum_leaves=2\nnum_cat=0\nsplit_feature=1\nsplit_gain=0.0963516\nthreshold=0.66666666666666674\ndecision_type=2\nleft_child=-1\nright_child=-2\nleaf_value=0.0017778143874917702 -7.7551890734796499e-05\nleaf_weight=1008.9179224204272 387.3556789085269\nleaf_count=6082 3001\ninternal_value=0.00126309\ninternal_weight=1396.27\ninternal_count=9083\nis_linear=0\nshrinkage=0.1\n\n\nTree=170\nnum_leaves=2\nnum_cat=0\nsplit_feature=1\nsplit_gain=0.0701778\nthreshold=1.0000000180025095e-35\ndecision_type=2\nleft_child=-1\nright_child=-2\nleaf_value=0.0021432423320496426 0.00068347991518896646\nleaf_weight=531.91555229201913 864.75318997353315\nleaf_count=3021 6059\ninternal_value=0.00123943\ninternal_weight=1396.67\ninternal_count=9080\nis_linear=0\nshrinkage=0.1\n\n\nTree=171\nnum_leaves=2\nnum_cat=0\nsplit_feature=0\nsplit_gain=9.90173\nthreshold=0.065324165029469569\ndecision_type=2\nleft_child=-1\nright_child=-2\nleaf_value=0.015012707417362089 -0.0039175120855755412\nleaf_weight=379.2319148927927 1018.1322581339628\nleaf_count=1578 7502\ninternal_value=0.00121998\ninternal_weight=1397.36\ninternal_count=9080\nis_linear=0\nshrinkage=0.1\n\n\nTree=172\nnum_leaves=2\nnum_cat=0\nsplit_feature=1\nsplit_gain=0.0730316\nthreshold=1.0000000180025095e-35\ndecision_type=2\nleft_child=-1\nright_child=-2\nleaf_value=0.002191564644920986 0.00070268813068518948\nleaf_weight=532.63446430675685 863.6819600649178\nleaf_count=3023 6056\ninternal_value=0.00127063\ninternal_weight=1396.32\ninternal_count=9079\nis_linear=0\nshrinkage=0.1\n\n\nTree=173\nnum_leaves=2\nnum_cat=0\nsplit_feature=0\nsplit_gain=9.63563\nthreshold=0.19597249508840872\ndecision_type=2\nleft_child=-1\nright_child=-2\nleaf_value=0.0039764093992120733 -0.02373975120783341\nleaf_weight=1258.060036458075 139.32458366826177\nleaf_count=7419 1660\ninternal_value=0.00121299\ninternal_weight=1397.38\ninternal_count=9079\nis_linear=0\nshrinkage=0.1\n\n\nTree=174\nnum_leaves=2\nnum_cat=0\nsplit_feature=1\nsplit_gain=0.0600855\nthreshold=0.66666666666666674\ndecision_type=2\nleft_child=-1\nright_child=-2\nleaf_value=0.001576451338853823 0.00011217433207830755\nleaf_weight=1010.8179718479514 387.73572801239789\nleaf_count=6081 3002\ninternal_value=0.0011705\ninternal_weight=1398.55\ninternal_count=9083\nis_linear=0\nshrinkage=0.1\n\n\nTree=175\nnum_leaves=2\nnum_cat=0\nsplit_feature=0\nsplit_gain=9.17289\nthreshold=0.092829076620825166\ndecision_type=2\nleft_child=-1\nright_child=-2\nleaf_value=0.0091298359752660929 -0.0070623639933134214\nleaf_weight=705.21373710408807 694.31116173602641\nleaf_count=3202 5881\ninternal_value=0.0010968\ninternal_weight=1399.52\ninternal_count=9083\nis_linear=0\nshrinkage=0.1\n\n\nTree=176\nnum_leaves=2\nnum_cat=0\nsplit_feature=1\nsplit_gain=0.0528044\nthreshold=1.0000000180025095e-35\ndecision_type=2\nleft_child=-1\nright_child=-2\nleaf_value=0.001910708355657756 0.00064576527206541021\nleaf_weight=533.70226265490055 864.71603472717106\nleaf_count=3024 6057\ninternal_value=0.00112853\ninternal_weight=1398.42\ninternal_count=9081\nis_linear=0\nshrinkage=0.1\n\n\nTree=177\nnum_leaves=2\nnum_cat=0\nsplit_feature=2\nsplit_gain=14.1827\nthreshold=0.14496527777777782\ndecision_type=2\nleft_child=-1\nright_child=-2\nleaf_value=0.0067614296881229052 -0.016847451024547502\nleaf_weight=1064.634091919288 334.36785902455449\nleaf_count=5257 3824\ninternal_value=0.00111879\ninternal_weight=1399\ninternal_count=9081\nis_linear=0\nshrinkage=0.1\n\n\nTree=178\nnum_leaves=2\nnum_cat=0\nsplit_feature=1\nsplit_gain=0.0596476\nthreshold=0.66666666666666674\ndecision_type=2\nleft_child=-1\nright_child=-2\nleaf_value=0.0014470975196159534 -1.3115898011887561e-05\nleaf_weight=1010.7234519105405 386.7934613712132\nleaf_count=6082 3000\ninternal_value=0.00104295\ninternal_weight=1397.52\ninternal_count=9082\nis_linear=0\nshrinkage=0.1\n\n\nTree=179\nnum_leaves=2\nnum_cat=0\nsplit_feature=1\nsplit_gain=0.0509949\nthreshold=0.66666666666666674\ndecision_type=2\nleft_child=-1\nright_child=-2\nleaf_value=0.0013987368451077141 4.852555887427905e-05\nleaf_weight=1011.4334363117814 386.65905783325434\nleaf_count=6082 3000\ninternal_value=0.00102532\ninternal_weight=1398.09\ninternal_count=9082\nis_linear=0\nshrinkage=0.1\n\n\nTree=180\nnum_leaves=2\nnum_cat=0\nsplit_feature=0\nsplit_gain=9.39851\nthreshold=0.027013752455795677\ndecision_type=2\nleft_child=-1\nright_child=-2\nleaf_value=0.034682680337759945 -0.00090889230840989009\nleaf_weight=78.612761296331882 1319.6411311272532\nleaf_count=320 8759\ninternal_value=0.00109215\ninternal_weight=1398.25\ninternal_count=9079\nis_linear=0\nshrinkage=0.1\n\n\nTree=181\nnum_leaves=2\nnum_cat=0\nsplit_feature=1\nsplit_gain=0.0350302\nthreshold=1.0000000180025095e-35\ndecision_type=2\nleft_child=-1\nright_child=-2\nleaf_value=0.0016820004272756755 0.00065174952499540953\nleaf_weight=533.75506545044482 864.74246660992503\nleaf_count=3021 6058\ninternal_value=0.00104496\ninternal_weight=1398.5\ninternal_count=9079\nis_linear=0\nshrinkage=0.1\n\n\nTree=182\nnum_leaves=2\nnum_cat=0\nsplit_feature=1\nsplit_gain=0.032616\nthreshold=1.0000000180025095e-35\ndecision_type=2\nleft_child=-1\nright_child=-2\nleaf_value=0.0017115787671652793 0.0007171498155207998\nleaf_weight=533.3983149100095 864.2605432793498\nleaf_count=3017 6056\ninternal_value=0.00109666\ninternal_weight=1397.66\ninternal_count=9073\nis_linear=0\nshrinkage=0.1\n\n\nTree=183\nnum_leaves=2\nnum_cat=0\nsplit_feature=0\nsplit_gain=9.37672\nthreshold=0.25982318271119847\ndecision_type=2\nleft_child=-1\nright_child=-2\nleaf_value=0.002433613624106773 -0.047640230485971012\nleaf_weight=1360.0836082603782 38.453291038051248\nleaf_count=8634 439\ninternal_value=0.0010568\ninternal_weight=1398.54\ninternal_count=9073\nis_linear=0\nshrinkage=0.1\n\n\nTree=184\nnum_leaves=2\nnum_cat=0\nsplit_feature=0\nsplit_gain=8.96408\nthreshold=0.13703339882121809\ndecision_type=2\nleft_child=-1\nright_child=-2\nleaf_value=0.0060183788559013017 -0.011579878616029203\nleaf_weight=991.47223725914955 408.78255299665034\nleaf_count=5055 4027\ninternal_value=0.000880838\ninternal_weight=1400.25\ninternal_count=9082\nis_linear=0\nshrinkage=0.1\n\n\nTree=185\nnum_leaves=2\nnum_cat=0\nsplit_feature=1\nsplit_gain=0.0321388\nthreshold=1.0000000180025095e-35\ndecision_type=2\nleft_child=-1\nright_child=-2\nleaf_value=0.0014690460849019614 0.00048281455242784921\nleaf_weight=534.65852458588779 865.05593365058303\nleaf_count=3023 6059\ninternal_value=0.000859535\ninternal_weight=1399.71\ninternal_count=9082\nis_linear=0\nshrinkage=0.1\n\n\nTree=186\nnum_leaves=2\nnum_cat=0\nsplit_feature=0\nsplit_gain=8.75483\nthreshold=0.30500982318271125\ndecision_type=2\nleft_child=-1\nright_child=-2\nleaf_value=0.0018514442231360399 -0.069755465118790147\nleaf_weight=1383.1030830424279 17.287173995748162\nleaf_count=8909 172\ninternal_value=0.00096747\ninternal_weight=1400.39\ninternal_count=9081\nis_linear=0\nshrinkage=0.1\n\n\nTree=187\nnum_leaves=2\nnum_cat=0\nsplit_feature=0\nsplit_gain=8.98622\nthreshold=0.065324165029469569\ndecision_type=2\nleft_child=-1\nright_child=-2\nleaf_value=0.014040587492318499 -0.0039454243957365142\nleaf_weight=381.91995920985937 1018.7732226643711\nleaf_count=1578 7503\ninternal_value=0.00095873\ninternal_weight=1400.69\ninternal_count=9081\nis_linear=0\nshrinkage=0.1\n\n\nTree=188\nnum_leaves=2\nnum_cat=0\nsplit_feature=1\nsplit_gain=0.028507\nthreshold=1.0000000180025095e-35\ndecision_type=2\nleft_child=-1\nright_child=-2\nleaf_value=0.0015254009093267078 0.00059687861957273157\nleaf_weight=535.22755645774305 865.112344969064\nleaf_count=3023 6060\ninternal_value=0.000951775\ninternal_weight=1400.34\ninternal_count=9083\nis_linear=0\nshrinkage=0.1\n\n\nTree=189\nnum_leaves=2\nnum_cat=0\nsplit_feature=2\nsplit_gain=14.3307\nthreshold=0.05989583333333335\ndecision_type=2\nleft_child=-1\nright_child=-2\nleaf_value=0.012333306358455139 -0.008046949800242318\nleaf_weight=614.77071294933558 786.33067883551121\nleaf_count=2082 7001\ninternal_value=0.000895431\ninternal_weight=1401.1\ninternal_count=9083\nis_linear=0\nshrinkage=0.1\n\n\nTree=190\nnum_leaves=2\nnum_cat=0\nsplit_feature=0\nsplit_gain=8.21254\nthreshold=0.30500982318271125\ndecision_type=2\nleft_child=-1\nright_child=-2\nleaf_value=0.0017975737139194444 -0.069173203837095784\nleaf_weight=1382.0963818971068 16.499218042939901\nleaf_count=8912 172\ninternal_value=0.000960313\ninternal_weight=1398.6\ninternal_count=9084\nis_linear=0\nshrinkage=0.1\n\n\nTree=191\nnum_leaves=2\nnum_cat=0\nsplit_feature=1\nsplit_gain=0.0283632\nthreshold=1.0000000180025095e-35\ndecision_type=2\nleft_child=-1\nright_child=-2\nleaf_value=0.0015988916134439765 0.00067220055066889944\nleaf_weight=534.59921455383301 864.25151292420924\nleaf_count=3022 6062\ninternal_value=0.00102636\ninternal_weight=1398.85\ninternal_count=9084\nis_linear=0\nshrinkage=0.1\n\n\nTree=192\nnum_leaves=2\nnum_cat=0\nsplit_feature=1\nsplit_gain=0.028428\nthreshold=1.0000000180025095e-35\ndecision_type=2\nleft_child=-1\nright_child=-2\nleaf_value=0.0015072282464270346 0.00057977182565590885\nleaf_weight=535.18118786811829 864.15848007984459\nleaf_count=3023 6060\ninternal_value=0.000934483\ninternal_weight=1399.34\ninternal_count=9083\nis_linear=0\nshrinkage=0.1\n\n\nTree=193\nnum_leaves=2\nnum_cat=0\nsplit_feature=2\nsplit_gain=14.3994\nthreshold=1.0000000180025095e-35\ndecision_type=2\nleft_child=-1\nright_child=-2\nleaf_value=0.016088458315943514 -0.0058700631952682946\nleaf_weight=431.82217897474766 968.22232355177402\nleaf_count=1265 7818\ninternal_value=0.000902704\ninternal_weight=1400.04\ninternal_count=9083\nis_linear=0\nshrinkage=0.1\n\n\nTree=194\nnum_leaves=2\nnum_cat=0\nsplit_feature=1\nsplit_gain=0.0245696\nthreshold=1.0000000180025095e-35\ndecision_type=2\nleft_child=-1\nright_child=-2\nleaf_value=0.0013943515073172475 0.00053158076495940802\nleaf_weight=534.5825800485909 862.8489554580301\nleaf_count=3025 6061\ninternal_value=0.000861634\ninternal_weight=1397.43\ninternal_count=9086\nis_linear=0\nshrinkage=0.1\n\n\nTree=195\nnum_leaves=2\nnum_cat=0\nsplit_feature=2\nsplit_gain=13.5727\nthreshold=1.0000000180025095e-35\ndecision_type=2\nleft_child=-1\nright_child=-2\nleaf_value=0.015652204170148648 -0.0056669216549122521\nleaf_weight=432.25914271175861 965.9637488797307\nleaf_count=1264 7822\ninternal_value=0.000923863\ninternal_weight=1398.22\ninternal_count=9086\nis_linear=0\nshrinkage=0.1\n\n\nTree=196\nnum_leaves=2\nnum_cat=0\nsplit_feature=0\nsplit_gain=8.76886\nthreshold=0.025049115913556002\ndecision_type=2\nleft_child=-1\nright_child=-2\nleaf_value=0.036082331783636616 -0.00089883394363977237\nleaf_weight=67.372136257588863 1327.4466889090836\nleaf_count=274 8809\ninternal_value=0.000887425\ninternal_weight=1394.82\ninternal_count=9083\nis_linear=0\nshrinkage=0.1\n\n\nTree=197\nnum_leaves=2\nnum_cat=0\nsplit_feature=1\nsplit_gain=0.0196239\nthreshold=0.66666666666666674\ndecision_type=2\nleft_child=-1\nright_child=-2\nleaf_value=0.0011028429797065053 0.0002642544156787403\nleaf_weight=1009.1166163329035 385.73559092730284\nleaf_count=6080 3003\ninternal_value=0.000870941\ninternal_weight=1394.85\ninternal_count=9083\nis_linear=0\nshrinkage=0.1\n\n\nTree=198\nnum_leaves=2\nnum_cat=0\nsplit_feature=0\nsplit_gain=8.33103\nthreshold=0.14587426326129668\ndecision_type=2\nleft_child=-1\nright_child=-2\nleaf_value=0.0054702105977636499 -0.012306569885127634\nleaf_weight=1043.3501880504191 352.76240441761911\nleaf_count=5449 3635\ninternal_value=0.000978462\ninternal_weight=1396.11\ninternal_count=9084\nis_linear=0\nshrinkage=0.1\n\n\nTree=199\nnum_leaves=2\nnum_cat=0\nsplit_feature=2\nsplit_gain=13.4172\nthreshold=0.14496527777777782\ndecision_type=2\nleft_child=-1\nright_child=-2\nleaf_value=0.0064102039464822153 -0.016636678171412057\nleaf_weight=1064.5399534348398 331.18900503404438\nleaf_count=5257 3827\ninternal_value=0.000941462\ninternal_weight=1395.73\ninternal_count=9084\nis_linear=0\nshrinkage=0.1\n\n\nTree=200\nnum_leaves=2\nnum_cat=0\nsplit_feature=2\nsplit_gain=12.76\nthreshold=1.0000000180025095e-35\ndecision_type=2\nleft_child=-1\nright_child=-2\nleaf_value=0.015326639171855875 -0.0053681948305039084\nleaf_weight=431.76008425652981 961.25736690685153\nleaf_count=1262 7814\ninternal_value=0.00104608\ninternal_weight=1393.02\ninternal_count=9076\nis_linear=0\nshrinkage=0.1\n\n\nTree=201\nnum_leaves=2\nnum_cat=0\nsplit_feature=1\nsplit_gain=0.0354705\nthreshold=0.66666666666666674\ndecision_type=2\nleft_child=-1\nright_child=-2\nleaf_value=0.0012996316604365881 0.00017020614216827171\nleaf_weight=1006.372304789722 384.24795136600733\nleaf_count=6078 2998\ninternal_value=0.000987558\ninternal_weight=1390.62\ninternal_count=9076\nis_linear=0\nshrinkage=0.1\n\n\nTree=202\nnum_leaves=2\nnum_cat=0\nsplit_feature=2\nsplit_gain=11.9057\nthreshold=0.091145833333333356\ndecision_type=2\nleft_child=-1\nright_child=-2\nleaf_value=0.0085842428067844905 -0.010235552971260879\nleaf_weight=823.39682603254914 568.03931834548712\nleaf_count=3275 5804\ninternal_value=0.000901254\ninternal_weight=1391.44\ninternal_count=9079\nis_linear=0\nshrinkage=0.1\n\n\nTree=203\nnum_leaves=2\nnum_cat=0\nsplit_feature=1\nsplit_gain=0.0151678\nthreshold=0.66666666666666674\ndecision_type=2\nleft_child=-1\nright_child=-2\nleaf_value=0.0011671337695964186 0.00042792584395704645\nleaf_weight=1006.4178607277572 383.32394769787788\nleaf_count=6081 2998\ninternal_value=0.000963246\ninternal_weight=1389.74\ninternal_count=9079\nis_linear=0\nshrinkage=0.1\n\n\nTree=204\nnum_leaves=2\nnum_cat=0\nsplit_feature=1\nsplit_gain=0.0359639\nthreshold=0.66666666666666674\ndecision_type=2\nleft_child=-1\nright_child=-2\nleaf_value=0.0013014821799671517 0.00016347584875575348\nleaf_weight=1006.6606614161283 383.50465349853039\nleaf_count=6081 2999\ninternal_value=0.000987543\ninternal_weight=1390.17\ninternal_count=9080\nis_linear=0\nshrinkage=0.1\n\n\nTree=205\nnum_leaves=2\nnum_cat=0\nsplit_feature=2\nsplit_gain=11.6479\nthreshold=0.14496527777777782\ndecision_type=2\nleft_child=-1\nright_child=-2\nleaf_value=0.0060223926969403185 -0.01558943431599286\nleaf_weight=1065.2971174567938 325.60344526730478\nleaf_count=5255 3825\ninternal_value=0.000963158\ninternal_weight=1390.9\ninternal_count=9080\nis_linear=0\nshrinkage=0.1\n\n\nTree=206\nnum_leaves=2\nnum_cat=0\nsplit_feature=1\nsplit_gain=0.0265036\nthreshold=0.66666666666666674\ndecision_type=2\nleft_child=-1\nright_child=-2\nleaf_value=0.0012482685296278111 0.00027165272941993916\nleaf_weight=1007.0359467398375 383.79560237750411\nleaf_count=6084 3002\ninternal_value=0.000978777\ninternal_weight=1390.83\ninternal_count=9086\nis_linear=0\nshrinkage=0.1\n\n\nTree=207\nnum_leaves=2\nnum_cat=0\nsplit_feature=2\nsplit_gain=11.3451\nthreshold=0.05989583333333335\ndecision_type=2\nleft_child=-1\nright_child=-2\nleaf_value=0.011084008755754948 -0.0070919352805138393\nleaf_weight=617.24555887281895 774.07567035593092\nleaf_count=2082 7004\ninternal_value=0.000971636\ninternal_weight=1391.32\ninternal_count=9086\nis_linear=0\nshrinkage=0.1\n\n\nTree=208\nnum_leaves=2\nnum_cat=0\nsplit_feature=0\nsplit_gain=8.04686\nthreshold=0.036836935166994121\ndecision_type=2\nleft_child=-1\nright_child=-2\nleaf_value=0.024934817004682232 -0.0013764165038045021\nleaf_weight=128.04464892670512 1260.4524520486593\nleaf_count=524 8561\ninternal_value=0.00104996\ninternal_weight=1388.5\ninternal_count=9085\nis_linear=0\nshrinkage=0.1\n\n\nTree=209\nnum_leaves=2\nnum_cat=0\nsplit_feature=1\nsplit_gain=0.023642\nthreshold=0.66666666666666674\ndecision_type=2\nleft_child=-1\nright_child=-2\nleaf_value=0.0012608951899491696 0.00033766234864605345\nleaf_weight=1005.5450303759426 383.04398296959698\nleaf_count=6084 3001\ninternal_value=0.00100622\ninternal_weight=1388.59\ninternal_count=9085\nis_linear=0\nshrinkage=0.1\n\n\nTree=210\nnum_leaves=2\nnum_cat=0\nsplit_feature=0\nsplit_gain=7.78344\nthreshold=0.30500982318271125\ndecision_type=2\nleft_child=-1\nright_child=-2\nleaf_value=0.001888089561288385 -0.068844052296089128\nleaf_weight=1373.3216529302299 15.735336450859903\nleaf_count=8911 172\ninternal_value=0.00108681\ninternal_weight=1389.06\ninternal_count=9083\nis_linear=0\nshrinkage=0.1\n\n\nTree=211\nnum_leaves=2\nnum_cat=0\nsplit_feature=2\nsplit_gain=10.8127\nthreshold=1.0000000180025095e-35\ndecision_type=2\nleft_child=-1\nright_child=-2\nleaf_value=0.014134596093690869 -0.0049016008495305291\nleaf_weight=433.77069841325283 955.98030833527446\nleaf_count=1264 7819\ninternal_value=0.00104\ninternal_weight=1389.75\ninternal_count=9083\nis_linear=0\nshrinkage=0.1\n\n\nTree=212\nnum_leaves=2\nnum_cat=0\nsplit_feature=2\nsplit_gain=9.93824\nthreshold=0.13107638888888892\ndecision_type=2\nleft_child=-1\nright_child=-2\nleaf_value=0.0061143426391338674 -0.013007883468044929\nleaf_weight=1016.534840837121 370.9768211171031\nleaf_count=4718 4364\ninternal_value=0.00100166\ninternal_weight=1387.51\ninternal_count=9082\nis_linear=0\nshrinkage=0.1\n\n\nTree=213\nnum_leaves=2\nnum_cat=0\nsplit_feature=1\nsplit_gain=0.0234199\nthreshold=0.66666666666666674\ndecision_type=2\nleft_child=-1\nright_child=-2\nleaf_value=0.0012214736228034974 0.0003018980842262399\nleaf_weight=1003.9379297718406 382.48400191962719\nleaf_count=6082 3000\ninternal_value=0.000967785\ninternal_weight=1386.42\ninternal_count=9082\nis_linear=0\nshrinkage=0.1\n\n\nTree=214\nnum_leaves=2\nnum_cat=0\nsplit_feature=0\nsplit_gain=7.6969\nthreshold=0.054518664047151291\ndecision_type=2\nleft_child=-1\nright_child=-2\nleaf_value=0.016642000760976283 -0.0025621737036568594\nleaf_weight=255.92208673432469 1131.081422155723\nleaf_count=1020 8062\ninternal_value=0.000981273\ninternal_weight=1387\ninternal_count=9082\nis_linear=0\nshrinkage=0.1\n\n\nTree=215\nnum_leaves=2\nnum_cat=0\nsplit_feature=1\nsplit_gain=0.01763\nthreshold=0.66666666666666674\ndecision_type=2\nleft_child=-1\nright_child=-2\nleaf_value=0.0011534822052383848 0.00035569568026113833\nleaf_weight=1004.2593242432922 382.52432598359883\nleaf_count=6081 3001\ninternal_value=0.000933427\ninternal_weight=1386.78\ninternal_count=9082\nis_linear=0\nshrinkage=0.1\n\n\nTree=216\nnum_leaves=2\nnum_cat=0\nsplit_feature=2\nsplit_gain=10.16\nthreshold=1.0000000180025095e-35\ndecision_type=2\nleft_child=-1\nright_child=-2\nleaf_value=0.013745937990073988 -0.0047033541260954751\nleaf_weight=434.6081035733223 953.05857574008405\nleaf_count=1265 7818\ninternal_value=0.00107484\ninternal_weight=1387.67\ninternal_count=9083\nis_linear=0\nshrinkage=0.1\n\n\nTree=217\nnum_leaves=2\nnum_cat=0\nsplit_feature=2\nsplit_gain=9.17216\nthreshold=0.15538194444444448\ndecision_type=2\nleft_child=-1\nright_child=-2\nleaf_value=0.0052963150129574773 -0.014568504610428435\nleaf_weight=1089.895425317809 295.44217978231609\nleaf_count=5591 3492\ninternal_value=0.00105987\ninternal_weight=1385.34\ninternal_count=9083\nis_linear=0\nshrinkage=0.1\n\n\nTree=218\nnum_leaves=2\nnum_cat=0\nsplit_feature=2\nsplit_gain=9.3521\nthreshold=1.0000000180025095e-35\ndecision_type=2\nleft_child=-1\nright_child=-2\nleaf_value=0.013135040385220476 -0.0045764163041903229\nleaf_weight=434.74318990111351 948.69944792054594\nleaf_count=1263 7813\ninternal_value=0.000989361\ninternal_weight=1383.44\ninternal_count=9076\nis_linear=0\nshrinkage=0.1\n\n\nTree=219\nnum_leaves=2\nnum_cat=0\nsplit_feature=2\nsplit_gain=8.33516\nthreshold=0.032118055555555559\ndecision_type=2\nleft_child=-1\nright_child=-2\nleaf_value=0.011456647917334976 -0.004786945690757818\nleaf_weight=489.01658054441214 892.34866235777736\nleaf_count=1478 7598\ninternal_value=0.000963441\ninternal_weight=1381.37\ninternal_count=9076\nis_linear=0\nshrinkage=0.1\n\n\nTree=220\nnum_leaves=2\nnum_cat=0\nsplit_feature=2\nsplit_gain=7.92206\nthreshold=0.06684027777777779\ndecision_type=2\nleft_child=-1\nright_child=-2\nleaf_value=0.0088769670885424125 -0.0062779256149812631\nleaf_weight=672.43362765014172 708.21673141419888\nleaf_count=2360 6725\ninternal_value=0.00110313\ninternal_weight=1380.65\ninternal_count=9085\nis_linear=0\nshrinkage=0.1\n\n\nTree=221\nnum_leaves=2\nnum_cat=0\nsplit_feature=2\nsplit_gain=7.44626\nthreshold=0.15538194444444448\ndecision_type=2\nleft_child=-1\nright_child=-2\nleaf_value=0.0048671863549776392 -0.013184645066649703\nleaf_weight=1089.8402881007642 289.12504382990301\nleaf_count=5591 3494\ninternal_value=0.00108229\ninternal_weight=1378.97\ninternal_count=9085\nis_linear=0\nshrinkage=0.1\n\n\nTree=222\nnum_leaves=2\nnum_cat=0\nsplit_feature=2\nsplit_gain=7.82591\nthreshold=1.0000000180025095e-35\ndecision_type=2\nleft_child=-1\nright_child=-2\nleaf_value=0.012128686344559313 -0.0040717925638106695\nleaf_weight=436.53353771567345 940.82249037921429\nleaf_count=1263 7815\ninternal_value=0.00106272\ninternal_weight=1377.36\ninternal_count=9078\nis_linear=0\nshrinkage=0.1\n\n\nTree=223\nnum_leaves=2\nnum_cat=0\nsplit_feature=1\nsplit_gain=0.0039878\nthreshold=1.0000000180025095e-35\ndecision_type=2\nleft_child=-1\nright_child=-2\nleaf_value=0.0012521285662563833 0.00090170989640378854\nleaf_weight=525.94956408813596 849.43133689463139\nleaf_count=3021 6057\ninternal_value=0.00103571\ninternal_weight=1375.38\ninternal_count=9078\nis_linear=0\nshrinkage=0.1\n\n\nTree=224\nnum_leaves=2\nnum_cat=0\nsplit_feature=1\nsplit_gain=0.0124089\nthreshold=0.66666666666666674\ndecision_type=2\nleft_child=-1\nright_child=-2\nleaf_value=0.0014173139818142845 0.00074588167593781212\nleaf_weight=997.31268081814051 380.21818190254271\nleaf_count=6082 3002\ninternal_value=0.00123199\ninternal_weight=1377.53\ninternal_count=9084\nis_linear=0\nshrinkage=0.1\n\n\nTree=225\nnum_leaves=2\nnum_cat=0\nsplit_feature=0\nsplit_gain=7.49054\nthreshold=0.025049115913556002\ndecision_type=2\nleft_child=-1\nright_child=-2\nleaf_value=0.033593277909783413 -0.00052221669541307016\nleaf_weight=67.681663490831852 1310.8649660907686\nleaf_count=275 8809\ninternal_value=0.00115274\ninternal_weight=1378.55\ninternal_count=9084\nis_linear=0\nshrinkage=0.1\n\n\nTree=226\nnum_leaves=2\nnum_cat=0\nsplit_feature=1\nsplit_gain=0.0109364\nthreshold=1.0000000180025095e-35\ndecision_type=2\nleft_child=-1\nright_child=-2\nleaf_value=0.0015118948655748214 0.0009323260876803321\nleaf_weight=527.31859673932195 851.2472821995616\nleaf_count=3024 6059\ninternal_value=0.00115402\ninternal_weight=1378.57\ninternal_count=9083\nis_linear=0\nshrinkage=0.1\n\n\nTree=227\nnum_leaves=2\nnum_cat=0\nsplit_feature=1\nsplit_gain=0.0090502\nthreshold=1.0000000180025095e-35\ndecision_type=2\nleft_child=-1\nright_child=-2\nleaf_value=0.001529459753813875 0.0010024000897615555\nleaf_weight=527.79064030945301 851.47221469320357\nleaf_count=3024 6059\ninternal_value=0.00120409\ninternal_weight=1379.26\ninternal_count=9083\nis_linear=0\nshrinkage=0.1\n\n\nTree=228\nnum_leaves=2\nnum_cat=0\nsplit_feature=2\nsplit_gain=8.00786\nthreshold=0.13107638888888892\ndecision_type=2\nleft_child=-1\nright_child=-2\nleaf_value=0.0055896879522459508 -0.011748897976657307\nleaf_weight=1018.6777060590684 360.68779348768294\nleaf_count=4718 4357\ninternal_value=0.00105585\ninternal_weight=1379.37\ninternal_count=9075\nis_linear=0\nshrinkage=0.1\n\n\nTree=229\nnum_leaves=2\nnum_cat=0\nsplit_feature=2\nsplit_gain=7.59339\nthreshold=1.0000000180025095e-35\ndecision_type=2\nleft_child=-1\nright_child=-2\nleaf_value=0.011963618250367819 -0.0039874922677867134\nleaf_weight=437.04954148828983 940.9862095694989\nleaf_count=1265 7810\ninternal_value=0.00107147\ninternal_weight=1378.04\ninternal_count=9075\nis_linear=0\nshrinkage=0.1\n\n\nTree=230\nnum_leaves=2\nnum_cat=0\nsplit_feature=1\nsplit_gain=0.0125934\nthreshold=1.0000000180025095e-35\ndecision_type=2\nleft_child=-1\nright_child=-2\nleaf_value=0.0016202203255750239 0.00099794824740573481\nleaf_weight=526.66395337693393 850.47150210104883\nleaf_count=3024 6061\ninternal_value=0.00123593\ninternal_weight=1377.14\ninternal_count=9085\nis_linear=0\nshrinkage=0.1\n\n\nTree=231\nnum_leaves=2\nnum_cat=0\nsplit_feature=0\nsplit_gain=7.40419\nthreshold=0.30500982318271125\ndecision_type=2\nleft_child=-1\nright_child=-2\nleaf_value=0.001948023401116001 -0.068765210835645532\nleaf_weight=1363.1641898844391 14.969571443274615\nleaf_count=8914 171\ninternal_value=0.0011799\ninternal_weight=1378.13\ninternal_count=9085\nis_linear=0\nshrinkage=0.1\n\n\nTree=232\nnum_leaves=2\nnum_cat=0\nsplit_feature=0\nsplit_gain=6.97708\nthreshold=0.025049115913556002\ndecision_type=2\nleft_child=-1\nright_child=-2\nleaf_value=0.032368301768648793 -0.00046312390539175914\nleaf_weight=68.091631554067135 1310.3282457813621\nleaf_count=274 8806\ninternal_value=0.0011587\ninternal_weight=1378.42\ninternal_count=9080\nis_linear=0\nshrinkage=0.1\n\n\nTree=233\nnum_leaves=2\nnum_cat=0\nsplit_feature=0\nsplit_gain=6.88436\nthreshold=0.30500982318271125\ndecision_type=2\nleft_child=-1\nright_child=-2\nleaf_value=0.0018819828449561536 -0.067921236803054591\nleaf_weight=1364.2050112970173 14.276566771790383\nleaf_count=8908 172\ninternal_value=0.00115903\ninternal_weight=1378.48\ninternal_count=9080\nis_linear=0\nshrinkage=0.1\n\n\nTree=234\nnum_leaves=2\nnum_cat=0\nsplit_feature=2\nsplit_gain=7.92356\nthreshold=1.0000000180025095e-35\ndecision_type=2\nleft_child=-1\nright_child=-2\nleaf_value=0.01236023857282297 -0.0039420711874046744\nleaf_weight=435.97956956923008 943.01298762112856\nleaf_count=1263 7817\ninternal_value=0.00121203\ninternal_weight=1378.99\ninternal_count=9080\nis_linear=0\nshrinkage=0.1\n\n\nTree=235\nnum_leaves=2\nnum_cat=0\nsplit_feature=1\nsplit_gain=0.00499455\nthreshold=1.0000000180025095e-35\ndecision_type=2\nleft_child=-1\nright_child=-2\nleaf_value=0.0013665748312830363 0.00097480620505730668\nleaf_weight=527.41808203049004 850.03798039630055\nleaf_count=3025 6055\ninternal_value=0.00112481\ninternal_weight=1377.46\ninternal_count=9080\nis_linear=0\nshrinkage=0.1\n\n\nTree=236\nnum_leaves=2\nnum_cat=0\nsplit_feature=1\nsplit_gain=0.00511475\nthreshold=0.66666666666666674\ndecision_type=2\nleft_child=-1\nright_child=-2\nleaf_value=0.0010918469565584334 0.00066083079404038385\nleaf_weight=998.52936375141144 380.21093563735485\nleaf_count=6083 2999\ninternal_value=0.00097299\ninternal_weight=1378.74\ninternal_count=9082\nis_linear=0\nshrinkage=0.1\n\n\nTree=237\nnum_leaves=2\nnum_cat=0\nsplit_feature=2\nsplit_gain=7.39116\nthreshold=0.026909722222222224\ndecision_type=2\nleft_child=-1\nright_child=-2\nleaf_value=0.011222694911390475 -0.0042309389275396441\nleaf_weight=468.76655399054289 910.88604502566159\nleaf_count=1396 7686\ninternal_value=0.00101976\ninternal_weight=1379.65\ninternal_count=9082\nis_linear=0\nshrinkage=0.1\n\n\nTree=238\nnum_leaves=2\nnum_cat=0\nsplit_feature=0\nsplit_gain=6.73175\nthreshold=0.19597249508840872\ndecision_type=2\nleft_child=-1\nright_child=-2\nleaf_value=0.0033997658932284438 -0.020469020628645983\nleaf_weight=1246.789990151301 130.5291117336601\nleaf_count=7419 1660\ninternal_value=0.0011377\ninternal_weight=1377.32\ninternal_count=9079\nis_linear=0\nshrinkage=0.1\n\n\nTree=239\nnum_leaves=2\nnum_cat=0\nsplit_feature=2\nsplit_gain=7.04875\nthreshold=0.091145833333333356\ndecision_type=2\nleft_child=-1\nright_child=-2\nleaf_value=0.0069290822685766987 -0.007684567105492303\nleaf_weight=828.77350873500109 548.50451879575849\nleaf_count=3274 5805\ninternal_value=0.00110916\ninternal_weight=1377.28\ninternal_count=9079\nis_linear=0\nshrinkage=0.1\n\n\nTree=240\nnum_leaves=2\nnum_cat=0\nsplit_feature=1\nsplit_gain=0.00572378\nthreshold=1.0000000180025095e-35\ndecision_type=2\nleft_child=-1\nright_child=-2\nleaf_value=0.0011480166423549609 0.00072841122219096137\nleaf_weight=526.5542879216373 849.92744339257479\nleaf_count=3023 6058\ninternal_value=0.000888929\ninternal_weight=1376.48\ninternal_count=9081\nis_linear=0\nshrinkage=0.1\n\n\nTree=241\nnum_leaves=2\nnum_cat=0\nsplit_feature=2\nsplit_gain=6.9532\nthreshold=0.05989583333333335\ndecision_type=2\nleft_child=-1\nright_child=-2\nleaf_value=0.0087764240298499521 -0.0055013216926016496\nleaf_weight=621.91448828577995 755.36484792083502\nleaf_count=2083 6998\ninternal_value=0.000945834\ninternal_weight=1377.28\ninternal_count=9081\nis_linear=0\nshrinkage=0.1\n\n\nTree=242\nnum_leaves=2\nnum_cat=0\nsplit_feature=2\nsplit_gain=6.36835\nthreshold=0.15538194444444448\ndecision_type=2\nleft_child=-1\nright_child=-2\nleaf_value=0.0045585854122771113 -0.012236328562480152\nleaf_weight=1090.7138987742364 284.70503793470562\nleaf_count=5588 3492\ninternal_value=0.00108211\ninternal_weight=1375.42\ninternal_count=9080\nis_linear=0\nshrinkage=0.1\n\n\nTree=243\nnum_leaves=2\nnum_cat=0\nsplit_feature=2\nsplit_gain=5.98091\nthreshold=1.0000000180025095e-35\ndecision_type=2\nleft_child=-1\nright_child=-2\nleaf_value=0.010676873361499348 -0.0034738381956642703\nleaf_weight=438.58147490024567 936.37000673636794\nleaf_count=1265 7815\ninternal_value=0.00103995\ninternal_weight=1374.95\ninternal_count=9080\nis_linear=0\nshrinkage=0.1\n\n\nTree=244\nnum_leaves=2\nnum_cat=0\nsplit_feature=2\nsplit_gain=5.62579\nthreshold=0.15538194444444448\ndecision_type=2\nleft_child=-1\nright_child=-2\nleaf_value=0.0043200011585717282 -0.01153196397005272\nleaf_weight=1091.5265141800046 281.6491442900151\nleaf_count=5591 3492\ninternal_value=0.00106863\ninternal_weight=1373.18\ninternal_count=9083\nis_linear=0\nshrinkage=0.1\n\n\nTree=245\nnum_leaves=2\nnum_cat=0\nsplit_feature=0\nsplit_gain=6.33455\nthreshold=0.036836935166994121\ndecision_type=2\nleft_child=-1\nright_child=-2\nleaf_value=0.022249712164322609 -0.0010688698323089412\nleaf_weight=128.52813091874123 1244.3919095471501\nleaf_count=524 8559\ninternal_value=0.00111414\ninternal_weight=1372.92\ninternal_count=9083\nis_linear=0\nshrinkage=0.1\n\n\nTree=246\nnum_leaves=2\nnum_cat=0\nsplit_feature=0\nsplit_gain=7.03078\nthreshold=0.25982318271119847\ndecision_type=2\nleft_child=-1\nright_child=-2\nleaf_value=0.0022146606669893299 -0.045006333213676336\nleaf_weight=1338.5950267612934 32.290954191237688\nleaf_count=8637 438\ninternal_value=0.00110237\ninternal_weight=1370.89\ninternal_count=9075\nis_linear=0\nshrinkage=0.1\n\n\nTree=247\nnum_leaves=2\nnum_cat=0\nsplit_feature=1\nsplit_gain=0.0204525\nthreshold=0.66666666666666674\ndecision_type=2\nleft_child=-1\nright_child=-2\nleaf_value=0.0012894202654720696 0.0004257057703466019\nleaf_weight=992.58265030011535 378.80721878632903\nleaf_count=6076 2999\ninternal_value=0.00105085\ninternal_weight=1371.39\ninternal_count=9075\nis_linear=0\nshrinkage=0.1\n\n\nTree=248\nnum_leaves=2\nnum_cat=0\nsplit_feature=0\nsplit_gain=6.27226\nthreshold=0.065324165029469569\ndecision_type=2\nleft_child=-1\nright_child=-2\nleaf_value=0.011892452892148587 -0.0031914363862032089\nleaf_weight=381.7919966802001 991.8324361089617\nleaf_count=1578 7502\ninternal_value=0.00100105\ninternal_weight=1373.62\ninternal_count=9080\nis_linear=0\nshrinkage=0.1\n\n\nTree=249\nnum_leaves=2\nnum_cat=0\nsplit_feature=0\nsplit_gain=5.99901\nthreshold=0.30500982318271125\ndecision_type=2\nleft_child=-1\nright_child=-2\nleaf_value=0.0015913916689060479 -0.066792442192849993\nleaf_weight=1360.4773264862597 12.950184248387812\nleaf_count=8908 