{"boosters": ["tree\nversion=v4\nnum_class=1\nnum_tree_per_iteration=1\nlabel_index=0\nmax_feature_idx=0\nfeature_names=f4\nmonotone_constraints=-1\nfeature_infos=[2.9504162779581122e-06:0.99997454648695938]\ntree_sizes=813 796 795 692 686 584 585 584 585 581 692 584 587 587 479 475 583 370 479 475 478 370 370 479 371 369 369 369 370 477 369 371 367 371 366 369 368 368 370 369 367 368 370 371 371 370 371 369 369 369 369\n\nTree=0\nnum_leaves=7\nnum_cat=0\nsplit_feature=0 0 0 0 0 0\nsplit_gain=476.279 59.3195 47.7272 13.3971 12.8372 7.18365\nthreshold=0.49013857656299653 0.20161912042178562 0.73808187899962541 0.89267565952949546 0.023576637578022034 0.38192579415219841\ndecision_type=2 2 2 2 2 2\nleft_child=1 4 -2 -4 -1 -3\nright_child=2 5 3 -5 -6 -7\nleaf_value=0.050461796769394711 -0.011320295380626334 0.014272890481790292 -0.023335539373708074 -0.036456365689576491 0.028327801300837476 0.0049418049950818886\nleaf_weight=297.75 3080.75 2228 1888.75 1323.5 2184.25 1310.25\nleaf_count=1191 12323 8912 7555 5294 8737 5241\ninternal_value=-0.00097659 0.0191313 -0.0202129 -0.0287415 0.0309831 0.0108175\ninternal_weight=12313.2 6020.25 6293 3212.25 2482 3538.25\ninternal_count=49253 24081 25172 12849 9928 14153\nis_linear=0\nshrinkage=0.1\n\n\nTree=1\nnum_leaves=6\nnum_cat=0\nsplit_feature=0 0 0 0 0\nsplit_gain=337.939 45.475 28.5983 8.8577 6.73913\nthreshold=0.51366450017627308 0.22565338208573807 0.85703345833089484 0.60738933002589357 0.39382641673201735\ndecision_type=2 2 2 2 2\nleft_child=1 -1 3 -2 -3\nright_child=2 4 -4 -5 -6\nleaf_value=0.025437308834956696 -0.0053472351086814376 0.012052523175278723 -0.028114053198846318 -0.015660060600886445 0.0031737311125343026\nleaf_weight=2822.5462385267019 1153.0699384361506 2086.5124264955521 1725.2484413683414 2998.9547779411077 1448.2049544453621\nleaf_count=11171 4657 8323 7046 12148 5811\ninternal_value=-7.46601e-06 0.0159726 -0.0172926 -0.0127961 0.0084148\ninternal_weight=12234.5 6357.26 5877.27 4152.02 3534.72\ninternal_count=49156 25305 23851 16805 14134\nis_linear=0\nshrinkage=0.1\n\n\nTree=2\nnum_leaves=6\nnum_cat=0\nsplit_feature=0 0 0 0 0\nsplit_gain=387.193 72.1434 32.4047 8.29959 7.52886\nthreshold=0.40586882105595068 0.70248522547214931 0.24973168461183257 0.11788240415732722 0.80946605583280373\ndecision_type=2 2 2 2 2\nleft_child=2 -2 3 -1 -3\nright_child=1 4 -4 -5 -6\nleaf_value=0.032107776026849791 -0.0056203894794724998 -0.019523128359067055 0.010279549608419744 0.021867194048743321 -0.029111501618399267\nleaf_weight=1506.740767583251 3644.5661430209875 1281.6272101104259 1923.3707905262709 1667.0386741012335 2268.2470728904009\nleaf_count=5882 14730 5241 7634 6545 9377\ninternal_value=-0.000564158 -0.0155033 0.0205218 0.0267289 -0.0256498\ninternal_weight=12291.6 7194.44 5097.15 3173.78 3549.87\ninternal_count=49409 29348 20061 12427 14618\nis_linear=0\nshrinkage=0.1\n\n\nTree=3\nnum_leaves=5\nnum_cat=0\nsplit_feature=0 0 0 0\nsplit_gain=265.144 43.6171 33.0522 6.20094\nthreshold=0.50189334783970541 0.24973168461183257 0.78563198758242014 0.92897316179696765\ndecision_type=2 2 2 2\nleft_child=1 -1 -2 -4\nright_child=2 -3 3 -5\nleaf_value=0.022013607268236386 -0.0093247892664143593 0.0053784946399841648 -0.020930099785416195 -0.031505889797159188\nleaf_weight=3187.2841308116913 3413.353404417634 3118.1813119500875 1648.0477574765682 835.46543368697166\nleaf_count=12330 13968 12404 6889 3526\ninternal_value=-0.000467939 0.0137872 -0.0157108 -0.0244878\ninternal_weight=12202.3 6305.47 5896.87 2483.51\ninternal_count=49117 24734 24383 10415\nis_linear=0\nshrinkage=0.1\n\n\nTree=4\nnum_leaves=5\nnum_cat=0\nsplit_feature=0 0 0 0\nsplit_gain=272.792 41.2684 26.8202 9.15365\nthreshold=0.50189334783970541 0.24973168461183257 0.79750025320298623 0.11788240415732722\ndecision_type=2 2 2 2\nleft_child=1 3 -2 -1\nright_child=2 -3 -4 -5\nleaf_value=0.027626750301346759 -0.01038359928350884 0.0057883847930428577 -0.024127619942267326 0.016911035650195697\nleaf_weight=1526.9454399347305 3564.5620597153902 3063.746030330658 2359.7476517260075 1667.9687312692404\nleaf_count=5821 14681 12162 10049 6424\ninternal_value=-0.000477906 0.0140806 -0.0158581 0.0220324\ninternal_weight=12183 6258.66 5924.31 3194.91\ninternal_count=49137 24407 24730 12245\nis_linear=0\nshrinkage=0.1\n\n\nTree=5\nnum_leaves=4\nnum_cat=0\nsplit_feature=0 0 0\nsplit_gain=196.715 50.7305 16.0039\nthreshold=0.55978575119281959 0.24973168461183257 0.89267565952949546\ndecision_type=2 2 2\nleft_child=1 -1 -2\nright_child=2 -3 -4\nleaf_value=0.020006137151518145 -0.011925415036324008 0.0029268633090253626 -0.025068182767706827\nleaf_weight=3207.6466033905745 3900.6289775520563 3798.7154844254255 1215.1436737924814\nleaf_count=12179 16338 15157 5284\ninternal_value=-0.000139177 0.0107461 -0.0150472\ninternal_weight=12122.1 7006.36 5115.77\ninternal_count=48958 27336 21622\nis_linear=0\nshrinkage=0.1\n\n\nTree=6\nnum_leaves=4\nnum_cat=0\nsplit_feature=0 0 0\nsplit_gain=175.195 21.4446 18.0425\nthreshold=0.54844500604326163 0.33343602908568476 0.73808187899962541\ndecision_type=2 2 2\nleft_child=1 -1 -2\nright_child=2 -3 -4\nleaf_value=0.013820758942416937 -0.0080562681776426229 0.0023653188318143699 -0.019935615933999246\nleaf_weight=4292.1534256339073 2249.3272477090359 2638.8620147109032 2962.3430124521255\nleaf_count=16327 9359 10555 12837\ninternal_value=-0.000956522 0.0094593 -0.0148086\ninternal_weight=12142.7 6931.02 5211.67\ninternal_count=49078 26882 22196\nis_linear=0\nshrinkage=0.1\n\n\nTree=7\nnum_leaves=4\nnum_cat=0\nsplit_feature=0 0 0\nsplit_gain=156.954 32.5658 12.8714\nthreshold=0.39382641673201735 0.77398332915986323 0.047337439378868036\ndecision_type=2 2 2\nleft_child=2 -2 -1\nright_child=1 -3 -4\nleaf_value=0.026213642723458681 -0.0051932437368607601 -0.019404799601649616 0.010919542961098969\nleaf_weight=627.57287399470806 4541.1564089506865 2500.1368539482355 4467.3282360136509\nleaf_count=2326 18746 11011 17070\ninternal_value=-0.000565732 -0.0102393 0.0128034\ninternal_weight=12136.2 7041.29 5094.9\ninternal_count=49153 29757 19396\nis_linear=0\nshrinkage=0.1\n\n\nTree=8\nnum_leaves=4\nnum_cat=0\nsplit_feature=0 0 0\nsplit_gain=132.595 23.8917 13.6295\nthreshold=0.61948075083788734 0.38192579415219841 0.83291735275899914\ndecision_type=2 2 2\nleft_child=1 -1 -2\nright_child=2 -3 -4\nleaf_value=0.012301940822472648 -0.0089241257941532533 0.00088778019547869824 -0.020297483072524637\nleaf_weight=4958.0640727728605 2495.7108203470707 2910.2328736335039 1823.5458274632692\nleaf_count=18762 10657 11860 8188\ninternal_value=0.000352165 0.00808021 -0.0137258\ninternal_weight=12187.6 7868.3 4319.26\ninternal_count=49467 30622 18845\nis_linear=0\nshrinkage=0.1\n\n\nTree=9\nnum_leaves=4\nnum_cat=0\nsplit_feature=0 0 0\nsplit_gain=95.3302 14.917 7.24739\nthreshold=0.61948075083788734 0.23797384479458231 0.97616414385848038\ndecision_type=2 2 2\nleft_child=1 -1 -2\nright_child=2 -3 -4\nleaf_value=0.011969053059176667 -0.010925785711017974 0.003076927231626518 -0.028540172700999695\nleaf_weight=3177.5726038813591 3969.9111800789833 4643.3828544914722 248.18917299807072\nleaf_count=11761 17409 18542 1138\ninternal_value=0.000154674 0.00668971 -0.0119622\ninternal_weight=12039.1 7820.96 4218.1\ninternal_count=48850 30303 18547\nis_linear=0\nshrinkage=0.1\n\n\nTree=10\nnum_leaves=5\nnum_cat=0\nsplit_feature=0 0 0 0\nsplit_gain=125.52 25.2613 11.1025 6.50667\nthreshold=0.40586882105595068 0.89267565952949546 0.12966817891006735 0.61948075083788734\ndecision_type=2 2 2 2\nleft_child=2 3 -1 -2\nright_child=1 -3 -4 -5\nleaf_value=0.019496187306007551 -0.001071126681602339 -0.021088639765296725 0.0097807467098811954 -0.0078845101211838416\nleaf_weight=1764.1143560558558 2574.4776358902454 1141.7391941398382 3529.7286385446787 3076.6620635539293\nleaf_count=6457 10512 5273 13449 13412\ninternal_value=0.00147464 -0.0075216 0.0130183 -0.00478055\ninternal_weight=12086.7 6792.88 5293.84 5651.14\ninternal_count=49103 29197 19906 23924\nis_linear=0\nshrinkage=0.1\n\n\nTree=11\nnum_leaves=4\nnum_cat=0\nsplit_feature=0 0 0\nsplit_gain=73.752 12.8205 7.47168\nthreshold=0.49013857656299653 0.72633953994188027 0.34551300121929068\ndecision_type=2 2 2\nleft_child=2 -2 -1\nright_child=1 -3 -4\nleaf_value=0.0089234356783659957 -0.0039290169248971628 -0.013360680516106971 0.001294019359380246\nleaf_weight=4584.747128739953 2779.3192038238049 2993.471463561058 1782.7423703819513\nleaf_count=17033 11674 13568 7048\ninternal_value=-0.00063394 -0.00881979 0.00678738\ninternal_weight=12140.3 5772.79 6367.49\ninternal_count=49323 25242 24081\nis_linear=0\nshrinkage=0.1\n\n\nTree=12\nnum_leaves=4\nnum_cat=0\nsplit_feature=0 0 0\nsplit_gain=65.3018 12.3075 9.31513\nthreshold=0.51366450017627308 0.74947173337964668 0.12966817891006735\ndecision_type=2 2 2\nleft_child=2 -2 -1\nright_child=1 -3 -4\nleaf_value=0.013284578021054552 -0.0029847529803177062 -0.012503015383613956 0.0048553753494469873\nleaf_weight=1795.4870243221521 2775.4171906262636 2660.9345737695694 4859.0535530596972\nleaf_count=6499 11769 12227 18698\ninternal_value=0.000487241 -0.00764366 0.00712969\ninternal_weight=12090.9 5436.35 6654.54\ninternal_count=49193 23996 25197\nis_linear=0\nshrinkage=0.1\n\n\nTree=13\nnum_leaves=4\nnum_cat=0\nsplit_feature=0 0 0\nsplit_gain=57.0667 16.6594 11.5577\nthreshold=0.39382641673201735 0.78563198758242014 0.11788240415732722\ndecision_type=2 2 2\nleft_child=2 -2 -1\nright_child=1 -3 -4\nleaf_value=0.015165549593873543 -0.0022704590219908452 -0.012761877661159819 0.0049868204667523133\nleaf_weight=1617.9542687684298 4567.0738810002804 2263.7375363558531 3592.4389627724886\nleaf_count=5821 19125 10557 13523\ninternal_value=0.000265183 -0.00574733 0.00814756\ninternal_weight=12041.2 6830.81 5210.39\ninternal_count=49026 29682 19344\nis_linear=0\nshrinkage=0.1\n\n\nTree=14\nnum_leaves=3\nnum_cat=0\nsplit_feature=0 0\nsplit_gain=60.3174 7.74761\nthreshold=0.35787778378338392 0.92897316179696765\ndecision_type=2 2\nleft_child=-1 -2\nright_child=1 -3\nleaf_value=0.0086545270281589669 -0.004705296493579576 -0.015627567872298576\nleaf_weight=4797.1083912104368 6565.4326738119125 720.73886488378048\nleaf_count=17677 28061 3470\ninternal_value=-5.28829e-05 -0.00578571\ninternal_weight=12083.3 7286.17\ninternal_count=49208 31531\nis_linear=0\nshrinkage=0.1\n\n\nTree=15\nnum_leaves=3\nnum_cat=0\nsplit_feature=0 0\nsplit_gain=46.0328 18.5116\nthreshold=0.72633953994188027 0.20161912042178562\ndecision_type=2 2\nleft_child=1 -1\nright_child=-2 -3\nleaf_value=0.010473908129400002 -0.010862627126085225 0.0006813894618224257\nleaf_weight=2766.028080150485 2876.3200595825911 6390.1978268921375\nleaf_count=9956 13394 25703\ninternal_value=0.000172943 0.00363964\ninternal_weight=12032.5 9156.23\ninternal_count=49053 35659\nis_linear=0\nshrinkage=0.1\n\n\nTree=16\nnum_leaves=4\nnum_cat=0\nsplit_feature=0 0 0\nsplit_gain=50.2729 8.6582 7.74682\nthreshold=0.47771920955602742 0.89267565952949546 0.24973168461183257\ndecision_type=2 2 2\nleft_child=2 -2 -1\nright_child=1 -3 -4\nleaf_value=0.011109513499668742 -0.0032116956382447926 -0.013118058798455521 0.0040506333572063284\nleaf_weight=3380.441156744957 4676.9405960738659 1087.3927413523197 2878.6641611605883\nleaf_count=12186 20383 5286 11188\ninternal_value=0.0016576 -0.00508045 0.00786302\ninternal_weight=12023.4 5764.33 6259.11\ninternal_count=49043 25669 23374\nis_linear=0\nshrinkage=0.1\n\n\nTree=17\nnum_leaves=2\nnum_cat=0\nsplit_feature=0\nsplit_gain=29.5468\nthreshold=0.40586882105595068\ndecision_type=2\nleft_child=-1\nright_child=-2\nleaf_value=0.0061066405016618822 -0.0038389905248616811\nleaf_weight=5407.9934645295143 6672.7167113870382\nleaf_count=19863 29363\ninternal_value=0.000613224\ninternal_weight=12080.7\ninternal_count=49226\nis_linear=0\nshrinkage=0.1\n\n\nTree=18\nnum_leaves=3\nnum_cat=0\nsplit_feature=0 0\nsplit_gain=30.0478 7.5322\nthreshold=0.39382641673201735 0.95218149187025969\ndecision_type=2 2\nleft_child=-1 -2\nright_child=1 -3\nleaf_value=0.0054326780429845012 -0.0036991914075852348 -0.016629212896138581\nleaf_weight=5277.9464209228754 6323.0391393601894 485.09378811717033\nleaf_count=19305 27551 2398\ninternal_value=-0.000230304 -0.00462048\ninternal_weight=12086.1 6808.13\ninternal_count=49254 29949\nis_linear=0\nshrinkage=0.1\n\n\nTree=19\nnum_leaves=3\nnum_cat=0\nsplit_feature=0 0\nsplit_gain=34.7818 6.4483\nthreshold=0.61948075083788734 0.047337439378868036\ndecision_type=2 2\nleft_child=1 -1\nright_child=-2 -3\nleaf_value=0.013266004796545786 -0.0074725527113616201 0.0030189318182831746\nleaf_weight=670.06079956889153 4072.2003449052572 7354.4428129643202\nleaf_count=2344 18778 28200\ninternal_value=5.4714e-05 0.00387458\ninternal_weight=12096.7 8024.5\ninternal_count=49322 30544\nis_linear=0\nshrinkage=0.1\n\n\nTree=20\nnum_leaves=3\nnum_cat=0\nsplit_feature=0 0\nsplit_gain=24.6355 7.70947\nthreshold=0.66722260106288411 0.24973168461183257\ndecision_type=2 2\nleft_child=1 -1\nright_child=-2 -3\nleaf_value=0.0071499423862389985 -0.0064850527570470724 0.0010277786402126258\nleaf_weight=3446.4980043917894 3479.3511639982462 5101.590594291687\nleaf_count=12288 16278 20493\ninternal_value=0.000608757 0.00349617\ninternal_weight=12027.4 8548.09\ninternal_count=49059 32781\nis_linear=0\nshrinkage=0.1\n\n\nTree=21\nnum_leaves=2\nnum_cat=0\nsplit_feature=0\nsplit_gain=24.0086\nthreshold=0.66722260106288411\ndecision_type=2\nleft_child=-1\nright_child=-2\nleaf_value=0.0028780363505931713 -0.0069731363896385554\nleaf_weight=8558.7965348660946 3479.8080505430698\nleaf_count=32753 16325\ninternal_value=3.05144e-05\ninternal_weight=12038.6\ninternal_count=49078\nis_linear=0\nshrinkage=0.1\n\n\nTree=22\nnum_leaves=2\nnum_cat=0\nsplit_feature=0\nsplit_gain=16.1218\nthreshold=0.83291735275899914\ndecision_type=2\nleft_child=-1\nright_child=-2\nleaf_value=0.0010704563751968669 -0.0095405495757995631\nleaf_weight=10345.743374556303 1661.8670737296343\nleaf_count=40860 8164\ninternal_value=-0.000398119\ninternal_weight=12007.6\ninternal_count=49024\nis_linear=0\nshrinkage=0.1\n\n\nTree=23\nnum_leaves=3\nnum_cat=0\nsplit_feature=0 0\nsplit_gain=18.9455 8.88352\nthreshold=0.24973168461183257 0.72633953994188027\ndecision_type=2 2\nleft_child=-1 -2\nright_child=1 -3\nleaf_value=0.007368656900229544 0.00084742588911912117 -0.0060204818704317565\nleaf_weight=3467.0625153779984 5775.9153137803078 2794.6276764571667\nleaf_count=12308 23410 13434\ninternal_value=0.00113123 -0.00139202\ninternal_weight=12037.6 8570.54\ninternal_count=49152 36844\nis_linear=0\nshrinkage=0.1\n\n\nTree=24\nnum_leaves=2\nnum_cat=0\nsplit_feature=0\nsplit_gain=19.3628\nthreshold=0.64319520771685357\ndecision_type=2\nleft_child=-1\nright_child=-2\nleaf_value=0.0022444288670943305 -0.0064131562846809244\nleaf_weight=8377.0912428051233 3735.1340021193027\nleaf_count=31831 17595\ninternal_value=-0.000425373\ninternal_weight=12112.2\ninternal_count=49426\nis_linear=0\nshrinkage=0.1\n\n\nTree=25\nnum_leaves=2\nnum_cat=0\nsplit_feature=0\nsplit_gain=15.0531\nthreshold=0.55978575119281959\ndecision_type=2\nleft_child=-1\nright_child=-2\nleaf_value=0.0035300207067819078 -0.0037338380173821796\nleaf_weight=7389.855382964015 4646.9123743027449\nleaf_count=27659 21517\ninternal_value=0.000725737\ninternal_weight=12036.8\ninternal_count=49176\nis_linear=0\nshrinkage=0.1\n\n\nTree=26\nnum_leaves=2\nnum_cat=0\nsplit_feature=0\nsplit_gain=13.7711\nthreshold=0.50189334783970541\ndecision_type=2\nleft_child=-1\nright_child=-2\nleaf_value=0.002064151319319371 -0.0047357403497082992\nleaf_weight=6640.8268498182297 5400.0814407169819\nleaf_count=24521 24680\ninternal_value=-0.00098545\ninternal_weight=12040.9\ninternal_count=49201\nis_linear=0\nshrinkage=0.1\n\n\nTree=27\nnum_leaves=2\nnum_cat=0\nsplit_feature=0\nsplit_gain=10.7002\nthreshold=0.55978575119281959\ndecision_type=2\nleft_child=-1\nright_child=-2\nleaf_value=0.0018559439602587723 -0.00426722855193619\nleaf_weight=7391.2701842486858 4648.9061495959759\nleaf_count=27613 21664\ninternal_value=-0.000508312\ninternal_weight=12040.2\ninternal_count=49277\nis_linear=0\nshrinkage=0.1\n\n\nTree=28\nnum_leaves=2\nnum_cat=0\nsplit_feature=0\nsplit_gain=13.5294\nthreshold=0.39382641673201735\ndecision_type=2\nleft_child=-1\nright_child=-2\nleaf_value=0.0046478718153977914 -0.0021181667575880022\nleaf_weight=5317.3690100759268 6653.1462938040495\nleaf_count=19253 29827\ninternal_value=0.000887345\ninternal_weight=11970.5\ninternal_count=49080\nis_linear=0\nshrinkage=0.1\n\n\nTree=29\nnum_leaves=3\nnum_cat=0\nsplit_feature=0 0\nsplit_gain=12.7651 8.49713\nthreshold=0.91744693920192388 0.28592736572111566\ndecision_type=2 2\nleft_child=1 -1\nright_child=-2 -3\nleaf_value=0.0053505046668592855 -0.011467830932953199 -0.0004436436076708645\nleaf_weight=3925.0268313139677 799.8686261922121 7126.3367391675711\nleaf_count=13938 4127 30448\ninternal_value=0.000731279 0.00161422\ninternal_weight=11851.2 11051.4\ninternal_count=48513 44386\nis_linear=0\nshrinkage=0.1\n\n\nTree=30\nnum_leaves=2\nnum_cat=0\nsplit_feature=0\nsplit_gain=8.34611\nthreshold=0.047337439378868036\ndecision_type=2\nleft_child=-1\nright_child=-2\nleaf_value=0.0098524067394152037 -0.001609984771495511\nleaf_weight=673.1178794503212 11286.692028075457\nleaf_count=2319 46642\ninternal_value=-0.000964862\ninternal_weight=11959.8\ninternal_count=48961\nis_linear=0\nshrinkage=0.1\n\n\nTree=31\nnum_leaves=2\nnum_cat=0\nsplit_feature=0\nsplit_gain=15.1754\nthreshold=0.73808187899962541\ndecision_type=2\nleft_child=-1\nright_child=-2\nleaf_value=0.0016187669241342622 -0.0069831430134078016\nleaf_weight=9392.5839397311211 2623.8620713353157\nleaf_count=36303 12917\ninternal_value=-0.000259511\ninternal_weight=12016.4\ninternal_count=49220\nis_linear=0\nshrinkage=0.1\n\n\nTree=32\nnum_leaves=2\nnum_cat=0\nsplit_feature=0\nsplit_gain=8.1724\nthreshold=0.89267565952949546\ndecision_type=2\nleft_child=-1\nright_child=-2\nleaf_value=0.0017923733821898673 -0.0076662118188880919\nleaf_weight=11016.040976718068 996.07302716374397\nleaf_count=44026 5162\ninternal_value=0.00100805\ninternal_weight=12012.1\ninternal_count=49188\nis_linear=0\nshrinkage=0.1\n\n\nTree=33\nnum_leaves=2\nnum_cat=0\nsplit_feature=0\nsplit_gain=9.69469\nthreshold=0.72633953994188027\ndecision_type=2\nleft_child=-1\nright_child=-2\nleaf_value=0.00043661361390052804 -0.0063241533333019077\nleaf_weight=9330.2775152027607 2745.0175675302744\nleaf_count=35876 13532\ninternal_value=-0.00110028\ninternal_weight=12075.3\ninternal_count=49408\nis_linear=0\nshrinkage=0.1\n\n\nTree=34\nnum_leaves=2\nnum_cat=0\nsplit_feature=0\nsplit_gain=9.64816\nthreshold=0.35787778378338392\ndecision_type=2\nleft_child=-1\nright_child=-2\nleaf_value=0.0037323373487550323 -0.0020465364033539091\nleaf_weight=4904.463501766324 7030.5509850382805\nleaf_count=17566 31344\ninternal_value=0.00032818\ninternal_weight=11935\ninternal_count=48910\nis_linear=0\nshrinkage=0.1\n\n\nTree=35\nnum_leaves=2\nnum_cat=0\nsplit_feature=0\nsplit_gain=8.69814\nthreshold=0.51366450017627308\ndecision_type=2\nleft_child=-1\nright_child=-2\nleaf_value=0.0027057562317097544 -0.0027290003557028705\nleaf_weight=6816.6240125447512 5184.7502985596657\nleaf_count=25111 24154\ninternal_value=0.00035787\ninternal_weight=12001.4\ninternal_count=49265\nis_linear=0\nshrinkage=0.1\n\n\nTree=36\nnum_leaves=2\nnum_cat=0\nsplit_feature=0\nsplit_gain=10.0124\nthreshold=0.95218149187025969\ndecision_type=2\nleft_child=-1\nright_child=-2\nleaf_value=0.0012349707200655278 -0.014059324640865907\nleaf_weight=11515.733276292682 444.56095458567142\nleaf_count=46667 2367\ninternal_value=0.000666486\ninternal_weight=11960.3\ninternal_count=49034\nis_linear=0\nshrinkage=0.1\n\n\nTree=37\nnum_leaves=2\nnum_cat=0\nsplit_feature=0\nsplit_gain=6.6247\nthreshold=0.59501569172820934\ndecision_type=2\nleft_child=-1\nright_child=-2\nleaf_value=0.0033526870720624971 -0.0015813341071422957\nleaf_weight=7818.7176626175642 4173.9045689702034\nleaf_count=29276 19902\ninternal_value=0.00163545\ninternal_weight=11992.6\ninternal_count=49178\nis_linear=0\nshrinkage=0.1\n\n\nTree=38\nnum_leaves=2\nnum_cat=0\nsplit_feature=0\nsplit_gain=10.7837\nthreshold=0.95218149187025969\ndecision_type=2\nleft_child=-1\nright_child=-2\nleaf_value=0.00051011888416674595 -0.015602935434029984\nleaf_weight=11602.444157630205 430.76760905981064\nleaf_count=47003 2311\ninternal_value=-6.66998e-05\ninternal_weight=12033.2\ninternal_count=49314\nis_linear=0\nshrinkage=0.1\n\n\nTree=39\nnum_leaves=2\nnum_cat=0\nsplit_feature=0\nsplit_gain=7.23495\nthreshold=0.047337439378868036\ndecision_type=2\nleft_child=-1\nright_child=-2\nleaf_value=0.00977498953660964 -0.00081339326049343751\nleaf_weight=684.6033955514431 11246.744362443686\nleaf_count=2338 46522\ninternal_value=-0.000205847\ninternal_weight=11931.3\ninternal_count=48860\nis_linear=0\nshrinkage=0.1\n\n\nTree=40\nnum_leaves=2\nnum_cat=0\nsplit_feature=0\nsplit_gain=7.57191\nthreshold=0.023576637578022034\ndecision_type=2\nleft_child=-1\nright_child=-2\nleaf_value=0.015766765203066385 0.00079058804759831152\nleaf_weight=347.70040322840214 11622.598055377603\nleaf_count=1180 47910\ninternal_value=0.0012256\ninternal_weight=11970.3\ninternal_count=49090\nis_linear=0\nshrinkage=0.1\n\n\nTree=41\nnum_leaves=2\nnum_cat=0\nsplit_feature=0\nsplit_gain=7.9383\nthreshold=0.23797384479458231\ndecision_type=2\nleft_child=-1\nright_child=-2\nleaf_value=0.0034303066473932646 -0.0022981327788278065\nleaf_weight=3362.8199395388365 8620.2201742678881\nleaf_count=11729 37318\ninternal_value=-0.000690552\ninternal_weight=11983\ninternal_count=49047\nis_linear=0\nshrinkage=0.1\n\n\nTree=42\nnum_leaves=2\nnum_cat=0\nsplit_feature=0\nsplit_gain=8.80051\nthreshold=0.047337439378868036\ndecision_type=2\nleft_child=-1\nright_child=-2\nleaf_value=0.01058068117972184 -0.00098026219990970768\nleaf_weight=699.10496582090855 11322.002855330706\nleaf_count=2370 46863\ninternal_value=-0.000307919\ninternal_weight=12021.1\ninternal_count=49233\nis_linear=0\nshrinkage=0.1\n\n\nTree=43\nnum_leaves=2\nnum_cat=0\nsplit_feature=0\nsplit_gain=6.49742\nthreshold=0.20161912042178562\ndecision_type=2\nleft_child=-1\nright_child=-2\nleaf_value=0.0039854318938575221 -0.0014476560392563862\nleaf_weight=2898.3817126601934 9149.9696088433266\nleaf_count=10057 39285\ninternal_value=-0.000140659\ninternal_weight=12048.4\ninternal_count=49342\nis_linear=0\nshrinkage=0.1\n\n\nTree=44\nnum_leaves=2\nnum_cat=0\nsplit_feature=0\nsplit_gain=6.86066\nthreshold=0.39382641673201735\ndecision_type=2\nleft_child=-1\nright_child=-2\nleaf_value=0.0019744207357086127 -0.0028324953497987069\nleaf_weight=5405.0954075455666 6588.2329247444868\nleaf_count=19362 29843\ninternal_value=-0.000666138\ninternal_weight=11993.3\ninternal_count=49205\nis_linear=0\nshrinkage=0.1\n\n\nTree=45\nnum_leaves=2\nnum_cat=0\nsplit_feature=0\nsplit_gain=10.243\nthreshold=0.047337439378868036\ndecision_type=2\nleft_child=-1\nright_child=-2\nleaf_value=0.011604949961914655 -0.00096007045994587049\nleaf_weight=688.57312846183777 11227.835483811796\nleaf_count=2322 46568\ninternal_value=-0.000234018\ninternal_weight=11916.4\ninternal_count=48890\nis_linear=0\nshrinkage=0.1\n\n\nTree=46\nnum_leaves=2\nnum_cat=0\nsplit_feature=0\nsplit_gain=6.90456\nthreshold=0.46562784945561092\ndecision_type=2\nleft_child=-1\nright_child=-2\nleaf_value=0.0018279374790506301 -0.0029818848479768378\nleaf_weight=6307.7523300200701 5664.9381045475602\nleaf_count=22938 26226\ninternal_value=-0.000447854\ninternal_weight=11972.7\ninternal_count=49164\nis_linear=0\nshrinkage=0.1\n\n\nTree=47\nnum_leaves=2\nnum_cat=0\nsplit_feature=0\nsplit_gain=6.85032\nthreshold=0.89267565952949546\ndecision_type=2\nleft_child=-1\nright_child=-2\nleaf_value=0.0016892777593361147 -0.0069728768416131102\nleaf_weight=10984.805697962642 995.73347532749176\nleaf_count=43892 5309\ninternal_value=0.000969344\ninternal_weight=11980.5\ninternal_count=49201\nis_linear=0\nshrinkage=0.1\n\n\nTree=48\nnum_leaves=2\nnum_cat=0\nsplit_feature=0\nsplit_gain=6.1662\nthreshold=0.88108384875524448\ndecision_type=2\nleft_child=-1\nright_child=-2\nleaf_value=0.00052942115695496278 -0.0074004163849954218\nleaf_weight=10886.850004717708 1077.6590639799833\nleaf_count=43424 5752\ninternal_value=-0.00018483\ninternal_weight=11964.5\ninternal_count=49176\nis_linear=0\nshrinkage=0.1\n\n\nTree=49\nnum_leaves=2\nnum_cat=0\nsplit_feature=0\nsplit_gain=6.38706\nthreshold=0.95218149187025969\ndecision_type=2\nleft_child=-1\nright_child=-2\nleaf_value=0.00069041281451901393 -0.011710188807393112\nleaf_weight=11603.406353920698 430.77122841030359\nleaf_count=47071 2387\ninternal_value=0.000246525\ninternal_weight=12034.2\ninternal_count=49458\nis_linear=0\nshrinkage=0.1\n\n\nTree=50\nnum_leaves=2\nnum_cat=0\nsplit_feature=0\nsplit_gain=6.49012\nthreshold=0.23797384479458231\ndecision_type=2\nleft_child=-1\nright_child=-2\nleaf_value=0.0038792148209055933 -0.0013070003278974063\nleaf_weight=3360.179252654314 8559.8922414109111\nleaf_count=11689 37405\ninternal_value=0.000154955\ninternal_weight=11920.1\ninternal_count=49094\nis_linear=0\nshrinkage=0.1\n\n\nend of trees\n\nfeature_importances:\nf4=98\n\nparameters:\n[boosting: gbdt]\n[objective: custom]\n[metric: l2]\n[tree_learner: serial]\n[device_type: cpu]\n[data_sample_strategy: bagging]\n[data: ]\n[valid: ]\n[num_iterations: 100]\n[learning_rate: 0.1]\n[num_leaves: 94]\n[num_threads: -1]\n[seed: 0]\n[deterministic: 0]\n[force_col_wise: 0]\n[force_row_wise: 0]\n[histogram_pool_size: -1]\n[max_depth: -1]\n[min_data_in_leaf: 57]\n[min_sum_hessian_in_leaf: 0.107619]\n[bagging_fraction: 0.491214]\n[pos_bagging_fraction: 1]\n[neg_bagging_fraction: 1]\n[bagging_freq: 1]\n[bagging_seed: 3]\n[bagging_by_query: 0]\n[feature_fraction: 0.436645]\n[feature_fraction_bynode: 1]\n[feature_fraction_seed: 2]\n[extra_trees: 0]\n[extra_seed: 6]\n[early_stopping_round: 0]\n[early_stopping_min_delta: 0]\n[first_metric_only: 0]\n[max_delta_step: 0]\n[lambda_l1: 4.46454e-08]\n[lambda_l2: 1.476e-07]\n[linear_lambda: 0]\n[min_gain_to_split: 6.11788]\n[drop_rate: 0.1]\n[max_drop: 50]\n[skip_drop: 0.5]\n[xgboost_dart_mode: 0]\n[uniform_drop: 0]\n[drop_seed: 4]\n[top_rate: 0.2]\n[other_rate: 0.1]\n[min_data_per_group: 100]\n[max_cat_threshold: 32]\n[cat_l2: 10]\n[cat_smooth: 10]\n[max_cat_to_onehot: 4]\n[top_k: 20]\n[monotone_constraints: -1]\n[monotone_constraints_method: advanced]\n[monotone_penalty: 0]\n[feature_contri: ]\n[forcedsplits_filename: ]\n[refit_decay_rate: 0.9]\n[cegb_tradeoff: 1]\n[cegb_penalty_split: 0]\n[cegb_penalty_feature_lazy: ]\n[cegb_penalty_feature_coupled: ]\n[path_smooth: 0]\n[interaction_constraints: [0]]\n[verbosity: -1]\n[saved_feature_importance_type: 0]\n[use_quantized_grad: 0]\n[num_grad_quant_bins: 4]\n[quant_train_renew_leaf: 0]\n[stochastic_rounding: 1]\n[linear_tree: 0]\n[max_bin: 85]\n[max_bin_by_feature: ]\n[min_data_in_bin: 3]\n[bin_construct_sample_cnt: 200000]\n[data_random_seed: 1]\n[is_enable_sparse: 1]\n[enable_bundle: 1]\n[use_missing: 1]\n[zero_as_missing: 0]\n[feature_pre_filter: 1]\n[pre_partition: 0]\n[two_round: 0]\n[header: 0]\n[label_column: ]\n[weight_column: ]\n[group_column: ]\n[ignore_column: ]\n[categorical_feature: ]\n[forcedbins_filename: ]\n[precise_float_parser: 0]\n[parser_config_file: ]\n[objective_seed: 5]\n[num_class: 1]\n[is_unbalance: 0]\n[scale_pos_weight: 1]\n[sigmoid: 1]\n[boost_from_average: 1]\n[reg_sqrt: 0]\n[alpha: 0.9]\n[fair_c: 1]\n[poisson_max_delta_step: 0.7]\n[tweedie_variance_power: 1.5]\n[lambdarank_truncation_level: 30]\n[lambdarank_norm: 1]\n[label_gain: ]\n[lambdarank_position_bias_regularization: 0]\n[eval_at: ]\n[multi_error_top_k: 1]\n[auc_mu_weights: ]\n[num_machines: 1]\n[local_listen_port: 12400]\n[time_out: 120]\n[machine_list_filename: ]\n[machines: ]\n[gpu_platform_id: -1]\n[gpu_device_id: -1]\n[gpu_use_dp: 0]\n[num_gpu: 1]\n\nend of parameters\n\npandas_categorical:null\n", "tree\nversion=v4\nnum_class=1\nnum_tree_per_iteration=1\nlabel_index=0\nmax_feature_idx=0\nfeature_names=f5\nmonotone_constraints=-1\nfeature_infos=[3.3105544573475143e-06:0.99999901203138986]\ntree_sizes=717 688 687 581 689 582 581 474 585 686 478 586 584 584 476 475 478 477 476 476 476 481 370 368 371 369 370 369 480 370 370 369 371 370 371 368 368 371 370 371 370 370 369 371 370\n\nTree=0\nnum_leaves=6\nnum_cat=0\nsplit_feature=0 0 0 0 0\nsplit_gain=455.711 120.512 21.9385 16.6154 12.2537\nthreshold=0.65497676458565557 0.27296817575212423 0.11773239819796523 0.45338864785081673 0.77518551950928039\ndecision_type=2 2 2 2 2\nleft_child=1 2 -1 -3 -2\nright_child=4 3 -4 -5 -6\nleaf_value=0.04904392764051442 -0.0077083333294428501 0.021396680019405746 0.032741282481756735 0.009496104918305423 -0.019067682650908493\nleaf_weight=1451.25 1440 2183.75 1914.25 2535.25 2788.75\nleaf_count=5805 5760 8735 7657 10141 11155\ninternal_value=0.0114003 0.0253139 0.0397712 0.0150032 -0.0151995\ninternal_weight=12313.2 8084.5 3365.5 4719 4228.75\ninternal_count=49253 32338 13462 18876 16915\nis_linear=0\nshrinkage=0.1\n\n\nTree=1\nnum_leaves=5\nnum_cat=0\nsplit_feature=0 0 0 0\nsplit_gain=447.372 61.184 54.2645 13.967\nthreshold=0.46538935855438429 0.18927749082464015 0.66715048576747027 0.89258705932062699\ndecision_type=2 2 2 2\nleft_child=1 -1 -2 -4\nright_child=2 -3 3 -5\nleaf_value=0.040507324182491165 0.0017514699323089727 0.019681204366126026 -0.012861498251315063 -0.025417927045368133\nleaf_weight=2405.0965046137571 2541.3581692129374 3411.7268372774124 2778.8326422572136 1300.4433494657278\nleaf_count=9362 10057 13398 11121 5218\ninternal_value=0.00805852 0.0282922 -0.00971862 -0.0168644\ninternal_weight=12437.5 5816.82 6620.63 4079.28\ninternal_count=49156 22760 26396 16339\nis_linear=0\nshrinkage=0.1\n\n\nTree=2\nnum_leaves=5\nnum_cat=0\nsplit_feature=0 0 0 0\nsplit_gain=334.268 70.7973 32.3893 10.3892\nthreshold=0.45338864785081673 0.70245509519044136 0.094337037787338998 0.33433881297406026\ndecision_type=2 2 2 2\nleft_child=2 -2 -1 -4\nright_child=1 -3 3 -5\nleaf_value=0.039204873558775451 0.003368324790554589 -0.017117353869837367 0.024450955042988679 0.014394185907301125\nleaf_weight=1249.5228614062071 3121.7197905182838 3670.6615490615368 3031.2895394563675 1553.7469924539328\nleaf_count=4730 12286 14743 11636 6014\ninternal_value=0.00737734 -0.00770231 0.0249325 0.021043\ninternal_weight=12626.9 6792.38 5834.56 4585.04\ninternal_count=49409 27029 22380 17650\nis_linear=0\nshrinkage=0.1\n\n\nTree=3\nnum_leaves=4\nnum_cat=0\nsplit_feature=0 0 0\nsplit_gain=322.297 61.2359 22.8293\nthreshold=0.43030936542115644 0.77518551950928039 0.23698947497366715\ndecision_type=2 2 2\nleft_child=2 -2 -1\nright_child=1 -3 -4\nleaf_value=0.029823234860697091 -0.00055203481562753022 -0.019597977171710371 0.016911571009981644\nleaf_weight=3128.5344443321228 4332.1282305717468 2765.9143732339144 2435.3838106989861\nleaf_count=11687 16982 11165 9283\ninternal_value=0.0061516 -0.00797372 0.0241717\ninternal_weight=12662 7098.04 5563.92\ninternal_count=49117 28147 20970\nis_linear=0\nshrinkage=0.1\n\n\nTree=4\nnum_leaves=5\nnum_cat=0\nsplit_feature=0 0 0 0\nsplit_gain=256.865 51.5529 17.4602 9.81644\nthreshold=0.38272447999981274 0.65497676458565557 0.21338850432543435 0.85785019271984597\ndecision_type=2 2 2 2\nleft_child=2 -2 -1 -3\nright_child=1 3 -4 -5\nleaf_value=0.026737716782253087 0.0015853451540088878 -0.010811253193388449 0.014851020705682267 -0.020627178360229655\nleaf_weight=2880.9624761343002 3501.3874577432871 2485.2417908459902 2163.9145812094212 1726.6217075437307\nleaf_count=10568 13493 9936 8125 7015\ninternal_value=0.00409415 -0.00738119 0.0216391 -0.0148352\ninternal_weight=12758.1 7713.25 5044.88 4211.86\ninternal_count=49137 30444 18693 16951\nis_linear=0\nshrinkage=0.1\n\n\nTree=5\nnum_leaves=4\nnum_cat=0\nsplit_feature=0 0 0\nsplit_gain=184.33 31.5918 23.2631\nthreshold=0.45338864785081673 0.73898291958130036 0.17748082266979201\ndecision_type=2 2 2\nleft_child=2 -2 -1\nright_child=1 -3 -4\nleaf_value=0.024950964545532334 -0.00035328397182991063 -0.014068812628733544 0.012257560524785226\nleaf_weight=2406.7029529213905 3608.0591366589069 3141.6849426329136 3608.7626064270735\nleaf_count=8687 14045 12776 13450\ninternal_value=0.00460703 -0.00673721 0.017336\ninternal_weight=12765.2 6749.74 6015.47\ninternal_count=48958 26821 22137\nis_linear=0\nshrinkage=0.1\n\n\nTree=6\nnum_leaves=4\nnum_cat=0\nsplit_feature=0 0 0\nsplit_gain=183.852 32.2456 12.4116\nthreshold=0.43030936542115644 0.65497676458565557 0.17748082266979201\ndecision_type=2 2 2\nleft_child=2 -2 -1\nright_child=1 -3 -4\nleaf_value=0.021645976279508053 0.0003217929971205703 -0.013389922592832032 0.01225567316256493\nleaf_weight=2450.7019281238317 2897.5411625355482 4202.7383119761944 3306.8912925720215\nleaf_count=8734 11131 17014 12199\ninternal_value=0.00297359 -0.00779433 0.0162526\ninternal_weight=12857.9 7100.28 5757.59\ninternal_count=49078 28145 20933\nis_linear=0\nshrinkage=0.1\n\n\nTree=7\nnum_leaves=3\nnum_cat=0\nsplit_feature=0 0\nsplit_gain=120.672 27.7238\nthreshold=0.65497676458565557 0.40670972751360684\ndecision_type=2 2\nleft_child=1 -1\nright_child=-2 -3\nleaf_value=0.012699190686629211 -0.012270349434960798 0.0010195170920254751\nleaf_weight=5543.7887086719275 4159.4817687571049 3208.5441079288721\nleaf_count=19964 16923 12266\ninternal_value=0.00175301 0.0084175\ninternal_weight=12911.8 8752.33\ninternal_count=49153 32230\nis_linear=0\nshrinkage=0.1\n\n\nTree=8\nnum_leaves=4\nnum_cat=0\nsplit_feature=0 0 0\nsplit_gain=150.022 34.0665 15.0128\nthreshold=0.43030936542115644 0.69020943567196291 0.22488530878839144\ndecision_type=2 2 2\nleft_child=2 -2 -1\nright_child=1 -3 -4\nleaf_value=0.018541380737960824 -0.00041138512840963666 -0.014301251185575535 0.0084540162302796113\nleaf_weight=3180.1502605676651 3366.2804031223059 3713.8158486485481 2752.2606291174889\nleaf_count=11212 12957 15237 10061\ninternal_value=0.00213141 -0.00769722 0.0138615\ninternal_weight=13012.5 7080.1 5932.41\ninternal_count=49467 28194 21273\nis_linear=0\nshrinkage=0.1\n\n\nTree=9\nnum_leaves=5\nnum_cat=0\nsplit_feature=0 0 0 0\nsplit_gain=119.027 22.1592 11.4749 7.39281\nthreshold=0.62066433472569382 0.33433881297406026 0.86930780569882704 0.12973811480377248\ndecision_type=2 2 2 2\nleft_child=1 3 -2 -1\nright_child=2 -3 -4 -5\nleaf_value=0.018219300367412858 -0.0078714448946875619 0.0029306007507033903 -0.018495788053220812 0.010033285605006636\nleaf_weight=1842.4029541909695 3036.2456181794405 3715.826243698597 1528.2922442853451 2749.7990370839834\nleaf_count=6397 12243 13989 6376 9845\ninternal_value=0.00154435 0.0086719 -0.0114287 0.0133175\ninternal_weight=12872.6 8308.03 4564.54 4592.2\ninternal_count=48850 30231 18619 16242\nis_linear=0\nshrinkage=0.1\n\n\nTree=10\nnum_leaves=3\nnum_cat=0\nsplit_feature=0 0\nsplit_gain=110.471 23.0232\nthreshold=0.38272447999981274 0.78747769540093493\ndecision_type=2 2\nleft_child=-1 -2\nright_child=1 -3\nleaf_value=0.01150152444374512 -0.0034666030004158739 -0.015134189214110262\nleaf_weight=5274.9170111864805 5145.3558442592621 2519.3046868145466\nleaf_count=18626 19917 10560\ninternal_value=0.000363617 -0.00730163\ninternal_weight=12939.6 7664.66\ninternal_count=49103 30477\nis_linear=0\nshrinkage=0.1\n\n\nTree=11\nnum_leaves=4\nnum_cat=0\nsplit_feature=0 0 0\nsplit_gain=121.487 19.4296 12.4208\nthreshold=0.45338864785081673 0.73898291958130036 0.070822480176336036\ndecision_type=2 2 2\nleft_child=2 -2 -1\nright_child=1 -3 -4\nleaf_value=0.021399853157518037 -0.0031875605217079705 -0.013974206435548669 0.0092717512167634613\nleaf_weight=1005.8234741389751 3642.8676862567663 3083.2938412427902 5262.7376605570316\nleaf_count=3448 14156 12952 18767\ninternal_value=0.00120209 -0.00813219 0.0112178\ninternal_weight=12994.7 6726.16 6268.56\ninternal_count=49323 27108 22215\nis_linear=0\nshrinkage=0.1\n\n\nTree=12\nnum_leaves=4\nnum_cat=0\nsplit_feature=0 0 0\nsplit_gain=84.081 7.48398 7.47234\nthreshold=0.45338864785081673 0.23698947497366715 0.73898291958130036\ndecision_type=2 2 2\nleft_child=1 -1 -2\nright_child=2 -3 -4\nleaf_value=0.012563021368937867 -0.0036553549908171779 0.0056412026911271508 -0.010368681712074564\nleaf_weight=3392.0259720683098 3609.7649197429419 2895.3683928102255 3066.4078535437584\nleaf_count=11707 14047 10464 12975\ninternal_value=0.0010767 0.0093755 -0.00673883\ninternal_weight=12963.6 6287.39 6676.17\ninternal_count=49193 22171 27022\nis_linear=0\nshrinkage=0.1\n\n\nTree=13\nnum_leaves=4\nnum_cat=0\nsplit_feature=0 0 0\nsplit_gain=51.1284 13.8139 7.38286\nthreshold=0.38272447999981274 0.8457440901321448 0.094337037787338998\ndecision_type=2 2 2\nleft_child=2 -2 -1\nright_child=1 -3 -4\nleaf_value=0.014348838164099329 -0.0023386383072230678 -0.012397396348209711 0.0058649393045334969\nleaf_weight=1384.1282695531845 5790.0163987278938 1786.5798757076263 3961.3776744604111\nleaf_count=4696 22721 7664 13945\ninternal_value=0.000572986 -0.00471052 0.0080617\ninternal_weight=12922.1 7576.6 5345.51\ninternal_count=49026 30385 18641\nis_linear=0\nshrinkage=0.1\n\n\nTree=14\nnum_leaves=3\nnum_cat=0\nsplit_feature=0 0\nsplit_gain=67.0446 18.2948\nthreshold=0.56017136099734477 0.082532325765023909\ndecision_type=2 2\nleft_child=1 -1\nright_child=-2 -3\nleaf_value=0.017722044197547662 -0.0082012158808990789 0.0043478271562941177\nleaf_weight=1213.512444794178 5245.1652221083641 6508.0548509955406\nleaf_count=4099 21653 23456\ninternal_value=0.000523269 0.0064497\ninternal_weight=12966.7 7721.57\ninternal_count=49208 27555\nis_linear=0\nshrinkage=0.1\n\n\nTree=15\nnum_leaves=3\nnum_cat=0\nsplit_feature=0 0\nsplit_gain=55.8291 13.0998\nthreshold=0.62066433472569382 0.22488530878839144\ndecision_type=2 2\nleft_child=1 -1\nright_child=-2 -3\nleaf_value=0.010363210627114065 -0.008422400798099831 0.0022896913475092184\nleaf_weight=3272.4939993023872 4453.2301214784384 5208.3266582041979\nleaf_count=11157 18654 19242\ninternal_value=0.0006442 0.00540502\ninternal_weight=12934.1 8480.82\ninternal_count=49053 30399\nis_linear=0\nshrinkage=0.1\n\n\nTree=16\nnum_leaves=3\nnum_cat=0\nsplit_feature=0 0\nsplit_gain=43.326 9.19528\nthreshold=0.65497676458565557 0.035621509695232485\ndecision_type=2 2\nleft_child=1 -1\nright_child=-2 -3\nleaf_value=0.016382463883625863 -0.0090504810581671456 0.0026663818484149032\nleaf_weight=518.99144729971886 4010.6379469037056 8393.7649881392717\nleaf_count=1737 16996 30310\ninternal_value=-0.000418997 0.00346507\ninternal_weight=12923.4 8912.76\ninternal_count=49043 32047\nis_linear=0\nshrinkage=0.1\n\n\nTree=17\nnum_leaves=3\nnum_cat=0\nsplit_feature=0 0\nsplit_gain=37.9756 8.65083\nthreshold=0.38272447999981274 0.69020943567196291\ndecision_type=2 2\nleft_child=-1 -2\nright_child=1 -3\nleaf_value=0.0066437554730802003 -0.001126534414249903 -0.0079306316135032938\nleaf_weight=5460.7608146518469 3984.0816902220249 3519.137189656496\nleaf_count=18879 15240 15107\ninternal_value=0.000299505 -0.00431777\ninternal_weight=12964 7503.22\ninternal_count=49226 30347\nis_linear=0\nshrinkage=0.1\n\n\nTree=18\nnum_leaves=3\nnum_cat=0\nsplit_feature=0 0\nsplit_gain=43.259 10.4221\nthreshold=0.43030936542115644 0.76301799384885383\ndecision_type=2 2\nleft_child=-1 -2\nright_child=1 -3\nleaf_value=0.0062937468472833574 -0.0021548609508032558 -0.010131331067318032\nleaf_weight=6085.882901340723 4176.0775396376848 2695.3189441561699\nleaf_count=21131 16371 11752\ninternal_value=0.00015412 -0.00528365\ninternal_weight=12957.3 6871.4\ninternal_count=49254 28123\nis_linear=0\nshrinkage=0.1\n\n\nTree=19\nnum_leaves=3\nnum_cat=0\nsplit_feature=0 0\nsplit_gain=22.9985 8.69574\nthreshold=0.65497676458565557 0.12973811480377248\ndecision_type=2 2\nleft_child=1 -1\nright_child=-2 -3\nleaf_value=0.008696992372340305 -0.0063892447031300139 0.0011112147409503539\nleaf_weight=1923.4164246767759 3988.4881308972836 7050.1193225830793\nleaf_count=6442 17155 25725\ninternal_value=-7.10763e-05 0.00273717\ninternal_weight=12962 8973.54\ninternal_count=49322 32167\nis_linear=0\nshrinkage=0.1\n\n\nTree=20\nnum_leaves=3\nnum_cat=0\nsplit_feature=0 0\nsplit_gain=33.728 8.33896\nthreshold=0.34650610386300518 0.85785019271984597\ndecision_type=2 2\nleft_child=-1 -2\nright_child=1 -3\nleaf_value=0.0068006459614952724 -0.0021335805553135282 -0.010276724748843806\nleaf_weight=4914.8496791869402 6407.3141687512398 1564.64843057096\nleaf_count=16853 25250 6956\ninternal_value=0.000285111 -0.00373183\ninternal_weight=12886.8 7971.96\ninternal_count=49059 32206\nis_linear=0\nshrinkage=0.1\n\n\nTree=21\nnum_leaves=3\nnum_cat=0\nsplit_feature=0 0\nsplit_gain=28.407 7.92746\nthreshold=0.30986308881371166 0.69020943567196291\ndecision_type=2 2\nleft_child=-1 -2\nright_child=1 -3\nleaf_value=0.0055722279085804859 -0.0017343589834005826 -0.0079605613319671236\nleaf_weight=4447.3717065155506 4954.5322159677744 3482.2768269330263\nleaf_count=15165 18708 15205\ninternal_value=-0.000895055 -0.00430421\ninternal_weight=12884.2 8436.81\ninternal_count=49078 33913\nis_linear=0\nshrinkage=0.1\n\n\nTree=22\nnum_leaves=2\nnum_cat=0\nsplit_feature=0\nsplit_gain=18.0466\nthreshold=0.52419023470116255\ndecision_type=2\nleft_child=-1\nright_child=-2\nleaf_value=0.0039003970844626156 -0.0036669879504909186\nleaf_weight=7317.9002036750317 5534.9901099801064\nleaf_count=25711 23313\ninternal_value=0.000641566\ninternal_weight=12852.9\ninternal_count=49024\nis_linear=0\nshrinkage=0.1\n\n\nTree=23\nnum_leaves=2\nnum_cat=0\nsplit_feature=0\nsplit_gain=11.9538\nthreshold=0.48866890700093424\ndecision_type=2\nleft_child=-1\nright_child=-2\nleaf_value=0.003368971702050045 -0.0027365406819891448\nleaf_weight=6869.6055743545294 6014.0801961570978\nleaf_count=23963 25189\ninternal_value=0.00051893\ninternal_weight=12883.7\ninternal_count=49152\nis_linear=0\nshrinkage=0.1\n\n\nTree=24\nnum_leaves=2\nnum_cat=0\nsplit_feature=0\nsplit_gain=17.5151\nthreshold=0.69020943567196291\ndecision_type=2\nleft_child=-1\nright_child=-2\nleaf_value=0.0021171810197271137 -0.0061572262211985786\nleaf_weight=9443.0557821840048 3508.7874473333359\nleaf_count=33992 15434\ninternal_value=-0.000124441\ninternal_weight=12951.8\ninternal_count=49426\nis_linear=0\nshrinkage=0.1\n\n\nTree=25\nnum_leaves=2\nnum_cat=0\nsplit_feature=0\nsplit_gain=12.7885\nthreshold=0.45338864785081673\ndecision_type=2\nleft_child=-1\nright_child=-2\nleaf_value=0.002544981773463198 -0.0037543332526652679\nleaf_weight=6427.4814790934324 6463.8433507680893\nleaf_count=22211 26965\ninternal_value=-0.00061356\ninternal_weight=12891.3\ninternal_count=49176\nis_linear=0\nshrinkage=0.1\n\n\nTree=26\nnum_leaves=2\nnum_cat=0\nsplit_feature=0\nsplit_gain=14.2931\nthreshold=0.73898291958130036\ndecision_type=2\nleft_child=-1\nright_child=-2\nleaf_value=0.0025811452730338845 -0.0053983390968619926\nleaf_weight=9987.7460957169533 2895.5863734483719\nleaf_count=36262 12939\ninternal_value=0.000787721\ninternal_weight=12883.3\ninternal_count=49201\nis_linear=0\nshrinkage=0.1\n\n\nTree=27\nnum_leaves=2\nnum_cat=0\nsplit_feature=0\nsplit_gain=10.4569\nthreshold=0.52419023470116255\ndecision_type=2\nleft_child=-1\nright_child=-2\nleaf_value=0.0033247567984433543 -0.0024274638796092469\nleaf_weight=7418.475527331233 5505.8823446184397\nleaf_count=25936 23341\ninternal_value=0.000874264\ninternal_weight=12924.4\ninternal_count=49277\nis_linear=0\nshrinkage=0.1\n\n\nTree=28\nnum_leaves=3\nnum_cat=0\nsplit_feature=0 0\nsplit_gain=11.2506 6.1966\nthreshold=0.83422745730396486 0.11773239819796523\ndecision_type=2 2\nleft_child=1 -1\nright_child=-2 -3\nleaf_value=0.0061370514343247595 -0.0078162044315783826 -0.00030189729925837245\nleaf_weight=1780.6258911639452 1787.8059168308973 9304.2836842089891\nleaf_count=5892 8109 35079\ninternal_value=-0.000454838 0.000732424\ninternal_weight=12872.7 11084.9\ninternal_count=49080 40971\nis_linear=0\nshrinkage=0.1\n\n\nTree=29\nnum_leaves=2\nnum_cat=0\nsplit_feature=0\nsplit_gain=9.42041\nthreshold=0.60821059140549627\ndecision_type=2\nleft_child=-1\nright_child=-2\nleaf_value=0.0024345537554607537 -0.0032659825631823573\nleaf_weight=8381.7755038142204 4431.6864421218634\nleaf_count=29708 19253\ninternal_value=0.000462956\ninternal_weight=12813.5\ninternal_count=48961\nis_linear=0\nshrinkage=0.1\n\n\nTree=30\nnum_leaves=2\nnum_cat=0\nsplit_feature=0\nsplit_gain=7.31283\nthreshold=0.64348098863158543\ndecision_type=2\nleft_child=-1\nright_child=-2\nleaf_value=0.0020465476827095752 -0.0031057612936230415\nleaf_weight=8894.5539728403091 3990.7149696350098\nleaf_count=31665 17555\ninternal_value=0.000450819\ninternal_weight=12885.3\ninternal_count=49220\nis_linear=0\nshrinkage=0.1\n\n\nTree=31\nnum_leaves=2\nnum_cat=0\nsplit_feature=0\nsplit_gain=9.61611\nthreshold=0.89258705932062699\ndecision_type=2\nleft_child=-1\nright_child=-2\nleaf_value=0.0014508780597755225 -0.0082105677415236188\nleaf_weight=11748.999038010836 1129.1960164904594\nleaf_count=43975 5213\ninternal_value=0.000603736\ninternal_weight=12878.2\ninternal_count=49188\nis_linear=0\nshrinkage=0.1\n\n\nTree=32\nnum_leaves=2\nnum_cat=0\nsplit_feature=0\nsplit_gain=9.01774\nthreshold=0.23698947497366715\ndecision_type=2\nleft_child=-1\nright_child=-2\nleaf_value=0.0049528066057812088 -0.00099679230605532109\nleaf_weight=3488.3631906807423 9445.8034725487232\nleaf_count=11682 37726\ninternal_value=0.000607823\ninternal_weight=12934.2\ninternal_count=49408\nis_linear=0\nshrinkage=0.1\n\n\nTree=33\nnum_leaves=2\nnum_cat=0\nsplit_feature=0\nsplit_gain=12.7217\nthreshold=0.70245509519044136\ndecision_type=2\nleft_child=-1\nright_child=-2\nleaf_value=0.001555137322235149 -0.0056823437910906247\nleaf_weight=9547.5980536043644 3257.2293181568384\nleaf_count=34294 14616\ninternal_value=-0.000285898\ninternal_weight=12804.8\ninternal_count=48910\nis_linear=0\nshrinkage=0.1\n\n\nTree=34\nnum_leaves=2\nnum_cat=0\nsplit_feature=0\nsplit_gain=11.2937\nthreshold=0.34650610386300518\ndecision_type=2\nleft_child=-1\nright_child=-2\nleaf_value=0.0035488619885935334 -0.0025291394643049657\nleaf_weight=4994.1065938770771 7882.1451331228018\nleaf_count=16928 32292\ninternal_value=-0.000171762\ninternal_weight=12876.3\ninternal_count=49220\nis_linear=0\nshrinkage=0.1\n\n\nTree=35\nnum_leaves=2\nnum_cat=0\nsplit_feature=0\nsplit_gain=9.6148\nthreshold=0.26070481086120123\ndecision_type=2\nleft_child=-1\nright_child=-2\nleaf_value=0.0022622079363219176 -0.0037072385437913087\nleaf_weight=3853.7319817095995 8998.4339704662561\nleaf_count=12931 36247\ninternal_value=-0.0019173\ninternal_weight=12852.2\ninternal_count=49178\nis_linear=0\nshrinkage=0.1\n\n\nTree=36\nnum_leaves=2\nnum_cat=0\nsplit_feature=0\nsplit_gain=7.6354\nthreshold=0.20140904083390052\ndecision_type=2\nleft_child=-1\nright_child=-2\nleaf_value=0.0052709130990580347 -0.00049307816560034332\nleaf_weight=3005.99347217381 9760.1999419629574\nleaf_count=10007 38841\ninternal_value=0.000864141\ninternal_weight=12766.2\ninternal_count=48848\nis_linear=0\nshrinkage=0.1\n\n\nTree=37\nnum_leaves=2\nnum_cat=0\nsplit_feature=0\nsplit_gain=7.01906\nthreshold=0.86930780569882704\ndecision_type=2\nleft_child=-1\nright_child=-2\nleaf_value=0.00060270097446262654 -0.0069210067265820996\nleaf_weight=11437.949969634414 1390.7511101663113\nleaf_count=42641 6475\ninternal_value=-0.000212939\ninternal_weight=12828.7\ninternal_count=49116\nis_linear=0\nshrinkage=0.1\n\n\nTree=38\nnum_leaves=2\nnum_cat=0\nsplit_feature=0\nsplit_gain=7.60485\nthreshold=0.60821059140549627\ndecision_type=2\nleft_child=-1\nright_child=-2\nleaf_value=0.00078265936471565872 -0.0043484136521276329\nleaf_weight=8396.315064445138 4403.3645102083683\nleaf_count=29662 19369\ninternal_value=-0.00098254\ninternal_weight=12799.7\ninternal_count=49031\nis_linear=0\nshrinkage=0.1\n\n\nTree=39\nnum_leaves=2\nnum_cat=0\nsplit_feature=0\nsplit_gain=7.78794\nthreshold=0.21338850432543435\ndecision_type=2\nleft_child=-1\nright_child=-2\nleaf_value=0.0033646394126265293 -0.0023390886593884271\nleaf_weight=3185.4378004968166 9633.8302844166756\nleaf_count=10603 38569\ninternal_value=-0.000921779\ninternal_weight=12819.3\ninternal_count=49172\nis_linear=0\nshrinkage=0.1\n\n\nTree=40\nnum_leaves=2\nnum_cat=0\nsplit_feature=0\nsplit_gain=7.71413\nthreshold=0.65497676458565557\ndecision_type=2\nleft_child=-1\nright_child=-2\nleaf_value=0.0010565083127086208 -0.0043393646742680087\nleaf_weight=9016.238358527422 3752.0739961117506\nleaf_count=32124 16836\ninternal_value=-0.000529114\ninternal_weight=12768.3\ninternal_count=48960\nis_linear=0\nshrinkage=0.1\n\n\nTree=41\nnum_leaves=2\nnum_cat=0\nsplit_feature=0\nsplit_gain=7.0212\nthreshold=0.23698947497366715\ndecision_type=2\nleft_child=-1\nright_child=-2\nleaf_value=0.0036299831533014972 -0.0016269993018470737\nleaf_weight=3494.5516968667507 9307.0020182579756\nleaf_count=11649 37469\ninternal_value=-0.000191955\ninternal_weight=12801.6\ninternal_count=49118\nis_linear=0\nshrinkage=0.1\n\n\nTree=42\nnum_leaves=2\nnum_cat=0\nsplit_feature=0\nsplit_gain=6.24287\nthreshold=0.082532325765023909\ndecision_type=2\nleft_child=-1\nright_child=-2\nleaf_value=0.0070258182002840373 -0.00038318211035997857\nleaf_weight=1261.8559041619301 11519.153069883585\nleaf_count=4123 44924\ninternal_value=0.000348301\ninternal_weight=12781\ninternal_count=49047\nis_linear=0\nshrinkage=0.1\n\n\nTree=43\nnum_leaves=2\nnum_cat=0\nsplit_feature=0\nsplit_gain=10.9553\nthreshold=0.72729612539749244\ndecision_type=2\nleft_child=-1\nright_child=-2\nleaf_value=0.0014510250690922552 -0.0055184273561673103\nleaf_weight=9853.8342055231333 2924.8942908197641\nleaf_count=35640 13407\ninternal_value=-0.000144197\ninternal_weight=12778.7\ninternal_count=49047\nis_linear=0\nshrinkage=0.1\n\n\nTree=44\nnum_leaves=2\nnum_cat=0\nsplit_feature=0\nsplit_gain=6.24231\nthreshold=0.89258705932062699\ndecision_type=2\nleft_child=-1\nright_child=-2\nleaf_value=-3.7521692310473125e-05 -0.007833238317836189\nleaf_weight=11629.997719809413 1126.6525879949331\nleaf_count=43620 5317\ninternal_value=-0.00072603\ninternal_weight=12756.7\ninternal_count=48937\nis_linear=0\nshrinkage=0.1\n\n\nend of trees\n\nfeature_importances:\nf5=86\n\nparameters:\n[boosting: gbdt]\n[objective: custom]\n[metric: l2]\n[tree_learner: serial]\n[device_type: cpu]\n[data_sample_strategy: bagging]\n[data: ]\n[valid: ]\n[num_iterations: 100]\n[learning_rate: 0.1]\n[num_leaves: 94]\n[num_threads: -1]\n[seed: 0]\n[deterministic: 0]\n[force_col_wise: 0]\n[force_row_wise: 0]\n[histogram_pool_size: -1]\n[max_depth: -1]\n[min_data_in_leaf: 57]\n[min_sum_hessian_in_leaf: 0.107619]\n[bagging_fraction: 0.491214]\n[pos_bagging_fraction: 1]\n[neg_bagging_fraction: 1]\n[bagging_freq: 1]\n[bagging_seed: 3]\n[bagging_by_query: 0]\n[feature_fraction: 0.436645]\n[feature_fraction_bynode: 1]\n[feature_fraction_seed: 2]\n[extra_trees: 0]\n[extra_seed: 6]\n[early_stopping_round: 0]\n[early_stopping_min_delta: 0]\n[first_metric_only: 0]\n[max_delta_step: 0]\n[lambda_l1: 4.46454e-08]\n[lambda_l2: 1.476e-07]\n[linear_lambda: 0]\n[min_gain_to_split: 6.11788]\n[drop_rate: 0.1]\n[max_drop: 50]\n[skip_drop: 0.5]\n[xgboost_dart_mode: 0]\n[uniform_drop: 0]\n[drop_seed: 4]\n[top_rate: 0.2]\n[other_rate: 0.1]\n[min_data_per_group: 100]\n[max_cat_threshold: 32]\n[cat_l2: 10]\n[cat_smooth: 10]\n[max_cat_to_onehot: 4]\n[top_k: 20]\n[monotone_constraints: -1]\n[monotone_constraints_method: advanced]\n[monotone_penalty: 0]\n[feature_contri: ]\n[forcedsplits_filename: ]\n[refit_decay_rate: 0.9]\n[cegb_tradeoff: 1]\n[cegb_penalty_split: 0]\n[cegb_penalty_feature_lazy: ]\n[cegb_penalty_feature_coupled: ]\n[path_smooth: 0]\n[interaction_constraints: [0]]\n[verbosity: -1]\n[saved_feature_importance_type: 0]\n[use_quantized_grad: 0]\n[num_grad_quant_bins: 4]\n[quant_train_renew_leaf: 0]\n[stochastic_rounding: 1]\n[linear_tree: 0]\n[max_bin: 85]\n[max_bin_by_feature: ]\n[min_data_in_bin: 3]\n[bin_construct_sample_cnt: 200000]\n[data_random_seed: 1]\n[is_enable_sparse: 1]\n[enable_bundle: 1]\n[use_missing: 1]\n[zero_as_missing: 0]\n[feature_pre_filter: 1]\n[pre_partition: 0]\n[two_round: 0]\n[header: 0]\n[label_column: ]\n[weight_column: ]\n[group_column: ]\n[ignore_column: ]\n[categorical_feature: ]\n[forcedbins_filename: ]\n[precise_float_parser: 0]\n[parser_config_file: ]\n[objective_seed: 5]\n[num_class: 1]\n[is_unbalance: 0]\n[scale_pos_weight: 1]\n[sigmoid: 1]\n[boost_from_average: 1]\n[reg_sqrt: 0]\n[alpha: 0.9]\n[fair_c: 1]\n[poisson_max_delta_step: 0.7]\n[tweedie_variance_power: 1.5]\n[lambdarank_truncation_level: 30]\n[lambdarank_norm: 1]\n[label_gain: ]\n[lambdarank_position_bias_regularization: 0]\n[eval_at: ]\n[multi_error_top_k: 1]\n[auc_mu_weights: ]\n[num_machines: 1]\n[local_listen_port: 12400]\n[time_out: 120]\n[machine_list_filename: ]\n[machines: ]\n[gpu_platform_id: -1]\n[gpu_device_id: -1]\n[gpu_use_dp: 0]\n[num_gpu: 1]\n\nend of parameters\n\npandas_categorical:null\n", "tree\nversion=v4\nnum_class=1\nnum_tree_per_iteration=1\nlabel_index=0\nmax_feature_idx=0\nfeature_names=f6\nmonotone_constraints=-1\nfeature_infos=[2.9217194111419431e-05:0.99998962836928873]\ntree_sizes=810 792 688 796 688 583 691 687 686 799 587 584 587 584 477 475 587 476 474 478 478 368 369 369 477 371 477 371 368 369 370 371 368 369 369 366 370 371 370 367 372 369 370 371 371 370 372 370 368 371 369 371\n\nTree=0\nnum_leaves=7\nnum_cat=0\nsplit_feature=0 0 0 0 0 0\nsplit_gain=484.864 86.911 48.7884 16.7659 13.9165 8.70357\nthreshold=0.37048384062499068 0.6672803116585726 0.084496519929557659 0.28682005118683307 0.51341442763127632 0.95100750699556147\ndecision_type=2 2 2 2 2 2\nleft_child=2 4 -1 -4 -2 -3\nright_child=1 5 3 -5 -6 -7\nleaf_value=0.05263681590822511 0.0095125017427749176 -0.016069397040148922 0.032145027340810546 0.017033492816288333 -0.0027840084418126586 -0.029154396283100133\nleaf_weight=1005 1789.75 3516 2468.5 1045 1894.75 594.25\nleaf_count=4020 7159 14064 9874 4180 7579 2377\ninternal_value=0.00714474 -0.00796369 0.0332079 0.0276505 0.00318904 -0.0179612\ninternal_weight=12313.2 7794.75 4518.5 3513.5 3684.5 4110.25\ninternal_count=49253 31179 18074 14054 14738 16441\nis_linear=0\nshrinkage=0.1\n\n\nTree=1\nnum_leaves=6\nnum_cat=0\nsplit_feature=0 0 0 0 0\nsplit_gain=385.516 67.5463 26.0044 11.0029 8.24238\nthreshold=0.38225968642649072 0.68999893122782774 0.16668299243978099 0.51341442763127632 0.28682005118683307\ndecision_type=2 2 2 2 2\nleft_child=2 3 -1 -2 -4\nright_child=1 -3 4 -5 -6\nleaf_value=0.036825802943429652 0.0078088800209376932 -0.017314477640057904 0.026827241857106717 -0.0030531908079280447 0.015689765408551267\nleaf_weight=2085.2310257107019 1622.0485739409924 3765.4443444609642 1520.4805989712477 2193.9240939468145 1180.275766029954\nleaf_count=8147 6440 15158 5971 8769 4671\ninternal_value=0.00621554 -0.00781236 0.0284369 0.00156393 0.02196\ninternal_weight=12367.4 7581.42 4785.99 3815.97 2700.76\ninternal_count=49156 30367 18789 15209 10642\nis_linear=0\nshrinkage=0.1\n\n\nTree=2\nnum_leaves=5\nnum_cat=0\nsplit_feature=0 0 0 0\nsplit_gain=382.338 50.5863 33.3633 16.2249\nthreshold=0.5254765577324888 0.28682005118683307 0.76209992186640207 0.072781096892879885\ndecision_type=2 2 2 2\nleft_child=1 3 -2 -1\nright_child=2 -3 -4 -5\nleaf_value=0.040783809847666636 -0.0061433508079923498 0.011731123648392372 -0.021237767242201375 0.025413373330239547\nleaf_weight=914.42976659536362 2948.117412135005 2996.1828934699297 2909.4225774258375 2758.4781117886305\nleaf_count=3478 11793 11768 11756 10614\ninternal_value=0.00500085 0.0213739 -0.0136407 0.0292401\ninternal_weight=12526.6 6669.09 5857.54 3672.91\ninternal_count=49409 25860 23549 14092\nis_linear=0\nshrinkage=0.1\n\n\nTree=3\nnum_leaves=6\nnum_cat=0\nsplit_feature=0 0 0 0 0\nsplit_gain=298.287 34.3987 27.7302 10.1863 7.46736\nthreshold=0.51341442763127632 0.28682005118683307 0.73777942169878508 0.060752414363542846 0.95100750699556147\ndecision_type=2 2 2 2 2\nleft_child=1 3 -2 -1 -4\nright_child=2 -3 4 -5 -6\nleaf_value=0.034718466271644287 -0.0053102991552909928 0.0099844771164206252 -0.016742775351633567 0.021876201610945962 -0.02931679648787567\nleaf_weight=780.32020543515682 2749.3338867723942 2858.1326237767935 2598.5338860154152 2962.4882190227509 577.21285450458527\nleaf_count=2905 10967 11114 10552 11217 2362\ninternal_value=0.00362509 0.0182453 -0.0126629 0.0245536 -0.0190282\ninternal_weight=12526 6600.94 5925.08 3742.81 3175.75\ninternal_count=49117 25236 23881 14122 12914\nis_linear=0\nshrinkage=0.1\n\n\nTree=4\nnum_leaves=5\nnum_cat=0\nsplit_feature=0 0 0 0\nsplit_gain=279.091 30.7328 27.4623 9.4084\nthreshold=0.51341442763127632 0.22700151734152732 0.79722800814627626 0.60748187280201815\ndecision_type=2 2 2 2\nleft_child=1 -1 3 -2\nright_child=2 -3 -4 -5\nleaf_value=0.025353399127594042 0.0010155663085833671 0.011700320079910041 -0.020169792657536292 -0.0099954712363548685\nleaf_weight=2995.2597872465849 1164.6778609007597 3667.3324133008718 2428.0597742944956 2325.2539543956518\nleaf_count=11120 4625 14076 9955 9361\ninternal_value=0.0038008 0.0178382 -0.0120028 -0.00632081\ninternal_weight=12580.6 6662.59 5917.99 3489.93\ninternal_count=49137 25196 23941 13986\nis_linear=0\nshrinkage=0.1\n\n\nTree=5\nnum_leaves=4\nnum_cat=0\nsplit_feature=0 0 0\nsplit_gain=168.721 25.8833 18.505\nthreshold=0.51341442763127632 0.28682005118683307 0.75005122863354245\ndecision_type=2 2 2\nleft_child=1 -1 -2\nright_child=2 -3 -4\nleaf_value=0.018691852480756631 -0.0043328708661457323 0.0061553681450411853 -0.015551420542671432\nleaf_weight=3783.4916877746582 2923.6230556517839 2916.3565162420273 2957.9227179586887\nleaf_count=13916 11676 11173 12193\ninternal_value=0.0023848 0.0132349 -0.00997486\ninternal_weight=12581.4 6699.85 5881.55\ninternal_count=48958 25089 23869\nis_linear=0\nshrinkage=0.1\n\n\nTree=6\nnum_leaves=5\nnum_cat=0\nsplit_feature=0 0 0 0\nsplit_gain=178.965 25.3351 15.9217 9.81579\nthreshold=0.42974227379693836 0.60748187280201815 0.060752414363542846 0.91606724411959461\ndecision_type=2 2 2 2\nleft_child=2 -2 -1 -3\nright_child=1 3 -4 -5\nleaf_value=0.028634208809012698 0.00055839838146558545 -0.0099877784589808769 0.013586065846653311 -0.02122366875332906\nleaf_weight=822.15152451395988 2254.2988041490316 3722.5386787205935 4856.0694007128477 982.79145880043507\nleaf_count=2943 8780 15197 18051 4107\ninternal_value=0.00259039 -0.00815841 0.0157649 -0.0123346\ninternal_weight=12637.8 6959.63 5678.22 4705.33\ninternal_count=49078 28084 20994 19304\nis_linear=0\nshrinkage=0.1\n\n\nTree=7\nnum_leaves=5\nnum_cat=0\nsplit_feature=0 0 0 0\nsplit_gain=145.554 28.99 18.8233 7.68472\nthreshold=0.60748187280201815 0.16668299243978099 0.79722800814627626 0.42974227379693836\ndecision_type=2 2 2 2\nleft_child=1 -1 -2 -3\nright_child=2 3 -4 -5\nleaf_value=0.020077539544596928 -0.0052089101130648541 0.0097510445186187213 -0.017852537144113816 0.0022452938064531319\nleaf_weight=2290.1315739899874 2332.4296944141388 3413.6993383318186 2377.9157664179802 2271.9133976995945\nleaf_count=8210 9460 12704 9941 8838\ninternal_value=0.00234644 0.0105781 -0.0115918 0.00675182\ninternal_weight=12686.1 7975.74 4710.35 5685.61\ninternal_count=49153 29752 19401 21542\nis_linear=0\nshrinkage=0.1\n\n\nTree=8\nnum_leaves=5\nnum_cat=0\nsplit_feature=0 0 0 0\nsplit_gain=148.817 13.8026 12.8266 6.1981\nthreshold=0.42974227379693836 0.060752414363542846 0.57219488831501675 0.25068474641636801\ndecision_type=2 2 2 2\nleft_child=1 -1 -2 -3\nright_child=2 3 -4 -5\nleaf_value=0.024053281319497223 -0.0021447937437003286 0.013625869669671845 -0.011920957637696426 0.006558120607634034\nleaf_weight=850.55470375716686 1814.5900753289461 2612.0808663517237 5153.8233736306429 2363.4797391146421\nleaf_count=2982 7010 9410 21237 8828\ninternal_value=0.00048615 0.012281 -0.00937522 0.0102686\ninternal_weight=12794.5 5826.12 6968.41 4975.56\ninternal_count=49467 21220 28247 18238\nis_linear=0\nshrinkage=0.1\n\n\nTree=9\nnum_leaves=6\nnum_cat=0\nsplit_feature=0 0 0 0 0\nsplit_gain=117.994 15.8107 12.4776 6.55225 6.12702\nthreshold=0.47719694060258533 0.68999893122782774 0.084496519929557659 0.95100750699556147 0.31082462367880542\ndecision_type=2 2 2 2 2\nleft_child=2 -2 -1 -3 -4\nright_child=1 3 4 -5 -6\nleaf_value=0.019666273721162503 -0.003132946623405001 -0.011491963193245837 0.011151521030212939 -0.023369509274401474 0.0041951743489692011\nleaf_weight=1176.3500589728355 2659.7627962827682 3027.2709887474775 3051.0985086858273 548.61787365376949 2164.3054719865322\nleaf_count=4107 10539 12658 11030 2363 8153\ninternal_value=0.000815317 -0.00897149 0.0103631 -0.0133142 0.00826475\ninternal_weight=12627.4 6235.65 6391.75 3575.89 5215.4\ninternal_count=48850 25560 23290 15021 19183\nis_linear=0\nshrinkage=0.1\n\n\nTree=10\nnum_leaves=4\nnum_cat=0\nsplit_feature=0 0 0\nsplit_gain=105.122 20.8105 7.86477\nthreshold=0.42974227379693836 0.72519057054740588 0.048777061035755805\ndecision_type=2 2 2\nleft_child=2 -2 -1\nright_child=1 -3 -4\nleaf_value=0.02006141860038483 -0.0031508683222310437 -0.014193126059288713 0.0086212940735464882\nleaf_weight=680.29999071359634 3653.9897230267525 3202.6537604033947 5150.7577659785748\nleaf_count=2349 14469 13584 18701\ninternal_value=8.55215e-05 -0.00830857 0.00995599\ninternal_weight=12687.7 6856.64 5831.06\ninternal_count=49103 28053 21050\nis_linear=0\nshrinkage=0.1\n\n\nTree=11\nnum_leaves=4\nnum_cat=0\nsplit_feature=0 0 0\nsplit_gain=75.6299 16.0982 13.0709\nthreshold=0.51341442763127632 0.19069260637775651 0.92769133865897413\ndecision_type=2 2 2\nleft_child=1 -1 -2\nright_child=2 -3 -4\nleaf_value=0.013825428833035211 -0.0057609374831332693 0.0039640294177677744 -0.019456181145439649\nleaf_weight=2706.1388082504272 4959.6885571926832 4263.3490747362375 810.81981372833252\nleaf_count=9490 20487 15814 3532\ninternal_value=0.000782234 0.00779305 -0.00768527\ninternal_weight=12740 6969.49 5770.51\ninternal_count=49323 25304 24019\nis_linear=0\nshrinkage=0.1\n\n\nTree=12\nnum_leaves=4\nnum_cat=0\nsplit_feature=0 0 0\nsplit_gain=65.4009 17.7446 6.63055\nthreshold=0.60748187280201815 0.3231200816236916 0.90414080798757546\ndecision_type=2 2 2\nleft_child=1 -1 -2\nright_child=2 -3 -4\nleaf_value=0.0098344709418006163 -0.0072129447954579528 0.00044832856319798327 -0.01622979166563884\nleaf_weight=4507.4422339498997 3495.3051862418652 3641.2421021014452 1063.7185628265142\nleaf_count=15956 14624 13945 4668\ninternal_value=0.000274275 0.00564027 -0.00931677\ninternal_weight=12707.7 8148.68 4559.02\ninternal_count=49193 29901 19292\nis_linear=0\nshrinkage=0.1\n\n\nTree=13\nnum_leaves=4\nnum_cat=0\nsplit_feature=0 0 0\nsplit_gain=66.9445 12.6594 7.05997\nthreshold=0.4055371446095124 0.76209992186640207 0.97557154026713377\ndecision_type=2 2 2\nleft_child=-1 -2 -3\nright_child=1 2 -4\nleaf_value=0.0094764745615555784 -0.0018648449409736549 -0.0089175322673518045 -0.02632888864288558\nleaf_weight=5598.2752266824245 4387.6030837893486 2410.3535808622837 257.78994111716747\nleaf_count=19972 17463 10439 1152\ninternal_value=0.00131089 -0.00516798 -0.0105998\ninternal_weight=12654 7055.75 2668.14\ninternal_count=49026 29054 11591\nis_linear=0\nshrinkage=0.1\n\n\nTree=14\nnum_leaves=3\nnum_cat=0\nsplit_feature=0 0\nsplit_gain=52.6436 13.9156\nthreshold=0.4055371446095124 0.72519057054740588\ndecision_type=2 2\nleft_child=-1 -2\nright_child=1 -3\nleaf_value=0.0063420235465090711 -0.0027138308891488565 -0.011652024864035078\nleaf_weight=5625.9087496697903 3989.4786905199289 3091.6218100935221\nleaf_count=19989 15793 13426\ninternal_value=-0.000879104 -0.00661626\ninternal_weight=12707 7081.1\ninternal_count=49208 29219\nis_linear=0\nshrinkage=0.1\n\n\nTree=15\nnum_leaves=3\nnum_cat=0\nsplit_feature=0 0\nsplit_gain=49.4966 8.23145\nthreshold=0.60748187280201815 0.13081871430986949\ndecision_type=2 2\nleft_child=1 -1\nright_child=-2 -3\nleaf_value=0.011510570087595554 -0.0074136395356135757 0.0039346527720810261\nleaf_weight=1857.7497360259295 4490.519484013319 6290.3793598413467\nleaf_count=6392 19258 23403\ninternal_value=0.00101618 0.00566194\ninternal_weight=12638.6 8148.13\ninternal_count=49053 29795\nis_linear=0\nshrinkage=0.1\n\n\nTree=16\nnum_leaves=4\nnum_cat=0\nsplit_feature=0 0 0\nsplit_gain=61.9806 9.77892 8.82017\nthreshold=0.5254765577324888 0.31082462367880542 0.95100750699556147\ndecision_type=2 2 2\nleft_child=1 -1 -2\nright_child=2 -3 -4\nleaf_value=0.0090527632913083786 -0.0067813065683671589 0.0014928476961164395 -0.020528876204105675\nleaf_weight=4314.202785924077 4979.4973440915346 2835.6585018634796 514.94793152809143\nleaf_count=15079 20960 10650 2354\ninternal_value=-8.30522e-05 0.00605448 -0.00806975\ninternal_weight=12644.3 7149.86 5494.45\ninternal_count=49043 25729 23314\nis_linear=0\nshrinkage=0.1\n\n\nTree=17\nnum_leaves=3\nnum_cat=0\nsplit_feature=0 0\nsplit_gain=32.2134 9.05301\nthreshold=0.60748187280201815 0.084496519929557659\ndecision_type=2 2\nleft_child=1 -1\nright_child=-2 -3\nleaf_value=0.011895633130369562 -0.0066491283785456148 0.002503999494473308\nleaf_weight=1203.769960552454 4499.3233103007078 6965.3223972469568\nleaf_count=4075 19469 25682\ninternal_value=0.000145574 0.00388792\ninternal_weight=12668.4 8169.09\ninternal_count=49226 29757\nis_linear=0\nshrinkage=0.1\n\n\nTree=18\nnum_leaves=3\nnum_cat=0\nsplit_feature=0 0\nsplit_gain=36.5426 14.1151\nthreshold=0.60748187280201815 0.16668299243978099\ndecision_type=2 2\nleft_child=1 -1\nright_child=-2 -3\nleaf_value=0.010841685904376331 -0.006876791604520139 0.0017391633738137867\nleaf_weight=2402.6676859408617 4422.1586703062057 5854.8371503055096\nleaf_count=8226 19223 21805\ninternal_value=0.000459099 0.0043877\ninternal_weight=12679.7 8257.5\ninternal_count=49254 30031\nis_linear=0\nshrinkage=0.1\n\n\nTree=19\nnum_leaves=3\nnum_cat=0\nsplit_feature=0 0\nsplit_gain=28.8805 11.0551\nthreshold=0.39393696504366393 0.86780853327433183\ndecision_type=2 2\nleft_child=-1 -2\nright_child=1 -3\nleaf_value=0.0059385387206808173 -0.0017317793483364889 -0.011546754430829925\nleaf_weight=5500.686731249094 5761.7543193101883 1433.0022177994251\nleaf_count=19315 23518 6489\ninternal_value=0.000483751 -0.00368666\ninternal_weight=12695.4 7194.76\ninternal_count=49322 30007\nis_linear=0\nshrinkage=0.1\n\n\nTree=20\nnum_leaves=3\nnum_cat=0\nsplit_feature=0 0\nsplit_gain=18.9409 9.0746\nthreshold=0.28682005118683307 0.86780853327433183\ndecision_type=2 2\nleft_child=-1 -2\nright_child=1 -3\nleaf_value=0.0056374775714267021 -0.0012314815745102475 -0.010037748865125384\nleaf_weight=4040.3873652368784 7179.2721464782953 1398.019721314311\nleaf_count=13960 28714 6385\ninternal_value=-7.64951e-06 -0.00266682\ninternal_weight=12617.7 8577.29\ninternal_count=49059 35099\nis_linear=0\nshrinkage=0.1\n\n\nTree=21\nnum_leaves=2\nnum_cat=0\nsplit_feature=0\nsplit_gain=18.6597\nthreshold=0.4055371446095124\ndecision_type=2\nleft_child=-1\nright_child=-2\nleaf_value=0.005017702392559705 -0.0027166519979791078\nleaf_weight=5641.2759779691696 6977.3745633363724\nleaf_count=19797 29281\ninternal_value=0.000741057\ninternal_weight=12618.7\ninternal_count=49078\nis_linear=0\nshrinkage=0.1\n\n\nTree=22\nnum_leaves=2\nnum_cat=0\nsplit_feature=0\nsplit_gain=28.3717\nthreshold=0.47719694060258533\ndecision_type=2\nleft_child=-1\nright_child=-2\nleaf_value=0.004857617303946511 -0.0046390229681796047\nleaf_weight=6583.2327491343021 6025.1036736369133\nleaf_count=23310 25714\ninternal_value=0.000319489\ninternal_weight=12608.3\ninternal_count=49024\nis_linear=0\nshrinkage=0.1\n\n\nTree=23\nnum_leaves=2\nnum_cat=0\nsplit_feature=0\nsplit_gain=21.9481\nthreshold=0.60748187280201815\ndecision_type=2\nleft_child=-1\nright_child=-2\nleaf_value=0.002344054123062469 -0.006409931863332774\nleaf_weight=8248.6927171945572 4387.4927329421043\nleaf_count=29850 19302\ninternal_value=-0.000695475\ninternal_weight=12636.2\ninternal_count=49152\nis_linear=0\nshrinkage=0.1\n\n\nTree=24\nnum_leaves=3\nnum_cat=0\nsplit_feature=0 0\nsplit_gain=22.8472 7.20286\nthreshold=0.68999893122782774 0.14287687602780072\ndecision_type=2 2\nleft_child=1 -1\nright_child=-2 -3\nleaf_value=0.0082305480273366285 -0.006487249659301835 0.0015594970195644373\nleaf_weight=2090.3666049093008 3431.5242755115032 7170.2128414213657\nleaf_count=7056 15380 26990\ninternal_value=0.000482633 0.00306534\ninternal_weight=12692.1 9260.58\ninternal_count=49426 34046\nis_linear=0\nshrinkage=0.1\n\n\nTree=25\nnum_leaves=2\nnum_cat=0\nsplit_feature=0\nsplit_gain=13.1347\nthreshold=0.37048384062499068\ndecision_type=2\nleft_child=-1\nright_child=-2\nleaf_value=0.0031372327995709244 -0.0034106024546931759\nleaf_weight=5231.2205625772476 7393.1883864998817\nleaf_count=18174 31002\ninternal_value=-0.000697353\ninternal_weight=12624.4\ninternal_count=49176\nis_linear=0\nshrinkage=0.1\n\n\nTree=26\nnum_leaves=3\nnum_cat=0\nsplit_feature=0 0\nsplit_gain=14.8332 7.44972\nthreshold=0.93947239749298095 0.23899272889586151\ndecision_type=2 2\nleft_child=1 -1\nright_child=-2 -3\nleaf_value=0.0048996450395755366 -0.014971589726484692 -0.00060732315348575796\nleaf_weight=3444.468274101615 613.31090657413006 8564.2290286123753\nleaf_count=11741 2918 34542\ninternal_value=0.000197526 0.000972247\ninternal_weight=12622 12008.7\ninternal_count=49201 46283\nis_linear=0\nshrinkage=0.1\n\n\nTree=27\nnum_leaves=2\nnum_cat=0\nsplit_feature=0\nsplit_gain=7.36027\nthreshold=0.73777942169878508\ndecision_type=2\nleft_child=-1\nright_child=-2\nleaf_value=0.00098088155731941031 -0.004816258468829545\nleaf_weight=9806.3328724652529 2819.8984537124634\nleaf_count=36401 12876\ninternal_value=-0.000313831\ninternal_weight=12626.2\ninternal_count=49277\nis_linear=0\nshrinkage=0.1\n\n\nTree=28\nnum_leaves=2\nnum_cat=0\nsplit_feature=0\nsplit_gain=7.65369\nthreshold=0.90414080798757546\ndecision_type=2\nleft_child=-1\nright_child=-2\nleaf_value=0.0002281605292525638 -0.0089540620726116862\nleaf_weight=11592.7304815799 984.89049701392651\nleaf_count=44421 4659\ninternal_value=-0.000490853\ninternal_weight=12577.6\ninternal_count=49080\nis_linear=0\nshrinkage=0.1\n\n\nTree=29\nnum_leaves=2\nnum_cat=0\nsplit_feature=0\nsplit_gain=8.55911\nthreshold=0.92769133865897413\ndecision_type=2\nleft_child=-1\nright_child=-2\nleaf_value=0.0013796036971325705 -0.0098128779731758015\nleaf_weight=11805.365153208375 725.21660408377647\nleaf_count=45467 3494\ninternal_value=0.000731831\ninternal_weight=12530.6\ninternal_count=48961\nis_linear=0\nshrinkage=0.1\n\n\nTree=30\nnum_leaves=2\nnum_cat=0\nsplit_feature=0\nsplit_gain=10.2573\nthreshold=0.51341442763127632\ndecision_type=2\nleft_child=-1\nright_child=-2\nleaf_value=0.0026263663232483411 -0.0031300166741411988\nleaf_weight=7136.1956537365913 5466.9387274831533\nleaf_count=25340 23880\ninternal_value=0.000129385\ninternal_weight=12603.1\ninternal_count=49220\nis_linear=0\nshrinkage=0.1\n\n\nTree=31\nnum_leaves=2\nnum_cat=0\nsplit_feature=0\nsplit_gain=6.75938\nthreshold=0.91606724411959461\ndecision_type=2\nleft_child=-1\nright_child=-2\nleaf_value=-0.00039504379048808686 -0.0096718476052098448\nleaf_weight=11743.085031315684 841.73461289703846\nleaf_count=45127 4061\ninternal_value=-0.00101552\ninternal_weight=12584.8\ninternal_count=49188\nis_linear=0\nshrinkage=0.1\n\n\nTree=32\nnum_leaves=2\nnum_cat=0\nsplit_feature=0\nsplit_gain=8.726\nthreshold=0.51341442763127632\ndecision_type=2\nleft_child=-1\nright_child=-2\nleaf_value=0.0030973446497240026 -0.0022041067447096745\nleaf_weight=7098.5978685617447 5518.3078971356153\nleaf_count=25210 24198\ninternal_value=0.000778627\ninternal_weight=12616.9\ninternal_count=49408\nis_linear=0\nshrinkage=0.1\n\n\nTree=33\nnum_leaves=2\nnum_cat=0\nsplit_feature=0\nsplit_gain=7.58436\nthreshold=0.060752414363542846\ndecision_type=2\nleft_child=-1\nright_child=-2\nleaf_value=0.0090733769393405213 -0.0005688906028185652\nleaf_weight=877.3477998226881 11620.133555948734\nleaf_count=2908 46002\ninternal_value=0.000108016\ninternal_weight=12497.5\ninternal_count=48910\nis_linear=0\nshrinkage=0.1\n\n\nTree=34\nnum_leaves=2\nnum_cat=0\nsplit_feature=0\nsplit_gain=8.19011\nthreshold=0.80897279095105445\ndecision_type=2\nleft_child=-1\nright_child=-2\nleaf_value=0.0019919318954649749 -0.0049722272667116728\nleaf_weight=10578.153155699372 2009.4968298748136\nleaf_count=39829 9391\ninternal_value=0.000880171\ninternal_weight=12587.6\ninternal_count=49220\nis_linear=0\nshrinkage=0.1\n\n\nTree=35\nnum_leaves=2\nnum_cat=0\nsplit_feature=0\nsplit_gain=6.3922\nthreshold=0.98769564192029635\ndecision_type=2\nleft_child=-1\nright_child=-2\nleaf_value=0.00068537923444364111 -0.022560040473228456\nleaf_weight=12422.22174873203 119.43492746353149\nleaf_count=48439 595\ninternal_value=0.000464012\ninternal_weight=12541.7\ninternal_count=49034\nis_linear=0\nshrinkage=0.1\n\n\nTree=36\nnum_leaves=2\nnum_cat=0\nsplit_feature=0\nsplit_gain=6.14371\nthreshold=0.60748187280201815\ndecision_type=2\nleft_child=-1\nright_child=-2\nleaf_value=0.0016893455512261724 -0.0029473636440845875\nleaf_weight=8332.3572037667036 4349.2921655923128\nleaf_count=30047 19511\ninternal_value=9.91421e-05\ninternal_weight=12681.6\ninternal_count=49558\nis_linear=0\nshrinkage=0.1\n\n\nTree=37\nnum_leaves=2\nnum_cat=0\nsplit_feature=0\nsplit_gain=10.4637\nthreshold=0.68999893122782774\ndecision_type=2\nleft_child=-1\nright_child=-2\nleaf_value=0.0017071682243171979 -0.0048351297203513503\nleaf_weight=9227.2223343402147 3325.8762395307422\nleaf_count=33860 15247\ninternal_value=-2.61786e-05\ninternal_weight=12553.1\ninternal_count=49107\nis_linear=0\nshrinkage=0.1\n\n\nTree=38\nnum_leaves=2\nnum_cat=0\nsplit_feature=0\nsplit_gain=7.84741\nthreshold=0.53762646873615871\ndecision_type=2\nleft_child=-1\nright_child=-2\nleaf_value=0.0008651450902364135 -0.0042255981387192328\nleaf_weight=7396.9310806393623 5126.7998169586062\nleaf_count=26329 22689\ninternal_value=-0.00121884\ninternal_weight=12523.7\ninternal_count=49018\nis_linear=0\nshrinkage=0.1\n\n\nTree=39\nnum_leaves=2\nnum_cat=0\nsplit_feature=0\nsplit_gain=7.69702\nthreshold=0.68999893122782774\ndecision_type=2\nleft_child=-1\nright_child=-2\nleaf_value=0.0022097423855593806 -0.0034470457860731243\nleaf_weight=9197.8713818341494 3257.171611957252\nleaf_count=33803 15057\ninternal_value=0.000730411\ninternal_weight=12455\ninternal_count=48860\nis_linear=0\nshrinkage=0.1\n\n\nTree=40\nnum_leaves=2\nnum_cat=0\nsplit_feature=0\nsplit_gain=7.36618\nthreshold=0.060752414363542846\ndecision_type=2\nleft_child=-1\nright_child=-2\nleaf_value=0.0086477263599419943 -0.00075495145621124642\nleaf_weight=897.24178883433342 11669.656213901937\nleaf_count=2964 46269\ninternal_value=-8.36262e-05\ninternal_weight=12566.9\ninternal_count=49233\nis_linear=0\nshrinkage=0.1\n\n\nTree=41\nnum_leaves=2\nnum_cat=0\nsplit_feature=0\nsplit_gain=6.44218\nthreshold=0.060752414363542846\ndecision_type=2\nleft_child=-1\nright_child=-2\nleaf_value=0.0083457704904108653 -0.00046567362058863842\nleaf_weight=893.4245875030756 11639.112032741308\nleaf_count=2943 46192\ninternal_value=0.00016248\ninternal_weight=12532.5\ninternal_count=49135\nis_linear=0\nshrinkage=0.1\n\n\nTree=42\nnum_leaves=2\nnum_cat=0\nsplit_feature=0\nsplit_gain=7.28351\nthreshold=0.31082462367880542\ndecision_type=2\nleft_child=-1\nright_child=-2\nleaf_value=0.0036102216157918826 -0.0014285585954138711\nleaf_weight=4450.3268454819918 8072.1051875278354\nleaf_count=15253 33840\ninternal_value=0.000362165\ninternal_weight=12522.4\ninternal_count=49093\nis_linear=0\nshrinkage=0.1\n\n\nTree=43\nnum_leaves=2\nnum_cat=0\nsplit_feature=0\nsplit_gain=8.92188\nthreshold=0.072781096892879885\ndecision_type=2\nleft_child=-1\nright_child=-2\nleaf_value=0.0087853874936589769 -0.0008392721844779395\nleaf_weight=1051.3794689625502 11474.737257570028\nleaf_count=3462 45620\ninternal_value=-3.14265e-05\ninternal_weight=12526.1\ninternal_count=49082\nis_linear=0\nshrinkage=0.1\n\n\nTree=44\nnum_leaves=2\nnum_cat=0\nsplit_feature=0\nsplit_gain=6.47621\nthreshold=0.97557154026713377\ndecision_type=2\nleft_child=-1\nright_child=-2\nleaf_value=-0.00051238256552978655 -0.017524330369437156\nleaf_weight=12343.768284767866 227.90730361640453\nleaf_count=48141 1155\ninternal_value=-0.000820786\ninternal_weight=12571.7\ninternal_count=49296\nis_linear=0\nshrinkage=0.1\n\n\nTree=45\nnum_leaves=2\nnum_cat=0\nsplit_feature=0\nsplit_gain=9.09162\nthreshold=0.38225968642649072\ndecision_type=2\nleft_child=-1\nright_child=-2\nleaf_value=0.0037317444732662452 -0.0017118651236364239\nleaf_weight=5391.3928151279688 7119.7040123939514\nleaf_count=18689 30433\ninternal_value=0.000633943\ninternal_weight=12511.1\ninternal_count=49122\nis_linear=0\nshrinkage=0.1\n\n\nTree=46\nnum_leaves=2\nnum_cat=0\nsplit_feature=0\nsplit_gain=7.51033\nthreshold=0.73777942169878508\ndecision_type=2\nleft_child=-1\nright_child=-2\nleaf_value=0.00062281226463485823 -0.0053167438956341984\nleaf_weight=9779.1376859545708 2721.2948918566108\nleaf_count=36287 12780\ninternal_value=-0.000670206\ninternal_weight=12500.4\ninternal_count=49067\nis_linear=0\nshrinkage=0.1\n\n\nTree=47\nnum_leaves=2\nnum_cat=0\nsplit_feature=0\nsplit_gain=6.64491\nthreshold=0.95100750699556147\ndecision_type=2\nleft_child=-1\nright_child=-2\nleaf_value=-2.6749182807420241e-05 -0.012168305957498063\nleaf_weight=12027.12010435015 468.30640708655119\nleaf_count=46707 2393\ninternal_value=-0.000481793\ninternal_weight=12495.4\ninternal_count=49100\nis_linear=0\nshrinkage=0.1\n\n\nTree=48\nnum_leaves=2\nnum_cat=0\nsplit_feature=0\nsplit_gain=7.08632\nthreshold=0.91606724411959461\ndecision_type=2\nleft_child=-1\nright_child=-2\nleaf_value=0.001074901686915314 -0.0086700830625540196\nleaf_weight=11664.355170808733 797.20524932444096\nleaf_count=44960 3991\ninternal_value=0.000451484\ninternal_weight=12461.6\ninternal_count=48951\nis_linear=0\nshrinkage=0.1\n\n\nTree=49\nnum_leaves=2\nnum_cat=0\nsplit_feature=0\nsplit_gain=12.0576\nthreshold=0.048777061035755805\ndecision_type=2\nleft_child=-1\nright_child=-2\nleaf_value=0.012555744922551203 -0.00086470848324527437\nleaf_weight=709.82978542149067 11772.671811118722\nleaf_count=2327 46727\ninternal_value=-0.000101541\ninternal_weight=12482.5\ninternal_count=49054\nis_linear=0\nshrinkage=0.1\n\n\nTree=50\nnum_leaves=2\nnum_cat=0\nsplit_feature=0\nsplit_gain=6.67826\nthreshold=0.31082462367880542\ndecision_type=2\nleft_child=-1\nright_child=-2\nleaf_value=0.003338160749290206 -0.0015009324122749075\nleaf_weight=4416.1244018524885 8051.5637695863843\nleaf_count=15134 33934\ninternal_value=0.000213101\ninternal_weight=12467.7\ninternal_count=49068\nis_linear=0\nshrinkage=0.1\n\n\nTree=51\nnum_leaves=2\nnum_cat=0\nsplit_feature=0\nsplit_gain=6.78098\nthreshold=0.64364910956534194\ndecision_type=2\nleft_child=-1\nright_child=-2\nleaf_value=0.00055709134695268144 -0.0045095745719027957\nleaf_weight=8650.1396829485893 3802.7113302722573\nleaf_count=31487 17543\ninternal_value=-0.00099011\ninternal_weight=12452.9\ninternal_count=49030\nis_linear=0\nshrinkage=0.1\n\n\nend of trees\n\nfeature_importances:\nf6=104\n\nparameters:\n[boosting: gbdt]\n[objective: custom]\n[metric: l2]\n[tree_learner: serial]\n[device_type: cpu]\n[data_sample_strategy: bagging]\n[data: ]\n[valid: ]\n[num_iterations: 100]\n[learning_rate: 0.1]\n[num_leaves: 94]\n[num_threads: -1]\n[seed: 0]\n[deterministic: 0]\n[force_col_wise: 0]\n[force_row_wise: 0]\n[histogram_pool_size: -1]\n[max_depth: -1]\n[min_data_in_leaf: 57]\n[min_sum_hessian_in_leaf: 0.107619]\n[bagging_fraction: 0.491214]\n[pos_bagging_fraction: 1]\n[neg_bagging_fraction: 1]\n[bagging_freq: 1]\n[bagging_seed: 3]\n[bagging_by_query: 0]\n[feature_fraction: 0.436645]\n[feature_fraction_bynode: 1]\n[feature_fraction_seed: 2]\n[extra_trees: 0]\n[extra_seed: 6]\n[early_stopping_round: 0]\n[early_stopping_min_delta: 0]\n[first_metric_only: 0]\n[max_delta_step: 0]\n[lambda_l1: 4.46454e-08]\n[lambda_l2: 1.476e-07]\n[linear_lambda: 0]\n[min_gain_to_split: 6.11788]\n[drop_rate: 0.1]\n[max_drop: 50]\n[skip_drop: 0.5]\n[xgboost_dart_mode: 0]\n[uniform_drop: 0]\n[drop_seed: 4]\n[top_rate: 0.2]\n[other_rate: 0.1]\n[min_data_per_group: 100]\n[max_cat_threshold: 32]\n[cat_l2: 10]\n[cat_smooth: 10]\n[max_cat_to_onehot: 4]\n[top_k: 20]\n[monotone_constraints: -1]\n[monotone_constraints_method: advanced]\n[monotone_penalty: 0]\n[feature_contri: ]\n[forcedsplits_filename: ]\n[refit_decay_rate: 0.9]\n[cegb_tradeoff: 1]\n[cegb_penalty_split: 0]\n[cegb_penalty_feature_lazy: ]\n[cegb_penalty_feature_coupled: ]\n[path_smooth: 0]\n[interaction_constraints: [0]]\n[verbosity: -1]\n[saved_feature_importance_type: 0]\n[use_quantized_grad: 0]\n[num_grad_quant_bins: 4]\n[quant_train_renew_leaf: 0]\n[stochastic_rounding: 1]\n[linear_tree: 0]\n[max_bin: 85]\n[max_bin_by_feature: ]\n[min_data_in_bin: 3]\n[bin_construct_sample_cnt: 200000]\n[data_random_seed: 1]\n[is_enable_sparse: 1]\n[enable_bundle: 1]\n[use_missing: 1]\n[zero_as_missing: 0]\n[feature_pre_filter: 1]\n[pre_partition: 0]\n[two_round: 0]\n[header: 0]\n[label_column: ]\n[weight_column: ]\n[group_column: ]\n[ignore_column: ]\n[categorical_feature: ]\n[forcedbins_filename: ]\n[precise_float_parser: 0]\n[parser_config_file: ]\n[objective_seed: 5]\n[num_class: 1]\n[is_unbalance: 0]\n[scale_pos_weight: 1]\n[sigmoid: 1]\n[boost_from_average: 1]\n[reg_sqrt: 0]\n[alpha: 0.9]\n[fair_c: 1]\n[poisson_max_delta_step: 0.7]\n[tweedie_variance_power: 1.5]\n[lambdarank_truncation_level: 30]\n[lambdarank_norm: 1]\n[label_gain: ]\n[lambdarank_position_bias_regularization: 0]\n[eval_at: ]\n[multi_error_top_k: 1]\n[auc_mu_weights: ]\n[num_machines: 1]\n[local_listen_port: 12400]\n[time_out: 120]\n[machine_list_filename: ]\n[machines: ]\n[gpu_platform_id: -1]\n[gpu_device_id: -1]\n[gpu_use_dp: 0]\n[num_gpu: 1]\n\nend of parameters\n\npandas_categorical:null\n", "tree\nversion=v4\nnum_class=1\nnum_tree_per_iteration=1\nlabel_index=0\nmax_feature_idx=0\nfeature_names=f7\nmonotone_constraints=-1\nfeature_infos=[2.0818988930249027e-05:0.99999439000684653]\ntree_sizes=817 798 585 691 691 584 583 688 692 581 585 583 584 585 584 479 474 585 480 478 368 479 365 370 363 370 370 480 366 368 371 371 371 371 370 370 366 370 369 370 368 371 369 371 370 371 368\n\nTree=0\nnum_leaves=7\nnum_cat=0\nsplit_feature=0 0 0 0 0 0\nsplit_gain=290.367 45.8536 39.8674 9.04835 7.39489 6.16164\nthreshold=0.44981077472212344 0.18843727077010122 0.74903708621760401 0.306579109369783 0.59367256122533851 0.047726358570060419\ndecision_type=2 2 2 2 2 2\nleft_child=1 5 4 -3 -2 -1\nright_child=2 3 -4 -5 -6 -7\nleaf_value=0.018854211188974034 -0.019795512634259379 -0.0027045187267839867 -0.039899399639671033 -0.013342981182961523 -0.028785095770814357 0.0070103384758536912\nleaf_weight=584.75 1760.5 1488.25 3081.5 1727.5 1905.5 1765.25\nleaf_count=2339 7042 5953 12326 6910 7622 7061\ninternal_value=-0.0175685 -0.000660288 -0.0315154 -0.0084195 -0.0244681 0.00995745\ninternal_weight=12313.2 5565.75 6747.5 3215.75 3666 2350\ninternal_count=49253 22263 26990 12863 14664 9400\nis_linear=0\nshrinkage=0.1\n\n\nTree=1\nnum_leaves=6\nnum_cat=0\nsplit_feature=0 0 0 0 0\nsplit_gain=239.327 47.4377 31.1964 6.66191 6.4233\nthreshold=0.49781942675087953 0.20055686492001554 0.74903708621760401 0.87980536584395252 0.12978310907541121\ndecision_type=2 2 2 2 2\nleft_child=1 4 -2 -4 -1\nright_child=2 -3 3 -5 -6\nleaf_value=0.013764782615776542 -0.021628270292877613 -0.0079644114358921915 -0.031542306574662081 -0.040999083482862464 0.0031210608038659471\nleaf_weight=1597.2767415642738 3013.1467077881098 3630.3384856581688 1562.5754547864199 1423.5910351276398 879.00440530478954\nleaf_count=6391 12283 14689 6418 5847 3528\ninternal_value=-0.0146214 -0.000685144 -0.028807 -0.0360506 0.00998659\ninternal_weight=12105.9 6106.62 5999.31 2986.17 2476.28\ninternal_count=49156 24608 24548 12265 9919\nis_linear=0\nshrinkage=0.1\n\n\nTree=2\nnum_leaves=4\nnum_cat=0\nsplit_feature=0 0 0\nsplit_gain=215.867 32.2952 28.7843\nthreshold=0.46156826981882421 0.78373014870265634 0.27117547150480131\ndecision_type=2 2 2\nleft_child=2 -2 -1\nright_child=1 -3 -4\nleaf_value=0.0077014881458206293 -0.019416891028285907 -0.034067214010012274 -0.0068384705824732347\nleaf_weight=3322.0116416960955 3804.6416468918324 2489.0680090337992 2307.1090922355652\nleaf_count=13458 15892 10560 9499\ninternal_value=-0.0124855 -0.0252109 0.00174225\ninternal_weight=11922.8 6293.71 5629.12\ninternal_count=49409 26452 22957\nis_linear=0\nshrinkage=0.1\n\n\nTree=3\nnum_leaves=5\nnum_cat=0\nsplit_feature=0 0 0 0\nsplit_gain=213.46 32.0754 24.8464 10.1707\nthreshold=0.44981077472212344 0.12978310907541121 0.68866621544781215 0.27117547150480131\ndecision_type=2 2 2 2\nleft_child=1 -1 -2 -3\nright_child=2 3 -4 -5\nleaf_value=0.016431805754319379 -0.015592486032105788 0.0051899919683688241 -0.028289109741204549 -0.0051950632695647973\nleaf_weight=1584.8156537860632 2761.6539102345705 1721.5496300309896 3487.9385433793068 2085.4213686287403\nleaf_count=6420 11750 7069 15169 8709\ninternal_value=-0.010101 0.00447761 -0.0226786 -0.000498839\ninternal_weight=11641.4 5391.79 6249.59 3806.97\ninternal_count=49117 22198 26919 15778\nis_linear=0\nshrinkage=0.1\n\n\nTree=4\nnum_leaves=5\nnum_cat=0\nsplit_feature=0 0 0 0\nsplit_gain=184.68 33.6929 26.4555 9.40966\nthreshold=0.49781942675087953 0.27117547150480131 0.74903708621760401 0.047726358570060419\ndecision_type=2 2 2 2\nleft_child=1 3 -2 -1\nright_child=2 -3 -4 -5\nleaf_value=0.022426653511479575 -0.014521964348819364 -0.0043805892662251789 -0.028339766395532665 0.0083347913295160319\nleaf_weight=573.56199267506599 2810.6956045329571 2635.1661804765463 2732.806759595871 2725.5319032669067\nleaf_count=2315 12226 11168 12242 11186\ninternal_value=-0.00820959 0.00405042 -0.0213338 0.0107847\ninternal_weight=11477.8 5934.26 5543.5 3299.09\ninternal_count=49137 24669 24468 13501\nis_linear=0\nshrinkage=0.1\n\n\nTree=5\nnum_leaves=4\nnum_cat=0\nsplit_feature=0 0 0\nsplit_gain=160.898 24.989 14.6604\nthreshold=0.55747363804528827 0.27117547150480131 0.74903708621760401\ndecision_type=2 2 2\nleft_child=1 -1 -2\nright_child=2 -3 -4\nleaf_value=0.0085509448781806875 -0.015466861031805328 -0.0037976138697948681 -0.026671240598714938\nleaf_weight=3309.3629690259695 2083.397469446063 3246.3000293970108 2657.2861132323742\nleaf_count=13564 9219 13975 12200\ninternal_value=-0.00771283 0.00243606 -0.0217472\ninternal_weight=11296.3 6555.66 4740.68\ninternal_count=48958 27539 21419\nis_linear=0\nshrinkage=0.1\n\n\nTree=6\nnum_leaves=4\nnum_cat=0\nsplit_feature=0 0 0\nsplit_gain=140.519 26.6111 18.1683\nthreshold=0.46156826981882421 0.14173740534559739 0.74903708621760401\ndecision_type=2 2 2\nleft_child=1 -1 -2\nright_child=2 -3 -4\nleaf_value=0.016470459371892766 -0.011039856316343032 0.0014496611319452163 -0.022309021707337146\nleaf_weight=1734.8606266379356 3145.0268692970276 3684.0357074141502 2624.5098338872194\nleaf_count=7053 14060 15630 12335\ninternal_value=-0.00530515 0.00625857 -0.0161661\ninternal_weight=11188.4 5418.9 5769.54\ninternal_count=49078 22683 26395\nis_linear=0\nshrinkage=0.1\n\n\nTree=7\nnum_leaves=5\nnum_cat=0\nsplit_feature=0 0 0 0\nsplit_gain=149.362 22.4167 16.922 6.13955\nthreshold=0.47376696848188388 0.701281734969187 0.306579109369783 0.90430648149221582\ndecision_type=2 2 2 2\nleft_child=2 -2 -1 -3\nright_child=1 3 -4 -5\nleaf_value=0.011393467898736204 -0.0085944122493543038 -0.018342191937272052 -0.00027633059299146185 -0.027915789772866476\nleaf_weight=3696.5705438107252 2459.3063074499369 2101.797033727169 1871.7653151154518 983.22674611210823\nleaf_count=15262 11109 9936 8123 4723\ninternal_value=-0.00409766 -0.0157161 0.00747073 -0.0213934\ninternal_weight=11112.7 5544.33 5568.34 3085.02\ninternal_count=49153 25768 23385 14659\nis_linear=0\nshrinkage=0.1\n\n\nTree=8\nnum_leaves=5\nnum_cat=0\nsplit_feature=0 0 0 0\nsplit_gain=102.576 22.6766 13.5275 7.3487\nthreshold=0.44981077472212344 0.68866621544781215 0.306579109369783 0.95226377173163834\ndecision_type=2 2 2 2\nleft_child=2 -2 -1 -3\nright_child=1 3 -4 -5\nleaf_value=0.0098627459212790591 -0.0058005354651342565 -0.016380319025746062 -0.0010594105785123968 -0.029913940319304951\nleaf_weight=3716.5659671574831 2607.4453905969858 2682.2465770989656 1631.8682581484318 471.79219149053097\nleaf_count=15310 11841 12905 7090 2321\ninternal_value=-0.00344261 -0.0127005 0.00653027 -0.0184047\ninternal_weight=11109.9 5761.48 5348.43 3154.04\ninternal_count=49467 27067 22400 15226\nis_linear=0\nshrinkage=0.1\n\n\nTree=9\nnum_leaves=4\nnum_cat=0\nsplit_feature=0 0 0\nsplit_gain=89.7198 23.5339 7.3641\nthreshold=0.61675955457724352 0.18843727077010122 0.78373014870265634\ndecision_type=2 2 2\nleft_child=1 -1 -2\nright_child=2 -3 -4\nleaf_value=0.012127681131782666 -0.010297191255620805 -0.00022602607539028759 -0.019101367658759298\nleaf_weight=2278.768938973546 1702.2445120364428 4769.8072601854801 2149.951528429985\nleaf_count=9248 8003 20927 10672\ninternal_value=-0.00293899 0.00376786 -0.0152109\ninternal_weight=10900.8 7048.58 3852.2\ninternal_count=48850 30175 18675\nis_linear=0\nshrinkage=0.1\n\n\nTree=10\nnum_leaves=4\nnum_cat=0\nsplit_feature=0 0 0\nsplit_gain=83.1257 15.3729 11.6902\nthreshold=0.54616283142126776 0.7605269378284264 0.17675865856749109\ndecision_type=2 2 2\nleft_child=2 -2 -1\nright_child=1 -3 -4\nleaf_value=0.011163061873966542 -0.0065326845205452948 -0.018132875078213151 0.0021331993756240624\nleaf_weight=2183.4116788208485 2241.2193558216095 2330.2015946507454 4175.4942263513803\nleaf_count=8805 10475 11693 18130\ninternal_value=-0.00216038 -0.0124457 0.00523372\ninternal_weight=10930.3 4571.42 6358.91\ninternal_count=49103 22168 26935\nis_linear=0\nshrinkage=0.1\n\n\nTree=11\nnum_leaves=4\nnum_cat=0\nsplit_feature=0 0 0\nsplit_gain=55.8893 13.6376 8.09864\nthreshold=0.59367256122533851 0.28319408281996361 0.84361806036216891\ndecision_type=2 2 2\nleft_child=1 -1 -2\nright_child=2 -3 -4\nleaf_value=0.0082632022515124835 -0.0075615064324776942 -0.00062378713959855689 -0.016847768232466\nleaf_weight=3458.5925298929214 2544.1797267794609 3448.4101581573486 1488.6491441726685\nleaf_count=14104 12273 15336 7610\ninternal_value=-0.00163533 0.00382626 -0.0109894\ninternal_weight=10939.8 6907 4032.83\ninternal_count=49323 29440 19883\nis_linear=0\nshrinkage=0.1\n\n\nTree=12\nnum_leaves=4\nnum_cat=0\nsplit_feature=0 0 0\nsplit_gain=53.4013 15.4451 9.93502\nthreshold=0.60474788478035035 0.047726358570060419 0.95226377173163834\ndecision_type=2 2 2\nleft_child=1 -1 -2\nright_child=2 -3 -4\nleaf_value=0.018571296563216023 -0.0097205519331246375 0.001649705639305641 -0.025528082778703345\nleaf_weight=589.01149633526802 3431.6442205607891 6403.7011171132326 449.69742412865162\nleaf_count=2327 16987 27525 2354\ninternal_value=-0.00214588 0.00307505 -0.011552\ninternal_weight=10874.1 6992.71 3881.34\ninternal_count=49193 29852 19341\nis_linear=0\nshrinkage=0.1\n\n\nTree=13\nnum_leaves=4\nnum_cat=0\nsplit_feature=0 0 0\nsplit_gain=61.8368 17.3816 10.093\nthreshold=0.46156826981882421 0.78373014870265634 0.306579109369783\ndecision_type=2 2 2\nleft_child=2 -2 -1\nright_child=1 -3 -4\nleaf_value=0.0078973826930690497 -0.0057372840953756931 -0.017510036444729312 -0.0013294155514160931\nleaf_weight=3729.2466302514076 3337.9173759520054 2008.8681485950947 1738.0835288912058\nleaf_count=15200 15759 10448 7619\ninternal_value=-0.00251387 -0.0101605 0.00496415\ninternal_weight=10814.1 5346.79 5467.33\ninternal_count=49026 26207 22819\nis_linear=0\nshrinkage=0.1\n\n\nTree=14\nnum_leaves=4\nnum_cat=0\nsplit_feature=0 0 0\nsplit_gain=46.4366 8.64449 8.40745\nthreshold=0.44981077472212344 0.14173740534559739 0.7954548210206499\ndecision_type=2 2 2\nleft_child=1 -1 -2\nright_child=2 -3 -4\nleaf_value=0.012742507434133108 -0.0032104332260931069 0.0042284321678352317 -0.011495393723023151\nleaf_weight=1788.6542219370604 3584.4538109153509 3578.030253097415 1860.6633278131485\nleaf_count=7103 17013 15260 9832\ninternal_value=0.000464741 0.00706608 -0.00604151\ninternal_weight=10811.8 5366.68 5445.12\ninternal_count=49208 22363 26845\nis_linear=0\nshrinkage=0.1\n\n\nTree=15\nnum_leaves=3\nnum_cat=0\nsplit_feature=0 0\nsplit_gain=34.2279 8.12512\nthreshold=0.47376696848188388 0.87980536584395252\ndecision_type=2 2\nleft_child=-1 -2\nright_child=1 -3\nleaf_value=0.0032348968769150988 -0.0060123452835785622 -0.015796049527047201\nleaf_weight=5624.0630465149879 4077.6555362194777 1071.9880925565958\nleaf_count=23444 19849 5760\ninternal_value=-0.00215861 -0.00804899\ninternal_weight=10773.7 5149.64\ninternal_count=49053 25609\nis_linear=0\nshrinkage=0.1\n\n\nTree=16\nnum_leaves=3\nnum_cat=0\nsplit_feature=0 0\nsplit_gain=43.021 11.3844\nthreshold=0.54616283142126776 0.047726358570060419\ndecision_type=2 2\nleft_child=1 -1\nright_child=-2 -3\nleaf_value=0.017071334940384934 -0.0088687519616372813 0.0026347229442117617\nleaf_weight=603.58814217150211 4387.8648883104324 5748.517348587513\nleaf_count=2342 22243 24458\ninternal_value=-0.00125374 0.00400651\ninternal_weight=10740 6352.11\ninternal_count=49043 26800\nis_linear=0\nshrinkage=0.1\n\n\nTree=17\nnum_leaves=4\nnum_cat=0\nsplit_feature=0 0 0\nsplit_gain=44.2941 8.78974 6.27989\nthreshold=0.49781942675087953 0.036722009229971993 0.86778936393894834\ndecision_type=2 2 2\nleft_child=1 -1 -2\nright_child=2 -3 -4\nleaf_value=0.018048562128142275 -0.0062407824421227562 0.0035059639228090969 -0.014616805154515636\nleaf_weight=450.02135895192623 3692.9633854180574 5436.187987729907 1181.4809342026711\nleaf_count=1737 18200 22848 6441\ninternal_value=-0.00122066 0.0046178 -0.00827099\ninternal_weight=10760.7 5886.21 4874.44\ninternal_count=49226 24585 24641\nis_linear=0\nshrinkage=0.1\n\n\nTree=18\nnum_leaves=3\nnum_cat=0\nsplit_feature=0 0\nsplit_gain=33.8244 8.96368\nthreshold=0.68866621544781215 0.16535586601205396\ndecision_type=2 2\nleft_child=1 -1\nright_child=-2 -3\nleaf_value=0.0085146117136493445 -0.0097763475281043913 0.00088294873085069468\nleaf_weight=2096.9131346344948 2863.7279609590769 5784.7986667007208\nleaf_count=8267 15207 25780\ninternal_value=-0.000468545 0.00291334\ninternal_weight=10745.4 7881.71\ninternal_count=49254 34047\nis_linear=0\nshrinkage=0.1\n\n\nTree=19\nnum_leaves=3\nnum_cat=0\nsplit_feature=0 0\nsplit_gain=26.528 6.31246\nthreshold=0.46156826981882421 0.89197325600227895\ndecision_type=2 2\nleft_child=-1 -2\nright_child=1 -3\nleaf_value=0.004302156129593929 -0.0039937015316414016 -0.012959960974775371\nleaf_weight=5502.7356694489717 4280.0657689273357 961.60156117379665\nleaf_count=22770 21199 5353\ninternal_value=-0.000547447 -0.00563859\ninternal_weight=10744.4 5241.67\ninternal_count=49322 26552\nis_linear=0\nshrinkage=0.1\n\n\nTree=20\nnum_leaves=2\nnum_cat=0\nsplit_feature=0\nsplit_gain=15.6891\nthreshold=0.59367256122533851\ndecision_type=2\nleft_child=-1\nright_child=-2\nleaf_value=0.0018259134032261417 -0.0061810159276853996\nleaf_weight=6884.0279530435801 3796.9620164185762\nleaf_count=29171 19888\ninternal_value=-0.00102045\ninternal_weight=10681\ninternal_count=49059\nis_linear=0\nshrinkage=0.1\n\n\nTree=21\nnum_leaves=3\nnum_cat=0\nsplit_feature=0 0\nsplit_gain=16.2021 6.75545\nthreshold=0.28319408281996361 0.87980536584395252\ndecision_type=2 2\nleft_child=-1 -2\nright_child=1 -3\nleaf_value=0.0057636704843242702 -0.0012822796565895144 -0.0099907061937266478\nleaf_weight=3485.109120965004 6130.3359646648169 1042.2352465540171\nleaf_count=13952 29247 5879\ninternal_value=0.000170164 -0.00254769\ninternal_weight=10657.7 7172.57\ninternal_count=49078 35126\nis_linear=0\nshrinkage=0.1\n\n\nTree=22\nnum_leaves=2\nnum_cat=0\nsplit_feature=0\nsplit_gain=29\nthreshold=0.61675955457724352\ndecision_type=2\nleft_child=-1\nright_child=-2\nleaf_value=0.002962990447905915 -0.0081296923494567856\nleaf_weight=7130.1730540245771 3520.4754977524281\nleaf_count=30340 18684\ninternal_value=-0.000703595\ninternal_weight=10650.6\ninternal_count=49024\nis_linear=0\nshrinkage=0.1\n\n\nTree=23\nnum_leaves=2\nnum_cat=0\nsplit_feature=0\nsplit_gain=18.4479\nthreshold=0.41367865483910887\ndecision_type=2\nleft_child=-1\nright_child=-2\nleaf_value=0.0033473739736801533 -0.0049860256528743291\nleaf_weight=5000.7337776422501 5666.6695277243853\nleaf_count=20482 28670\ninternal_value=-0.00107944\ninternal_weight=10667.4\ninternal_count=49152\nis_linear=0\nshrinkage=0.1\n\n\nTree=24\nnum_leaves=2\nnum_cat=0\nsplit_feature=0\nsplit_gain=14.727\nthreshold=0.306579109369783\ndecision_type=2\nleft_child=-1\nright_child=-2\nleaf_value=0.0050215412471855151 -0.0027111179863472095\nleaf_weight=3838.25921420753 6873.7905734032393\nleaf_count=15366 34060\ninternal_value=5.95889e-05\ninternal_weight=10712\ninternal_count=49426\nis_linear=0\nshrinkage=0.1\n\n\nTree=25\nnum_leaves=2\nnum_cat=0\nsplit_feature=0\nsplit_gain=14.2493\nthreshold=0.74903708621760401\ndecision_type=2\nleft_child=-1\nright_child=-2\nleaf_value=0.0026084361577772396 -0.0064496897848591757\nleaf_weight=8461.5126392245293 2185.1547733396292\nleaf_count=36962 12214\ninternal_value=0.000749319\ninternal_weight=10646.7\ninternal_count=49176\nis_linear=0\nshrinkage=0.1\n\n\nTree=26\nnum_leaves=2\nnum_cat=0\nsplit_feature=0\nsplit_gain=11.3135\nthreshold=0.74903708621760401\ndecision_type=2\nleft_child=-1\nright_child=-2\nleaf_value=0.0015777143434880939 -0.0065019679223840433\nleaf_weight=8483.8024213314056 2177.948195040226\nleaf_count=36975 12226\ninternal_value=-7.27772e-05\ninternal_weight=10661.8\ninternal_count=49201\nis_linear=0\nshrinkage=0.1\n\n\nTree=27\nnum_leaves=3\nnum_cat=0\nsplit_feature=0 0\nsplit_gain=12.1756 6.26819\nthreshold=0.68866621544781215 0.96410542142435174\ndecision_type=2 2\nleft_child=-1 -2\nright_child=1 -3\nleaf_value=0.0018885743352104146 -0.0041391150688684609 -0.019304196793824439\nleaf_weight=7891.4491498172283 2465.4652646631002 306.42918474972248\nleaf_count=33973 13495 1809\ninternal_value=-0.000114094 -0.00581559\ninternal_weight=10663.3 2771.89\ninternal_count=49277 15304\nis_linear=0\nshrinkage=0.1\n\n\nTree=28\nnum_leaves=2\nnum_cat=0\nsplit_feature=0\nsplit_gain=11.4038\nthreshold=0.60474788478035035\ndecision_type=2\nleft_child=-1\nright_child=-2\nleaf_value=0.002450847689107223 -0.00449587871190423\nleaf_weight=7080.5424473136663 3546.923673607409\nleaf_count=29957 19123\ninternal_value=0.000132373\ninternal_weight=10627.5\ninternal_count=49080\nis_linear=0\nshrinkage=0.1\n\n\nTree=29\nnum_leaves=2\nnum_cat=0\nsplit_feature=0\nsplit_gain=9.7006\nthreshold=0.27117547150480131\ndecision_type=2\nleft_child=-1\nright_child=-2\nleaf_value=0.005125147812981192 -0.0013861948563980309\nleaf_weight=3370.5049823522568 7124.0308469608426\nleaf_count=13315 35198\ninternal_value=0.000705038\ninternal_weight=10494.5\ninternal_count=48513\nis_linear=0\nshrinkage=0.1\n\n\nTree=30\nnum_leaves=2\nnum_cat=0\nsplit_feature=0\nsplit_gain=9.32343\nthreshold=0.46156826981882421\ndecision_type=2\nleft_child=-1\nright_child=-2\nleaf_value=0.0024670457342485463 -0.0034731283617959715\nleaf_weight=5599.4066389799118 5003.2001214101911\nleaf_count=22934 26027\ninternal_value=-0.000336027\ninternal_weight=10602.6\ninternal_count=48961\nis_linear=0\nshrinkage=0.1\n\n\nTree=31\nnum_leaves=2\nnum_cat=0\nsplit_feature=0\nsplit_gain=8.38511\nthreshold=0.59367256122533851\ndecision_type=2\nleft_child=-1\nright_child=-2\nleaf_value=0.0016335829668795605 -0.0042691714255075992\nleaf_weight=6964.6765648573637 3677.1894441694021\nleaf_count=29320 19900\ninternal_value=-0.000406054\ninternal_weight=10641.9\ninternal_count=49220\nis_linear=0\nshrinkage=0.1\n\n\nTree=32\nnum_leaves=2\nnum_cat=0\nsplit_feature=0\nsplit_gain=6.86511\nthreshold=0.46156826981882421\ndecision_type=2\nleft_child=-1\nright_child=-2\nleaf_value=0.0020004538562125268 -0.0030770832300999057\nleaf_weight=5604.4496835321188 5073.2477744370699\nleaf_count=22903 