{"boosters": ["tree\nversion=v4\nnum_class=1\nnum_tree_per_iteration=1\nlabel_index=0\nmax_feature_idx=18\nfeature_names=chronic_mod nb_doctor_visits maxgrip daily_activities_index instrumental_activities_index mobilityind lgmuscle grossmotor finemotor recall_1 recall_2 bmi sphus_fair sphus_good sphus_poor sphus_very_good hospitalised_last_year_yes nursing_home_last_year_yes_permanently nursing_home_last_year_yes_temporarily\nmonotone_constraints=0 0 0 0 0 0 0 0 0 0 0 0 0 0 0 0 0 0 0\nfeature_infos=[0:7] [0:98] [4:90] [0:5] [0:5] [0:4] [0:4] [0:4] [0:3] [0:10] [0:10] [14.4795:57.803466999999998] [0:1] [0:1] [0:1] [0:1] [0:1] none none\ntree_sizes=349 347 349 345 348 349 349 348 349 349 351 349 353 349 349 348 355 351 352 346 353 351 347 354 348 354 350 348 354\n\nTree=0\nnum_leaves=2\nnum_cat=0\nsplit_feature=5\nsplit_gain=3735.16\nthreshold=1.0000000180025095e-35\ndecision_type=2\nleft_child=-1\nright_child=-2\nleaf_value=0.079886497998783376 0.28918461798028161\nleaf_weight=2760.5826129317284 1233.7310568094254\nleaf_count=4417 1974\ninternal_value=0\ninternal_weight=0\ninternal_count=6391\nis_linear=0\nshrinkage=0.1\n\n\nTree=1\nnum_leaves=2\nnum_cat=0\nsplit_feature=6\nsplit_gain=2969.07\nthreshold=1.0000000180025095e-35\ndecision_type=2\nleft_child=-1\nright_child=-2\nleaf_value=0.059776702721281362 0.234646186138253\nleaf_weight=2688.6777992844582 1519.7535314559937\nleaf_count=4135 2256\ninternal_value=0\ninternal_weight=0\ninternal_count=6391\nis_linear=0\nshrinkage=0.1\n\n\nTree=2\nnum_leaves=2\nnum_cat=0\nsplit_feature=14\nsplit_gain=2634.81\nthreshold=1.0000000180025095e-35\ndecision_type=2\nleft_child=-1\nright_child=-2\nleaf_value=0.087278764592643873 0.42748574618844648\nleaf_weight=4137.2317664027214 240.90318262577057\nleaf_count=6058 333\ninternal_value=0\ninternal_weight=0\ninternal_count=6391\nis_linear=0\nshrinkage=0.1\n\n\nTree=3\nnum_leaves=2\nnum_cat=0\nsplit_feature=6\nsplit_gain=1921.81\nthreshold=1.5000000000000002\ndecision_type=2\nleft_child=-1\nright_child=-2\nleaf_value=0.060751051368034915 0.22743808281908384\nleaf_weight=3665.5738336443901 852.55953478813171\nleaf_count=5266 1125\ninternal_value=0\ninternal_weight=0\ninternal_count=6391\nis_linear=0\nshrinkage=0.1\n\n\nTree=4\nnum_leaves=2\nnum_cat=0\nsplit_feature=7\nsplit_gain=1668.09\nthreshold=1.0000000180025095e-35\ndecision_type=2\nleft_child=-1\nright_child=-2\nleaf_value=0.055415216238267721 0.22264607371731501\nleaf_weight=3927.1784867048264 703.28196680545807\nleaf_count=5502 889\ninternal_value=0\ninternal_weight=0\ninternal_count=6391\nis_linear=0\nshrinkage=0.1\n\n\nTree=5\nnum_leaves=2\nnum_cat=0\nsplit_feature=14\nsplit_gain=1485.12\nthreshold=1.0000000180025095e-35\ndecision_type=2\nleft_child=-1\nright_child=-2\nleaf_value=0.057058062704004313 0.29366661509592024\nleaf_weight=4441.3060988783836 282.12899881601334\nleaf_count=6058 333\ninternal_value=0\ninternal_weight=0\ninternal_count=6391\nis_linear=0\nshrinkage=0.1\n\n\nTree=6\nnum_leaves=2\nnum_cat=0\nsplit_feature=12\nsplit_gain=1346.47\nthreshold=1.0000000180025095e-35\ndecision_type=2\nleft_child=-1\nright_child=-2\nleaf_value=0.033221448488914916 0.15727607792969658\nleaf_weight=3651.444540977478 1150.6217545866966\nleaf_count=4912 1479\ninternal_value=0\ninternal_weight=0\ninternal_count=6391\nis_linear=0\nshrinkage=0.1\n\n\nTree=7\nnum_leaves=2\nnum_cat=0\nsplit_feature=6\nsplit_gain=1233.08\nthreshold=1.0000000180025095e-35\ndecision_type=2\nleft_child=-1\nright_child=-2\nleaf_value=0.016535128161194412 0.1202838377862407\nleaf_weight=3029.2921267151833 1842.2717792987823\nleaf_count=4135 2256\ninternal_value=0\ninternal_weight=0\ninternal_count=6391\nis_linear=0\nshrinkage=0.1\n\n\nTree=8\nnum_leaves=2\nnum_cat=0\nsplit_feature=14\nsplit_gain=1107.71\nthreshold=1.0000000180025095e-35\ndecision_type=2\nleft_child=-1\nright_child=-2\nleaf_value=0.037574816747168803 0.23658313490462263\nleaf_weight=4626.4659397006035 297.69203531742096\nleaf_count=6058 333\ninternal_value=0\ninternal_weight=0\ninternal_count=6391\nis_linear=0\nshrinkage=0.1\n\n\nTree=9\nnum_leaves=2\nnum_cat=0\nsplit_feature=5\nsplit_gain=969.668\nthreshold=1.0000000180025095e-35\ndecision_type=2\nleft_child=-1\nright_child=-2\nleaf_value=0.012858880997090245 0.10644411622534251\nleaf_weight=3307.4192909002304 1664.2669106721878\nleaf_count=4417 1974\ninternal_value=0\ninternal_weight=0\ninternal_count=6391\nis_linear=0\nshrinkage=0.1\n\n\nTree=10\nnum_leaves=2\nnum_cat=0\nsplit_feature=12\nsplit_gain=887.692\nthreshold=1.0000000180025095e-35\ndecision_type=2\nleft_child=-1\nright_child=-2\nleaf_value=0.015453449215524988 0.11331988289935704\nleaf_weight=3781.3626289963722 1227.7405025362968\nleaf_count=4912 1479\ninternal_value=0\ninternal_weight=0\ninternal_count=6391\nis_linear=0\nshrinkage=0.1\n\n\nTree=11\nnum_leaves=2\nnum_cat=0\nsplit_feature=14\nsplit_gain=844.443\nthreshold=1.0000000180025095e-35\ndecision_type=2\nleft_child=-1\nright_child=-2\nleaf_value=0.02480460361846247 0.19598921689122112\nleaf_weight=4738.2950145602226 306.82485622167587\nleaf_count=6058 333\ninternal_value=0\ninternal_weight=0\ninternal_count=6391\nis_linear=0\nshrinkage=0.1\n\n\nTree=12\nnum_leaves=2\nnum_cat=0\nsplit_feature=12\nsplit_gain=719.562\nthreshold=1.0000000180025095e-35\ndecision_type=2\nleft_child=-1\nright_child=-2\nleaf_value=0.0099084535051231284 0.097182659342062494\nleaf_weight=3819.6682231426239 1255.1333441138268\nleaf_count=4912 1479\ninternal_value=0\ninternal_weight=0\ninternal_count=6391\nis_linear=0\nshrinkage=0.1\n\n\nTree=13\nnum_leaves=2\nnum_cat=0\nsplit_feature=4\nsplit_gain=694.184\nthreshold=1.0000000180025095e-35\ndecision_type=2\nleft_child=-1\nright_child=-2\nleaf_value=0.018370981683352001 0.16690377052829697\nleaf_weight=4764.0290577411652 336.90293699502945\nleaf_count=6014 377\ninternal_value=0\ninternal_weight=0\ninternal_count=6391\nis_linear=0\nshrinkage=0.1\n\n\nTree=14\nnum_leaves=2\nnum_cat=0\nsplit_feature=14\nsplit_gain=648.588\nthreshold=1.0000000180025095e-35\ndecision_type=2\nleft_child=-1\nright_child=-2\nleaf_value=0.016167450489912031 0.16482453978971057\nleaf_weight=4811.822523355484 312.55697447061539\nleaf_count=6058 333\ninternal_value=0\ninternal_weight=0\ninternal_count=6391\nis_linear=0\nshrinkage=0.1\n\n\nTree=15\nnum_leaves=2\nnum_cat=0\nsplit_feature=2\nsplit_gain=624.362\nthreshold=25.500000000000004\ndecision_type=2\nleft_child=-1\nright_child=-2\nleaf_value=0.078272110004927453 0.0008071047897029905\nleaf_weight=1448.2956836819649 3694.8472983241081\nleaf_count=1731 4660\ninternal_value=0\ninternal_weight=0\ninternal_count=6391\nis_linear=0\nshrinkage=0.1\n\n\nTree=16\nnum_leaves=2\nnum_cat=0\nsplit_feature=12\nsplit_gain=523.903\nthreshold=1.0000000180025095e-35\ndecision_type=2\nleft_child=-1\nright_child=-2\nleaf_value=-0.00017215149404755173 0.073377669281143004\nleaf_weight=3883.5467648506165 1290.2278202176094\nleaf_count=4912 1479\ninternal_value=0\ninternal_weight=0\ninternal_count=6391\nis_linear=0\nshrinkage=0.1\n\n\nTree=17\nnum_leaves=2\nnum_cat=0\nsplit_feature=14\nsplit_gain=488.725\nthreshold=1.0000000180025095e-35\ndecision_type=2\nleft_child=-1\nright_child=-2\nleaf_value=0.0084763970887579195 0.13665714199201959\nleaf_weight=4868.4992707967758 316.80940419435501\nleaf_count=6058 333\ninternal_value=0\ninternal_weight=0\ninternal_count=6391\nis_linear=0\nshrinkage=0.1\n\n\nTree=18\nnum_leaves=2\nnum_cat=0\nsplit_feature=15\nsplit_gain=320.208\nthreshold=1.0000000180025095e-35\ndecision_type=2\nleft_child=-1\nright_child=-2\nleaf_value=0.012772228690115002 -0.041958202504369574\nleaf_weight=4540.801621735096 1398.1405701041222\nleaf_count=4755 1636\ninternal_value=0\ninternal_weight=0\ninternal_count=6391\nis_linear=0\nshrinkage=0.1\n\n\nTree=19\nnum_leaves=2\nnum_cat=0\nsplit_feature=1\nsplit_gain=280.758\nthreshold=4.5000000000000009\ndecision_type=2\nleft_child=-1\nright_child=-2\nleaf_value=-0.022781439765597954 0.020783885948376043\nleaf_weight=2843.739195227623 3083.040443956852\nleaf_count=3201 3190\ninternal_value=0\ninternal_weight=0\ninternal_count=6391\nis_linear=0\nshrinkage=0.1\n\n\nTree=20\nnum_leaves=2\nnum_cat=0\nsplit_feature=15\nsplit_gain=237.036\nthreshold=1.0000000180025095e-35\ndecision_type=2\nleft_child=-1\nright_child=-2\nleaf_value=0.010867296921788887 -0.036593004333381467\nleaf_weight=4546.2328230142593 1369.2875046133995\nleaf_count=4755 1636\ninternal_value=0\ninternal_weight=0\ninternal_count=6391\nis_linear=0\nshrinkage=0.1\n\n\nTree=21\nnum_leaves=2\nnum_cat=0\nsplit_feature=12\nsplit_gain=205.919\nthreshold=1.0000000180025095e-35\ndecision_type=2\nleft_child=-1\nright_child=-2\nleaf_value=-0.01128765838117759 0.031107272891984523\nleaf_weight=4348.0876835584641 1555.577759206295\nleaf_count=4912 1479\ninternal_value=0\ninternal_weight=0\ninternal_count=6391\nis_linear=0\nshrinkage=0.1\n\n\nTree=22\nnum_leaves=2\nnum_cat=0\nsplit_feature=1\nsplit_gain=189.411\nthreshold=4.5000000000000009\ndecision_type=2\nleft_child=-1\nright_child=-2\nleaf_value=-0.01896828056751107 0.016934046120249176\nleaf_weight=2798.1108780503273 3094.6817189455032\nleaf_count=3201 3190\ninternal_value=0\ninternal_weight=0\ninternal_count=6391\nis_linear=0\nshrinkage=0.1\n\n\nTree=23\nnum_leaves=2\nnum_cat=0\nsplit_feature=15\nsplit_gain=160.196\nthreshold=1.0000000180025095e-35\ndecision_type=2\nleft_child=-1\nright_child=-2\nleaf_value=0.0088392353240618355 -0.030569141976534361\nleaf_weight=4542.0873294472694 1334.6063628792763\nleaf_count=4755 1636\ninternal_value=0\ninternal_weight=0\ninternal_count=6391\nis_linear=0\nshrinkage=0.1\n\n\nTree=24\nnum_leaves=2\nnum_cat=0\nsplit_feature=1\nsplit_gain=148.566\nthreshold=13.500000000000002\ndecision_type=2\nleft_child=-1\nright_child=-2\nleaf_value=-0.0064510820213968716 0.039752974629895667\nleaf_weight=5065.7466205954552 806.75128883123398\nleaf_count=5612 779\ninternal_value=0\ninternal_weight=0\ninternal_count=6391\nis_linear=0\nshrinkage=0.1\n\n\nTree=25\nnum_leaves=2\nnum_cat=0\nsplit_feature=12\nsplit_gain=134.067\nthreshold=1.0000000180025095e-35\ndecision_type=2\nleft_child=-1\nright_child=-2\nleaf_value=-0.0092320218046339029 0.024955506308632077\nleaf_weight=4293.5678684711456 1565.2170696258545\nleaf_count=4912 1479\ninternal_value=0\ninternal_weight=0\ninternal_count=6391\nis_linear=0\nshrinkage=0.1\n\n\nTree=26\nnum_leaves=2\nnum_cat=0\nsplit_feature=10\nsplit_gain=121.864\nthreshold=2.5000000000000004\ndecision_type=2\nleft_child=-1\nright_child=-2\nleaf_value=0.031202103015977568 -0.0066610177189454466\nleaf_weight=1039.2600748538971 4668.9116762280464\nleaf_count=1098 5293\ninternal_value=0\ninternal_weight=0\ninternal_count=6391\nis_linear=0\nshrinkage=0.1\n\n\nTree=27\nnum_leaves=2\nnum_cat=0\nsplit_feature=1\nsplit_gain=120.229\nthreshold=4.5000000000000009\ndecision_type=2\nleft_child=-1\nright_child=-2\nleaf_value=-0.015186452251999603 0.013892597982950526\nleaf_weight=2685.9024477005005 3021.1111490130424\nleaf_count=3201 3190\ninternal_value=0\ninternal_weight=0\ninternal_count=6391\nis_linear=0\nshrinkage=0.1\n\n\nTree=28\nnum_leaves=2\nnum_cat=0\nsplit_feature=15\nsplit_gain=115.048\nthreshold=1.0000000180025095e-35\ndecision_type=2\nleft_child=-1\nright_child=-2\nleaf_value=0.0078238179590707502 -0.026215409170069894\nleaf_weight=4423.9572107195854 1280.2909797430038\nleaf_count=4755 1636\ninternal_value=0\ninternal_weight=0\ninternal_count=6391\nis_linear=0\nshrinkage=0.1\n\n\nend of trees\n\nfeature_importances:\nsphus_fair=6\nsphus_poor=6\nnb_doctor_visits=4\nsphus_very_good=4\nlgmuscle=3\nmobilityind=2\nmaxgrip=1\ninstrumental_activities_index=1\ngrossmotor=1\nrecall_2=1\n\nparameters:\n[boosting: gbdt]\n[objective: custom]\n[metric: l2]\n[tree_learner: serial]\n[device_type: cpu]\n[data_sample_strategy: bagging]\n[data: ]\n[valid: ]\n[num_iterations: 100]\n[learning_rate: 0.1]\n[num_leaves: 2]\n[num_threads: -1]\n[seed: 0]\n[deterministic: 0]\n[force_col_wise: 0]\n[force_row_wise: 0]\n[histogram_pool_size: -1]\n[max_depth: 1]\n[min_data_in_leaf: 20]\n[min_sum_hessian_in_leaf: 0.001]\n[bagging_fraction: 1]\n[pos_bagging_fraction: 1]\n[neg_bagging_fraction: 1]\n[bagging_freq: 0]\n[bagging_seed: 3]\n[feature_fraction: 1]\n[feature_fraction_bynode: 1]\n[feature_fraction_seed: 2]\n[extra_trees: 0]\n[extra_seed: 6]\n[early_stopping_round: 0]\n[early_stopping_min_delta: 0]\n[first_metric_only: 0]\n[max_delta_step: 0]\n[lambda_l1: 0]\n[lambda_l2: 0]\n[linear_lambda: 0]\n[min_gain_to_split: 0]\n[drop_rate: 0.1]\n[max_drop: 50]\n[skip_drop: 0.5]\n[xgboost_dart_mode: 0]\n[uniform_drop: 0]\n[drop_seed: 4]\n[top_rate: 0.2]\n[other_rate: 0.1]\n[min_data_per_group: 100]\n[max_cat_threshold: 32]\n[cat_l2: 10]\n[cat_smooth: 10]\n[max_cat_to_onehot: 4]\n[top_k: 20]\n[monotone_constraints: 0,0,0,0,0,0,0,0,0,0,0,0,0,0,0,0,0,0,0]\n[monotone_constraints_method: advanced]\n[monotone_penalty: 0]\n[feature_contri: ]\n[forcedsplits_filename: ]\n[refit_decay_rate: 0.9]\n[cegb_tradeoff: 1]\n[cegb_penalty_split: 0]\n[cegb_penalty_feature_lazy: ]\n[cegb_penalty_feature_coupled: ]\n[path_smooth: 0]\n[interaction_constraints: [0,1,2,3,4,5,6,7,8,9,10,11,12,13,14,15,16,17,18]]\n[verbosity: 1]\n[saved_feature_importance_type: 0]\n[use_quantized_grad: 0]\n[num_grad_quant_bins: 4]\n[quant_train_renew_leaf: 0]\n[stochastic_rounding: 1]\n[linear_tree: 0]\n[max_bin: 255]\n[max_bin_by_feature: ]\n[min_data_in_bin: 3]\n[bin_construct_sample_cnt: 200000]\n[data_random_seed: 1]\n[is_enable_sparse: 1]\n[enable_bundle: 1]\n[use_missing: 1]\n[zero_as_missing: 0]\n[feature_pre_filter: 1]\n[pre_partition: 0]\n[two_round: 0]\n[header: 0]\n[label_column: ]\n[weight_column: ]\n[group_column: ]\n[ignore_column: ]\n[categorical_feature: ]\n[forcedbins_filename: ]\n[precise_float_parser: 0]\n[parser_config_file: ]\n[objective_seed: 5]\n[num_class: 1]\n[is_unbalance: 0]\n[scale_pos_weight: 1]\n[sigmoid: 1]\n[boost_from_average: 1]\n[reg_sqrt: 0]\n[alpha: 0.9]\n[fair_c: 1]\n[poisson_max_delta_step: 0.7]\n[tweedie_variance_power: 1.5]\n[lambdarank_truncation_level: 30]\n[lambdarank_norm: 1]\n[label_gain: ]\n[lambdarank_position_bias_regularization: 0]\n[eval_at: ]\n[multi_error_top_k: 1]\n[auc_mu_weights: ]\n[num_machines: 1]\n[local_listen_port: 12400]\n[time_out: 120]\n[machine_list_filename: ]\n[machines: ]\n[gpu_platform_id: -1]\n[gpu_device_id: -1]\n[gpu_use_dp: 0]\n[num_gpu: 1]\n\nend of parameters\n\npandas_categorical:null\n", "tree\nversion=v4\nnum_class=1\nnum_tree_per_iteration=1\nlabel_index=0\nmax_feature_idx=64\nfeature_names=female age hhsize nb_children hh_net_income born_in_itw_country_yes education_level_1 education_level_2 education_level_3 education_level_4 education_level_5 education_level_6 education_none education_studying marital_status_married marital_status_reg_partnership marital_status_separated marital_status_single marital_status_widowed partnerinhh_yes mother_alive_yes father_alive_yes help_outside_hh_yes smoking_yes ever_smoked_yes vigorous_activity_more_than_once_a_week vigorous_activity_never vigorous_activity_once_three_times_a_month job_situation_homemaker job_situation_other job_situation_retired job_situation_unable_to_work job_situation_unemployed household_ends_meet_fairly_easily household_ends_meet_with_great_difficulty household_ends_meet_with_some_difficulty has_citizenship_yes country_BE country_BG country_CH country_CY country_CZ country_DE country_DK country_EE country_ES country_FI country_FR country_GR country_HR country_HU country_IE country_IL country_IT country_LT country_LU country_LV country_MT country_NL country_PL country_PT country_RO country_SE country_SI country_SK\nmonotone_constraints=0 0 0 0 0 0 0 0 0 0 0 0 0 0 0 0 0 0 0 0 0 0 0 0 0 0 0 0 0 0 0 0 0 0 0 0 0 0 0 0 0 0 0 0 0 0 0 0 0 0 0 0 0 0 0 0 0 0 0 0 0 0 0 0 0\nfeature_infos=[0:1] [31.100000000000001:102.09999999999999] [1:9] [0:13] [0:347100.38] [0:1] [0:1] [0:1] [0:1] [0:1] [0:1] [0:1] none none [0:1] [0:1] [0:1] [0:1] [0:1] [0:1] [0:1] [0:1] [0:1] [0:1] [0:1] [0:1] [0:1] [0:1] [0:1] [0:1] [0:1] [0:1] [0:1] [0:1] [0:1] [0:1] [0:1] none none none none none none none none none none none none none none none none none none none none none none none none none none none none\ntree_sizes=3400 3403 3439 3428 3425 3423 3420 3404 3402 3418 3415 3409 3397 3432 3384 3416 3397 3374 3423 3423 3413 3391 3431 3409 3378 3416 3370 3407\n\nTree=0\nnum_leaves=31\nnum_cat=0\nsplit_feature=0 22 22 24 34 34 35 18 35 18 1 35 1 1 7 4 4 4 2 4 33 9 1 4 2 3 1 4 5 1\nsplit_gain=518.359 314.863 131.86 81.1582 69.1237 66.1907 55.4201 54.1823 46.2259 40.8183 34.0526 43.9436 36.1487 43.4988 33.9939 33.2571 32.1265 31.7966 30.3524 27.9154 26.0814 45.9021 23.5648 22.4545 21.2802 26.5987 23.9799 20.9321 20.8082 23.3706\nthreshold=1.0000000180025095e-35 1.0000000180025095e-35 1.0000000180025095e-35 1.0000000180025095e-35 1.0000000180025095e-35 1.0000000180025095e-35 1.0000000180025095e-35 1.0000000180025095e-35 1.0000000180025095e-35 1.0000000180025095e-35 70.350000000000009 1.0000000180025095e-35 80.350000000000009 79.350000000000009 1.0000000180025095e-35 26815.912000000004 16096.364500000001 14263.250500000002 2.5000000000000004 19886.707000000006 1.0000000180025095e-35 1.0000000180025095e-35 72.950000000000017 6717.7073500000015 1.5000000000000002 1.5000000000000002 84.850000000000009 12997.427500000003 1.0000000180025095e-35 54.550000000000004\ndecision_type=2 2 2 2 2 2 2 2 2 2 2 2 2 2 2 2 2 2 2 2 2 2 2 2 2 2 2 2 2 2\nleft_child=2 4 5 -4 6 10 14 -5 17 22 -1 12 13 15 18 -12 -11 27 20 -13 21 -2 -10 -8 26 -26 -22 -3 -25 -30\nright_child=1 8 3 7 -6 -7 23 -9 9 16 11 19 -14 -15 -16 -17 -18 -19 -20 -21 24 -23 -24 28 25 -27 -28 -29 29 -31\nleaf_value=-0.044697729998158985 -0.0019896645100609075 0.11225191846408478 -0.0093638526131577075 0.058638045593334548 0.13213685556837648 0.085313303774870286 -0.049297653542818939 0.21565912611088828 0.076682871029120053 0.16423037723656431 -0.052105834238588382 -0.040118951832163588 -0.068156853068199255 0.1208661933396783 0.049145465720201342 0.0074025173419277959 0.32788206116919838 0.078132796287245412 -0.021237941825936496 0.11320514522405799 0.0013163931422021683 0.11341665335770718 0.18965983715233148 0.15811956834430385 0.080954456665111016 0.02749894618444175 0.12169930135843643 0.20854149697630953 -0.028181733701046777 0.071942825935465124\nleaf_weight=1035.184986948967 644.19575071334839 110.10008090734482 222.99082225561142 175.10381901264191 61.329467952251434 48.123560667037964 16.575194597244263 25.129378974437714 61.020750820636749 33.672911405563354 158.89287358522415 16.779250800609589 136.58286082744598 24.342896819114685 296.11094719171524 229.64553356170654 18.633653938770294 525.12630975246429 231.37344563007355 40.625268757343292 241.3674104809761 36.412731170654297 26.471209824085236 24.722352027893066 143.1297772526741 266.21977990865707 17.76477038860321 28.399799525737762 25.826006233692169 239.53249722719193\nleaf_count=1323 812 128 271 211 73 58 20 29 72 38 198 20 168 30 367 287 21 631 293 49 301 46 29 30 178 331 21 33 33 290\ninternal_value=0 0.0466621 -0.0177846 0.0321321 0.0274329 -0.0302839 0.0244917 0.0783443 0.100384 0.152645 -0.0336717 -0.0148637 -0.0235613 -0.00880897 0.0180511 -0.0169334 0.22253 0.0893742 0.0122253 0.0683888 0.0179643 0.0041846 0.110865 0.0639048 0.0319941 0.0461898 0.00956923 0.131996 0.0703732 0.0621982\ninternal_weight=0 3047.98 2113.4 423.224 2244.56 1690.18 2183.23 200.233 803.425 139.799 1642.05 606.869 549.464 412.881 1876.57 388.538 52.3066 663.626 1580.46 57.4045 1349.09 680.608 87.492 306.656 668.482 409.35 259.132 138.5 290.081 265.359\ninternal_count=6391 3747 2644 511 2795 2133 2722 240 952 160 2075 752 683 515 2349 485 59 792 1982 69 1689 858 101 373 831 509 322 161 353 323\nis_linear=0\nshrinkage=0.1\n\n\nTree=1\nnum_leaves=31\nnum_cat=0\nsplit_feature=0 22 22 24 34 34 35 19 17 25 35 18 1 1 35 4 7 9 33 33 3 34 1 4 1 1 3 4 10 3\nsplit_gain=414.217 234.599 99.3879 62.6348 51.4403 50.1125 40.8547 40.8008 49.4843 36.3734 32.3975 28.4241 26.0646 38.2583 30.8572 26.8022 25.8104 24.5837 35.0309 24.5434 28.0891 24.952 24.3352 21.1632 19.7255 28.1677 28.4537 21.1721 19.5844 19.4782\nthreshold=1.0000000180025095e-35 1.0000000180025095e-35 1.0000000180025095e-35 1.0000000180025095e-35 1.0000000180025095e-35 1.0000000180025095e-35 1.0000000180025095e-35 1.0000000180025095e-35 1.0000000180025095e-35 1.0000000180025095e-35 1.0000000180025095e-35 1.0000000180025095e-35 86.950000000000017 70.750000000000014 1.0000000180025095e-35 19886.707000000006 1.0000000180025095e-35 1.0000000180025095e-35 1.0000000180025095e-35 1.0000000180025095e-35 3.5000000000000004 1.0000000180025095e-35 57.550000000000004 13411.651000000002 72.65000000000002 67.65000000000002 2.5000000000000004 16871.707000000006 1.0000000180025095e-35 2.5000000000000004\ndecision_type=2 2 2 2 2 2 2 2 2 2 2 2 2 2 2 2 2 2 2 2 2 2 2 2 2 2 2 2 2 2\nleft_child=2 4 5 -4 6 12 16 8 -5 10 19 -12 13 -1 -15 -16 17 18 -2 21 22 -3 -21 -13 25 27 -27 -18 -24 -6\nright_child=1 9 3 7 29 -7 -8 -9 -10 -11 11 23 -14 14 15 -17 24 -19 -20 20 -22 -23 28 -25 -26 26 -28 -29 -30 -31\nleaf_value=-0.042763840359523943 -0.0093085241488387038 0.052922588857522671 -0.0129027471176986 0.18314034945118546 0.063289765277177112 0.069181878129302293 0.052467636516613209 0.032824879869168565 -0.0092079208053508742 0.048707515115802284 0.10305217761340708 0.14772515272118994 -0.12204144229207987 -0.017918292600532171 -0.041519433761579197 0.11174539583448935 -0.063130493370738686 0.066492105679486921 0.021053805582966923 0.0253445844920289 0.040178999645321851 0.15656901172212609 0.15120642719177685 0.28335994802710407 0.0011271803927806637 0.17932523195604358 0.025220099362584326 0.049684793762458213 0.038789088234577426 0.17610113531400309\nleaf_weight=1051.0946930646896 772.10747730731964 226.46483272314072 223.64593082666397 47.120947480201721 36.448236167430878 49.093618929386139 311.26893138885498 137.79061603546143 18.675944864749908 215.81838309764862 69.684849917888641 28.060301244258881 32.480761468410492 501.01742601394653 16.778543770313263 35.660316824913025 18.878480792045593 69.407062590122223 748.25825208425522 21.163922309875488 47.705811619758606 25.88177502155304 146.30345094203949 19.496754705905914 90.110358536243439 31.988268852233887 19.156456172466278 139.99375015497208 17.332800269126892 26.384786486625671\nleaf_count=1350 973 264 271 54 42 58 373 164 22 262 79 31 39 624 20 42 24 86 923 25 54 29 166 21 106 39 24 174 21 31\ninternal_value=0 0.0380279 -0.0194527 0.023629 0.0214448 -0.0303688 0.0188981 0.06376 0.128544 0.0839305 0.0965561 0.143728 -0.0333543 -0.031559 -0.0102793 0.0627062 0.0133691 0.00829145 0.0056345 0.0851494 0.108589 0.063553 0.126248 0.203331 0.0402654 0.0570582 0.121605 0.0362792 0.139299 0.110661\ninternal_weight=0 3081.91 2113.36 427.233 2264 1686.13 2201.17 203.588 65.7969 817.913 602.094 117.242 1637.03 1604.55 553.456 52.4389 1889.9 1589.77 1520.37 484.853 232.506 252.347 184.8 47.5571 300.127 210.017 51.1447 158.872 163.636 62.833\ninternal_count=6391 3747 2644 511 2795 2133 2722 240 76 952 690 131 2075 2036 686 62 2349 1982 1896 559 266 293 212 52 367 261 63 198 187 73\nis_linear=0\nshrinkage=0.1\n\n\nTree=2\nnum_leaves=31\nnum_cat=0\nsplit_feature=0 22 22 24 34 32 34 4 19 17 1 1 5 8 3 8 1 2 4 24 4 1 1 35 26 4 4 19 4 6\nsplit_gain=261.158 110.186 52.5564 38.2969 29.2246 29.2181 24.9964 23.3435 21.9638 28.2809 20.7914 22.6163 18.4838 37.8895 20.8051 20.0321 25.1043 23.5688 20.0155 35.3741 21.0495 19.2879 18.1875 18.1156 17.698 17.2568 16.7178 13.0652 29.2343 18.6077\nthreshold=1.0000000180025095e-35 1.0000000180025095e-35 1.0000000180025095e-35 1.0000000180025095e-35 1.0000000180025095e-35 1.0000000180025095e-35 1.0000000180025095e-35 3217.8038500000007 1.0000000180025095e-35 1.0000000180025095e-35 86.950000000000017 70.750000000000014 1.0000000180025095e-35 1.0000000180025095e-35 1.5000000000000002 1.0000000180025095e-35 54.150000000000013 4.5000000000000009 52077.123000000007 1.0000000180025095e-35 48257.641500000005 65.65000000000002 89.750000000000014 1.0000000180025095e-35 1.0000000180025095e-35 19886.707000000006 14263.250500000002 1.0000000180025095e-35 45848.868500000004 1.0000000180025095e-35\ndecision_type=2 2 2 2 2 2 2 2 2 2 2 2 2 2 2 2 2 2 2 2 2 2 2 2 2 2 2 2 2 2\nleft_child=2 5 4 -4 10 6 7 -2 9 -5 11 27 13 21 -15 -14 -17 18 20 -20 -18 -9 24 -13 26 -25 -3 28 29 -1\nright_child=1 22 3 8 -6 -7 -8 12 -10 -11 -12 23 15 14 -16 16 17 -19 19 -21 -22 -23 -24 25 -26 -27 -28 -29 -30 -31\nleaf_value=-0.041404244449406408 -0.070691812058231482 0.0617593674593514 -0.023725313490391337 0.11147446620335971 0.036420894523113881 0.084468124105389869 0.066978361731764899 0.043328358186521539 0.010580853254892058 -0.022333708935284899 -0.11034364639266364 -0.024447694519579226 0.010407071621672545 0.16383973797592344 0.050922677611520598 -0.055612334729115899 -0.0026021744704438233 -0.11037081643711584 -0.00017089690336372914 0.14107579802451997 -0.0947962607693488 -0.038923593941779584 0.12210363234224052 -0.045949375034264349 0.076984618717003434 0.068172968017892882 0.029121049470584096 -0.047623171861608075 0.09874265668064508 0.061022035594527839\nleaf_weight=186.25066792964935 42.026021957397461 212.84477853775024 256.78947138786316 57.688225269317627 58.046079635620117 46.86741840839386 63.018929183483124 53.535072505474091 161.02370047569275 21.750795125961304 36.525592863559723 564.91859400272369 1251.2639914751053 26.007934927940369 43.793477535247803 101.94578456878662 769.4036323428154 20.074182152748108 53.105029940605164 26.618149638175964 25.588404417037964 60.989086747169495 30.188233971595764 19.251414954662323 133.53800821304321 42.504329681396484 597.45583462715149 933.10363805294037 18.761395812034607 19.603448212146759\nleaf_count=216 47 198 271 54 58 48 61 59 164 22 39 624 1346 27 47 119 837 22 59 30 28 65 27 20 135 42 592 1090 22 22\ninternal_value=0 0.0170339 -0.0257796 0.00312989 -0.0334303 0.00623044 0.00478532 0.00320134 0.0318085 0.0748371 -0.0356569 -0.0341281 0.00447807 0.0349213 0.0929955 0.00198187 -0.00859481 -0.00323798 -0.000779347 0.0469889 -0.00556963 -0.000474377 0.0456971 -0.0188262 0.0432532 0.0325971 0.0376943 -0.0424111 -0.0207589 -0.0316502\ninternal_weight=0 3558.26 2376.22 497.252 1878.97 2584.24 2537.37 2474.35 240.463 79.439 1820.92 1784.39 2432.32 184.326 69.8014 2248 996.735 894.789 874.715 79.7232 794.992 114.524 974.027 626.674 943.839 61.7557 810.301 1157.72 224.616 205.854\ninternal_count=6391 3747 2644 511 2133 2795 2747 2686 240 76 2075 2036 2639 198 74 2441 1095 976 954 89 865 124 952 686 925 62 790 1350 260 238\nis_linear=0\nshrinkage=0.1\n\n\nTree=3\nnum_leaves=31\nnum_cat=0\nsplit_feature=0 22 34 22 32 35 1 24 8 1 34 4 4 1 6 18 14 2 23 24 3 7 1 26 1 33 33 35 1 3\nsplit_gain=211.056 84.1582 42.1883 36.6015 23.0632 22.0607 24.2038 26.3941 24.28 20.4686 19.3629 18.949 18.8864 17.1936 19.5403 27.2792 16.5597 16.3097 15.8531 14.6735 14.3086 17.0545 14.2541 13.8656 13.758 23.037 16.958 14.1367 24.0143 13.5529\nthreshold=1.0000000180025095e-35 1.0000000180025095e-35 1.0000000180025095e-35 1.0000000180025095e-35 1.0000000180025095e-35 1.0000000180025095e-35 68.550000000000011 1.0000000180025095e-35 1.0000000180025095e-35 74.850000000000009 1.0000000180025095e-35 3217.8038500000007 111688.13000000002 86.950000000000017 1.0000000180025095e-35 1.0000000180025095e-35 1.0000000180025095e-35 2.5000000000000004 1.0000000180025095e-35 1.0000000180025095e-35 1.5000000000000002 1.0000000180025095e-35 89.750000000000014 1.0000000180025095e-35 57.95000000000001 1.0000000180025095e-35 1.0000000180025095e-35 1.0000000180025095e-35 73.250000000000014 2.5000000000000004\ndecision_type=2 2 2 2 2 2 2 2 2 2 2 2 2 2 2 2 2 2 2 2 2 2 2 2 2 2 2 2 2 2\nleft_child=2 4 3 12 10 6 -5 -8 9 -9 11 -2 13 14 15 -1 -7 -13 -4 20 -19 -22 23 24 25 -3 27 -26 -29 -17\nright_child=1 22 18 5 -6 16 7 8 -10 -11 -12 17 -14 -15 -16 29 -18 19 -20 -21 21 -23 -24 -25 26 -27 -28 28 -30 -31\nleaf_value=-0.038051533116126232 -0.06430122224992206 0.11548608354811821 -0.0038353161864832148 -0.039716330016908663 0.074641949431815124 0.12741210259276223 -0.018420865266173234 0.037187389668773045 0.010591248406407345 0.17569842830016225 0.058836994213183003 0.0075666460656496522 0.057933901907984253 -0.10232761005603186 0.005134183536290529 -0.0059911055332080819 0.015179447749323255 0.050964099933013624 0.091899426129960535 -0.048343234769330612 -0.026763999876599498 0.046561830843234953 0.10723709991439015 0.067554434595096705 0.0052459903718060988 0.016172204059876648 0.048381645770645181 0.00091503678089822611 0.085490816669411968 0.08237899922494818\nleaf_weight=1529.4378710985184 41.072712361812592 49.977653443813324 29.46157705783844 160.51668083667755 47.702530324459076 21.207803905010223 150.07426983118057 21.78036493062973 75.109828650951385 20.912741363048553 63.834514498710632 2079.461417734623 22.910821199417114 35.510281682014465 130.79209506511688 55.76198011636734 34.586895942687988 41.22930920124054 41.893108248710632 98.977113902568817 174.04388988018036 38.788695514202118 30.666886389255524 135.8304380774498 321.14345127344131 43.84829705953598 266.96273112297058 66.084930658340454 68.237887382507324 25.197005152702332\nleaf_count=1777 47 51 30 172 48 20 156 22 74 20 61 2246 27 39 140 62 35 44 40 112 195 42 27 135 317 45 255 63 59 30\ninternal_value=0 0.0152233 -0.0233473 -0.025713 0.00575382 -0.00130671 -0.00901001 0.00938975 0.0448189 0.105035 0.00445875 0.00305543 -0.0322796 -0.0334429 -0.0320381 -0.0350571 0.0578396 0.00419274 0.0523716 -0.0156801 -0.00295528 -0.0134004 0.0401326 0.0379712 0.0330483 0.0690731 0.0283696 0.0166399 0.0438807 0.0215125\ninternal_weight=0 3567.86 2355.15 2283.8 2585.11 484.189 428.394 267.877 117.803 42.6931 2537.41 2473.57 1799.61 1776.7 1741.19 1610.4 55.7947 2432.5 71.3547 353.039 254.062 212.833 982.752 952.085 816.255 93.826 722.429 455.466 134.323 80.959\ninternal_count=6391 3747 2644 2574 2795 499 444 272 116 42 2747 2686 2075 2048 2009 1869 55 2639 70 393 281 237 952 925 790 96 694 439 122 92\nis_linear=0\nshrinkage=0.1\n\n\nTree=4\nnum_leaves=31\nnum_cat=0\nsplit_feature=0 22 22 24 5 8 34 33 3 1 4 4 1 8 2 34 35 4 24 1 1 4 35 23 23 4 4 4 2 1\nsplit_gain=171.587 65.5202 33.9895 25.9191 20.9935 44.0995 17.773 16.0736 16.9495 15.7478 15.5699 16.2487 15.5521 15.2243 24.2437 17.7353 16.9236 17.0926 29.5859 14.9236 16.9029 15.9595 15.2581 15.0063 14.8178 13.9425 13.7281 13.0205 14.9815 13.9314\nthreshold=1.0000000180025095e-35 1.0000000180025095e-35 1.0000000180025095e-35 1.0000000180025095e-35 1.0000000180025095e-35 1.0000000180025095e-35 1.0000000180025095e-35 1.0000000180025095e-35 1.5000000000000002 65.65000000000002 111688.13000000002 67045.585000000006 66.050000000000011 1.0000000180025095e-35 2.5000000000000004 1.0000000180025095e-35 1.0000000180025095e-35 51179.507000000005 1.0000000180025095e-35 86.950000000000017 70.750000000000014 19166.026500000004 1.0000000180025095e-35 1.0000000180025095e-35 1.0000000180025095e-35 40936.529000000002 48257.641500000005 29258.857500000002 1.5000000000000002 66.250000000000014\ndecision_type=2 2 2 2 2 2 2 2 2 2 2 2 2 2 2 2 2 2 2 2 2 2 2 2 2 2 2 2 2 2\nleft_child=2 4 6 -4 5 9 10 8 24 -2 11 19 -9 -6 15 16 17 26 -19 20 -1 -22 23 25 -5 -23 -15 28 -7 -29\nright_child=1 -3 3 7 13 27 -8 12 -10 -11 -12 -13 -14 14 -16 -17 -18 18 -20 -21 21 22 -24 -25 -26 -27 -28 29 -30 -31\nleaf_value=-0.034246057945073932 0.03203672753745241 0.035544604585693328 -0.020287853398496078 0.048037423011302587 0.0096688074946528983 0.066346957784555474 0.026510441886510139 -0.061761357103921444 0.01918336352194689 -0.037741854051346557 0.052050540040896022 -0.068974943806915157 0.024456319619951827 -0.010659917066147846 -0.045089546084588129 0.092084935983621399 0.031114442584057374 -0.0093107187342719947 0.1240231591025644 -0.093686103353433581 -0.047010113552752544 -0.015839036335497873 0.05180006995211435 -0.066013110458198465 0.15225402901455531 0.02698903090509654 -0.092446294445214572 0.10331234439465194 0.18205691898962484 -0.013670191808984529\nleaf_weight=1034.6213443875313 66.915923833847046 989.39405924081802 254.06240302324295 35.837105453014374 1327.9023981690407 21.041946232318878 59.065986573696136 33.869685709476471 95.914563953876495 62.598632514476776 23.250259459018707 102.41761082410812 54.727083325386047 659.80072945356369 140.66874331235886 20.245501577854156 127.50443994998932 47.146529376506805 25.721081614494324 33.809175074100494 111.66748481988907 283.94902640581131 43.017574548721313 43.976463496685028 22.029532313346863 103.7984539270401 21.182256281375885 22.324543118476868 23.897821664810181 18.713558554649353\nleaf_count=1239 72 952 271 35 1422 21 58 34 97 67 27 122 53 727 163 19 132 53 28 38 122 320 42 48 21 117 24 24 23 20\ninternal_value=0 0.0136596 -0.0211899 0.00203 0.00528532 0.0351687 -0.0274562 0.0254237 0.0449702 -0.00168955 -0.0292464 -0.0303221 -0.00850386 0.00256837 -0.00647794 -0.00045371 -0.0025794 -0.0082783 0.037754 -0.0279299 -0.0265584 -0.0129948 -0.00499381 -0.0106528 0.0877122 -0.00437413 -0.0132039 0.090691 0.127879 0.0499678\ninternal_weight=0 3575.06 2336.01 496.44 2585.66 215.492 1839.57 242.378 153.781 129.515 1780.51 1757.26 88.5968 2370.17 1042.27 901.601 881.355 753.851 72.8676 1654.84 1621.03 586.409 474.742 431.724 57.8666 387.747 680.983 85.9779 44.9398 41.0381\ninternal_count=6391 3747 2644 511 2795 227 2133 240 153 139 2075 2048 87 2568 1146 983 964 832 81 1926 1888 649 527 485 56 437 751 88 44 44\nis_linear=0\nshrinkage=0.1\n\n\nTree=5\nnum_leaves=31\nnum_cat=0\nsplit_feature=0 22 2 26 1 34 4 1 4 4 1 5 8 4 4 4 8 9 14 9 4 1 4 4 4 35 4 17 4 7\nsplit_gain=139.127 50.8837 28.6891 34.7312 21.8871 19.545 25.5894 18.2777 16.8916 29.7527 23.128 16.8227 34.2879 15.6709 25.1264 24.37 19.0631 15.6881 14.8607 14.7892 13.2995 12.9778 15.9161 12.8741 16.4214 14.9208 14.8789 18.394 15.8343 15.7137\nthreshold=1.0000000180025095e-35 1.0000000180025095e-35 1.5000000000000002 1.0000000180025095e-35 88.250000000000014 1.0000000180025095e-35 23410.968500000003 68.850000000000009 12065.500250000003 8556.1585000000014 74.250000000000014 1.0000000180025095e-35 1.0000000180025095e-35 26621.460000000003 22363.677000000003 19166.026500000004 1.0000000180025095e-35 1.0000000180025095e-35 1.0000000180025095e-35 1.0000000180025095e-35 25831.622000000007 65.050000000000011 17801.058500000003 3217.8038500000007 8556.1585000000014 1.0000000180025095e-35 16871.707000000006 1.0000000180025095e-35 15703.800000000001 1.0000000180025095e-35\ndecision_type=2 2 2 2 2 2 2 2 2 2 2 2 2 2 2 2 2 2 2 2 2 2 2 2 2 2 2 2 2 2\nleft_child=2 11 3 5 7 6 8 18 9 -1 21 12 -2 14 15 -9 -17 -15 -4 23 -5 22 -10 -13 -25 26 28 29 -26 -28\nright_child=1 -3 4 20 -6 -7 -8 13 10 -11 -12 19 -14 17 -16 16 -18 -19 -20 -21 -22 -23 -24 24 25 -27 27 -29 -30 -31\nleaf_value=-0.050945970322267657 -0.001204827420550455 0.031457113795821022 0.0024826587845797319 -0.097368202383253402 -0.1101448074300132 0.097878718397632486 0.042757631124998911 -0.03761175579327438 0.0370869030995927 0.092024048135882663 0.021673954048648109 -0.053322327950918846 0.079854599114064007 -0.0068291134561127426 -0.071516909705686763 0.11680787213529031 0.0014464854785623434 0.064049988805956748 -0.03673813309311743 0.043068240898257365 -0.0060279893981069858 -0.087809278764207244 -0.066081825755148108 0.046528143519132779 -0.010913863338347745 0.021291861720259098 -0.0063126882099344573 0.044740774982574116 -0.063723333047842182 0.02143206229588249\nleaf_weight=24.39831131696701 129.28547286987305 995.54582524299622 108.33773094415665 42.674368858337402 29.583483099937439 25.958643615245819 136.63556259870529 108.4348481297493 26.498615264892578 36.082122981548309 63.912549912929535 43.004861354827881 87.502213180065155 509.02773481607437 100.789819419384 21.539103865623474 42.763477802276611 33.268238008022308 892.18776124715805 86.205797433853149 25.446076691150665 56.131724834442139 34.321029126644135 79.572859346866608 288.49069911241531 292.01167684793472 1169.5021119713783 91.713309526443481 70.689889967441559 247.30049455165863\nleaf_count=28 139 952 127 48 32 25 151 118 29 40 67 49 88 563 109 23 48 36 1067 93 30 63 40 82 304 299 1303 101 76 261\ninternal_value=0 0.0122474 -0.0191968 0.00280268 -0.0248227 0.0139416 0.00817701 -0.023433 -0.0114006 0.0343488 -0.026699 0.00485007 0.0315133 -0.012324 -0.0318389 -0.00868736 0.0400885 -0.00248089 -0.0324913 0.00240959 -0.0632485 -0.0531343 -0.0211321 0.000873847 0.00191467 0.000270921 -0.00301567 0.00133958 -0.0213072 -0.00146989\ninternal_weight=0 3580.83 2317.99 472.059 1845.93 403.939 377.98 1816.35 241.344 60.4804 180.864 2585.28 216.788 815.823 273.527 172.737 64.3026 542.296 1000.53 2368.49 68.1204 116.951 60.8196 2282.29 2239.28 2159.71 1867.7 1508.52 359.181 1416.8\ninternal_count=6391 3747 2644 521 2123 443 418 2091 267 68 199 2795 227 897 298 189 71 599 1194 2568 78 132 69 2475 2426 2344 2045 1665 380 1564\nis_linear=0\nshrinkage=0.1\n\n\nTree=6\nnum_leaves=31\nnum_cat=0\nsplit_feature=0 22 34 35 2 1 1 22 24 32 4 34 1 3 3 3 8 1 4 4 1 5 6 23 2 1 5 28 1 18\nsplit_gain=112.424 38.7069 25.088 23.5548 18.3602 13.7407 16.3867 25.3208 21.2288 13.396 13.1606 13.7984 12.6114 12.4643 12.1432 11.6076 24.9495 12.0075 11.4214 18.3519 16.8464 14.8458 14.8253 11.3309 10.9375 12.3384 22.8787 20.5897 14.8182 14.9891\nthreshold=1.0000000180025095e-35 1.0000000180025095e-35 1.0000000180025095e-35 1.0000000180025095e-35 2.5000000000000004 74.050000000000011 80.350000000000009 1.0000000180025095e-35 1.0000000180025095e-35 1.0000000180025095e-35 3217.8038500000007 1.0000000180025095e-35 79.750000000000014 2.5000000000000004 3.5000000000000004 1.0000000180025095e-35 1.0000000180025095e-35 73.750000000000014 23016.682500000003 24140.177500000002 89.750000000000014 1.0000000180025095e-35 1.0000000180025095e-35 1.0000000180025095e-35 2.5000000000000004 60.650000000000013 1.0000000180025095e-35 1.0000000180025095e-35 60.250000000000007 1.0000000180025095e-35\ndecision_type=2 2 2 2 2 2 2 2 2 2 2 2 2 2 2 2 2 2 2 2 2 2 2 2 2 2 2 2 2 2\nleft_child=2 9 3 5 14 15 12 -8 -9 10 -2 24 -7 -13 -5 16 -1 -17 20 -20 21 -3 -21 -4 25 26 -12 28 29 -28\nright_child=1 18 23 4 -6 6 7 8 -10 -11 11 13 -14 -15 -16 17 -18 -19 19 22 -22 -23 -24 -25 -26 -27 27 -29 -30 -31\nleaf_value=0.044062890215306114 -0.050938947737253194 0.085776069520388132 -0.0070809601090706213 0.011215514494572599 -0.050167761200453943 5.7768032275076051e-05 -0.055200685384730788 -0.028824846675801864 0.068131993115572539 0.056240654341835762 0.096071089165276402 0.015609049497720538 0.081894882790390811 0.10857260838192284 0.078931271513794365 -0.02982760181619348 -0.038316876445604497 -0.093709673145404557 -0.052846368012406233 0.01647179997379063 0.11868233817210659 0.028154603826417837 0.09025837307209561 0.07330746638022255 -0.013107849257025817 0.0019038136849908436 0.011064083871856733 -0.044837466864234822 0.090356214266942722 0.099372174597500945\nleaf_weight=65.976675748825073 43.648654162883759 49.292224168777466 29.621793270111084 187.43759268522263 43.789423763751984 296.55908191204071 147.13432800769806 54.346269607543945 38.63709968328476 49.085703730583191 36.794548094272614 37.377942025661469 20.107252299785614 23.484104871749878 30.839305520057678 1231.673446059227 83.030602633953094 30.143671989440918 35.868902921676636 381.28149682283401 24.283988893032074 481.30410385131836 29.32430374622345 42.966913998126984 349.10057818889618 1619.8409543633461 324.03673619031906 52.373977422714233 29.320811867713928 20.433015942573547\nleaf_count=74 51 45 30 202 49 327 168 54 36 48 40 35 22 22 33 1479 97 33 34 379 21 446 27 40 393 1726 367 59 32 22\ninternal_value=0 0.010963 -0.0173523 -0.0192358 0.00892742 -0.0229869 -0.00968455 -0.0293857 0.0114633 0.0044981 0.00349675 0.00444993 0.00525415 0.0514798 0.0207828 -0.0282367 -0.00184119 -0.0313537 0.0276552 0.0157492 0.0372352 0.0335076 0.0217414 0.0405028 0.00327294 0.00601854 0.0204155 0.0138835 0.0221112 0.0163023\ninternal_weight=0 3586.85 2302.26 2229.67 262.066 1967.61 556.784 240.118 92.9834 2585.5 2536.41 2492.76 316.666 60.862 218.277 1410.82 149.007 1261.82 1001.36 446.475 554.88 530.596 410.606 72.5887 2431.9 2082.8 462.959 426.165 373.791 344.47\ninternal_count=6391 3747 2644 2574 284 2290 607 258 90 2795 2747 2696 349 57 235 1683 171 1512 952 440 512 491 406 70 2639 2246 520 480 421 389\nis_linear=0\nshrinkage=0.1\n\n\nTree=7\nnum_leaves=31\nnum_cat=0\nsplit_feature=0 22 18 23 34 4 4 4 1 8 4 4 1 6 2 4 23 4 1 22 4 35 3 4 20 4 25 27 4 4\nsplit_gain=91.3916 31.14 23.7412 23.2677 16.3597 13.6482 17.6698 16.3176 26.584 13.91 13.4611 22.1695 12.1873 14.86 13.573 15.0477 16.8852 31.3227 16.3145 16.0958 15.6829 13.8456 12.765 12.7062 18.8657 12.9219 12.0236 11.9967 13.4561 19.4039\nthreshold=1.0000000180025095e-35 1.0000000180025095e-35 1.0000000180025095e-35 1.0000000180025095e-35 1.0000000180025095e-35 111688.13000000002 67045.585000000006 57827.767500000009 71.750000000000014 1.0000000180025095e-35 22842.949000000004 27745.375000000004 86.950000000000017 1.0000000180025095e-35 2.5000000000000004 26621.460000000003 1.0000000180025095e-35 33040.363000000005 63.350000000000001 1.0000000180025095e-35 22363.677000000003 1.0000000180025095e-35 1.5000000000000002 17586.621000000003 1.0000000180025095e-35 10217.76 1.0000000180025095e-35 1.0000000180025095e-35 38284.003000000004 41568.258000000009\ndecision_type=2 2 2 2 2 2 2 2 2 2 2 2 2 2 2 2 2 2 2 2 2 2 2 2 2 2 2 2 2 2\nleft_child=2 -2 4 10 5 6 7 12 9 -9 -4 -12 13 14 15 18 21 -18 23 -20 -21 27 -15 24 -1 -26 -19 28 -17 -30\nright_child=1 -3 3 -5 -6 -7 -8 8 -10 -11 11 -13 -14 22 -16 16 17 26 19 20 -22 -23 -24 -25 25 -27 -28 -29 29 -31\nleaf_value=0.05265264951798674 0.0040376168568218877 0.024774094977417168 -0.022123973250758225 0.11120333473553666 0.030011692758385441 0.048729208040886804 -0.058438107565044556 -0.044978168665183477 0.10757528611068137 0.045647524791248117 0.122476570791198 -0.00054369484748967734 -0.072189807696222241 0.060085230072991207 -0.043891641590616898 -0.016382892551906357 0.029666396388313018 -0.043339716255119176 -0.057037574723501738 0.028460265518795821 -0.059680906062331007 0.051139642182437606 -0.0078774594773993855 -0.032953270440806856 -0.09898131608993703 0.019863365817170967 -0.11199871337480929 -0.054961152280988315 0.064890023923148729 -0.00073889852826504801\nleaf_weight=58.946197628974915 2587.7892861366272 1005.5966928005219 82.030339777469635 23.996813416481018 66.911397159099579 28.298843920230865 119.8791481256485 44.442586243152618 25.996764004230499 27.365058600902557 21.341110527515411 46.713709771633148 45.360112607479095 39.671207010746002 246.90799534320831 332.87046581506729 45.640036880970001 68.206403315067291 258.23805373907089 50.620879411697388 33.576891601085663 43.754313409328461 91.09902435541153 103.33161306381226 18.052456080913544 18.549833476543427 40.741196095943451 48.231711506843567 58.138596594333649 200.1161715388298\nleaf_count=67 2795 952 87 24 64 32 145 53 27 34 23 51 50 42 302 396 52 78 305 51 33 47 99 125 22 22 50 58 66 239\ninternal_value=0 0.00984065 -0.0157248 0.0197727 -0.0186466 -0.0202363 -0.0212026 -0.0188531 0.0209276 -0.0104418 0.00515408 0.0380339 -0.0210121 -0.0196907 -0.022299 -0.0184329 -0.0100358 -0.0398805 -0.0314277 -0.044658 -0.0066892 -0.00328193 0.0127401 -0.0086476 0.017638 -0.0387515 -0.0690149 -0.00700626 -0.00309348 0.0140356\ninternal_weight=0 3593.39 2289.03 174.082 2114.95 2048.04 2019.74 1899.86 97.8044 71.8076 150.085 68.0548 1802.05 1756.69 1625.92 1379.01 837.699 154.588 541.316 342.436 84.1978 683.111 130.77 198.88 95.5485 36.6023 108.948 639.357 591.125 258.255\ninternal_count=6391 3747 2644 185 2459 2395 2363 2218 114 87 161 74 2104 2054 1913 1611 986 180 625 389 84 806 141 236 111 44 128 759 701 305\nis_linear=0\nshrinkage=0.1\n\n\nTree=8\nnum_leaves=31\nnum_cat=0\nsplit_feature=0 22 22 1 1 1 1 24 4 4 4 3 1 9 5 8 1 3 14 33 4 14 1 4 18 6 4 3 5 26\nsplit_gain=74.0938 23.018 19.6959 20.2189 17.8536 18.8651 16.8216 17.5481 16.4491 17.7478 16.4816 12.8616 13.4551 12.1419 11.3 28.4548 10.7046 10.3785 11.6721 10.2416 18.4564 12.2803 10.2395 9.90924 9.83991 15.0685 13.3994 11.4338 9.96722 10.6129\nthreshold=1.0000000180025095e-35 1.0000000180025095e-35 1.0000000180025095e-35 54.350000000000001 50.150000000000013 51.150000000000013 59.350000000000001 1.0000000180025095e-35 46149.802500000013 38284.003000000004 57163.43250000001 1.5000000000000002 76.050000000000011 1.0000000180025095e-35 1.0000000180025095e-35 1.0000000180025095e-35 86.950000000000017 1.5000000000000002 1.0000000180025095e-35 1.0000000180025095e-35 40241.680000000008 1.0000000180025095e-35 72.750000000000014 111688.13000000002 1.0000000180025095e-35 1.0000000180025095e-35 22842.949000000004 3.5000000000000004 1.0000000180025095e-35 1.0000000180025095e-35\ndecision_type=2 2 2 2 2 2 2 2 2 2 2 2 2 2 2 2 2 2 2 2 2 2 2 2 2 2 2 2 2 2\nleft_child=2 13 4 -4 -1 -6 -5 -8 9 11 -10 -9 -13 14 15 22 23 -17 -19 20 21 -15 -2 24 25 27 -26 28 29 -7\nright_child=1 -3 3 6 5 16 7 8 10 -11 -12 12 -14 19 -16 17 -18 18 -20 -21 -22 -23 -24 -25 26 -27 -28 -29 -30 -31\nleaf_value=-0.11875257923067564 0.010738683591876628 0.021642933295575428 0.09491804933806311 -0.056043572390494678 0.092639887997195289 0.029185199667642821 -0.013898910389019635 0.074999998762477135 -0.097991549468436717 0.10639868168397743 0.03139763927285686 -0.028300414645465451 0.050186205808462198 0.044886418215580315 0.0004608469653257494 0.11375766883154158 -0.076354568184649654 0.10510358310249933 0.010201108535567794 -0.0054459364919531884 -0.01943232140961372 0.15449305881592709 -0.054305377381298731 0.046099518102770465 -0.02473543494623804 0.013243637569284157 0.047781446478273967 -0.047090842470551307 -0.022686883684364473 -0.058762709234910983\nleaf_weight=17.804977297782898 92.47798889875412 1009.6150322556496 23.053055703639984 49.654923021793365 15.247061073780058 70.972381234169006 220.61159896850586 35.747074544429779 18.937920033931732 33.243316829204559 20.503181338310242 52.894482672214508 37.206014513969421 19.747958064079285 2280.2380023598671 31.513964951038361 32.031670093536377 19.620737135410309 38.173536419868469 32.579994201660156 18.191336452960968 21.190982401371002 32.782412588596344 23.776848793029785 51.403112709522247 119.93561524152756 50.5260871052742 181.86969649791718 1200.9081735014915 17.009233891963959\nleaf_count=23 98 952 25 54 19 83 237 33 20 34 20 53 35 20 2475 30 39 19 39 35 20 23 36 27 58 128 57 220 1459 20\ninternal_value=0 0.00883745 -0.0142269 0.00348767 -0.0191177 -0.0181118 -0.0010084 0.00551148 0.0270806 0.0414126 -0.0307295 0.0242462 0.00410978 0.00383898 0.00252535 0.0244649 -0.0190776 0.0675926 0.0424198 0.039574 0.0643795 0.101621 -0.00628426 -0.0180087 -0.0189093 -0.0208393 0.011211 -0.0236187 -0.0203066 0.0121825\ninternal_weight=0 3596.13 2273.34 491.852 1781.48 1763.68 468.799 419.144 198.532 159.091 39.4411 125.848 90.1005 2586.52 2494.81 214.569 1748.43 89.3082 57.7943 91.7103 59.1303 40.9389 125.26 1716.4 1692.62 1590.7 101.929 1470.76 1288.89 87.9816\ninternal_count=6391 3747 2644 511 2133 2110 486 432 195 155 40 121 88 2795 2697 222 2091 88 58 98 63 43 134 2052 2025 1910 115 1782 1562 103\nis_linear=0\nshrinkage=0.1\n\n\nTree=9\nnum_leaves=31\nnum_cat=0\nsplit_feature=0 35 5 4 7 18 4 2 26 1 34 33 4 17 7 1 27 4 4 4 4 1 4 3 22 14 3 1 10 1\nsplit_gain=60.2505 18.7297 22.773 16.7509 16.7361 23.847 27.9332 16.7336 26.7852 15.8219 15.1224 18.075 18.0021 17.3959 16.5054 29.527 15.0014 14.8127 14.4965 13.5409 23.447 22.2119 19.5121 13.3916 15.759 13.5929 22.3874 14.1325 14.3573 13.8305\nthreshold=1.0000000180025095e-35 1.0000000180025095e-35 1.0000000180025095e-35 40241.680000000008 1.0000000180025095e-35 1.0000000180025095e-35 13765.371500000003 1.5000000000000002 1.0000000180025095e-35 88.250000000000014 1.0000000180025095e-35 1.0000000180025095e-35 17998.356500000005 1.0000000180025095e-35 1.0000000180025095e-35 57.150000000000013 1.0000000180025095e-35 22363.677000000003 30784.873500000005 23410.968500000003 12997.427500000003 75.15000000000002 4841.811850000001 3.5000000000000004 1.0000000180025095e-35 1.0000000180025095e-35 1.0000000180025095e-35 60.550000000000004 1.0000000180025095e-35 62.250000000000007\ndecision_type=2 2 2 2 2 2 2 2 2 2 2 2 2 2 2 2 2 2 2 2 2 2 2 2 2 2 2 2 2 2\nleft_child=7 10 -3 4 5 -4 -7 8 19 -9 11 12 16 14 -14 -16 -2 -17 -19 20 22 -22 -1 24 25 -13 -27 28 -28 -29\nright_child=1 2 3 -5 -6 6 -8 9 -10 -11 -12 23 13 -15 15 17 -18 18 -20 -21 21 -23 -24 -25 -26 26 27 29 -30 -31\nleaf_value=-0.056129531642348976 -0.019966174614689407 0.087002242105060579 0.0068885023773896242 0.084915398129917163 -0.024537431403492214 0.017384190252492434 0.12227675150287556 -0.016103239636532908 -0.055090004212724024 -0.092480007927920965 0.039947138349755301 -0.0050804566657409794 -0.0072661309679831233 0.045672017438408756 0.11699659105788401 0.062873509915879783 -0.1002623602468979 -0.048094953080197976 0.027296397608762374 0.038884735904520629 -0.045566028146930442 0.032568725871282476 0.063226232765075843 -0.011445913690027306 0.035052891684212856 0.086274532659747216 -0.01969702927456245 0.086716762441502004 0.054670578236770941 0.01908402796730662\nleaf_weight=16.788489103317261 244.7369721531868 53.38007777929306 263.79248929023743 35.034134745597839 93.679246187210083 57.586480677127838 45.406705558300018 1767.3549298048019 65.94996964931488 27.545619904994965 118.20613068342209 394.92454880475998 971.78255462646484 81.074948489665985 29.788683235645294 35.473030507564545 25.71147620677948 53.455518066883087 48.77725887298584 139.18593889474869 118.39171540737152 52.523981332778931 74.373795211315155 217.19609421491623 308.3720383644104 45.806818783283234 162.16622585058212 34.395647287368774 30.907749652862549 250.01946657896042\nleaf_count=19 256 50 261 35 91 54 42 2091 78 32 108 421 1064 87 32 36 28 55 49 153 136 55 80 220 289 49 183 38 35 264\ninternal_value=0 0.00793653 0.0249434 0.0182578 0.0131862 0.022821 0.0636283 -0.0128873 0.00397049 -0.0172754 0.00487877 0.00346621 -0.00425718 0.000915923 -0.00226908 0.0267232 -0.0275999 0.00719517 -0.0121243 0.0136774 0.000290157 -0.0215545 0.0412456 0.0114411 0.0154937 0.00892506 0.0194948 0.0130885 -0.00779208 0.0272632\ninternal_weight=0 3601.67 548.879 495.499 460.465 366.786 102.993 2262.11 467.214 1794.9 3052.8 2934.59 1490.8 1220.35 1139.28 167.494 270.448 137.706 102.233 401.264 262.078 170.916 91.1623 1443.79 1226.59 918.22 523.296 477.489 193.074 284.415\ninternal_count=6391 3747 533 483 448 357 96 2644 521 2123 3214 3106 1607 1323 1236 172 284 140 104 443 290 191 99 1499 1279 990 569 520 218 302\nis_linear=0\nshrinkage=0.1\n\n\nTree=10\nnum_leaves=31\nnum_cat=0\nsplit_feature=0 22 22 1 1 1 1 35 1 9 3 1 10 4 1 4 1 1 9 4 4 35 4 4 17 3 25 4 4 7\nsplit_gain=48.7457 15.6406 15.0256 15.8035 15.2892 15.2741 13.8533 15.3321 15.0514 13.1614 14.0607 14.26 14.8464 12.6228 14.7919 11.4511 10.0722 10.2818 9.808 10.8633 12.5428 12.8865 13.1296 12.3246 10.5406 13.9056 30.8694 18.9345 19.6102 12.9247\nthreshold=1.0000000180025095e-35 1.0000000180025095e-35 1.0000000180025095e-35 54.350000000000001 50.150000000000013 51.150000000000013 59.350000000000001 1.0000000180025095e-35 68.050000000000011 1.0000000180025095e-35 1.5000000000000002 75.65000000000002 1.0000000180025095e-35 45848.868500000004 74.350000000000009 24420.324000000004 66.450000000000017 72.850000000000009 1.0000000180025095e-35 3217.8038500000007 8556.1585000000014 1.0000000180025095e-35 16871.707000000006 15703.800000000001 1.0000000180025095e-35 1.0000000180025095e-35 1.0000000180025095e-35 35150.777500000004 44351.770000000011 1.0000000180025095e-35\ndecision_type=2 2 2 2 2 2 2 2 2 2 2 2 2 2 2 2 2 2 2 2 2 2 2 2 2 2 2 2 2 2\nleft_child=2 18 4 -4 -1 -6 -5 9 -9 10 13 12 16 14 15 -8 -12 -18 19 -2 -21 22 23 -22 25 26 27 -24 -29 -27\nright_child=1 -3 3 6 5 -7 7 8 -10 -11 11 -13 -14 -15 -16 -17 17 -19 -20 20 21 -23 24 -25 -26 29 -28 28 -30 -31\nleaf_value=-0.11053237138888483 -0.047804708722040352 0.017642840413207867 0.083904615365530191 -0.050596897486271643 0.083510291272739012 -0.01591860493153982 0.021197451463297431 0.12425837643169613 0.0063460462972341966 0.071864937209009619 -0.064278390735197949 0.007643088094395345 -0.094463638698414551 -0.032994670390702016 -0.0094269098521701233 0.11918708401958722 0.032384047416240451 -0.054288179514437797 0.034958914307636167 0.040768681133516699 -0.0097004314744266705 0.019860160969683599 0.017395708144895737 -0.055716409949866541 0.033442956275317508 -0.0067661197401573175 -0.032308084336928812 0.19148212922061669 0.049119984632393872 0.018214457456426317\nleaf_weight=16.925840198993683 43.363423585891724 1014.8578616976738 23.475967168807983 48.80426698923111 15.589401483535765 1728.1427409052849 20.337973117828369 20.483490169048309 22.960797548294067 23.361068785190582 33.53930252790451 109.6465145945549 37.421510815620422 28.466592311859131 31.138075828552246 28.832561254501343 41.457827091217041 20.432876884937286 92.568983376026154 83.545753657817841 320.80313271284103 324.41820126771927 31.557839095592499 71.105104029178619 102.02899599075317 1186.0502709150314 43.483351290225983 19.754375815391541 18.965529799461365 250.93789672851562\nleaf_count=23 51 952 25 54 19 2091 20 21 21 24 37 109 43 30 32 28 45 22 98 85 339 327 33 78 111 1321 48 20 21 263\ninternal_value=0 0.00712089 -0.0116361 0.00384518 -0.0159478 -0.0150297 -0.000180398 0.00570496 0.0619404 -0.000816358 -0.00564995 -0.0190495 -0.0410798 0.0242224 0.0445039 0.0786565 -0.0201461 0.00376969 0.00299574 0.00181033 0.00268754 0.00134462 -0.00159313 -0.0180493 0.00230896 0.000260547 0.0339158 0.074891 0.121751 -0.00240382\ninternal_weight=0 3603.44 2251.02 490.359 1760.66 1743.73 466.883 418.079 43.4443 374.634 351.273 242.498 132.852 108.775 80.3086 49.1705 95.43 61.8907 2588.58 2496.01 2452.65 2369.1 2044.69 391.908 1652.78 1550.75 113.761 70.2777 38.7199 1436.99\ninternal_count=6391 3747 2644 511 2133 2110 486 432 42 390 366 256 147 110 80 48 104 67 2795 2697 2646 2561 2234 417 1817 1706 122 74 41 1584\nis_linear=0\nshrinkage=0.1\n\n\nTree=11\nnum_leaves=31\nnum_cat=0\nsplit_feature=0 34 35 22 2 3 1 1 20 26 1 1 10 35 4 4 1 1 1 3 9 24 23 4 2 33 23 1 1 1\nsplit_gain=39.6066 14.5042 14.9259 12.6232 12.5275 10.0672 9.56212 10.1409 13.0674 9.5306 9.83823 10.19 9.78363 11.3357 9.39425 11.3079 11.5239 12.9839 14.4446 24.9434 12.075 11.4227 10.6941 12.6727 10.6652 9.77421 10.8908 11.7865 32.4668 12.3767\nthreshold=1.0000000180025095e-35 1.0000000180025095e-35 1.0000000180025095e-35 1.0000000180025095e-35 2.5000000000000004 3.5000000000000004 71.350000000000009 64.050000000000011 1.0000000180025095e-35 1.0000000180025095e-35 89.750000000000014 60.650000000000013 1.0000000180025095e-35 1.0000000180025095e-35 7946.1416000000017 12364.867000000002 68.850000000000009 54.750000000000007 53.850000000000001 1.5000000000000002 1.0000000180025095e-35 1.0000000180025095e-35 1.0000000180025095e-35 34091.764000000003 1.5000000000000002 1.0000000180025095e-35 1.0000000180025095e-35 65.350000000000009 64.750000000000014 67.450000000000017\ndecision_type=2 2 2 2 2 2 2 2 2 2 2 2 2 2 2 2 2 2 2 2 2 2 2 2 2 2 2 2 2 2\nleft_child=1 2 14 -2 5 6 7 8 -4 10 11 -5 13 -11 -1 24 17 18 22 -20 -18 -22 -17 -24 -16 26 27 28 -19 -29\nright_child=3 -3 4 9 -6 -7 -8 -9 -10 12 -12 -13 -14 -15 15 16 20 25 19 -21 21 -23 23 -25 -26 -27 -28 29 -30 -31\nleaf_value=-0.061294920482485374 0.0026870349511746985 0.033259200246899427 0.047243922055239689 0.03305495722107539 -0.039412712236884063 0.072783352217302671 0.047932230178053384 -0.036104304288029201 -0.039283999222709858 0.038268300124636848 0.067454163766309208 0.0046847499649369856 -0.0080698483325817878 0.119235534436444 0.081273835575867509 0.012501872864353733 -0.0098308627811687591 -0.029905190830447622 0.14068389459611327 -0.026150850757287028 -0.0058163621536357207 0.096375403243125005 -0.0031034359054133371 -0.1171307918281792 -0.010548358976129582 -0.01601908372253736 -0.074722974753697255 -0.088163463445100537 0.10647682825867806 -0.01652753724320152\nleaf_weight=42.971725285053253 2589.5926668047905 73.173234939575195 55.082365930080414 155.10355478525162 42.159994602203369 31.134648203849792 51.675719857215881 54.212236225605011 25.548501789569855 88.402324020862579 30.780805945396423 689.03997492790222 32.880469501018524 21.495954692363739 23.831013560295105 59.800411403179169 846.14794367551804 235.96709966659546 18.508317291736603 17.373682081699371 22.424712121486664 21.353589475154877 21.571447491645813 17.780010521411896 26.959947228431702 365.16647702455521 68.889273703098297 61.663567423820496 18.849586427211761 39.611048579216003\nleaf_count=55 2795 70 62 151 49 33 50 61 29 84 26 639 33 19 28 78 958 302 23 21 26 23 27 25 33 451 89 78 24 49\ninternal_value=0 -0.0105298 -0.0120073 0.00639545 0.0104796 0.0201439 0.011357 -0.00265965 0.0198269 0.0158317 0.0119224 0.00989751 0.0397871 0.0541054 -0.0150679 -0.0140033 -0.0153056 -0.0231203 0.00553617 0.0599043 -0.00718131 0.0440294 -0.0141391 -0.054624 0.0325344 -0.0280176 -0.0383273 -0.0312862 -0.0198166 -0.0601449\ninternal_weight=0 2241.86 2168.68 3607.3 259.813 217.653 186.519 134.843 80.6309 1017.7 874.924 844.144 142.779 109.898 1908.87 1865.9 1815.11 925.181 135.034 35.882 889.926 43.7783 99.1519 39.3515 50.791 790.147 424.981 356.091 254.817 101.275\ninternal_count=6391 2644 2574 3747 284 235 202 152 91 952 816 790 136 103 2290 2235 2174 1167 174 44 1007 49 130 52 61 993 542 453 326 127\nis_linear=0\nshrinkage=0.1\n\n\nTree=12\nnum_leaves=31\nnum_cat=0\nsplit_feature=0 18 23 5 8 4 1 34 4 4 4 1 2 35 18 7 1 1 8 1 1 1 4 23 3 4 4 4 3 27\nsplit_gain=32.2386 13.2881 18.3756 12.1289 23.6524 12.8295 18.572 12.423 14.3795 40.1807 20.3903 15.8348 11.9618 11.8584 19.6968 30.3979 25.1708 11.5042 12.1902 13.5209 12.1793 17.3592 18.2698 14.109 15.3029 13.0397 39.1122 20.923 16.7713 15.8395\nthreshold=1.0000000180025095e-35 1.0000000180025095e-35 1.0000000180025095e-35 1.0000000180025095e-35 1.0000000180025095e-35 27920.648500000003 66.450000000000017 1.0000000180025095e-35 4841.811850000001 7946.1416000000017 9598.8145000000022 68.350000000000009 1.5000000000000002 1.0000000180025095e-35 1.0000000180025095e-35 1.0000000180025095e-35 71.15000000000002 89.750000000000014 1.0000000180025095e-35 54.150000000000013 53.850000000000001 52.350000000000001 52800.061000000009 1.0000000180025095e-35 1.5000000000000002 43929.250000000007 37255.185000000005 38672.480000000003 1.5000000000000002 1.0000000180025095e-35\ndecision_type=2 2 2 2 2 2 2 2 2 2 2 2 2 2 2 2 2 2 2 2 2 2 2 2 2 2 2 2 2 2\nleft_child=1 -1 -3 4 -2 12 -7 8 -5 11 -11 -10 -6 17 -15 16 -16 18 20 -20 21 22 -12 25 -25 26 29 -28 -29 -22\nright_child=3 2 -4 7 5 6 -8 -9 9 10 13 -13 -14 14 15 -17 -18 -19 19 -21 23 -23 -24 24 -26 -27 27 28 -30 -31\nleaf_value=-0.011781819424305796 0.0033338247832476716 0.0038775989183225316 0.097475196081495602 -0.043992922717211079 0.049163790374432637 0.081736570334611305 -0.040253920542111465 0.039342834189581739 0.13396329777386781 -0.043029244324583604 -0.01849426124171677 0.03781512474679561 0.13456977695717545 0.0061752113987454402 0.008293756925637762 -0.03577174087102291 0.12423597749643928 0.058891749891895051 -0.042566362322354161 -0.0040891718486803326 0.0092835424134157154 0.10192377219008023 0.098335292903176691 0.022324527065284525 -0.05258437164083149 -0.016838926297922593 0.13405973137720312 0.097038920584821262 -0.0027216864479502681 -0.036539646301370889\nleaf_weight=2058.7472233772278 194.19513303041458 149.86555314064026 24.389088928699493 64.06279182434082 34.769867181777954 25.583389222621918 24.365491211414337 96.398693561553955 29.825421333312988 96.721303164958954 51.133524060249329 40.237498998641968 31.037907958030701 308.11047405004501 28.228591561317444 27.61217725276947 55.61603319644928 33.948419511318207 100.47541111707687 1003.0469889044762 816.09137564897537 31.198154270648956 18.131698071956635 40.427213191986084 83.802627921104431 189.68154084682465 34.118775069713593 28.692767798900604 40.835215270519257 83.117603123188019\nleaf_count=2459 197 161 24 71 33 26 25 87 31 93 58 38 28 306 27 25 50 30 120 1074 835 35 21 41 90 209 35 30 43 89\ninternal_value=0 -0.00953754 0.0169777 0.00574778 0.0246615 0.0604412 0.0222286 0.00397213 0.0029083 0.00386487 0.00215652 0.0787449 0.0894451 0.00362593 0.0192068 0.0552312 0.0852009 0.00106704 0.000288277 -0.00759251 0.00642463 0.0399861 0.0120884 0.00386404 -0.0282073 0.007205 0.0117527 0.0699214 0.0384475 0.00504792\ninternal_weight=0 2233 174.255 3611.47 309.952 115.757 49.9489 3301.51 3205.12 3141.05 3070.99 70.0629 65.8078 2974.27 419.567 111.457 83.8446 2554.7 2520.75 1103.52 1417.23 100.463 69.2652 1316.77 124.23 1192.54 1002.86 103.647 69.528 899.209\ninternal_count=6391 2644 185 3747 309 112 51 3438 3351 3280 3211 69 61 3118 408 102 77 2710 2680 1194 1486 114 79 1372 131 1241 1032 108 73 924\nis_linear=0\nshrinkage=0.1\n\n\nTree=13\nnum_leaves=31\nnum_cat=0\nsplit_feature=0 34 35 32 14 4 4 4 35 18 7 1 1 2 28 23 1 1 1 4 1 25 5 19 4 4 3 4 25 3\nsplit_gain=26.1166 11.5871 12.1232 10.2234 21.5009 13.4153 24.7615 10.5624 11.6096 13.4599 28.8301 20.1537 11.5002 10.0865 9.76255 16.9317 11.302 12.939 19.9883 13.4339 10.2769 14.2473 24.0892 17.0415 12.4908 12.8723 10.8894 13.1345 9.86644 14.4742\nthreshold=1.0000000180025095e-35 1.0000000180025095e-35 1.0000000180025095e-35 1.0000000180025095e-35 1.0000000180025095e-35 4841.811850000001 7946.1416000000017 9598.8145000000022 1.0000000180025095e-35 1.0000000180025095e-35 1.0000000180025095e-35 71.15000000000002 78.350000000000009 2.5000000000000004 1.0000000180025095e-35 1.0000000180025095e-35 67.450000000000017 72.750000000000014 74.850000000000009 19528.710000000003 62.250000000000007 1.0000000180025095e-35 1.0000000180025095e-35 1.0000000180025095e-35 59136.240000000013 55351.517500000009 3.5000000000000004 14655.475000000002 1.0000000180025095e-35 2.5000000000000004\ndecision_type=2 2 2 2 2 2 2 2 2 2 2 2 2 2 2 2 2 2 2 2 2 2 2 2 2 2 2 2 2 2\nleft_child=1 2 -1 5 -5 -2 -7 12 14 -10 11 -11 -8 -4 20 16 -16 19 -19 -18 21 22 -9 -24 25 28 27 -23 29 -22\nright_child=3 -3 13 4 -6 6 7 8 9 10 -12 -13 -14 -15 15 -17 17 18 -20 -21 24 26 23 -25 -26 -27 -28 -29 -30 -31\nleaf_value=-0.012724561859077613 -0.039064438289970749 0.030430593034240588 0.018927943997962132 0.12179224675448407 -0.00097652619938801545 0.061480249275972038 -0.0064394293060203644 0.099858403572930896 0.009522675585678984 0.0081920491460503158 -0.035358456708656165 0.10903005056819276 -0.078292936694292575 -0.034830978038129089 -0.027493236900257859 -0.077625865098865474 -0.0052552744464464361 -0.080118424568039054 0.013993131494274445 0.090729682930922276 0.014564190655682908 -0.035647630397234453 0.030833644464768509 -0.018250552034276928 -0.032554491598307186 0.066415745954491429 -0.021621428033065139 0.040052464257718891 -0.010521344831655489 -0.0098340270138755764\nleaf_weight=1893.1634203791618 69.424467921257019 73.501566827297211 218.0005829334259 23.091029942035675 37.322507798671722 76.805603742599487 81.193018972873688 23.241496622562408 332.68979334831238 29.182443499565125 30.72594690322876 61.779776096343994 30.695618748664856 41.553606271743774 135.08137458562851 36.121712625026703 25.773055255413055 29.210244417190552 99.2419393658638 33.57844865322113 757.66594707965851 24.758210182189941 96.437494397163391 265.38015639781952 106.11743575334549 31.252853095531464 38.674951493740082 308.76451516151428 471.3470533490181 358.06449013948441\nleaf_count=2290 77 70 235 21 36 74 79 23 328 28 28 55 28 49 152 39 27 30 94 34 761 27 102 292 115 33 44 349 509 362\ninternal_value=0 -0.00861282 -0.00994591 0.00515621 0.0459477 0.00446266 0.00533006 0.00406423 0.00509025 0.0199318 0.04839 0.0766793 -0.0261518 0.0103214 0.0027163 -0.0126969 -0.00543314 0.010434 -0.007408 0.0490488 0.00494599 0.0146569 0.00117136 -0.00516784 0.00068164 0.00286101 0.0286085 0.0344331 0.00160948 0.00673422\ninternal_weight=0 2226.22 2152.72 3613.62 60.4135 3553.21 3483.78 3406.98 3295.09 454.378 121.688 90.9622 111.889 259.554 2840.71 359.007 322.885 187.804 128.452 59.3515 2481.7 757.257 385.059 361.818 1724.45 1618.33 372.198 333.523 1587.08 1115.73\ninternal_count=6391 2644 2574 3747 57 3690 3613 3539 3432 439 111 83 107 284 2993 376 337 185 124 61 2617 837 417 394 1780 1665 420 376 1632 1123\nis_linear=0\nshrinkage=0.1\n\n\nTree=14\nnum_leaves=31\nnum_cat=0\nsplit_feature=22 0 25 4 1 1 24 35 8 4 4 1 4 1 4 4 3 1 18 2 4 4 4 4 4 9 1 4 3 1\nsplit_gain=26.5432 21.1784 15.5349 15.9422 13.1799 12.5335 12.4994 18.6203 10.7067 9.36964 20.9186 20.2061 19.7818 15.9927 9.53754 9.51365 9.23984 9.03631 8.98812 8.98657 8.46383 8.51371 12.5869 11.7278 9.02267 8.02886 7.98252 7.95568 7.69921 8.78571\nthreshold=1.0000000180025095e-35 1.0000000180025095e-35 1.0000000180025095e-35 74072.928000000014 50.150000000000013 51.150000000000013 1.0000000180025095e-35 1.0000000180025095e-35 1.0000000180025095e-35 21576.248000000003 37454.199000000001 69.65000000000002 19166.026500000004 76.250000000000014 23611.812000000002 45848.868500000004 4.5000000000000009 86.950000000000017 1.0000000180025095e-35 5.5000000000000009 111688.13000000002 67045.585000000006 64707.379000000008 78676.930000000008 89887.102500000023 1.0000000180025095e-35 74.850000000000009 31058.153000000002 3.5000000000000004 55.350000000000001\ndecision_type=2 2 2 2 2 2 2 2 2 2 2 2 2 2 2 2 2 2 2 2 2 2 2 2 2 2 2 2 2 2\nleft_child=1 4 3 6 -1 -6 9 -8 -9 12 11 27 -2 15 -13 -12 28 19 -14 20 21 22 -7 -23 -25 -3 -27 -11 29 -4\nright_child=2 25 16 -5 5 17 7 8 -10 10 13 14 18 -15 -16 -17 -18 -19 -20 -21 -22 23 -24 24 -26 26 -28 -29 -30 -31\nleaf_value=-0.10380202266685881 0.012089455722437862 0.00085415325124731318 0.039551764750183793 -0.064175774868307917 0.077779783171366648 -0.01078885374530382 0.023988446278704348 0.042796016907442148 0.12243793578233116 0.06207207401346191 0.046460218254995939 -0.08345065759624129 0.038811659227182167 0.090925538009884677 -0.023500082170353917 -0.02831386562059798 0.059234224410178019 -0.066868252164687308 0.11391211363030396 -0.081947960644083426 0.049438103175577064 -0.077642553200397091 0.075606581086707952 0.038362180051626345 -0.054520354250971848 0.050554108329679541 -0.013897564833005711 -0.017440734308218266 -0.057339956162215357 -0.010333209571817215\nleaf_weight=15.660034000873564 299.78253674507141 2440.1845945119858 39.922576427459717 23.098775267601013 15.531669676303862 1495.1458501815796 294.92912036180496 34.11559796333313 33.411541163921356 35.920013725757599 33.194032251834869 33.321449339389801 34.740939438343048 35.485898375511169 130.33194088935852 34.911289513111115 21.09056955575943 29.986238241195679 29.441315293312073 17.896364331245422 23.073013842105865 44.765307188034058 17.055512607097626 22.857130527496338 19.2802774310112 63.609481573104858 27.534559190273285 19.368872225284576 30.04802405834198 305.24692690372467\nleaf_count=23 279 2697 43 24 19 1868 286 31 31 36 35 32 35 36 126 38 22 39 27 20 27 59 21 30 27 70 28 20 34 328\ninternal_value=0 -0.00385641 0.0117474 0.0180012 -0.0124849 -0.0116365 0.0198108 0.0348338 0.0822018 0.011879 -0.000531365 -0.018049 0.0228766 0.0364925 -0.0357066 0.00813047 -0.00516982 -0.0124681 0.0732613 -0.0114734 -0.010696 -0.0115636 -0.00981443 -0.0420011 -0.0041369 0.0019426 0.0310833 0.034217 -0.0087899 -0.00456347\ninternal_weight=0 4232.58 1468.36 1072.05 1701.25 1685.59 1048.95 362.456 67.5271 686.498 322.533 218.942 363.965 103.591 163.653 68.1053 396.308 1670.06 64.1823 1640.07 1622.18 1599.1 1512.2 86.9027 42.1374 2531.33 91.144 55.2889 375.218 345.17\ninternal_count=6391 4928 1463 1036 2133 2110 1012 348 62 664 323 214 341 109 158 73 427 2091 62 2052 2032 2005 1889 116 57 2795 98 56 405 371\nis_linear=0\nshrinkage=0.1\n\n\nTree=15\nnum_leaves=31\nnum_cat=0\nsplit_feature=0 18 23 31 1 5 3 4 5 8 4 1 34 23 4 4 4 1 2 4 4 7 4 4 27 4 2 4 4 4\nsplit_gain=22.0312 11.0982 14.4719 11.2161 10.1824 9.74767 16.2278 12.3634 9.65518 19.4359 10.4753 15.0141 10.4366 11.1049 10.6568 26.9021 14.8855 12.1458 9.7706 9.49489 16.4729 9.4556 13.3746 17.8866 11.1839 14.5091 14.5133 13.8804 14.4668 23.4049\nthreshold=1.0000000180025095e-35 1.0000000180025095e-35 1.0000000180025095e-35 1.0000000180025095e-35 86.950000000000017 1.0000000180025095e-35 2.5000000000000004 111688.13000000002 1.0000000180025095e-35 1.0000000180025095e-35 27920.648500000003 66.450000000000017 1.0000000180025095e-35 1.0000000180025095e-35 4841.811850000001 7946.1416000000017 9598.8145000000022 68.350000000000009 1.5000000000000002 22842.949000000004 27745.375000000004 1.0000000180025095e-35 12065.500250000003 16871.707000000006 1.0000000180025095e-35 67045.585000000006 2.5000000000000004 20333.806500000002 22363.677000000003 23611.812000000002\ndecision_type=2 2 2 2 2 2 2 2 2 2 2 2 2 2 2 2 2 2 2 2 2 2 2 2 2 2 2 2 2 2\nleft_child=1 3 19 4 5 6 -1 21 9 -2 18 -12 14 -14 -10 17 -17 -16 -11 -3 -21 22 -7 -24 25 26 27 -25 -29 -30\nright_child=8 2 -4 -5 -6 7 -8 -9 12 10 11 -13 13 -15 15 16 -18 -19 -20 20 -22 -23 23 24 -26 -27 -28 28 29 -31\nleaf_value=0.00097706904062220602 0.0024657319551817485 -0.018664912942986993 0.088405492844591704 0.069305663745706819 -0.059147770772842084 0.022166637957129504 0.096433696902769928 0.055377190843818147 -0.038807463597907203 0.044289588854558692 0.073156101115745761 -0.037651759241870891 0.057014363774498027 -0.020401743686832542 0.11219810018179044 -0.037529283608343567 0.0030807267323995609 0.028166803916586852 0.12200470791136118 0.10467211421635736 -0.0014942715605030272 -0.043733822533777049 -0.050023846906216397 -0.034695415005373903 -0.037040845173052971 -0.04684502904943031 -0.030314047918133948 0.044850681838764658 -0.07229012339319936 0.00387698300316277\nleaf_weight=101.8004475235939 189.74858671426773 78.861694395542145 24.168995678424835 17.732588112354279 42.246899306774139 115.38248717784882 21.585610926151276 27.333871185779572 61.452744603157043 34.17721563577652 25.401510238647461 23.578500270843506 68.909761011600494 25.343538045883179 30.298587799072266 93.155860960483551 2904.0007531046867 39.789077520370483 30.717081248760223 21.499871253967285 45.638458430767059 91.326262354850769 121.14541882276535 103.41389316320419 138.82890689373016 86.318677186965942 184.46292304992676 79.027519702911377 42.410655617713928 827.66582500934601\nleaf_count=123 197 87 24 17 51 138 25 31 71 33 26 25 64 23 31 93 3118 38 28 23 51 111 141 123 179 114 243 95 51 1017\ninternal_value=0 -0.00778637 0.0167302 -0.00987164 -0.0105797 -0.00952242 0.0176766 -0.0113691 0.00501824 0.0220658 0.0547255 0.0198143 0.00341225 0.0361981 0.00242456 0.00325065 0.00181851 0.0644932 0.0810753 0.00486503 0.0325036 -0.0123883 -0.0107031 -0.0130985 -0.010039 -0.00720622 -0.00444016 9.4464e-05 0.00388515 0.000164324\ninternal_weight=0 2170.85 170.169 2000.68 1982.95 1940.7 123.386 1817.32 3526.57 303.623 113.874 48.98 3222.95 94.2533 3128.7 3067.24 2997.16 70.0877 64.8943 146 67.1383 1789.98 1698.66 1583.27 1462.13 1323.3 1236.98 1052.52 949.104 870.076\ninternal_count=6391 2644 185 2459 2442 2391 148 2243 3747 309 112 51 3438 87 3351 3280 3211 69 61 161 74 2212 2101 1963 1822 1643 1529 1286 1163 1068\nis_linear=0\nshrinkage=0.1\n\n\nTree=16\nnum_leaves=31\nnum_cat=0\nsplit_feature=22 0 25 4 1 1 4 4 4 27 18 23 35 5 4 4 34 1 17 3 4 1 8 3 1 2 24 1 4 1\nsplit_gain=21.1819 13.9963 12.6341 13.0222 11.1842 10.7584 17.0826 25.9737 17.6941 16.3514 13.236 14.1941 12.5757 11.0111 10.3934 25.0255 12.0506 16.5925 11.3413 11.8395 13.7045 10.2284 10.0493 9.83311 9.7983 23.3831 9.4779 9.39846 8.59871 11.1164\nthreshold=1.0000000180025095e-35 1.0000000180025095e-35 1.0000000180025095e-35 74072.928000000014 50.150000000000013 71.750000000000014 22095.067500000001 20972.785000000003 24323.506000000005 1.0000000180025095e-35 1.0000000180025095e-35 1.0000000180025095e-35 1.0000000180025095e-35 1.0000000180025095e-35 38284.003000000004 33214.421000000009 1.0000000180025095e-35 65.250000000000014 1.0000000180025095e-35 1.5000000000000002 17048.635000000006 51.150000000000013 1.0000000180025095e-35 3.5000000000000004 67.050000000000011 1.5000000000000002 1.0000000180025095e-35 60.750000000000007 30903.155000000002 77.350000000000009\ndecision_type=2 2 2 2 2 2 2 2 2 2 2 2 2 2 2 2 2 2 2 2 2 2 2 2 2 2 2 2 2 2\nleft_child=1 4 3 5 -1 9 7 12 -8 13 11 28 22 -2 15 16 17 18 19 -15 -21 -6 23 -7 -19 -26 -16 -11 -10 -30\nright_child=2 -3 -4 -5 21 6 8 -9 10 27 -12 -13 -14 14 26 -17 -18 24 -20 20 -22 -23 -24 -25 25 -27 -28 -29 29 -31\nleaf_value=-0.09674731328363502 0.092849253397046791 0.0012186168022198123 -0.0048175018204029548 -0.058704907550317521 0.070272033637177017 0.034462427577214072 -0.067780593400665473 0.12941488367306853 -0.035607828154221123 0.026856544001223382 0.043540693568109336 -0.087189599379226046 0.055001001422734945 0.062443763982548112 0.026111680497221647 -0.0746077886700071 0.098779165933015833 0.11361245760250481 -0.048155929977674178 0.047271840320329633 -0.04677867582368489 -0.010526612402643579 -0.021632292693449007 -0.025791312233432329 -0.024081301174848507 0.099904382373779285 0.098203015892333406 -0.050552286483949466 -0.020776013125776982 0.043792028759456807\nleaf_weight=14.913482904434202 32.89452052116394 2534.8255063295364 395.77314311265945 22.788129925727844 15.816944956779478 123.03264474868774 43.375384390354156 22.020995020866394 49.671751379966736 27.605811834335327 57.289889216423035 21.856157660484314 68.014950454235077 39.846868097782135 33.307754456996918 23.851795732975006 24.798003733158112 24.257360458374023 32.319772362709045 26.803659379482269 36.715732872486115 1658.7418756484985 83.923028230667114 34.730218827724457 30.160658299922943 30.687959492206573 40.303929567337036 36.321039319038391 48.548826217651367 59.151688992977142\nleaf_count=23 31 2795 427 24 19 113 42 20 49 29 53 21 59 38 36 25 22 23 31 27 37 2091 78 32 28 29 41 40 50 58\ninternal_value=0 -0.00348065 0.0104561 0.016083 -0.0105313 0.0177038 0.00912562 0.024477 -0.00906837 0.0296312 0.00169894 -0.0116757 0.0170155 0.0375817 0.0322822 0.0231843 0.032682 0.0252583 0.00354749 0.0197137 -0.00709161 -0.00976343 0.00632564 0.0211981 0.0598723 0.0384488 0.0655832 -0.0171245 -0.00118815 0.0146863\ninternal_weight=0 4224.3 1470.05 1074.28 1689.47 1051.49 611.616 331.722 279.894 439.875 236.518 179.228 309.701 375.948 343.053 269.442 245.59 220.792 135.686 103.366 63.5194 1674.56 241.686 157.763 85.106 60.8486 73.6117 63.9269 157.372 107.701\ninternal_count=6391 4928 1463 1036 2133 1012 575 302 273 437 231 178 282 368 337 260 235 213 133 102 64 2110 223 145 80 57 77 69 157 108\nis_linear=0\nshrinkage=0.1\n\n\nTree=17\nnum_leaves=31\nnum_cat=0\nsplit_feature=22 0 1 1 24 25 10 4 5 1 4 1 1 4 4 1 1 1 18 4 4 4 3 4 1 1 4 1 2 24\nsplit_gain=17.1076 11.3918 10.3008 18.3321 18.1162 11.3173 14.2488 26.6466 12.6695 14.7767 14.6837 14.3759 20.908 13.7951 24.6968 10.6143 12.3738 9.55728 8.65067 19.0021 17.3423 8.73544 17.4842 11.2218 8.47847 8.3285 10.7897 8.15557 7.54937 19.3585\nthreshold=1.0000000180025095e-35 1.0000000180025095e-35 54.350000000000001 50.850000000000001 1.0000000180025095e-35 1.0000000180025095e-35 1.0000000180025095e-35 47362.357500000006 1.0000000180025095e-35 70.250000000000014 39669.380000000012 59.45000000000001 60.750000000000007 45848.868500000004 50664.213000000011 63.850000000000001 73.350000000000009 50.150000000000013 1.0000000180025095e-35 19322.472000000005 21483.683000000005 22363.677000000003 2.5000000000000004 12794.849000000002 70.050000000000011 79.850000000000009 26181.853000000003 51.150000000000013 2.5000000000000004 1.0000000180025095e-35\ndecision_type=2 2 2 2 2 2 2 2 2 2 2 2 2 2 2 2 2 2 2 2 2 2 2 2 2 2 2 2 2 2\nleft_child=1 17 3 -2 -5 6 8 25 9 -4 11 -10 -13 -12 -15 -14 -17 -1 21 -20 -21 23 -23 -18 -16 -8 -27 -19 -3 -30\nright_child=2 28 5 4 -6 -7 7 -9 10 -11 13 12 15 14 24 16 18 27 19 20 -22 22 -24 -25 -26 26 -28 -29 29 -31\nleaf_value=-0.090845595101404816 -0.034885745576792269 0.003342657385837295 0.12540134032810787 0.013902484791194814 0.120433763872455 -0.0079951410460865954 -0.0097832741531442193 -0.091490166366772957 -0.044979092520510966 0.025273238957907014 0.10520984590200065 0.10226866469007692 -0.0363471048313651 -0.060608377806276884 0.020129918728663768 0.035342198733841923 -0.041152186729592741 0.061942532876047202 -0.0042324758416350961 0.12763400264135841 0.023019798644807229 -0.0091407314325742881 -0.11019914632322403 0.044266725626352282 0.10445728443785102 0.088643368564087333 -0.0061122117448137335 -0.0095066160224458063 0.0023882838850264308 -0.04837779650670751\nleaf_weight=14.32539042830467 22.454146325588226 2168.1406926512718 22.893435120582581 30.248951077461243 33.799681305885315 358.71588689088821 108.76494354009628 34.534648776054382 45.430700540542603 41.378426551818848 31.393268883228302 25.333542704582214 46.531660497188568 22.623192131519318 21.875051021575928 175.13445788621902 24.422954797744751 16.131585240364075 150.15729701519012 24.048079669475555 46.461285471916199 65.957534313201904 23.121240675449371 41.537410497665405 26.206591904163361 23.501474797725677 24.591834306716919 1653.3413175940514 262.13615250587463 105.28321051597595\nleaf_count=23 24 2374 21 31 32 388 111 39 45 38 32 24 47 23 23 167 22 19 135 22 42 65 23 39 25 21 24 2091 297 124\ninternal_value=0 -0.00313787 0.00938552 0.0428637 0.0701211 0.007294 0.01264 -0.0119687 0.018284 0.0609386 0.0147247 0.00932731 0.0132893 0.0500454 0.0255521 0.00951588 0.0133901 -0.00951411 0.00315718 0.0158762 0.0586997 -0.0149457 -0.0353714 0.0126389 0.066092 0.00553915 0.0401914 -0.00881623 0.00109642 -0.0121586\ninternal_weight=0 4219.36 1471.12 86.5028 64.0486 1384.61 1025.9 191.393 834.506 64.2719 770.234 668.136 622.705 102.098 70.7048 597.372 550.84 1683.8 375.706 220.667 70.5094 155.039 89.0788 65.9604 48.0816 156.858 48.0933 1669.47 2535.56 367.419\ninternal_count=6391 4928 1463 87 63 1376 988 195 793 59 734 631 586 103 71 562 515 2133 348 199 64 149 88 61 48 156 45 2110 2795 421\nis_linear=0\nshrinkage=0.1\n\n\nTree=18\nnum_leaves=31\nnum_cat=0\nsplit_feature=35 34 33 9 4 5 18 3 4 3 10 4 25 26 18 2 4 4 2 1 1 19 1 1 0 27 1 2 1 4\nsplit_gain=15.9448 15.7204 18.9701 17.6965 15.4347 13.6512 14.4565 14.8151 14.7502 12.9164 12.7416 11.8438 16.4263 11.8321 14.0563 18.686 14.4443 12.3883 12.6172 12.2222 10.9425 20.6978 10.8697 12.2972 11.5477 10.3102 11.1282 15.5205 14.5251 14.2611\nthreshold=1.0000000180025095e-35 1.0000000180025095e-35 1.0000000180025095e-35 1.0000000180025095e-35 4841.811850000001 1.0000000180025095e-35 1.0000000180025095e-35 3.5000000000000004 10893.458750000002 6.5000000000000009 1.0000000180025095e-35 24935.520500000002 1.0000000180025095e-35 1.0000000180025095e-35 1.0000000180025095e-35 1.5000000000000002 26318.429500000002 7332.9557000000013 4.5000000000000009 71.750000000000014 71.550000000000011 1.0000000180025095e-35 71.750000000000014 70.050000000000011 1.0000000180025095e-35 1.0000000180025095e-35 54.850000000000001 2.5000000000000004 53.850000000000001 72219.676000000021\ndecision_type=2 2 2 2 2 2 2 2 2 2 2 2 2 2 2 2 2 2 2 2 2 2 2 2 2 2 2 2 2 2\nleft_child=1 2 3 13 -2 10 -7 8 -8 -4 -6 12 20 17 15 16 -15 19 25 -1 21 -3 23 -17 -24 26 27 28 -19 -28\nright_child=4 11 9 -5 5 6 7 -9 -10 -11 -12 -13 -14 14 -16 22 -18 18 -20 -21 -22 -23 24 -25 -26 -27 29 -29 -30 -31\nleaf_value=-0.014328507052412093 -0.066047592551260609 0.089097754999716172 0.0042466931679958804 0.027053966357356959 0.085372775324144404 0.0036465727723939698 -0.0090225748789397008 -0.013378732125432866 0.077114475460263121 -0.072531359712780033 -0.0014785003172747705 0.077074662388916915 -0.038219931295899984 -0.14031454719764833 0.01610918223378497 -0.02224370767126271 -0.021276061975070686 0.024740931942660166 -0.066169705589317188 -0.11439137965770968 -0.019615490065228273 -0.018089506082596036 -0.098859671011207739 0.065127421911655922 -0.016882762370762625 -0.027896275092381125 -0.0032532685487688569 -0.02050818520966341 0.11807171832739433 -0.041889477868293293\nleaf_weight=28.286646366119385 23.828477323055267 53.829906344413757 2213.0775113105774 127.46622633934021 50.026082694530487 543.09855961799622 25.8450927734375 40.443468630313873 86.135536193847656 22.130315542221069 25.502972483634949 36.886295795440674 43.244840204715729 28.172358274459839 59.240917146205902 156.71863478422165 15.972909986972807 59.520986199378967 35.357986062765121 21.473713397979736 27.679191172122955 27.076911628246307 36.394096225500107 17.954600751399994 32.553916275501251 191.41271662712097 1483.7396591305733 48.194474995136261 23.164960443973541 102.10995107889175\nleaf_count=35 27 49 2487 144 47 574 24 39 79 23 27 36 42 34 64 197 20 74 44 23 25 26 45 21 35 230 1707 61 27 125\ninternal_value=0 -0.00205116 -0.00318676 -0.00923124 0.0132194 0.015669 0.0112843 0.038498 0.0572341 0.00348653 0.0560468 0.0262486 0.0139007 -0.0112076 -0.0282492 -0.037381 -0.0972433 -0.00824078 -0.00697932 -0.0575099 0.034658 0.0532256 -0.0265337 -0.0132629 -0.0601541 -0.00588252 -0.00342802 0.0245976 0.0508881 -0.00574098\ninternal_weight=0 4891.66 4702.94 2467.73 794.88 771.052 695.523 152.424 111.981 2235.21 75.5291 188.717 151.831 2340.27 347.007 287.767 44.1453 1993.26 1943.5 49.7604 108.586 80.9068 243.621 174.673 68.948 1908.14 1716.73 130.88 82.6859 1585.85\ninternal_count=6391 5574 5396 2886 817 790 716 142 103 2510 74 178 142 2742 416 352 54 2326 2268 58 100 75 298 218 80 2224 1994 162 101 1832\nis_linear=0\nshrinkage=0.1\n\n\nTree=19\nnum_leaves=31\nnum_cat=0\nsplit_feature=22 4 1 3 4 1 14 4 2 4 4 1 4 8 5 2 1 4 4 4 25 4 1 27 16 36 24 4 26 34\nsplit_gain=13.3795 11.2525 10.928 10.8998 20.8921 17.9794 13.9745 12.2089 12.2022 12.7598 9.48335 13.4251 12.0984 9.34394 32.9519 16.3817 16.535 34.3467 24.1246 21.1099 17.1056 16.5373 11.0933 10.3969 12.6703 10.2349 10.5002 10.873 9.43802 13.4288\nthreshold=1.0000000180025095e-35 111688.13000000002 86.950000000000017 3.5000000000000004 26815.912000000004 63.550000000000004 1.0000000180025095e-35 23524.481500000005 2.5000000000000004 32448.599000000006 67045.585000000006 75.550000000000011 64707.379000000008 1.0000000180025095e-35 1.0000000180025095e-35 4.5000000000000009 74.250000000000014 22521.287000000004 28261.235000000004 15975.881000000003 1.0000000180025095e-35 12212.908000000001 77.250000000000014 1.0000000180025095e-35 1.0000000180025095e-35 1.0000000180025095e-35 1.0000000180025095e-35 26972.995000000006 1.0000000180025095e-35 1.0000000180025095e-35\ndecision_type=2 2 2 2 2 2 2 2 2 2 2 2 2 2 2 2 2 2 2 2 2 2 2 2 2 2 2 2 2 2\nleft_child=1 2 3 10 5 -5 -6 -7 9 -8 12 -12 13 23 25 16 28 19 -19 21 22 -18 -20 24 -1 -15 27 -27 29 -16\nright_child=-2 -3 -4 4 6 7 8 -9 -10 -11 11 -13 -14 14 15 -17 17 18 20 -21 -22 -23 -24 -25 -26 26 -28 -29 -30 -31\nleaf_value=0.0088181579388680788 0.0082769393464889197 0.047476088376013248 -0.042988778394401253 0.037607093029346929 0.015708671832259099 -0.024784278676564849 -0.090689992362243621 0.036003615083789693 -0.09188129712418934 -0.016638762499353671 -0.013689497164618257 -0.1025620692189478 0.065629505264900967 -0.0050852448312297292 -0.010659637678001882 -0.082514032170483129 -0.04564783357360639 0.11461930487046512 0.099875090652286252 -0.064903146183546576 -0.035155502087335491 0.073913644167198519 0.014526998660174484 -0.018484525544636594 -0.053485937595266854 0.052587194132702922 0.022573681616257855 0.15145392860249829 -0.031611789684551771 0.049572913275064572\nleaf_weight=1544.7360288500786 1471.2059854269028 44.050987005233765 68.347081154584885 91.865486443042755 37.330667436122894 196.0943067073822 30.756447076797485 39.735081195831299 52.873652398586273 95.585257947444916 132.11196318268776 19.507085025310516 28.230003952980042 24.849377334117889 1005.1713286042213 29.865604043006897 19.845594346523285 40.257972776889801 28.112760305404663 60.730662643909454 33.564899921417236 27.737949073314667 33.23031347990036 170.60869801044464 33.344737350940704 23.367153525352478 29.276485025882721 21.230012714862823 211.41576170921326 38.429801166057587\nleaf_count=1767 1463 50 78 103 44 219 36 46 68 115 170 24 33 26 1226 38 22 43 31 69 39 30 37 201 38 23 31 23 261 37\ninternal_value=0 -0.00280033 -0.00333167 -0.00267056 -0.0158497 7.73418e-05 -0.0399518 -0.0145421 -0.0515459 -0.0346657 -0.0006533 -0.0251237 0.000436646 -0.000108531 -0.00556271 -0.00917956 -0.00771798 0.0161309 0.0497526 -0.0258259 0.0222374 0.0240483 0.053641 0.00496637 0.00750168 0.0504309 0.0691053 0.0996517 -0.0123448 -0.00844162\ninternal_weight=0 4212.26 4168.21 4099.87 544.241 327.695 216.546 235.829 179.215 126.342 3555.62 151.619 3404.01 3375.78 1627.09 1528.36 1498.5 243.48 135.166 108.314 94.908 47.5835 61.3431 1748.69 1578.08 98.723 73.8737 44.5972 1255.02 1043.6\ninternal_count=6391 4928 4878 4800 631 368 263 265 219 151 4169 194 3975 3942 1936 1833 1795 271 150 121 107 52 68 2006 1805 103 77 46 1524 1263\nis_linear=0\nshrinkage=0.1\n\n\nTree=20\nnum_leaves=31\nnum_cat=0\nsplit_feature=35 7 25 23 1 2 18 4 1 19 25 4 3 28 22 34 33 9 3 1 1 3 2 25 1 30 4 4 17 3\nsplit_gain=13.156 13.6951 21.742 22.2537 17.0728 15.8605 15.8325 24.7937 24.8622 14.5792 14.2939 12.9418 12.3377 14.4848 12.2713 11.2777 15.446 13.9327 10.3099 10.1104 10.4106 9.82443 9.5673 13.8732 12.3215 11.3157 11.993 9.41987 18.383 20.3825\nthreshold=1.0000000180025095e-35 1.0000000180025095e-35 1.0000000180025095e-35 1.0000000180025095e-35 62.250000000000007 1.5000000000000002 1.0000000180025095e-35 9107.1500000000015 71.15000000000002 1.0000000180025095e-35 1.0000000180025095e-35 33040.363000000005 3.5000000000000004 1.0000000180025095e-35 1.0000000180025095e-35 1.0000000180025095e-35 1.0000000180025095e-35 1.0000000180025095e-35 6.5000000000000009 79.15000000000002 54.150000000000013 2.5000000000000004 3.5000000000000004 1.0000000180025095e-35 71.550000000000011 1.0000000180025095e-35 9598.8145000000022 31058.153000000002 1.0000000180025095e-35 1.0000000180025095e-35\ndecision_type=2 2 2 2 2 2 2 2 2 2 2 2 2 2 2 2 2 2 2 2 2 2 2 2 2 2 2 2 2 2\nleft_child=15 2 3 6 9 -4 12 -8 -9 -5 -3 -7 13 19 -10 16 17 27 -18 20 -2 -19 23 24 25 26 -17 -1 -29 -30\nright_child=1 10 5 4 -6 11 7 8 14 -11 -12 -13 -14 -15 -16 22 18 21 -20 -21 -22 -23 -24 -25 -26 -27 -28 28 29 -31\nleaf_value=-0.016760404328195058 -0.058919253309009358 -0.041038584108323686 -0.052311952088869899 0.17657887809786205 0.030377109208096571 0.02998862142522208 -0.037312374197294995 -0.0099298118882303679 0.065831508148790213 0.06154752739003036 0.038072555497188715 -0.038475776719807647 0.054899982201647206 -0.072706181033090386 0.15942736877128028 0.076652800606923754 0.0038319733577205661 0.035302025292235674 -0.065341880114135872 -0.047560652082527355 0.021932705638836258 -0.042447263857469379 0.084430090605219915 -0.031571696791985633 -0.032303597109850701 0.088283474065475501 -0.018413860180465893 -0.0063527536221157227 -0.0096838184928524484 0.12935198613739657\nleaf_weight=1109.8146702945232 17.49829089641571 84.89471560716629 62.776741981506348 21.664720714092255 44.708758950233459 89.746246874332428 23.610962629318237 22.233907639980316 26.664530634880066 22.420107781887054 31.244404315948486 39.87842333316803 45.252986788749695 25.861441314220428 29.512083649635315 21.807080924510956 2213.9710748791695 109.31763756275177 21.758038341999054 30.155082046985626 177.18805474042892 19.09046471118927 21.744870245456696 47.885228157043457 23.814269602298737 40.469925165176392 33.896562516689301 1179.1201586127281 20.789816677570343 21.394762575626373\nleaf_count=1272 19 83 67 22 46 99 22 21 25 25 33 45 47 27 25 20 2487 123 23 28 183 21 21 46 22 36 33 1421 24 25\ninternal_value=0 0.0119777 0.0174041 0.0286528 0.0739193 -0.0110548 0.0185533 0.0525246 0.0795763 0.118078 -0.0197557 0.00892587 0.00684269 -0.00183187 0.115002 -0.00189144 -0.00285703 -0.00832545 0.00315878 0.00632015 0.0146658 0.023743 0.0220182 0.0139339 0.0320945 0.0480406 0.0188032 -0.0100919 -0.00403219 0.060831\ninternal_weight=0 795.311 679.172 486.771 88.7936 192.401 397.977 102.021 78.4105 44.0848 116.139 129.625 295.956 250.703 56.1766 4884.87 4695.26 2459.53 2235.73 224.841 194.686 128.408 189.618 167.873 119.988 96.1736 55.7036 2331.12 1221.3 42.1846\ninternal_count=6391 817 701 490 93 211 397 93 71 47 116 144 304 257 50 5574 5396 2886 2510 230 202 144 178 157 111 89 53 2742 1470 49\nis_linear=0\nshrinkage=0.1\n\n\nTree=21\nnum_leaves=31\nnum_cat=0\nsplit_feature=0 7 3 1 1 4 18 3 26 4 4 1 1 20 4 26 1 1 4 23 1 1 3 3 1 1 4 4 1 36\nsplit_gain=11.6742 8.98788 14.5954 8.45161 9.41195 13.0917 11.4665 12.2182 16.54 11.3007 11.01 9.46808 11.7135 9.41295 13.6401 9.24117 8.56998 7.87768 8.19715 7.79886 9.21025 17.208 13.4825 27.9151 7.22793 7.11991 6.98323 13.7026 9.64732 6.85475\nthreshold=1.0000000180025095e-35 1.0000000180025095e-35 1.5000000000000002 89.350000000000009 69.250000000000014 31595.696500000002 1.0000000180025095e-35 2.5000000000000004 1.0000000180025095e-35 22842.949000000004 10893.458750000002 54.550000000000004 53.850000000000001 1.0000000180025095e-35 4841.811850000001 1.0000000180025095e-35 55.150000000000013 75.850000000000009 26815.912000000004 1.0000000180025095e-35 80.350000000000009 77.550000000000011 2.5000000000000004 3.5000000000000004 74.550000000000011 84.550000000000011 59136.240000000013 43929.250000000007 70.750000000000014 1.0000000180025095e-35\ndecision_type=2 2 2 2 2 2 2 2 2 2 2 2 2 2 2 2 2 2 2 2 2 2 2 2 2 2 2 2 2 2\nleft_child=1 3 -3 4 10 6 7 8 17 -8 13 12 -12 14 -1 -9 -13 18 -6 20 21 22 24 -24 26 -22 27 28 -7 -18\nright_child=-2 2 -4 -5 5 19 9 15 -10 -11 11 16 -14 -15 -16 -17 29 -19 -20 -21 25 -23 23 -25 -26 -27 -28 -29 -30 -31\nleaf_value=-0.016314253287324141 0.0035787427440444062 0.012271812468469234 -0.06362460406861746 -0.055106526736249509 -0.020799837508182036 -0.04323131613121687 0.00057731536026143213 -0.043829854061564852 -0.061527563020973501 0.076921205085391714 -0.0046749101719886004 -0.073694062094098164 0.064008351470245764 -0.018652268587110162 0.081696510399594441 0.019700634831141862 0.041300589490398817 0.034583883218479099 0.038312903035646495 -0.025849484787914656 -0.027833111281104907 0.084578722974358089 0.1088331063006911 -0.021737781172067691 -0.033940058836204282 0.033595333135420319 0.068481229592450649 -0.060755017222640623 0.042731189951543895 -0.016311146011410652\nleaf_weight=22.265987157821655 3528.0562307238579 41.488304376602173 65.091121912002563 32.216382712125778 87.279688775539398 16.454748928546906 57.244231462478638 145.98819869756699 36.134951591491699 29.320099294185638 104.02932697534561 25.513121128082275 32.61524486541748 35.216991364955902 39.194436550140381 27.155015349388123 21.182110548019409 87.537066847085953 32.081072509288788 37.588101446628571 55.676120698451996 48.929087460041046 40.970376253128052 27.273498058319092 38.830625772476196 28.540786236524582 20.718368887901306 24.343950927257538 63.194161415100098 825.78686654567719\nleaf_count=27 3747 49 82 36 105 21 63 174 43 31 141 33 39 43 43 32 27 101 35 45 63 54 50 34 46 32 25 30 72 1068\ninternal_value=0 -0.0057696 -0.0340803 -0.00429288 -0.00347887 0.00408213 -0.00667838 -0.0135661 0.000896142 0.0264357 -0.00966864 -0.0127571 0.0117189 0.0225691 0.046189 -0.033866 -0.0165904 0.0117985 -0.00491187 0.0175218 0.0219891 0.0306906 0.0193151 0.0566508 0.00373537 -0.00701525 0.0154662 0.00490403 0.0249721 -0.0148703\ninternal_weight=0 2149.86 106.579 2043.28 2011.06 905.26 502.74 416.176 243.033 86.5643 1105.8 1009.13 136.645 96.6774 61.4604 173.143 872.482 206.898 119.361 402.52 364.932 280.715 231.786 68.2439 163.542 84.2169 124.711 103.993 79.6489 846.969\ninternal_count=6391 2644 131 2513 2477 1056 584 490 284 94 1421 1308 180 113 70 206 1128 241 140 472 427 332 278 84 194 95 148 123 93 1095\nis_linear=0\nshrinkage=0.1\n\n\nTree=22\nnum_leaves=31\nnum_cat=0\nsplit_feature=27 22 25 1 2 35 1 10 4 4 17 3 18 33 31 0 6 4 21 4 20 3 4 1 1 26 24 3 5 33\nsplit_gain=10.4569 11.0915 10.2952 9.61372 16.246 12.8387 11.8203 9.79644 9.39476 19.7258 11.0528 11.443 15.1157 13.8614 8.24737 9.37917 9.07802 14.4823 8.56229 21.159 18.256 23.9101 11.1143 11.1387 15.2785 8.40301 8.56506 8.16203 8.14676 8.11376\nthreshold=1.0000000180025095e-35 1.0000000180025095e-35 1.0000000180025095e-35 71.750000000000014 1.5000000000000002 1.0000000180025095e-35 78.550000000000011 1.0000000180025095e-35 38284.003000000004 32194.842500000002 1.0000000180025095e-35 2.5000000000000004 1.0000000180025095e-35 1.0000000180025095e-35 1.0000000180025095e-35 1.0000000180025095e-35 1.0000000180025095e-35 24140.177500000002 1.0000000180025095e-35 61503.182000000008 1.0000000180025095e-35 1.5000000000000002 61503.182000000008 57.550000000000004 65.050000000000011 1.0000000180025095e-35 1.0000000180025095e-35 4.5000000000000009 1.0000000180025095e-35 1.0000000180025095e-35\ndecision_type=2 2 2 2 2 2 2 2 2 2 2 2 2 2 2 2 2 2 2 2 2 2 2 2 2 2 2 2 2 2\nleft_child=1 14 3 7 5 -5 -7 8 9 10 11 12 -3 -13 15 16 17 25 22 20 21 -20 -17 -24 -25 -1 29 -4 -2 -27\nright_child=28 2 27 4 -6 6 -8 -9 -10 -11 -12 13 -14 -15 -16 18 -18 -19 19 -21 -22 -23 23 24 -26 26 -28 -29 -30 -31\nleaf_value=-0.020091853581534303 0.033398231670438809 0.046215213867900659 -0.0077937952424730894 0.010581260045094567 -0.014754184275434363 0.10174731594415931 0.017199984362363179 -0.006530377022022877 0.068175477608639734 -0.069298780656999556 -0.011558422006459427 0.062104746535238446 0.13834042607482308 -0.028610689277001944 0.063728962042495022 0.002138953583955295 0.018786119603714176 -0.0037081161045196733 0.14374318576357908 0.12669308517623437 -0.0097549876696224058 0.010412323812456548 -0.098998937298100567 0.025700995790149131 -0.058414103699900168 -0.13664561385376314 -0.016984296130459764 0.055962293563551348 -0.016494324044863031 -0.041116264525777123\nleaf_weight=325.04572379589081 35.00786942243576 101.35307133197784 373.7832795381546 274.68523591756821 219.97994023561478 33.215607285499573 32.92913407087326 71.860567450523376 65.277992069721222 20.147607743740082 43.722434878349304 30.114012002944946 21.607156097888947 38.224616825580597 19.370313584804535 1972.5947952270508 117.81336104869843 986.89257952570915 20.909448146820068 17.636663973331451 123.93615961074829 37.701008975505829 19.673535943031311 43.950779736042023 42.450983881950378 19.084093511104584 26.343959331512451 21.219498753547668 502.44142910838127 16.646105766296387\nleaf_count=410 39 95 405 253 213 29 28 77 65 21 41 29 19 36 18 2155 130 1280 23 21 145 44 23 50 49 26 33 22 590 22\ninternal_value=0 0.00141555 0.00920576 0.0148315 0.00643154 0.0201053 0.0596567 0.0268394 0.0343226 0.0256623 0.033803 0.0441706 0.0624039 0.0113639 -0.00135543 -0.00168977 -0.0078539 -0.0101381 0.00234551 0.0220977 0.0119923 0.0579785 0.000443299 -0.0310894 -0.0156265 -0.0265303 -0.0602443 -0.00436883 -0.0132445 -0.0921401\ninternal_weight=0 5138.17 1348.12 953.117 560.81 340.83 66.1447 392.307 320.447 255.169 235.021 191.299 122.96 68.3386 3790.05 3770.68 1491.83 1374.01 2278.85 200.183 182.547 58.6105 2078.67 106.075 86.4018 387.12 62.0742 395.003 537.449 35.7302\ninternal_count=6391 5762 1333 906 523 310 57 383 306 241 220 179 114 65 4429 4411 1901 1771 2510 233 212 67 2277 122 99 491 81 427 629 48\nis_linear=0\nshrinkage=0.1\n\n\nTree=23\nnum_leaves=31\nnum_cat=0\nsplit_feature=4 4 5 3 8 3 4 4 4 4 1 27 31 25 1 1 1 1 33 3 1 18 4 4 1 1 4 0 3 1\nsplit_gain=9.62767 17.4476 9.45611 14.1557 22.9262 24.8668 22.3485 22.3297 12.2759 22.9639 20.9271 11.4295 12.3299 9.59661 20.3359 19.7243 17.8637 13.5801 18.0663 17.4159 12.9258 13.0058 23.9036 17.3544 23.8465 31.345 22.8666 12.8071 16.413 12.6581\nthreshold=4841.811850000001 7946.1416000000017 1.0000000180025095e-35 2.5000000000000004 1.0000000180025095e-35 3.5000000000000004 12065.500250000003 24140.177500000002 31595.696500000002 38284.003000000004 67.050000000000011 1.0000000180025095e-35 1.0000000180025095e-35 1.0000000180025095e-35 62.250000000000007 71.750000000000014 80.050000000000011 65.250000000000014 1.0000000180025095e-35 5.5000000000000009 90.40000000000002 1.0000000180025095e-35 34369.772500000006 9598.8145000000022 71.15000000000002 73.350000000000009 11552.530500000003 1.0000000180025095e-35 3.5000000000000004 71.850000000000009\ndecision_type=2 2 2 2 2 2 2 2 2 2 2 2 2 2 2 2 2 2 2 2 2 2 2 2 2 2 2 2 2 2\nleft_child=-1 -2 3 6 -5 -6 -3 -8 -9 10 -10 12 13 17 27 -16 -17 19 20 -4 21 29 23 -23 -25 -26 -27 -15 -29 -19\nright_child=1 2 11 4 5 -7 7 8 9 -11 -12 -13 -14 14 15 16 -18 18 -20 -21 -22 22 -24 24 25 26 -28 28 -30 -31\nleaf_value=-0.02854440971904448 0.041761124433448142 -0.078098222872073755 -0.0084579102526309898 0.0073575333715358501 0.17279783120749756 0.024702907184149775 0.050486414795583884 -0.053265823574527554 0.14086098256763499 -0.018543838166346152 0.00023966570843509674 -0.016119885967725091 0.067064359822943523 -0.0091944799415178864 -0.026417139978985135 0.012265136593682476 -0.031706061801994485 0.011135163981529764 0.020598594523762965 0.086186385599698767 -0.063130172823531464 -0.078944360331437702 0.1076867159111447 -0.052137051237715309 0.14229107001551614 0.11222319541639598 0.0046299352895396162 0.025517494058961837 -0.038410244546060179 -0.015278308053353788\nleaf_weight=115.60742661356926 101.16761046648026 30.505193114280701 900.84139209985733 66.899986565113068 22.893437743186951 22.462917685508728 99.093903958797455 45.52785986661911 20.530757904052734 107.54176354408264 21.841668486595154 476.13806265592575 27.383778810501099 277.26446461677551 609.25236165523529 352.15377652645111 125.25396320223808 301.48268884420395 734.30885857343674 19.871637105941772 31.226455003023148 19.947933733463287 28.140694618225098 40.393517553806305 22.864199578762054 22.563992321491241 158.55610001087189 369.51327514648438 45.058668851852417 455.64122927188873\nleaf_count=139 102 32 1033 70 22 22 100 50 23 121 25 563 25 374 749 404 137 340 762 20 31 19 28 42 23 21 155 423 53 483\ninternal_value=0 0.000612363 -0.000150754 0.0139526 0.0445681 0.0994532 0.00337925 0.0118179 -0.00778798 0.00602331 0.0683751 -0.00137984 0.000165456 -0.00024035 -0.00595883 -0.014491 0.000728736 0.00347708 0.0084949 -0.00641521 0.000271631 0.0021579 0.0200682 0.0107402 0.0180609 0.0319617 0.0180339 0.00744256 0.0185694 -0.0047606\ninternal_weight=0 5556.32 5455.15 437.297 112.256 45.3564 325.041 294.536 195.442 149.914 42.3724 5017.86 4541.72 4514.34 1778.5 1086.66 477.408 2735.84 1815.13 920.713 1080.82 1049.59 292.466 264.326 244.378 203.984 181.12 691.836 414.572 757.124\ninternal_count=6391 6252 6150 465 114 44 351 319 219 169 48 5685 5122 5097 2140 1290 541 2957 1904 1053 1142 1111 288 260 241 199 176 850 476 823\nis_linear=0\nshrinkage=0.1\n\n\nTree=24\nnum_leaves=31\nnum_cat=0\nsplit_feature=35 4 3 3 2 14 4 26 4 4 30 4 14 20 4 7 25 10 2 4 4 4 18 4 1 4 4 1 4 1\nsplit_gain=9.62586 11.4143 9.9198 22.251 20.8789 15.2754 14.4341 13.9802 10.3491 10.8888 9.72344 16.2517 12.9289 12.3082 13.601 9.43995 17.2959 13.6902 11.2609 17.8487 16.5509 18.4963 17.1073 15.8074 12.8064 10.6118 10.2435 9.97118 9.26583 9.19942\nthreshold=1.0000000180025095e-35 4841.811850000001 3.5000000000000004 4.5000000000000009 1.5000000000000002 1.0000000180025095e-35 20799.729500000005 1.0000000180025095e-35 57827.767500000009 19003.251000000004 1.0000000180025095e-35 15167.377000000002 1.0000000180025095e-35 1.0000000180025095e-35 11125.442000000001 1.0000000180025095e-35 1.0000000180025095e-35 1.0000000180025095e-35 1.5000000000000002 26621.460000000003 13576.564500000002 11840.805000000002 1.0000000180025095e-35 21483.683000000005 72.250000000000014 22095.067500000001 29258.857500000002 66.450000000000017 22268.798000000003 80.250000000000014\ndecision_type=2 2 2 2 2 2 2 2 2 2 2 2 2 2 2 2 2 2 2 2 2 2 2 2 2 2 2 2 2 2\nleft_child=2 -2 -1 5 -5 7 -6 29 9 -7 11 13 -13 14 -3 16 18 25 20 23 21 -12 -22 24 -20 -18 -27 -17 -14 -4\nright_child=1 10 3 4 6 8 -8 -9 -10 -11 15 12 28 -15 -16 27 17 -19 19 -21 22 -23 -24 -25 -26 26 -28 -29 -30 