{"boosters": ["tree\nversion=v4\nnum_class=1\nnum_tree_per_iteration=1\nlabel_index=0\nmax_feature_idx=64\nfeature_names=female age hhsize nb_children hh_net_income born_in_itw_country_yes education_level_1 education_level_2 education_level_3 education_level_4 education_level_5 education_level_6 education_none education_studying marital_status_married marital_status_reg_partnership marital_status_separated marital_status_single marital_status_widowed partnerinhh_yes mother_alive_yes father_alive_yes help_outside_hh_yes smoking_yes ever_smoked_yes vigorous_activity_more_than_once_a_week vigorous_activity_never vigorous_activity_once_three_times_a_month job_situation_homemaker job_situation_other job_situation_retired job_situation_unable_to_work job_situation_unemployed household_ends_meet_fairly_easily household_ends_meet_with_great_difficulty household_ends_meet_with_some_difficulty has_citizenship_yes country_BE country_BG country_CH country_CY country_CZ country_DE country_DK country_EE country_ES country_FI country_FR country_GR country_HR country_HU country_IE country_IL country_IT country_LT country_LU country_LV country_MT country_NL country_PL country_PT country_RO country_SE country_SI country_SK\nmonotone_constraints=0 0 0 0 0 0 0 0 0 0 0 0 0 0 0 0 0 0 0 0 0 0 0 0 0 0 0 0 0 0 0 0 0 0 0 0 0 0 0 0 0 0 0 0 0 0 0 0 0 0 0 0 0 0 0 0 0 0 0 0 0 0 0 0 0\nfeature_infos=[0:1] [0:1] [0:1.0000000000000002] [0:0.89473684210526305] [0:1] [0:1] [0:1] [0:1] [0:1] [0:1] [0:1] [0:1] [0:1] none [0:1] [0:1] [0:1] [0:1] [0:1] [0:1] [0:1] [0:1] [0:1] [0:1] [0:1] [0:1] [0:1] [0:1] [0:1] [0:1] [0:1] [0:1] [0:1] [0:1] [0:1] [0:1] [0:1] [0:1] [0:1] [0:1] [0:1] [0:1] [0:1] [0:1] [0:1] [0:1] [0:1] [0:1] [0:1] [0:1] [0:1] [0:1] [0:1] [0:1] [0:1] [0:1] [0:1] [0:1] [0:1] [0:1] [0:1] [0:1] [0:1] [0:1] [0:1]\ntree_sizes=479 490 486 491 485 490 484 485 486 488 487 489 488 491 491 492 491 491 489 491 490 491 492 492 490 492 491 487 492 493 488 492 491 491 485 490 492 487 490 494 492 493 498 495 493 487 497 488 494 487 486 493 497 495 495 497 489 495 489 494 491 493 489 497 495 489 497 495 493 492 491 490 493 484 491 484 489 497 497 498 492 490 492 482 496 488 488 492 494 491 490 480 485 491 495 491 485 494 488 487 486 492 495 478 484 492 493 486 490 488 490 493 484 490 487 482 486 495 490 498 485 491 493 482 494 491 486 483 494 484 495 487 492 492 488 497 491 493 496 487 496 487 495 496 489 483 492 494 495 496 485 491 492 494 491 484 495 488 492 496 494 499 489 494 487 491 498 492 497 482 497 484 486 492 495 494 488 491 496 485 488 490 487 484 495 495 483 493 490 497 491 490 490 489 495 491 492 496 493 488 497 490 494 486 488 495 490 488 495 487 483 494 485 485 494 491 497 486 495 496 491 490 484 491 490 495 489 493 493 489 490 488 491 492 487 486 490 491 487 493 494 490 484 491 488 486 490 490 492 498 487 493 490 491 491 490 494 487 486 487 489 488 486 487 491 488 488 488 487 498 484 487 495 489 491 491 489 488 492 493 484 489 488 490 493 496 498 496 496 494 492 495 490 494 489 496 488 494 492 488 491 487 495 490 382 489 491 487 486 489 494 497 491 496 493 488 495 490 383 484 494 494 497 376 381 382 385 383 484 495 498 383 493 489 376 484 489 491 384 385 385 383 384 489 496 495 381 384 498 384 383 491 383 385 378 385 378 495 384 383 376 500 383 498 383 490 377 385 491 377 376 383 382 378 383 487 377 384 383 384 374 384 384 384 383 375 384 377 378 385 381 383 383 385 383 483\n\nTree=0\nnum_leaves=3\nnum_cat=0\nsplit_feature=0 34\nsplit_gain=37851.9 11929.3\nthreshold=1.0000000180025095e-35 1.0000000180025095e-35\ndecision_type=2 2\nleft_child=-1 -2\nright_child=1 -3\nleaf_value=0.40231704755495545 0.65237917979798998 0.96777378942611136\nleaf_weight=2172.5051552276127 2248.3064581998624 389.79338572220877\nleaf_count=97946 113993 13248\ninternal_value=0.565005 0.69898\ninternal_weight=4810.6 2638.1\ninternal_count=225187 127241\nis_linear=0\nshrinkage=0.0526316\n\n\nTree=1\nnum_leaves=3\nnum_cat=0\nsplit_feature=35 34\nsplit_gain=2956.7 1549.47\nthreshold=1.0000000180025095e-35 1.0000000180025095e-35\ndecision_type=2 2\nleft_child=1 -1\nright_child=-2 -3\nleaf_value=-0.0042602583049402148 0.075408688376435218 0.060215632348653542\nleaf_weight=5087.4950127024204 2599.8945151390508 1295.3650230839849\nleaf_count=145654 57796 21712\ninternal_value=0.0280963 0.00882475\ninternal_weight=8982.75 6382.86\ninternal_count=225162 167366\nis_linear=0\nshrinkage=0.0526316\n\n\nTree=2\nnum_leaves=3\nnum_cat=0\nsplit_feature=35 48\nsplit_gain=1324.52 1120.55\nthreshold=1.0000000180025095e-35 1.0000000180025095e-35\ndecision_type=2 2\nleft_child=-1 -2\nright_child=1 -3\nleaf_value=0.0071794631000199477 0.060766155861186472 -0.07512789989198318\nleaf_weight=6369.9522701129317 2463.4204068947583 180.3912310404703\nleaf_count=167353 52717 5087\ninternal_value=0.0201773 0.0514939\ninternal_weight=9013.76 2643.81\ninternal_count=225157 57804\nis_linear=0\nshrinkage=0.0526316\n\n\nTree=3\nnum_leaves=3\nnum_cat=0\nsplit_feature=35 34\nsplit_gain=1004.65 611.735\nthreshold=1.0000000180025095e-35 1.0000000180025095e-35\ndecision_type=2 2\nleft_child=1 -1\nright_child=-2 -3\nleaf_value=-0.0042005354345667776 0.042596528580654838 0.036242792781656347\nleaf_weight=5075.2393407011405 2652.8831845251843 1301.7273812070489\nleaf_count=145690 57807 21708\ninternal_value=0.0153782 0.00405514\ninternal_weight=9029.85 6376.97\ninternal_count=225205 167398\nis_linear=0\nshrinkage=0.0526316\n\n\nTree=4\nnum_leaves=3\nnum_cat=0\nsplit_feature=53 60\nsplit_gain=826.586 587.473\nthreshold=1.0000000180025095e-35 1.0000000180025095e-35\ndecision_type=2 2\nleft_child=1 -1\nright_child=-2 -3\nleaf_value=0.0070529241644062355 0.077900432317900017 0.10836823361497849\nleaf_weight=8352.4837112417445 510.90869805868715 161.60427391901612\nleaf_count=207850 14712 2597\ninternal_value=0.0128778 0.00897597\ninternal_weight=9025 8514.09\ninternal_count=225159 210447\nis_linear=0\nshrinkage=0.0526316\n\n\nTree=5\nnum_leaves=3\nnum_cat=0\nsplit_feature=35 25\nsplit_gain=693.015 429.71\nthreshold=1.0000000180025095e-35 1.0000000180025095e-35\ndecision_type=2 2\nleft_child=1 -1\nright_child=-2 -3\nleaf_value=0.0091887681721065512 0.033590260949704506 -0.023104850695540389\nleaf_weight=4861.9195096176118 2663.4964293399826 1491.5525172874331\nleaf_count=106427 57819 60942\ninternal_value=0.0110548 0.00160746\ninternal_weight=9016.97 6353.47\ninternal_count=225188 167369\nis_linear=0\nshrinkage=0.0526316\n\n\nTree=6\nnum_leaves=3\nnum_cat=0\nsplit_feature=1 48\nsplit_gain=635.47 564.3\nthreshold=0.38756281407035187 1.0000000180025095e-35\ndecision_type=2 2\nleft_child=-1 -2\nright_child=1 -3\nleaf_value=0.073390376840706303 0.0096282904967994118 -0.053549665815751685\nleaf_weight=413.66119583044201 8186.1765071703121 411.30288703460246\nleaf_count=28420 187692 9076\ninternal_value=0.00967164 0.00660586\ninternal_weight=9011.14 8597.48\ninternal_count=225188 196768\nis_linear=0\nshrinkage=0.0526316\n\n\nTree=7\nnum_leaves=3\nnum_cat=0\nsplit_feature=1 12\nsplit_gain=500.144 424.352\nthreshold=0.37876884422110557 1.0000000180025095e-35\ndecision_type=2 2\nleft_child=-1 -2\nright_child=1 -3\nleaf_value=0.070810240853305506 0.0038011378895334721 0.059446294241883142\nleaf_weight=346.85960802901536 8264.2643647007644 397.91208989452571\nleaf_count=24498 194146 6523\ninternal_value=0.00883882 0.0063573\ninternal_weight=9009.04 8662.18\ninternal_count=225167 200669\nis_linear=0\nshrinkage=0.0526316\n\n\nTree=8\nnum_leaves=3\nnum_cat=0\nsplit_feature=1 53\nsplit_gain=406.567 351.897\nthreshold=0.36997487437185944 1.0000000180025095e-35\ndecision_type=2 2\nleft_child=-1 -2\nright_child=1 -3\nleaf_value=0.071680838888591683 0.0037320931594055891 0.049139759367404633\nleaf_weight=272.00971862673759 8230.1981024937704 501.5822996981442\nleaf_count=20164 191590 13424\ninternal_value=0.00831443 0.00634046\ninternal_weight=9003.79 8731.78\ninternal_count=225178 205014\nis_linear=0\nshrinkage=0.0526316\n\n\nTree=9\nnum_leaves=3\nnum_cat=0\nsplit_feature=60 59\nsplit_gain=338.289 351.601\nthreshold=1.0000000180025095e-35 1.0000000180025095e-35\ndecision_type=2 2\nleft_child=1 -1\nright_child=-2 -3\nleaf_value=0.0041401346648577038 0.083074741567473048 0.053448492953707287\nleaf_weight=8415.3310301629826 162.7009706934914 420.61413635592908\nleaf_count=214191 2594 8381\ninternal_value=0.00787209 0.00648734\ninternal_weight=8998.65 8835.95\ninternal_count=225166 222572\nis_linear=0\nshrinkage=0.0526316\n\n\nTree=10\nnum_leaves=3\nnum_cat=0\nsplit_feature=54 1\nsplit_gain=301.462 288.916\nthreshold=1.0000000180025095e-35 0.37751256281407047\ndecision_type=2 2\nleft_child=1 -1\nright_child=-2 -3\nleaf_value=0.054785552354966384 0.093637338816475041 0.0045664144871027023\nleaf_weight=329.56848897784948 111.17761703114957 8553.5257756235078\nleaf_count=23410 2022 199759\ninternal_value=0.00750755 0.00642958\ninternal_weight=8994.27 8883.09\ninternal_count=225191 223169\nis_linear=0\nshrinkage=0.0526316\n\n\nTree=11\nnum_leaves=3\nnum_cat=0\nsplit_feature=60 5\nsplit_gain=260.042 285.504\nthreshold=1.0000000180025095e-35 1.0000000180025095e-35\ndecision_type=2 2\nleft_child=1 -1\nright_child=-2 -3\nleaf_value=0.033167326555856677 0.072874386014624037 0.0025817397459969053\nleaf_weight=947.05582985002548 163.38846120424569 7877.6237079994753\nleaf_count=20064 2595 202529\ninternal_value=0.0070823 0.00586416\ninternal_weight=8988.07 8824.68\ninternal_count=225188 222593\nis_linear=0\nshrinkage=0.0526316\n\n\nTree=12\nnum_leaves=3\nnum_cat=0\nsplit_feature=54 12\nsplit_gain=230.859 229.94\nthreshold=1.0000000180025095e-35 1.0000000180025095e-35\ndecision_type=2 2\nleft_child=1 -1\nright_child=-2 -3\nleaf_value=0.0039620232864676936 0.081781988604559153 0.044615241267103777\nleaf_weight=8468.4780181674287 112.2057985663414 403.78097082395107\nleaf_count=216242 2021 6936\ninternal_value=0.00676095 0.00581217\ninternal_weight=8984.46 8872.26\ninternal_count=225199 223178\nis_linear=0\nshrinkage=0.0526316\n\n\nTree=13\nnum_leaves=3\nnum_cat=0\nsplit_feature=54 45\nsplit_gain=202.165 206.173\nthreshold=1.0000000180025095e-35 1.0000000180025095e-35\ndecision_type=2 2\nleft_child=1 -1\nright_child=-2 -3\nleaf_value=0.0035143643955395164 0.076621910894132117 0.038670939328661703\nleaf_weight=8381.1847672946751 111.95954287331551 489.03637788072228\nleaf_count=210584 2020 12557\ninternal_value=0.00633973 0.00545263\ninternal_weight=8982.18 8870.22\ninternal_count=225161 223141\nis_linear=0\nshrinkage=0.0526316\n\n\nTree=14\nnum_leaves=3\nnum_cat=0\nsplit_feature=5 53\nsplit_gain=196.819 185.448\nthreshold=1.0000000180025095e-35 1.0000000180025095e-35\ndecision_type=2 2\nleft_child=-1 -2\nright_child=1 -3\nleaf_value=0.028636250835226706 0.0012610277880705379 0.033977990591732246\nleaf_weight=954.10138163622469 7513.8028597310185 512.66456882096827\nleaf_count=20153 190557 14487\ninternal_value=0.00603707 0.00335072\ninternal_weight=8980.57 8026.47\ninternal_count=225197 205044\nis_linear=0\nshrinkage=0.0526316\n\n\nTree=15\nnum_leaves=3\nnum_cat=0\nsplit_feature=21 44\nsplit_gain=183.957 155.771\nthreshold=1.0000000180025095e-35 1.0000000180025095e-35\ndecision_type=2 2\nleft_child=1 -1\nright_child=-2 -3\nleaf_value=0.0020959157358675035 0.044155689162881887 0.029307860750583854\nleaf_weight=8023.4242445863783 329.22878743335605 628.35566562507302\nleaf_count=192618 20598 11976\ninternal_value=0.00554164 0.00407225\ninternal_weight=8981.01 8651.78\ninternal_count=225192 204594\nis_linear=0\nshrinkage=0.0526316\n\n\nTree=16\nnum_leaves=3\nnum_cat=0\nsplit_feature=21 55\nsplit_gain=161.782 141.244\nthreshold=1.0000000180025095e-35 1.0000000180025095e-35\ndecision_type=2 2\nleft_child=1 -1\nright_child=-2 -3\nleaf_value=0.0032490109568744335 0.041592187519310597 0.063503179570175122\nleaf_weight=8537.1387397106737 329.37249627057463 109.14588594716042\nleaf_count=201986 20593 2589\ninternal_value=0.00538877 0.00400963\ninternal_weight=8975.66 8646.28\ninternal_count=225168 204575\nis_linear=0\nshrinkage=0.0526316\n\n\nTree=17\nnum_leaves=3\nnum_cat=0\nsplit_feature=63 21\nsplit_gain=159.21 169.749\nthreshold=1.0000000180025095e-35 1.0000000180025095e-35\ndecision_type=2 2\nleft_child=1 -1\nright_child=-2 -3\nleaf_value=0.0050682287233423141 -0.026501896710236242 0.044500726367917555\nleaf_weight=8239.3417426561937 424.64021283853799 313.92950387764722\nleaf_count=195575 9727 19852\ninternal_value=0.00495385 0.00651552\ninternal_weight=8977.91 8553.27\ninternal_count=225154 215427\nis_linear=0\nshrinkage=0.0526316\n\n\nTree=18\nnum_leaves=3\nnum_cat=0\nsplit_feature=60 5\nsplit_gain=144.362 147.212\nthreshold=1.0000000180025095e-35 1.0000000180025095e-35\ndecision_type=2 2\nleft_child=1 -1\nright_child=-2 -3\nleaf_value=0.023149583625818662 0.053319264717602621 0.0012268888530569176\nleaf_weight=951.15245988499373 164.7477396344766 7861.3527326183394\nleaf_count=20062 2595 202518\ninternal_value=0.00450562 0.00359305\ninternal_weight=8977.25 8812.51\ninternal_count=225175 222580\nis_linear=0\nshrinkage=0.0526316\n\n\nTree=19\nnum_leaves=3\nnum_cat=0\nsplit_feature=40 21\nsplit_gain=132.148 130.573\nthreshold=1.0000000180025095e-35 1.0000000180025095e-35\ndecision_type=2 2\nleft_child=1 -1\nright_child=-2 -3\nleaf_value=0.0033079555554860521 -0.080103785134591904 0.037090259070777253\nleaf_weight=8596.1098144939169 51.370877753011882 329.06625898648053\nleaf_count=203860 786 20521\ninternal_value=0.00406901 0.00455349\ninternal_weight=8976.55 8925.18\ninternal_count=225167 224381\nis_linear=0\nshrinkage=0.0526316\n\n\nTree=20\nnum_leaves=3\nnum_cat=0\nsplit_feature=55 54\nsplit_gain=127.501 120.408\nthreshold=1.0000000180025095e-35 1.0000000180025095e-35\ndecision_type=2 2\nleft_child=1 -1\nright_child=-2 -3\nleaf_value=0.0022689185277690632 0.058794447931751245 0.056706739607718659\nleaf_weight=8749.6680061900988 114.79797026328743 114.01667829882354\nleaf_count=220225 2908 2021\ninternal_value=0.00368295 0.00296917\ninternal_weight=8978.48 8863.68\ninternal_count=225154 222246\nis_linear=0\nshrinkage=0.0526316\n\n\nTree=21\nnum_leaves=3\nnum_cat=0\nsplit_feature=12 6\nsplit_gain=153.461 131.863\nthreshold=1.0000000180025095e-35 1.0000000180025095e-35\ndecision_type=2 2\nleft_child=1 -1\nright_child=-2 -3\nleaf_value=-0.0016554512183051123 0.035735264120768016 0.014153363467253776\nleaf_weight=6312.6142030945048 391.43840766977519 1901.9198098997585\nleaf_count=180782 6958 37386\ninternal_value=0.00353899 0.00200478\ninternal_weight=8605.97 8214.53\ninternal_count=225126 218168\nis_linear=0\nshrinkage=0.0526316\n\n\nTree=22\nnum_leaves=3\nnum_cat=0\nsplit_feature=44 12\nsplit_gain=128.156 133.555\nthreshold=1.0000000180025095e-35 1.0000000180025095e-35\ndecision_type=2 2\nleft_child=1 -1\nright_child=-2 -3\nleaf_value=3.7822283113871076e-05 0.026508444342715327 0.031599891676118187\nleaf_weight=7591.2842526808381 615.41253043990582 390.48668759129941\nleaf_count=205592 12615 6948\ninternal_value=0.00336623 0.00158191\ninternal_weight=8597.18 7981.77\ninternal_count=225155 212540\nis_linear=0\nshrinkage=0.0526316\n\n\nTree=23\nnum_leaves=3\nnum_cat=0\nsplit_feature=27 48\nsplit_gain=126.12 233.484\nthreshold=1.0000000180025095e-35 1.0000000180025095e-35\ndecision_type=2 2\nleft_child=-1 -2\nright_child=1 -3\nleaf_value=0.0051334430932493853 -0.0059654676045603301 -0.092386957503348202\nleaf_weight=7835.4345713295043 654.55198973789811 99.801845188252628\nleaf_count=202188 20059 2875\ninternal_value=0.00315463 -0.0173991\ninternal_weight=8589.79 754.354\ninternal_count=225122 22934\nis_linear=0\nshrinkage=0.0526316\n\n\nTree=24\nnum_leaves=3\nnum_cat=0\nsplit_feature=55 54\nsplit_gain=113.576 102.379\nthreshold=1.0000000180025095e-35 1.0000000180025095e-35\ndecision_type=2 2\nleft_child=1 -1\nright_child=-2 -3\nleaf_value=0.0017927612777667522 0.056241836412161503 0.053079732937469197\nleaf_weight=8368.0008206651546 110.15705000795424 109.22515230532736\nleaf_count=220218 2905 2021\ninternal_value=0.00314356 0.00245357\ninternal_weight=8587.38 8477.23\ninternal_count=225144 222239\nis_linear=0\nshrinkage=0.0526316\n\n\nTree=25\nnum_leaves=3\nnum_cat=0\nsplit_feature=21 27\nsplit_gain=110.639 115.903\nthreshold=1.0000000180025095e-35 1.0000000180025095e-35\ndecision_type=2 2\nleft_child=1 -1\nright_child=-2 -3\nleaf_value=0.003505727081554999 0.033282126446637035 -0.018561179953184934\nleaf_weight=7547.0798286376521 316.58065100992098 722.44601653330028\nleaf_count=183715 20596 20881\ninternal_value=0.00274688 0.00157791\ninternal_weight=8586.11 8269.53\ninternal_count=225192 204596\nis_linear=0\nshrinkage=0.0526316\n\n\nTree=26\nnum_leaves=3\nnum_cat=0\nsplit_feature=40 63\nsplit_gain=104.909 102.198\nthreshold=1.0000000180025095e-35 1.0000000180025095e-35\ndecision_type=2 2\nleft_child=1 -1\nright_child=-2 -3\nleaf_value=0.0045563584044368971 -0.074294010589318407 -0.022548641521330137\nleaf_weight=8129.1747864787467 48.577181285247207 404.50584822986275\nleaf_count=214648 786 9727\ninternal_value=0.00283251 0.00327155\ninternal_weight=8582.26 8533.68\ninternal_count=225161 224375\nis_linear=0\nshrinkage=0.0526316\n\n\nTree=27\nnum_leaves=3\nnum_cat=0\nsplit_feature=40 21\nsplit_gain=93.9098 91.9484\nthreshold=1.0000000180025095e-35 1.0000000180025095e-35\ndecision_type=2 2\nleft_child=1 -1\nright_child=-2 -3\nleaf_value=0.0019113956895599376 -0.070550739272366575 0.0308824455998939\nleaf_weight=8216.6242481768131 48.3843834688887 315.10275725787506\nleaf_count=203857 787 20523\ninternal_value=0.00256673 0.00298139\ninternal_weight=8580.11 8531.73\ninternal_count=225167 224380\nis_linear=0\nshrinkage=0.0526316\n\n\nTree=28\nnum_leaves=3\nnum_cat=0\nsplit_feature=5 54\nsplit_gain=90.9876 94.7843\nthreshold=1.0000000180025095e-35 1.0000000180025095e-35\ndecision_type=2 2\nleft_child=-1 -2\nright_child=1 -3\nleaf_value=0.018062822053678072 -0.00015553363503316043 0.051372686488379449\nleaf_weight=916.74622805882245 7564.1741595179774 100.1968221347779\nleaf_count=20159 203133 1927\ninternal_value=0.00239245 0.000518096\ninternal_weight=8581.12 7664.37\ninternal_count=225219 205060\nis_linear=0\nshrinkage=0.0526316\n\n\nTree=29\nnum_leaves=3\nnum_cat=0\nsplit_feature=27 48\nsplit_gain=86.9323 178.883\nthreshold=1.0000000180025095e-35 1.0000000180025095e-35\ndecision_type=2 2\nleft_child=-1 -2\nright_child=1 -3\nleaf_value=0.0038401531763551933 -0.0049405538162612447 -0.081155237449591272\nleaf_weight=7826.6119247809984 651.19934144010767 98.166846814099699\nleaf_count=202203 20058 2879\ninternal_value=0.00220049 -0.0149247\ninternal_weight=8575.98 749.366\ninternal_count=225140 22937\nis_linear=0\nshrinkage=0.0526316\n\n\nTree=30\nnum_leaves=3\nnum_cat=0\nsplit_feature=55 40\nsplit_gain=86.2944 81.4475\nthreshold=1.0000000180025095e-35 1.0000000180025095e-35\ndecision_type=2 2\nleft_child=1 -1\nright_child=-2 -3\nleaf_value=0.0018241230396230631 0.048252659615983677 -0.066877135304299909\nleaf_weight=8417.4846002864651 110.4760332852602 48.074444491416216\nleaf_count=221475 2908 785\ninternal_value=0.0020371 0.00143398\ninternal_weight=8576.04 8465.56\ninternal_count=225168 222260\nis_linear=0\nshrinkage=0.0526316\n\n\nTree=31\nnum_leaves=3\nnum_cat=0\nsplit_feature=27 48\nsplit_gain=74.4108 155.006\nthreshold=1.0000000180025095e-35 1.0000000180025095e-35\ndecision_type=2 2\nleft_child=-1 -2\nright_child=1 -3\nleaf_value=0.0033129928050505369 -0.004752031518516729 -0.075683715029705181\nleaf_weight=7827.6655352492817 651.33763411920518 98.209588994737715\nleaf_count=202210 20058 2878\ninternal_value=0.00179603 -0.0140459\ninternal_weight=8577.21 749.547\ninternal_count=225146 22936\nis_linear=0\nshrinkage=0.0526316\n\n\nTree=32\nnum_leaves=3\nnum_cat=0\nsplit_feature=40 21\nsplit_gain=72.9986 75.0501\nthreshold=1.0000000180025095e-35 1.0000000180025095e-35\ndecision_type=2 2\nleft_child=1 -1\nright_child=-2 -3\nleaf_value=0.0011452856665314177 -0.063031959500413209 0.027288092079676831\nleaf_weight=8213.4923609201796 47.915036527439952 315.88508691219613\nleaf_count=203847 785 20525\ninternal_value=0.00174956 0.00211349\ninternal_weight=8577.29 8529.38\ninternal_count=225157 224372\nis_linear=0\nshrinkage=0.0526316\n\n\nTree=33\nnum_leaves=3\nnum_cat=0\nsplit_feature=63 21\nsplit_gain=65.7512 82.7468\nthreshold=1.0000000180025095e-35 1.0000000180025095e-35\ndecision_type=2 2\nleft_child=1 -1\nright_child=-2 -3\nleaf_value=0.0014569584327038968 -0.019281299665910707 0.029516250305293291\nleaf_weight=7874.8084180941805 403.04217357235029 302.3089129505679\nleaf_count=195636 9725 19862\ninternal_value=0.00147143 0.00249432\ninternal_weight=8580.16 8177.12\ninternal_count=225223 215498\nis_linear=0\nshrinkage=0.0526316\n\n\nTree=34\nnum_leaves=3\nnum_cat=0\nsplit_feature=55 2\nsplit_gain=73.7967 64.825\nthreshold=1.0000000180025095e-35 0.1153846153846154\ndecision_type=2 2\nleft_child=1 -1\nright_child=-2 -3\nleaf_value=-0.0010847102522091741 0.044075903384343702 0.011699842617233997\nleaf_weight=7165.1413574451581 110.97212285734713 1297.6347941281274\nleaf_count=175283 2904 46989\ninternal_value=0.00143475 0.0008756\ninternal_weight=8573.75 8462.78\ninternal_count=225176 222272\nis_linear=0\nshrinkage=0.0526316\n\n\nTree=35\nnum_leaves=3\nnum_cat=0\nsplit_feature=40 60\nsplit_gain=62.5484 58.7748\nthreshold=1.0000000180025095e-35 1.0000000180025095e-35\ndecision_type=2 2\nleft_child=1 -1\nright_child=-2 -3\nleaf_value=0.0010561109224302724 -0.058841347426778143 0.033351086070315478\nleaf_weight=8365.9496542811394 47.600920281372964 159.07239592634141\nleaf_count=221739 785 2595\ninternal_value=0.00132278 0.00165872\ninternal_weight=8572.62 8525.02\ninternal_count=225119 224334\nis_linear=0\nshrinkage=0.0526316\n\n\nTree=36\nnum_leaves=3\nnum_cat=0\nsplit_feature=27 48\nsplit_gain=61.4088 126.542\nthreshold=1.0000000180025095e-35 1.0000000180025095e-35\ndecision_type=2 2\nleft_child=-1 -2\nright_child=1 -3\nleaf_value=0.0024798130433573884 -0.0049222372663296774 -0.069210818464180993\nleaf_weight=7823.8369697085582 650.3821045877412 97.531301228329539\nleaf_count=202183 20054 2883\ninternal_value=0.00110247 -0.0133058\ninternal_weight=8571.75 747.913\ninternal_count=225120 22937\nis_linear=0\nshrinkage=0.0526316\n\n\nTree=37\nnum_leaves=3\nnum_cat=0\nsplit_feature=63 1\nsplit_gain=55.6318 57.6023\nthreshold=1.0000000180025095e-35 0.35238693467336696\ndecision_type=2 2\nleft_child=1 -1\nright_child=-2 -3\nleaf_value=0.034232859372401322 -0.018149956302479044 0.001288494422032867\nleaf_weight=149.76243136078119 402.53882351098582 8022.9363628150895\nleaf_count=12342 9727 203127\ninternal_value=0.000951372 0.00189219\ninternal_weight=8575.24 8172.7\ninternal_count=225196 215469\nis_linear=0\nshrinkage=0.0526316\n\n\nTree=38\nnum_leaves=3\nnum_cat=0\nsplit_feature=44 34\nsplit_gain=57.7111 70.6732\nthreshold=1.0000000180025095e-35 1.0000000180025095e-35\ndecision_type=2 2\nleft_child=-1 -2\nright_child=1 -3\nleaf_value=-0.00044162700680430624 0.024428710656629864 -0.022367912838391891\nleaf_weight=7954.371778272558 510.86296623665839 108.3573060343042\nleaf_count=212569 11195 1421\ninternal_value=0.000763169 0.0162397\ninternal_weight=8573.59 619.22\ninternal_count=225185 12616\nis_linear=0\nshrinkage=0.0526316\n\n\nTree=39\nnum_leaves=3\nnum_cat=0\nsplit_feature=27 48\nsplit_gain=54.7603 105.893\nthreshold=1.0000000180025095e-35 1.0000000180025095e-35\ndecision_type=2 2\nleft_child=-1 -2\nright_child=1 -3\nleaf_value=0.0019257298833146906 -0.0053434193230284446 -0.064351507166736863\nleaf_weight=7828.4601827664301 650.16883556498215 96.784003225155175\nleaf_count=202270 20056 2875\ninternal_value=0.000626576 -0.0129892\ninternal_weight=8575.41 746.953\ninternal_count=225201 22931\nis_linear=0\nshrinkage=0.0526316\n\n\nTree=40\nnum_leaves=3\nnum_cat=0\nsplit_feature=26 56\nsplit_gain=51.8923 54.3806\nthreshold=1.0000000180025095e-35 1.0000000180025095e-35\ndecision_type=2 2\nleft_child=1 -1\nright_child=-2 -3\nleaf_value=0.0023770744661106061 -0.010931658109431225 -0.050904845556030247\nleaf_weight=7552.8311064452864 968.6351551306434 53.436631489545107\nleaf_count=190583 33122 1471\ninternal_value=0.000541655 0.00200275\ninternal_weight=8574.9 7606.27\ninternal_count=225176 192054\nis_linear=0\nshrinkage=0.0526316\n\n\nTree=41\nnum_leaves=3\nnum_cat=0\nsplit_feature=27 12\nsplit_gain=63.0869 58.429\nthreshold=1.0000000180025095e-35 1.0000000180025095e-35\ndecision_type=2 2\nleft_child=1 -1\nright_child=-2 -3\nleaf_value=-0.0020301078487364827 -0.017140608705843347 0.019792326005559281\nleaf_weight=7345.7256991937757 736.83555750409141 356.3595752902329\nleaf_count=195881 22937 6328\ninternal_value=-0.00242795 -0.00102043\ninternal_weight=8438.92 7702.09\ninternal_count=225146 202209\nis_linear=0\nshrinkage=0.0526316\n\n\nTree=42\nnum_leaves=3\nnum_cat=0\nsplit_feature=27 58\nsplit_gain=55.5361 48.9101\nthreshold=1.0000000180025095e-35 1.0000000180025095e-35\ndecision_type=2 2\nleft_child=1 -1\nright_child=-2 -3\nleaf_value=0.00081119190492147993 -0.015143547021303563 -0.021593913020050093\nleaf_weight=7409.3141328049824 735.47465615393594 280.09961191052571\nleaf_count=191414 22952 10790\ninternal_value=-0.00132652 -4.94898e-06\ninternal_weight=8424.89 7689.41\ninternal_count=225156 202204\nis_linear=0\nshrinkage=0.0526316\n\n\nTree=43\nnum_leaves=3\nnum_cat=0\nsplit_feature=26 27\nsplit_gain=59.021 62.272\nthreshold=1.0000000180025095e-35 1.0000000180025095e-35\ndecision_type=2 2\nleft_child=1 -1\nright_child=-2 -3\nleaf_value=0.0024178851441076822 -0.013070330630198579 -0.013726626537462582\nleaf_weight=6732.6581694069318 954.16078215278685 733.96099364198744\nleaf_count=169071 33136 22944\ninternal_value=-0.000744255 0.000830894\ninternal_weight=8420.78 7466.62\ninternal_count=225151 192015\nis_linear=0\nshrinkage=0.0526316\n\n\nTree=44\nnum_leaves=3\nnum_cat=0\nsplit_feature=26 48\nsplit_gain=49.3683 75.563\nthreshold=1.0000000180025095e-35 1.0000000180025095e-35\ndecision_type=2 2\nleft_child=-1 -2\nright_child=1 -3\nleaf_value=0.0011629344589330522 -0.0076172382926362964 -0.06726217440143116\nleaf_weight=7461.7471758383326 888.47353410534561 63.010462334845215\nleaf_count=192003 30834 2303\ninternal_value=-0.000276756 -0.0115671\ninternal_weight=8413.23 951.484\ninternal_count=225140 33137\nis_linear=0\nshrinkage=0.0526316\n\n\nTree=45\nnum_leaves=3\nnum_cat=0\nsplit_feature=44 1\nsplit_gain=49.8664 60.8727\nthreshold=1.0000000180025095e-35 0.57977386934673381\ndecision_type=2 2\nleft_child=-1 -2\nright_child=1 -3\nleaf_value=-0.0012989518250678866 -0.0070585243661301263 0.027347580908265248\nleaf_weight=7804.18379409099 228.71215642709285 377.64183945395052\nleaf_count=212571 7246 5367\ninternal_value=-0.000169316 0.0143698\ninternal_weight=8410.54 606.354\ninternal_count=225184 12613\nis_linear=0\nshrinkage=0.0526316\n\n\nTree=46\nnum_leaves=3\nnum_cat=0\nsplit_feature=21 27\nsplit_gain=45.1043 47.1811\nthreshold=1.0000000180025095e-35 1.0000000180025095e-35\ndecision_type=2 2\nleft_child=1 -1\nright_child=-2 -3\nleaf_value=0.00032514791000072947 0.019479356323446165 -0.013950341062816205\nleaf_weight=7393.4436815897934 312.02839313400909 702.23987586423755\nleaf_count=183699 20609 20877\ninternal_value=-0.00015633 -0.000913142\ninternal_weight=8407.71 8095.68\ninternal_count=225185 204576\nis_linear=0\nshrinkage=0.0526316\n\n\nTree=47\nnum_leaves=3\nnum_cat=0\nsplit_feature=61 25\nsplit_gain=43.727 53.0318\nthreshold=1.0000000180025095e-35 1.0000000180025095e-35\ndecision_type=2 2\nleft_child=-1 -2\nright_child=1 -3\nleaf_value=-0.00028440388883746388 0.07263738276539318 -0.045628280547411644\nleaf_weight=8349.3200427377596 45.277778608258814 13.674981689546255\nleaf_count=223315 1195 647\ninternal_value=3.45234e-05 0.0452036\ninternal_weight=8408.27 58.9528\ninternal_count=225157 1842\nis_linear=0\nshrinkage=0.0526316\n\n\nTree=48\nnum_leaves=3\nnum_cat=0\nsplit_feature=40 21\nsplit_gain=40.9135 42.7546\nthreshold=1.0000000180025095e-35 1.0000000180025095e-35\ndecision_type=2 2\nleft_child=1 -1\nright_child=-2 -3\nleaf_value=-0.00051393668542058357 -0.049480663806131683 0.01938423716674649\nleaf_weight=8048.5029383520596 46.124091780744493 310.66820601373911\nleaf_count=203863 786 20523\ninternal_value=-4.71852e-05 0.000225576\ninternal_weight=8405.3 8359.17\ninternal_count=225172 224386\nis_linear=0\nshrinkage=0.0526316\n\n\nTree=49\nnum_leaves=3\nnum_cat=0\nsplit_feature=55 1\nsplit_gain=40.4216 44.6751\nthreshold=1.0000000180025095e-35 0.48304020100502526\ndecision_type=2 2\nleft_child=-1 -2\nright_child=1 -3\nleaf_value=-0.00049045770246646165 0.090517669642503601 0.012518650579595706\nleaf_weight=8296.2467848104425 26.943576552905142 83.015401706565171\nleaf_count=222260 1171 1734\ninternal_value=-7.02832e-05 0.0316311\ninternal_weight=8406.21 109.959\ninternal_count=225165 2905\nis_linear=0\nshrinkage=0.0526316\n\n\nTree=50\nnum_leaves=3\nnum_cat=0\nsplit_feature=44 1\nsplit_gain=40.0998 51.8819\nthreshold=1.0000000180025095e-35 0.57977386934673381\ndecision_type=2 2\nleft_child=-1 -2\nright_child=1 -3\nleaf_value=-0.0010476334174752608 -0.0068068370280046885 0.024956521790338235\nleaf_weight=7797.2515035122633 228.45314380247146 378.376579368487\nleaf_count=212551 7238 5368\ninternal_value=-3.34053e-05 0.0129985\ninternal_weight=8404.08 606.83\ninternal_count=225157 12606\nis_linear=0\nshrinkage=0.0526316\n\n\nTree=51\nnum_leaves=3\nnum_cat=0\nsplit_feature=44 34\nsplit_gain=35.8758 51.9735\nthreshold=1.0000000180025095e-35 1.0000000180025095e-35\ndecision_type=2 2\nleft_child=-1 -2\nright_child=1 -3\nleaf_value=-0.0010263468171573394 0.019333319109540358 -0.021244788722930657\nleaf_weight=7793.8955589681864 501.30440198257565 105.90819115750492\nleaf_count=212552 11191 1421\ninternal_value=-6.63435e-05 0.0122558\ninternal_weight=8401.11 607.213\ninternal_count=225164 12612\nis_linear=0\nshrinkage=0.0526316\n\n\nTree=52\nnum_leaves=3\nnum_cat=0\nsplit_feature=26 27\nsplit_gain=38.4268 39.3858\nthreshold=1.0000000180025095e-35 1.0000000180025095e-35\ndecision_type=2 2\nleft_child=1 -1\nright_child=-2 -3\nleaf_value=0.0022413433302826305 -0.010266059511449415 -0.010633381119596469\nleaf_weight=6720.9759582681581 948.72774488991126 729.65395968453959\nleaf_count=169116 33122 22933\ninternal_value=-0.000289828 0.000980496\ninternal_weight=8399.36 7450.63\ninternal_count=225171 192049\nis_linear=0\nshrinkage=0.0526316\n\n\nTree=53\nnum_leaves=3\nnum_cat=0\nsplit_feature=40 21\nsplit_gain=36.2496 37.8186\nthreshold=1.0000000180025095e-35 1.0000000180025095e-35\ndecision_type=2 2\nleft_child=1 -1\nright_child=-2 -3\nleaf_value=-0.00078121420978282535 -0.047072748612214325 0.017940941890042816\nleaf_weight=8043.448573556263 45.730728429276496 310.40693928021938\nleaf_count=203846 786 20517\ninternal_value=-0.000341366 -8.5547e-05\ninternal_weight=8399.59 8353.86\ninternal_count=225149 224363\nis_linear=0\nshrinkage=0.0526316\n\n\nTree=54\nnum_leaves=3\nnum_cat=0\nsplit_feature=26 2\nsplit_gain=32.5241 33.9838\nthreshold=1.0000000180025095e-35 0.1153846153846154\ndecision_type=2 2\nleft_child=1 -1\nright_child=-2 -3\nleaf_value=-0.00076737330616401093 -0.0096022385478928777 0.0091050037935019121\nleaf_weight=6309.9132987326011 948.88028487190604 1140.4480462116189\nleaf_count=151385 33141 40650\ninternal_value=-0.000424997 0.000743817\ninternal_weight=8399.24 7450.36\ninternal_count=225176 192035\nis_linear=0\nshrinkage=0.0526316\n\n\nTree=55\nnum_leaves=3\nnum_cat=0\nsplit_feature=63 21\nsplit_gain=29.6544 40.1569\nthreshold=1.0000000180025095e-35 1.0000000180025095e-35\ndecision_type=2 2\nleft_child=1 -1\nright_child=-2 -3\nleaf_value=-0.00048337102899417524 -0.014561269106688451 0.019229180999868666\nleaf_weight=7708.7480617556721 392.90070540551096 297.30478864861652\nleaf_count=195595 9717 19858\ninternal_value=-0.000444149 0.000248653\ninternal_weight=8398.95 8006.05\ninternal_count=225170 215453\nis_linear=0\nshrinkage=0.0526316\n\n\nTree=56\nnum_leaves=3\nnum_cat=0\nsplit_feature=44 1\nsplit_gain=30.9362 45.2057\nthreshold=1.0000000180025095e-35 0.57977386934673381\ndecision_type=2 2\nleft_child=-1 -2\nright_child=1 -3\nleaf_value=-0.0013212073555338439 -0.0075055724033090652 0.022142726666401102\nleaf_weight=7789.7490559918806 228.10943283885717 379.39499318925664\nleaf_count=212564 7235 5371\ninternal_value=-0.000429084 0.0110102\ninternal_weight=8397.25 607.504\ninternal_count=225170 12606\nis_linear=0\nshrinkage=0.0526316\n\n\nTree=57\nnum_leaves=3\nnum_cat=0\nsplit_feature=26 48\nsplit_gain=27.5835 68.7518\nthreshold=1.0000000180025095e-35 1.0000000180025095e-35\ndecision_type=2 2\nleft_child=-1 -2\nright_child=1 -3\nleaf_value=0.00051736619651021739 -0.0052534456912007822 -0.062428875186936891\nleaf_weight=7453.0224921638146 884.1897121197544 62.367758871521801\nleaf_count=192038 30817 2302\ninternal_value=-0.000557486 -0.0090207\ninternal_weight=8399.58 946.557\ninternal_count=225157 33119\nis_linear=0\nshrinkage=0.0526316\n\n\nTree=58\nnum_leaves=3\nnum_cat=0\nsplit_feature=61 25\nsplit_gain=31.8266 42.92\nthreshold=1.0000000180025095e-35 1.0000000180025095e-35\ndecision_type=2 2\nleft_child=-1 -2\nright_child=1 -3\nleaf_value=-0.00087671475826930922 0.062417702878381699 -0.044009624904182108\nleaf_weight=8338.6170372879133 45.503758783452213 13.643617017194627\nleaf_count=223333 1198 648\ninternal_value=-0.000603827 0.0378677\ninternal_weight=8397.76 59.1474\ninternal_count=225179 1846\nis_linear=0\nshrinkage=0.0526316\n\n\nTree=59\nnum_leaves=3\nnum_cat=0\nsplit_feature=26 48\nsplit_gain=26.5967 57.2602\nthreshold=1.0000000180025095e-35 1.0000000180025095e-35\ndecision_type=2 2\nleft_child=-1 -2\nright_child=1 -3\nleaf_value=0.00040197915119729162 -0.0055291665351157645 -0.057752310837117286\nleaf_weight=7450.7911961055361 884.7989230598323 62.25139118405059\nleaf_count=192040 30818 2304\ninternal_value=-0.000654013 -0.00896191\ninternal_weight=8397.84 947.05\ninternal_count=225162 33122\nis_linear=0\nshrinkage=0.0526316\n\n\nTree=60\nnum_leaves=3\nnum_cat=0\nsplit_feature=44 34\nsplit_gain=26.5173 41.9469\nthreshold=1.0000000180025095e-35 1.0000000180025095e-35\ndecision_type=2 2\nleft_child=-1 -2\nright_child=1 -3\nleaf_value=-0.0014114528387431072 0.016353216120583519 -0.020099043625720084\nleaf_weight=7784.0294247516431 501.94742504414171 105.89501873869449\nleaf_count=212530 11190 1420\ninternal_value=-0.0005847 0.0100027\ninternal_weight=8391.87 607.842\ninternal_count=225140 12610\nis_linear=0\nshrinkage=0.0526316\n\n\nTree=61\nnum_leaves=3\nnum_cat=0\nsplit_feature=27 48\nsplit_gain=30.812 83.4518\nthreshold=1.0000000180025095e-35 1.0000000180025095e-35\ndecision_type=2 2\nleft_child=-1 -2\nright_child=1 -3\nleaf_value=-0.0031034519413290227 -0.0075915687349228239 -0.060859501502777927\nleaf_weight=7626.490656524431 633.12322029098868 93.501728007569909\nleaf_count=202222 20063 2882\ninternal_value=-0.00409013 -0.0144461\ninternal_weight=8353.12 726.625\ninternal_count=225167 22945\nis_linear=0\nshrinkage=0.0526316\n\n\nTree=62\nnum_leaves=3\nnum_cat=0\nsplit_feature=1 38\nsplit_gain=28.7525 45.8246\nthreshold=0.6765075376884423 1.0000000180025095e-35\ndecision_type=2 2\nleft_child=1 -1\nright_child=-2 -3\nleaf_value=-0.0041473115325635296 0.0026043501470418098 -0.064402370956480215\nleaf_weight=6186.8309811642393 2124.0204443293624 35.161416134331375\nleaf_count=190869 33384 924\ninternal_value=-0.0026829 -0.00448782\ninternal_weight=8346.01 6221.99\ninternal_count=225177 191793\nis_linear=0\nshrinkage=0.0526316\n\n\nTree=63\nnum_leaves=3\nnum_cat=0\nsplit_feature=58 63\nsplit_gain=25.0883 23.3613\nthreshold=1.0000000180025095e-35 1.0000000180025095e-35\ndecision_type=2 2\nleft_child=1 -1\nright_child=-2 -3\nleaf_value=-0.00077482080301718027 -0.017236645466471044 -0.013981989900748082\nleaf_weight=7661.2912735375576 287.51894724881276 389.87643134593964\nleaf_count=204176 11271 9731\ninternal_value=-0.00195993 -0.00141438\ninternal_weight=8338.69 8051.17\ninternal_count=225178 213907\nis_linear=0\nshrinkage=0.0526316\n\n\nTree=64\nnum_leaves=3\nnum_cat=0\nsplit_feature=27 48\nsplit_gain=26.0351 71.5527\nthreshold=1.0000000180025095e-35 1.0000000180025095e-35\ndecision_type=2 2\nleft_child=-1 -2\nright_child=1 -3\nleaf_value=-0.00059399334785258562 -0.0046995566703827265 -0.05425409655102334\nleaf_weight=7611.5936663029715 630.15321104926988 92.571973107289523\nleaf_count=202255 20043 2872\ninternal_value=-0.00150044 -0.0110469\ninternal_weight=8334.32 722.725\ninternal_count=225170 22915\nis_linear=0\nshrinkage=0.0526316\n\n\nTree=65\nnum_leaves=3\nnum_cat=0\nsplit_feature=44 2\nsplit_gain=27.9008 32.9327\nthreshold=1.0000000180025095e-35 1.0000000180025095e-35\ndecision_type=2 2\nleft_child=-1 -2\nright_child=1 -3\nleaf_value=-0.0019961219632804034 -0.0084518887613393746 0.018063480848659209\nleaf_weight=7726.0033607855439 188.94257347006351 414.21040096040815\nleaf_count=212576 3435 9174\ninternal_value=-0.001145 0.0097573\ninternal_weight=8329.16 603.153\ninternal_count=225185 12609\nis_linear=0\nshrinkage=0.0526316\n\n\nTree=66\nnum_leaves=3\nnum_cat=0\nsplit_feature=27 48\nsplit_gain=22.7292 64.7962\nthreshold=1.0000000180025095e-35 1.0000000180025095e-35\ndecision_type=2 2\nleft_child=-1 -2\nright_child=1 -3\nleaf_value=-9.7061599544598454e-05 -0.0038317413902505828 -0.051042865570712075\nleaf_weight=7605.526910061948 629.98140379413962 92.332026920281351\nleaf_count=202226 20055 2880\ninternal_value=-0.000944429 -0.00986668\ninternal_weight=8327.84 722.313\ninternal_count=225161 22935\nis_linear=0\nshrinkage=0.0526316\n\n\nTree=67\nnum_leaves=3\nnum_cat=0\nsplit_feature=26 48\nsplit_gain=25.7129 48.3877\nthreshold=1.0000000180025095e-35 1.0000000180025095e-35\ndecision_type=2 2\nleft_child=-1 -2\nright_child=1 -3\nleaf_value=0.00026175021000905338 -0.0058364602815925756 -0.05431418470215111\nleaf_weight=7388.4366943845525 876.61358485138044 61.004499973263592\nleaf_count=192058 30832 2298\ninternal_value=-0.000780178 -0.0089906\ninternal_weight=8326.05 937.618\ninternal_count=225188 33130\nis_linear=0\nshrinkage=0.0526316\n\n\nTree=68\nnum_leaves=3\nnum_cat=0\nsplit_feature=4 21\nsplit_gain=22.7341 26.4669\nthreshold=0.025942498996043496 1.0000000180025095e-35\ndecision_type=2 2\nleft_child=1 -1\nright_child=-2 -3\nleaf_value=-0.0010137486002291906 -0.022249562372387323 0.014892326632691339\nleaf_weight=7889.7534166290425 134.44103409070522 300.82999153016135\nleaf_count=199872 5512 19774\ninternal_value=-0.00078191 -0.000429536\ninternal_weight=8325.02 8190.58\ninternal_count=225158 219646\nis_linear=0\nshrinkage=0.0526316\n\n\nTree=69\nnum_leaves=3\nnum_cat=0\nsplit_feature=44 34\nsplit_gain=23.6511 32.1264\nthreshold=1.0000000180025095e-35 1.0000000180025095e-35\ndecision_type=2 2\nleft_child=-1 -2\nright_child=1 -3\nleaf_value=-0.001708087036344042 0.014690151493700152 -0.017321603907040125\nleaf_weight=7722.153044603765 498.28040739987046 105.17313857190311\nleaf_count=212522 11194 1418\ninternal_value=-0.000923904 0.00911094\ninternal_weight=8325.61 603.454\ninternal_count=225134 12612\nis_linear=0\nshrinkage=0.0526316\n\n\nTree=70\nnum_leaves=3\nnum_cat=0\nsplit_feature=61 25\nsplit_gain=22.7489 35.8715\nthreshold=1.0000000180025095e-35 1.0000000180025095e-35\ndecision_type=2 2\nleft_child=-1 -2\nright_child=1 -3\nleaf_value=-0.00097887303006357089 0.054479010081457363 -0.043322578253402508\nleaf_weight=8258.2745933700353 45.072985597420484 13.499723657499997\nleaf_count=223293 1194 643\ninternal_value=-0.000747052 0.0319376\ninternal_weight=8316.85 58.5727\ninternal_count=225130 1837\nis_linear=0\nshrinkage=0.0526316\n\n\nTree=71\nnum_leaves=3\nnum_cat=0\nsplit_feature=1 27\nsplit_gain=20.7092 20.148\nthreshold=0.82600502512562846 1.0000000180025095e-35\ndecision_type=2 2\nleft_child=1 -1\nright_child=-2 -3\nleaf_value=-0.00036252203794096048 0.020712644725109423 -0.0095905530369089602\nleaf_weight=7484.7013859041035 121.56908387970179 718.29765355959535\nleaf_count=200304 2022 22857\ninternal_value=-0.000851002 -0.00117058\ninternal_weight=8324.57 8203\ninternal_count=225183 223161\nis_linear=0\nshrinkage=0.0526316\n\n\nTree=72\nnum_leaves=3\nnum_cat=0\nsplit_feature=4 37\nsplit_gain=19.591 25.8207\nthreshold=0.025942498996043496 1.0000000180025095e-35\ndecision_type=2 2\nleft_child=1 -1\nright_child=-2 -3\nleaf_value=-0.0013432653287142398 -0.020770562303094379 0.0098430358073802668\nleaf_weight=7569.2956092045642 134.22010804852471 618.28247449267656\nleaf_count=202438 5513 17229\ninternal_value=-0.000825497 -0.000498533\ninternal_weight=8321.8 8187.58\ninternal_count=225180 219667\nis_linear=0\nshrinkage=0.0526316\n\n\nTree=73\nnum_leaves=3\nnum_cat=0\nsplit_feature=1 1\nsplit_gain=18.8451 19.7992\nthreshold=0.82600502512562846 0.84861809045226155\ndecision_type=2 2\nleft_child=-1 -2\nright_child=1 -3\nleaf_value=-0.0010508439415246741 0.039090795149188493 -0.0036731867684205747\nleaf_weight=8203.6066730562598 66.679678274318576 54.504303427413106\nleaf_count=223144 1013 1009\ninternal_value=-0.000746488 0.0198569\ninternal_weight=8324.79 121.184\ninternal_count=225166 2022\nis_linear=0\nshrinkage=0.0526316\n\n\nTree=74\nnum_leaves=3\nnum_cat=0\nsplit_feature=4 4\nsplit_gain=18.696 30.6078\nthreshold=0.016449362126930957 0.011279730092502193\ndecision_type=2 2\nleft_child=1 -1\nright_child=-2 -3\nleaf_value=-0.0012022022089530277 -0.012526342753393233 0.012046713330128385\nleaf_weight=7441.7464734143578 364.85735248075798 516.54546371242031\nleaf_count=185222 17188 22754\ninternal_value=-0.000876367 -0.000342258\ninternal_weight=8323.15 7958.29\ninternal_count=225164 207976\nis_linear=0\nshrinkage=0.0526316\n\n\nTree=75\nnum_leaves=3\nnum_cat=0\nsplit_feature=61 1\nsplit_gain=18.7982 40.5755\nthreshold=1.0000000180025095e-35 0.48304020100502526\ndecision_type=2 2\nleft_child=-1 -2\nright_child=1 -3\nleaf_value=-0.0010947735985570002 -0.054626302146512373 0.051718788940785881\nleaf_weight=8258.90712268278 12.671396594960241 46.079807517118752\nleaf_count=223331 613 1230\ninternal_value=-0.000883738 0.0287821\ninternal_weight=8317.66 58.7512\ninternal_count=225174 1843\nis_linear=0\nshrinkage=0.0526316\n\n\nTree=76\nnum_leaves=3\nnum_cat=0\nsplit_feature=44 1\nsplit_gain=19.7275 37.9625\nthreshold=1.0000000180025095e-35 0.57977386934673381\ndecision_type=2 2\nleft_child=-1 -2\nright_child=1 -3\nleaf_value=-0.0016430275245953117 -0.0087746016392084222 0.018481060225706506\nleaf_weight=7714.4175654607825 226.78454293124378 376.6784671866335\nleaf_count=212549 7239 5372\ninternal_value=-0.000926141 0.00823821\ninternal_weight=8317.88 603.463\ninternal_count=225160 12611\nis_linear=0\nshrinkage=0.0526316\n\n\nTree=77\nnum_leaves=3\nnum_cat=0\nsplit_feature=27 48\nsplit_gain=19.5558 54.5483\nthreshold=1.0000000180025095e-35 1.0000000180025095e-35\ndecision_type=2 2\nleft_child=-1 -2\nright_child=1 -3\nleaf_value=-0.00010976095163678118 -0.0036496654250586279 -0.047069700225145984\nleaf_weight=7598.801576170139 629.59084592526779 91.839804686140269\nleaf_count=202204 20058 2878\ninternal_value=-0.000895979 -0.00917716\ninternal_weight=8320.23 721.431\ninternal_count=225140 22936\nis_linear=0\nshrinkage=0.0526316\n\n\nTree=78\nnum_leaves=3\nnum_cat=0\nsplit_feature=17 3\nsplit_gain=17.1533 57.7309\nthreshold=1.0000000180025095e-35 1.0000000180025095e-35\ndecision_type=2 2\nleft_child=1 -1\nright_child=-2 -3\nleaf_value=0.017797766821186643 -0.011754157747711892 -0.0013839631547070087\nleaf_weight=461.45558054186404 377.34739044914022 7478.1735354084522\nleaf_count=12591 11826 200710\ninternal_value=-0.000790196 -0.000269108\ninternal_weight=8316.98 7939.63\ninternal_count=225127 213301\nis_linear=0\nshrinkage=0.0526316\n\n\nTree=79\nnum_leaves=3\nnum_cat=0\nsplit_feature=27 48\nsplit_gain=18.2985 51.8523\nthreshold=1.0000000180025095e-35 1.0000000180025095e-35\ndecision_type=2 2\nleft_child=-1 -2\nright_child=1 -3\nleaf_value=-0.00021821016596796847 -0.0036228668932970576 -0.046115720288253871\nleaf_weight=7597.4533095750958 628.97348219295964 91.065350151620805\nleaf_count=202214 20057 2876\ninternal_value=-0.000978192 -0.00899708\ninternal_weight=8317.49 720.039\ninternal_count=225147 22933\nis_linear=0\nshrinkage=0.0526316\n\n\nTree=80\nnum_leaves=3\nnum_cat=0\nsplit_feature=44 2\nsplit_gain=16.4607 28.9865\nthreshold=1.0000000180025095e-35 1.0000000180025095e-35\ndecision_type=2 2\nleft_child=-1 -2\nright_child=1 -3\nleaf_value=-0.0015843119347260701 -0.0096807798426521222 0.01520478419692603\nleaf_weight=7713.8019365756772 188.47466381080449 415.46084867557511\nleaf_count=212568 3430 9181\ninternal_value=-0.000929178 0.00743853\ninternal_weight=8317.74 603.936\ninternal_count=225179 12611\nis_linear=0\nshrinkage=0.0526316\n\n\nTree=81\nnum_leaves=3\nnum_cat=0\nsplit_feature=1 38\nsplit_gain=20.3551 31.0839\nthreshold=0.6765075376884423 1.0000000180025095e-35\ndecision_type=2 2\nleft_child=1 -1\nright_child=-2 -3\nleaf_value=-0.0054286649978795417 0.00027361523985411536 -0.055394023461548939\nleaf_weight=6153.9508517971262 2113.6307629379444 34.684205329976976\nleaf_count=190863 33384 926\ninternal_value=-0.00418569 -0.0057087\ninternal_weight=8302.27 6188.64\ninternal_count=225173 191789\nis_linear=0\nshrinkage=0.0526316\n\n\nTree=82\nnum_leaves=3\nnum_cat=0\nsplit_feature=26 48\nsplit_gain=17.5615 47.1953\nthreshold=1.0000000180025095e-35 1.0000000180025095e-35\ndecision_type=2 2\nleft_child=-1 -2\nright_child=1 -3\nleaf_value=-0.0019788864345899305 -0.006512342312882031 -0.054393413379058765\nleaf_weight=7361.1955346153118 872.79652918502688 61.011194857768714\nleaf_count=192036 30819 2305\ninternal_value=-0.00284142 -0.00964071\ninternal_weight=8295 933.808\ninternal_count=225160 33124\nis_linear=0\nshrinkage=0.0526316\n\n\nTree=83\nnum_leaves=3\nnum_cat=0\nsplit_feature=61 1\nsplit_gain=17.57 36.0623\nthreshold=1.0000000180025095e-35 0.48304020100502526\ndecision_type=2 2\nleft_child=-1 -2\nright_child=1 -3\nleaf_value=-0.0023421908899541903 -0.052744424359192611 0.048192993395011562\nleaf_weight=8230.7920280438848 12.467568218708037 45.907412392087281\nleaf_count=223334 612 1228\ninternal_value=-0.00213812 0.0266348\ninternal_weight=8289.17 58.375\ninternal_count=225174 1840\nis_linear=0\nshrinkage=0.0526316\n\n\nTree=84\nnum_leaves=3\nnum_cat=0\nsplit_feature=27 48\nsplit_gain=17.9657 42.3966\nthreshold=1.0000000180025095e-35 1.0000000180025095e-35\ndecision_type=2 2\nleft_child=-1 -2\nright_child=1 -3\nleaf_value=-0.00097698130972285698 -0.0048186659675963127 -0.043273464493154827\nleaf_weight=7566.6108303400688 627.32603703020141 90.930729622486979\nleaf_count=202220 20069 2881\ninternal_value=-0.0017321 -0.00968704\ninternal_weight=8284.87 718.257\ninternal_count=225170 22950\nis_linear=0\nshrinkage=0.0526316\n\n\nTree=85\nnum_leaves=3\nnum_cat=0\nsplit_feature=4 4\nsplit_gain=17.9297 19.3862\nthreshold=0.025942498996043496 0.022418682198874242\ndecision_type=2 2\nleft_child=1 -1\nright_child=-2 -3\nleaf_value=-0.0011627639611763968 -0.020429692179033534 0.032910422136408421\nleaf_weight=8101.8988707032986 133.27881510928273 46.520825332961977\nleaf_count=217193 5508 2449\ninternal_value=-0.00128143 -0.000968232\ninternal_weight=8281.7 8148.42\ninternal_count=225150 219642\nis_linear=0\nshrinkage=0.0526316\n\n\nTree=86\nnum_leaves=3\nnum_cat=0\nsplit_feature=44 1\nsplit_gain=15.9613 36.309\nthreshold=1.0000000180025095e-35 0.57977386934673381\ndecision_type=2 2\nleft_child=-1 -2\nright_child=1 -3\nleaf_value=-0.0018499940277914306 -0.0096201668490228202 0.017068922953131459\nleaf_weight=7681.8635990074836 226.08679503295571 376.08109450805932\nleaf_count=212606 7243 5371\ninternal_value=-0.00120317 0.00704835\ninternal_weight=8284.03 602.168\ninternal_count=225220 12614\nis_linear=0\nshrinkage=0.0526316\n\n\nTree=87\nnum_leaves=3\nnum_cat=0\nsplit_feature=21 48\nsplit_gain=16.7667 34.3756\nthreshold=1.0000000180025095e-35 1.0000000180025095e-35\ndecision_type=2 2\nleft_child=-1 -2\nright_child=1 -3\nleaf_value=-0.0015626973509907289 0.0072752289783157738 0.095045576850314908\nleaf_weight=7974.3565289201215 295.15007366472855 12.901160743087528\nleaf_count=204578 19379 1207\ninternal_value=-0.00109726 0.0109511\ninternal_weight=8282.41 308.051\ninternal_count=225164 20586\nis_linear=0\nshrinkage=0.0526316\n\n\nTree=88\nnum_leaves=3\nnum_cat=0\nsplit_feature=27 48\nsplit_gain=16.2048 37.1915\nthreshold=1.0000000180025095e-35 1.0000000180025095e-35\ndecision_type=2 2\nleft_child=-1 -2\nright_child=1 -3\nleaf_value=-0.00030703390816748301 -0.0040286117634981689 -0.040118968008033724\nleaf_weight=7562.142304438632 626.092125271447 90.533575263805687\nleaf_count=202223 20055 2877\ninternal_value=-0.00102386 -0.00858804\ninternal_weight=8278.77 716.626\ninternal_count=225155 22932\nis_linear=0\nshrinkage=0.0526316\n\n\nTree=89\nnum_leaves=3\nnum_cat=0\nsplit_feature=4 4\nsplit_gain=15.0908 27.3939\nthreshold=0.016449362126930957 0.011279730092502193\ndecision_type=2 2\nleft_child=1 -1\nright_child=-2 -3\nleaf_value=-0.0013055963290618084 -0.01148436927918324 0.011259273168295831\nleaf_weight=7400.1891694162041 361.59914592886344 514.03840626962483\nleaf_count=185231 17180 22749\ninternal_value=-0.000969897 -0.000489491\ninternal_weight=8275.83 7914.23\ninternal_count=225160 207980\nis_linear=0\nshrinkage=0.0526316\n\n\nTree=90\nnum_leaves=3\nnum_cat=0\nsplit_feature=21 43\nsplit_gain=14.8469 35.2511\nthreshold=1.0000000180025095e-35 1.0000000180025095e-35\ndecision_type=2 2\nleft_child=-1 -2\nright_child=1 -3\nleaf_value=-0.0014970817640630781 0.0056233691480979241 0.078383788113108213\nleaf_weight=7969.1574995308183 288.76621318329126 19.703464544378221\nleaf_count=204580 19037 1554\ninternal_value=-0.00105854 0.010271\ninternal_weight=8277.63 308.47\ninternal_count=225171 20591\nis_linear=0\nshrinkage=0.0526316\n\n\nTree=91\nnum_leaves=3\nnum_cat=0\nsplit_feature=1 1\nsplit_gain=14.9119 15.0477\nthreshold=0.82600502512562846 0.84861809045226155\ndecision_type=2 2\nleft_child=-1 -2\nright_child=1 -3\nleaf_value=-0.001194231416448229 0.034124558642874531 -0.0031781870616464291\nleaf_weight=8155.46768655302 66.850475658662617 54.276617568917572\nleaf_count=223088 1014 1009\ninternal_value=-0.00092197 0.0174092\ninternal_weight=8276.59 121.127\ninternal_count=225111 2023\nis_linear=0\nshrinkage=0.0526316\n\n\nTree=92\nnum_leaves=3\nnum_cat=0\nsplit_feature=1 3\nsplit_gain=16.0886 17.8418\nthreshold=0.82600502512562846 0.28947368421052638\ndecision_type=2 2\nleft_child=1 -1\nright_child=-2 -3\nleaf_value=-0.0015820112672546769 0.018168351046036223 0.014201242738485229\nleaf_weight=7952.897912632674 120.70657697878778 203.47437685960904\nleaf_count=218992 2019 4202\ninternal_value=-0.000905985 -0.00118827\ninternal_weight=8277.08 8156.37\ninternal_count=225213 223194\nis_linear=0\nshrinkage=0.0526316\n\n\nTree=93\nnum_leaves=3\nnum_cat=0\nsplit_feature=4 4\nsplit_gain=14.5684 18.7724\nthreshold=0.025942498996043496 0.022418682198874242\ndecision_type=2 2\nleft_child=1 -1\nright_child=-2 -3\nleaf_value=-0.00084010368382409048 -0.018226385330354766 0.032705517984006671\nleaf_weight=8097.9929100954905 132.73955268785357 46.475784174632281\nleaf_count=217222 5512 2447\ninternal_value=-0.000930568 -0.000648676\ninternal_weight=8277.21 8144.47\ninternal_count=225181 219669\nis_linear=0\nshrinkage=0.0526316\n\n\nTree=94\nnum_leaves=3\nnum_cat=0\nsplit_feature=27 37\nsplit_gain=15.4778 34.3637\nthreshold=1.0000000180025095e-35 1.0000000180025095e-35\ndecision_type=2 2\nleft_child=-1 -2\nright_child=1 -3\nleaf_value=-0.00023944179735817614 -0.011357338159670083 0.03556334165199343\nleaf_weight=7559.8731016172096 670.55993235437199 46.217857932671905\nleaf_count=202212 21404 1549\ninternal_value=-0.000940267 -0.00833187\ninternal_weight=8276.65 716.778\ninternal_count=225165 22953\nis_linear=0\nshrinkage=0.0526316\n\n\nTree=95\nnum_leaves=3\nnum_cat=0\nsplit_feature=4 4\nsplit_gain=13.5016 16.6388\nthreshold=0.025942498996043496 0.022418682198874242\ndecision_type=2 2\nleft_child=1 -1\nright_child=-2 -3\nleaf_value=-0.00082186420758324969 -0.017545273465634267 0.030711414957094285\nleaf_weight=8096.4219323485158 133.02734244987369 46.619755374267697\nleaf_count=217232 5516 2450\ninternal_value=-0.000913042 -0.000641331\ninternal_weight=8276.07 8143.04\ninternal_count=225198 219682\nis_linear=0\nshrinkage=0.0526316\n\n\nTree=96\nnum_leaves=3\nnum_cat=0\nsplit_feature=3 23\nsplit_gain=14.4421 54.1727\nthreshold=0.28947368421052638 1.0000000180025095e-35\ndecision_type=2 2\nleft_child=-1 -2\nright_child=1 -3\nleaf_value=-0.0012216054343165963 0.0018106210088484809 0.078572346621000266\nleaf_weight=8068.3780230847187 176.65354610513896 29.75745648983866\nleaf_count=220937 3603 654\ninternal_value=-0.000869917 0.0128771\ninternal_weight=8274.79 206.411\ninternal_count=225194 4257\nis_linear=0\nshrinkage=0.0526316\n\n\nTree=97\nnum_leaves=3\nnum_cat=0\nsplit_feature=27 37\nsplit_gain=12.6972 31.6564\nthreshold=1.0000000180025095e-35 1.0000000180025095e-35\ndecision_type=2 2\nleft_child=-1 -2\nright_child=1 -3\nleaf_value=-0.0003281700428973484 -0.010571454311857879 0.034431224597607134\nleaf_weight=7561.534410960041 669.64501878106967 46.292023094370961\nleaf_count=202246 21401 1547\ninternal_value=-0.000962456 -0.00766159\ninternal_weight=8277.47 715.937\ninternal_count=225194 22948\nis_linear=0\nshrinkage=0.0526316\n\n\nTree=98\nnum_leaves=3\nnum_cat=0\nsplit_feature=4 4\nsplit_gain=13.8006 25.344\nthreshold=0.016449362126930957 0.011279730092502193\ndecision_type=2 2\nleft_child=1 -1\nright_child=-2 -3\nleaf_value=-0.0013877880522991182 -0.011111684099479853 0.01069482371526442\nleaf_weight=7398.8390524811111 361.97348462464288 514.31983697880059\nleaf_count=185239 17177 22757\ninternal_value=-0.00106217 -0.00060247\ninternal_weight=8275.13 7913.16\ninternal_count=225173 207996\nis_linear=0\nshrinkage=0.0526316\n\n\nTree=99\nnum_leaves=3\nnum_cat=0\nsplit_feature=61 2\nsplit_gain=12.5461 27.2262\nthreshold=1.0000000180025095e-35 1.0000000180025095e-35\ndecision_type=2 2\nleft_child=-1 -2\nright_child=1 -3\nleaf_value=-0.0011437257374427602 0.098358122460758771 0.0061388415418438267\nleaf_weight=8212.0237496001646 10.897766815498469 47.62068158807233\nleaf_count=223330 290 1553\ninternal_value=-0.00097068 0.0233129\ninternal_weight=8270.54 58.5184\ninternal_count=225173 1843\nis_linear=0\nshrinkage=0.0526316\n\n\nTree=100\nnum_leaves=3\nnum_cat=0\nsplit_feature=3 23\nsplit_gain=12.802 48.3427\nthreshold=0.28947368421052638 1.0000000180025095e-35\ndecision_type=2 2\nleft_child=-1 -2\nright_child=1 -3\nleaf_value=-0.0012829624138718308 0.0015197765848000387 0.073935570172272452\nleaf_weight=8065.5872778524645 176.64539672480896 29.851804671809077\nleaf_count=220894 3606 656\ninternal_value=-0.000951664 0.0119885\ninternal_weight=8272.08 206.497\ninternal_count=225156 4262\nis_linear=0\nshrinkage=0.0526316\n\n\nTree=101\nnum_leaves=3\nnum_cat=0\nsplit_feature=4 4\nsplit_gain=14.1736 20.1152\nthreshold=0.016235319766656816 0.011279730092502193\ndecision_type=2 2\nleft_child=1 -1\nright_child=-2 -3\nleaf_value=-0.0042468565729985794 -0.014033391789351314 0.0066368136243467653\nleaf_weight=7393.2466237400658 374.50789537932724 502.35998743074015\nleaf_count=185226 17790 22147\ninternal_value=-0.00402892 -0.00355438\ninternal_weight=8270.11 7895.61\ninternal_count=225163 207373\nis_linear=0\nshrinkage=0.0526316\n\n\nTree=102\nnum_leaves=3\nnum_cat=0\nsplit_feature=27 37\nsplit_gain=13.1895 28.8952\nthreshold=1.0000000180025095e-35 1.0000000180025095e-35\ndecision_type=2 2\nleft_child=-1 -2\nright_child=1 -3\nleaf_value=-0.0020328252937297951 -0.012303131642131596 0.030682009499345478\nleaf_weight=7549.0555343856104 667.97343068150803 46.323265411891043\nleaf_count=202259 21379 1548\ninternal_value=-0.00267964 -0.00951545\ninternal_weight=8263.35 714.297\ninternal_count=225186 22927\nis_linear=0\nshrinkage=0.0526316\n\n\nTree=103\nnum_leaves=3\nnum_cat=0\nsplit_feature=3 2\nsplit_gain=12.91 15.5044\nthreshold=0.28947368421052638 0.26923076923076933\ndecision_type=2 2\nleft_child=-1 -2\nright_child=1 -3\nleaf_value=-0.002414998835024633 0.0063637966253050626 0.056620934811771703\nleaf_weight=8054.5249141529202 187.53011883841828 18.699774555396289\nleaf_count=220938 3780 484\ninternal_value=-0.00208207 0.0109209\ninternal_weight=8260.75 206.23\ninternal_count=225202 4264\nis_linear=0\nshrinkage=0.0526316\n\n\nTree=104\nnum_leaves=3\nnum_cat=0\nsplit_feature=1 3\nsplit_gain=12.589 13.9407\nthreshold=0.82600502512562846 0.28947368421052638\ndecision_type=2 2\nleft_child=1 -1\nright_child=-2 -3\nleaf_value=-0.0021487342745585974 0.015313182026548813 0.011814700395677552\nleaf_weight=7933.6757376762107 120.84209382161498 203.12873981893063\nleaf_count=218999 2022 4199\ninternal_value=-0.00154971 -0.00180015\ninternal_weight=8257.65 8136.8\ninternal_count=225220 223198\nis_linear=0\nshrinkage=0.0526316\n\n\nTree=105\nnum_leaves=3\nnum_cat=0\nsplit_feature=27 1\nsplit_gain=11.4047 29.6527\nthreshold=1.0000000180025095e-35 0.37248743718592969\ndecision_type=2 2\nleft_child=-1 -2\nright_child=1 -3\nleaf_value=-0.00077415852549693356 0.050906514795532633 -0.0097029744002010039\nleaf_weight=7541.3618763904087 23.109203500673175 689.8429760155268\nleaf_count=202228 2054 20885\ninternal_value=-0.00137568 -0.00773839\ninternal_weight=8254.31 712.952\ninternal_count=225167 22939\nis_linear=0\nshrinkage=0.0526316\n\n\nTree=106\nnum_leaves=3\nnum_cat=0\nsplit_feature=4 4\nsplit_gain=12.8419 18.9267\nthreshold=0.016449362126930957 0.011279730092502193\ndecision_type=2 2\nleft_child=1 -1\nright_child=-2 -3\nleaf_value=-0.0012648406621925045 -0.010747487936282905 0.0091838493413790977\nleaf_weight=7376.2808316955343 360.14027153234929 513.66433458542451\nleaf_count=185224 17184 22751\ninternal_value=-0.00102823 -0.000584591\ninternal_weight=8250.09 7889.95\ninternal_count=225159 207975\nis_linear=0\nshrinkage=0.0526316\n\n\nTree=107\nnum_leaves=3\nnum_cat=0\nsplit_feature=1 4\nsplit_gain=11.2198 13.2837\nthreshold=0.82600502512562846 0.0032143202274087413\ndecision_type=2 2\nleft_child=-1 -2\nright_child=1 -3\nleaf_value=-0.0011840671587328353 -0.0037531982827520138 0.031200845997815946\nleaf_weight=8129.3848134689033 56.264011684805155 64.806957758497447\nleaf_count=223135 879 1146\ninternal_value=-0.000947205 0.0149569\ninternal_weight=8250.46 121.071\ninternal_count=225160 2025\nis_linear=0\nshrinkage=0.0526316\n\n\nTree=108\nnum_leaves=3\nnum_cat=0\nsplit_feature=61 2\nsplit_gain=10.3064 26.3513\nthreshold=1.0000000180025095e-35 1.0000000180025095e-35\ndecision_type=2 2\nleft_child=-1 -2\nright_child=1 -3\nleaf_value=-0.0010871638072186907 0.095603095734036442 0.0043078665781340125\nleaf_weight=8188.7556334040128 10.735248094424604 47.548867481295019\nleaf_count=223310 288 1554\ninternal_value=-0.000930192 0.0211237\ninternal_weight=8247.04 58.2841\ninternal_count=225152 1842\nis_linear=0\nshrinkage=0.0526316\n\n\nTree=109\nnum_leaves=3\nnum_cat=0\nsplit_feature=3 23\nsplit_gain=10.2988 44.7694\nthreshold=0.28947368421052638 1.0000000180025095e-35\ndecision_type=2 2\nleft_child=-1 -2\nright_child=1 -3\nleaf_value=-0.0011859132818120293 0.00067226974938640739 0.070552097299281552\nleaf_weight=8040.2580374819227 176.49750743387267 29.664849433116615\nleaf_count=220896 3607 653\ninternal_value=-0.000888076 0.0107274\ninternal_weight=8246.42 206.162\ninternal_count=225156 4260\nis_linear=0\nshrinkage=0.0526316\n\n\nTree=110\nnum_leaves=3\nnum_cat=0\nsplit_feature=4 4\nsplit_gain=10.176 17.2165\nthreshold=0.025942498996043496 0.022418682198874242\ndecision_type=2 2\nleft_child=1 -1\nright_child=-2 -3\nleaf_value=-0.00086748634682860348 -0.015401830761034491 0.03132578447912962\nleaf_weight=8069.9030004492961 132.25064014876261 46.279673020355403\nleaf_count=217207 5510 2448\ninternal_value=-0.000919894 -0.000683914\ninternal_weight=8248.43 8116.18\ninternal_count=225165 219655\nis_linear=0\nshrinkage=0.0526316\n\n\nTree=111\nnum_leaves=3\nnum_cat=0\nsplit_feature=4 33\nsplit_gain=9.61725 22.5009\nthreshold=0.016449362126930957 1.0000000180025095e-35\ndecision_type=2 2\nleft_child=-1 -2\nright_child=1 -3\nleaf_value=-0.00045838319135839374 -0.017183170102938936 0.012543626590522003\nleaf_weight=7887.862133547198 264.27512628631666 96.211425649002194\nleaf_count=207946 12625 4560\ninternal_value=-0.000842582 -0.00924924\ninternal_weight=8248.35 360.487\ninternal_count=225131 17185\nis_linear=0\nshrinkage=0.0526316\n\n\nTree=112\nnum_leaves=3\nnum_cat=0\nsplit_feature=1 1\nsplit_gain=10.6513 12.7831\nthreshold=0.82600502512562846 0.84861809045226155\ndecision_type=2 2\nleft_child=-1 -2\nright_child=1 -3\nleaf_value=-0.0011624891220685257 0.029994616081490014 -0.0044303831002254074\nleaf_weight=8127.086982218083 66.726657118182629 54.109032585751265\nleaf_count=223171 1014 1007\ninternal_value=-0.000931863 0.0145793\ninternal_weight=8247.92 120.836\ninternal_count=225192 2021\nis_linear=0\nshrinkage=0.0526316\n\n\nTree=113\nnum_leaves=3\nnum_cat=0\nsplit_feature=44 1\nsplit_gain=10.0865 31.2418\nthreshold=1.0000000180025095e-35 0.57977386934673381\ndecision_type=2 2\nleft_child=-1 -2\nright_child=1 -3\nleaf_value=-0.0014165768458548127 -0.0098139351749905075 0.014965317295080788\nleaf_weight=7644.9070045840926 225.6454385984689 375.48834785912186\nleaf_count=212561 7245 5371\ninternal_value=-0.000900404 0.00566399\ninternal_weight=8246.04 601.134\ninternal_count=225177 12616\nis_linear=0\nshrinkage=0.0526316\n\n\nTree=114\nnum_leaves=3\nnum_cat=0\nsplit_feature=1 1\nsplit_gain=9.2879 32.972\nthreshold=0.56344221105527648 0.55967336683417102\ndecision_type=2 2\nleft_child=1 -1\nright_child=-2 -3\nleaf_value=-0.0019752198143896467 0.00068935575604210609 -0.032076078170667877\nleaf_weight=3267.7016775012016 4872.6090742093511 104.01345383189619\nleaf_count=132265 90317 2585\ninternal_value=-0.00078015 -0.0029038\ninternal_weight=8244.32 3371.72\ninternal_count=225167 134850\nis_linear=0\nshrinkage=0.0526316\n\n\nTree=115\nnum_leaves=3\nnum_cat=0\nsplit_feature=3 2\nsplit_gain=9.97985 14.5472\nthreshold=0.28947368421052638 0.26923076923076933\ndecision_type=2 2\nleft_child=-1 -2\nright_child=1 -3\nleaf_value=-0.0011183831298682276 0.0062199884131071293 0.055131417788689283\nleaf_weight=8039.7460311772302 187.3042543916963 18.508940988685936\nleaf_count=220874 3777 481\ninternal_value=-0.000825418 0.0106187\ninternal_weight=8245.56 205.813\ninternal_count=225132 4258\nis_linear=0\nshrinkage=0.0526316\n\n\nTree=116\nnum_leaves=3\nnum_cat=0\nsplit_feature=61 1\nsplit_gain=10.0478 29.5185\nthreshold=1.0000000180025095e-35 0.48304020100502526\ndecision_type=2 2\nleft_child=-1 -2\nright_child=1 -3\nleaf_value=-0.0010148831756804897 -0.050789554966012777 0.040487033364791647\nleaf_weight=8190.7448169356212 12.492767936084418 45.778264017309994\nleaf_count=223337 609 1227\ninternal_value=-0.000859948 0.0209179\ninternal_weight=8249.02 58.271\ninternal_count=225173 1836\nis_linear=0\nshrinkage=0.0526316\n\n\nTree=117\nnum_leaves=3\nnum_cat=0\nsplit_feature=27 10\nsplit_gain=9.17338 26.4008\nthreshold=1.0000000180025095e-35 1.0000000180025095e-35\ndecision_type=2 2\nleft_child=-1 -2\nright_child=1 -3\nleaf_value=-0.00020771050800687154 -0.011205691238380909 0.015184078171335526\nleaf_weight=7533.4911696184427 583.76443197578192 128.04522282257676\nleaf_count=202247 17701 5233\ninternal_value=-0.000747337 -0.00645849\ninternal_weight=8245.3 711.81\ninternal_count=225181 22934\nis_linear=0\nshrinkage=0.0526316\n\n\nTree=118\nnum_leaves=3\nnum_cat=0\nsplit_feature=4 4\nsplit_gain=9.94832 14.3007\nthreshold=0.025942498996043496 0.022418682198874242\ndecision_type=2 2\nleft_child=1 -1\nright_child=-2 -3\nleaf_value=-0.00069249309478750735 -0.01508918653605271 0.028713296147453899\nleaf_weight=8066.613765632268 132.04172788886353 46.074154870584607\nleaf_count=217210 5516 2445\ninternal_value=-0.000758731 -0.000525488\ninternal_weight=8244.73 8112.69\ninternal_count=225171 219655\nis_linear=0\nshrinkage=0.0526316\n\n\nTree=119\nnum_leaves=3\nnum_cat=0\nsplit_feature=24 63\nsplit_gain=10.4674 36.3217\nthreshold=1.0000000180025095e-35 1.0000000180025095e-35\ndecision_type=2 2\nleft_child=-1 -2\nright_child=1 -3\nleaf_value=0.00089652156770508873 -0.0017963932296785449 -0.028837688239238862\nleaf_weight=4706.4658778682351 3397.0666440976784 143.40388172864914\nleaf_count=131018 90705 3413\ninternal_value=-0.000729781 -0.00289168\ninternal_weight=8246.94 3540.47\ninternal_count=225136 94118\nis_linear=0\nshrinkage=0.0526316\n\n\nTree=120\nnum_leaves=3\nnum_cat=0\nsplit_feature=61 1\nsplit_gain=9.94324 28.3677\nthreshold=1.0000000180025095e-35 0.48304020100502526\ndecision_type=2 2\nleft_child=-1 -2\nright_child=1 -3\nleaf_value=-0.0010244965278191067 -0.049477401256825468 0.039973398688519478\nleaf_weight=8185.904868837446 12.501885317265986 45.792954288888723\nleaf_count=223327 613 1231\ninternal_value=-0.000870247 0.0207895\ninternal_weight=8244.2 58.2948\ninternal_count=225171 1844\nis_linear=0\nshrinkage=0.0526316\n\n\nTree=121\nnum_leaves=3\nnum_cat=0\nsplit_feature=1 4\nsplit_gain=13.4255 30.3963\nthreshold=0.56344221105527648 0.0034493674550898253\ndecision_type=2 2\nleft_child=1 -1\nright_child=-2 -3\nleaf_value=0.00105287328519224 -0.0017807353575542671 -0.0095918260208538303\nleaf_weight=1105.7382741332985 4872.8196595879272 2265.8078176309355\nleaf_count=34296 90336 100548\ninternal_value=-0.00354742 -0.00610077\ninternal_weight=8244.37 3371.55\ninternal_count=225180 134844\nis_linear=0\nshrinkage=0.0526316\n\n\nTree=122\nnum_leaves=3\nnum_cat=0\nsplit_feature=1 4\nsplit_gain=10.8352 27.1509\nthreshold=0.56344221105527648 0.0034493674550898253\ndecision_type=2 2\nleft_child=1 -1\nright_child=-2 -3\nleaf_value=0.0021410911758417287 -0.00073761700384026923 -0.0079198461965289679\nleaf_weight=1105.8151403688826 4872.0901858326979 2264.732926080469\nleaf_count=34292 90320 100562\ninternal_value=-0.00232479 -0.00461903\ninternal_weight=8242.64 3370.55\ninternal_count=225174 134854\nis_linear=0\nshrinkage=0.0526316\n\n\nTree=123\nnum_leaves=3\nnum_cat=0\nsplit_feature=1 1\nsplit_gain=10.6494 13.425\nthreshold=0.82600502512562846 0.84861809045226155\ndecision_type=2 2\nleft_child=-1 -2\nright_child=1 -3\nleaf_value=-0.0020127029933736727 0.029671791118253056 -0.0056869902647914937\nleaf_weight=8116.2461876329035 66.136746236123145 54.055722734425217\nleaf_count=223150 1013 1008\ninternal_value=-0.0017824 0.0137693\ninternal_weight=8236.44 120.192\ninternal_count=225171 2021\nis_linear=0\nshrinkage=0.0526316\n\n\nTree=124\nnum_leaves=3\nnum_cat=0\nsplit_feature=2 45\nsplit_gain=9.77756 73.078\nthreshold=1.0000000180025095e-35 1.0000000180025095e-35\ndecision_type=2 2\nleft_child=1 -1\nright_child=-2 -3\nleaf_value=-0.0061108278638040466 -0.00025782062057966765 0.047563169236694763\nleaf_weight=2140.5568132982589 6020.0074574789032 72.65183933917433\nleaf_count=45529 177996 1639\ninternal_value=-0.00135756 -0.00434889\ninternal_weight=8233.22 2213.21\ninternal_count=225164 47168\nis_linear=0\nshrinkage=0.0526316\n\n\nTree=125\nnum_leaves=3\nnum_cat=0\nsplit_feature=44 2\nsplit_gain=9.82842 23.3966\nthreshold=1.0000000180025095e-35 1.0000000180025095e-35\ndecision_type=2 2\nleft_child=-1 -2\nright_child=1 -3\nleaf_value=-0.0016373552882688915 -0.010053729816366219 0.012365765549144333\nleaf_weight=7632.789441280067 187.57082466967404 412.52014479134232\nleaf_count=212577 3433 9183\ninternal_value=-0.00112746 0.00535806\ninternal_weight=8232.88 600.091\ninternal_count=225193 12616\nis_linear=0\nshrinkage=0.0526316\n\n\nTree=126\nnum_leaves=3\nnum_cat=0\nsplit_feature=3 45\nsplit_gain=9.76185 33.4489\nthreshold=0.28947368421052638 1.0000000180025095e-35\ndecision_type=2 2\nleft_child=-1 -2\nright_child=1 -3\nleaf_value=-0.0013164987166417116 0.0027895507783964016 0.070296833358529834\nleaf_weight=8024.6146438545547 182.96595014398918 22.873502579517663\nleaf_count=220900 3833 427\ninternal_value=-0.00102619 0.0102912\ninternal_weight=8230.45 205.839\ninternal_count=225160 4260\nis_linear=0\nshrinkage=0.0526316\n\n\nTree=127\nnum_leaves=3\nnum_cat=0\nsplit_feature=1 1\nsplit_gain=8.72878 10.0888\nthreshold=0.82600502512562846 0.84861809045226155\ndecision_type=2 2\nleft_child=-1 -2\nright_child=1 -3\nleaf_value=-0.0011348345393469325 0.026761589200165754 -0.0038120261959795625\nleaf_weight=8108.1604382777587 66.94808057602495 54.021819757297635\nleaf_count=223124 1017 1007\ninternal_value=-0.000925458 0.0131081\ninternal_weight=8229.13 120.97\ninternal_count=225148 2024\nis_linear=0\nshrinkage=0.0526316\n\n\nTree=128\nnum_leaves=3\nnum_cat=0\nsplit_feature=33 46\nsplit_gain=8.97952 22.6561\nthreshold=1.0000000180025095e-35 1.0000000180025095e-35\ndecision_type=2 2\nleft_child=-1 -2\nright_child=1 -3\nleaf_value=-0.0019078446917819138 0.0012551457916647698 0.042005207643949258\nleaf_weight=5775.5375011595897 2414.9488864843734 38.394820784218609\nleaf_count=153227 71214 761\ninternal_value=-0.000774698 0.00189289\ninternal_weight=8228.88 2453.34\ninternal_count=225202 71975\nis_linear=0\nshrinkage=0.0526316\n\n\nTree=129\nnum_leaves=3\nnum_cat=0\nsplit_feature=3 2\nsplit_gain=9.73253 10.9558\nthreshold=0.28947368421052638 0.26923076923076933\ndecision_type=2 2\nleft_child=-1 -2\nright_child=1 -3\nleaf_value=-0.00095243008354570983 0.0068081751349056514 0.049107161245934235\nleaf_weight=8024.4502553637139 186.68667509779334 18.657338118180633\nleaf_count=220942 3774 482\ninternal_value=-0.000662895 0.0106515\ninternal_weight=8229.79 205.344\ninternal_count=225198 4256\nis_linear=0\nshrinkage=0.0526316\n\n\nTree=130\nnum_leaves=3\nnum_cat=0\nsplit_feature=21 63\nsplit_gain=8.20795 23.2541\nthreshold=1.0000000180025095e-35 1.0000000180025095e-35\ndecision_type=2 2\nleft_child=-1 -2\nright_child=1 -3\nleaf_value=-0.00099099827013905705 0.011003404343777515 -0.057233327756623369\nleaf_weight=7919.1306424923241 292.65376950521022 14.520628005266188\nleaf_count=204579 19852 742\ninternal_value=-0.000663569 0.00777769\ninternal_weight=8226.31 307.174\ninternal_count=225173 20594\nis_linear=0\nshrinkage=0.0526316\n\n\nTree=131\nnum_leaves=3\nnum_cat=0\nsplit_feature=3 45\nsplit_gain=8.55118 34.0661\nthreshold=0.28947368421052638 1.0000000180025095e-35\ndecision_type=2 2\nleft_child=-1 -2\nright_child=1 -3\nleaf_value=-0.0010663912774690571 0.0022833206959562377 0.07085909292786817\nleaf_weight=8022.8774095284753 182.84015945112333 22.540508809033781\nleaf_count=220916 3830 426\ninternal_value=-0.000794921 0.00980958\ninternal_weight=8228.26 205.381\ninternal_count=225172 4256\nis_linear=0\nshrinkage=0.0526316\n\n\nTree=132\nnum_leaves=3\nnum_cat=0\nsplit_feature=4 4\nsplit_gain=8.74512 15.0934\nthreshold=0.025942498996043496 0.022418682198874242\ndecision_type=2 2\nleft_child=1 -1\nright_child=-2 -3\nleaf_value=-0.00070808972760698916 -0.014206098854470444 0.029390749710694896\nleaf_weight=8047.0042331893928 131.73268602229655 46.417232811450958\nleaf_count=217158 5510 2451\ninternal_value=-0.000754414 -0.000535465\ninternal_weight=8225.15 8093.42\ninternal_count=225119 219609\nis_linear=0\nshrinkage=0.0526316\n\n\nTree=133\nnum_leaves=3\nnum_cat=0\nsplit_feature=4 4\nsplit_gain=8.13506 17.6518\nthreshold=0.016449362126930957 0.011279730092502193\ndecision_type=2 2\nleft_child=1 -1\nright_child=-2 -3\nleaf_value=-0.0010221459845866437 -0.008465111253881245 0.0090845745868593248\nleaf_weight=7353.5736140683293 359.06701711751521 512.02833316894248\nleaf_count=185258 17184 22757\ninternal_value=-0.00071789 -0.000364225\ninternal_weight=8224.67 7865.6\ninternal_count=225199 208015\nis_linear=0\nshrinkage=0.0526316\n\n\nTree=134\nnum_leaves=3\nnum_cat=0\nsplit_feature=44 1\nsplit_gain=8.348 27.8091\nthreshold=1.0000000180025095e-35 0.57977386934673381\ndecision_type=2 2\nleft_child=-1 -2\nright_child=1 -3\nleaf_value=-0.0011625705567544029 -0.0093383632765488833 0.014059441028360792\nleaf_weight=7625.2470890460536 225.16314386343583 375.1591860326007\nleaf_count=212542 7239 5371\ninternal_value=-0.000692112 0.00528359\ninternal_weight=8225.57 600.322\ninternal_count=225152 12610\nis_linear=0\nshrinkage=0.0526316\n\n\nTree=135\nnum_leaves=3\nnum_cat=0\nsplit_feature=24 41\nsplit_gain=9.18636 30.3511\nthreshold=1.0000000180025095e-35 1.0000000180025095e-35\ndecision_type=2 2\nleft_child=-1 -2\nright_child=1 -3\nleaf_value=0.00089749686182239905 -0.0041324760726433119 0.013461619295630334\nleaf_weight=4694.1566797704436 3235.8012033365667 296.48825742630288\nleaf_count=131039 87962 6167\ninternal_value=-0.000628174 -0.00265568\ninternal_weight=8226.45 3532.29\ninternal_count=225168 94129\nis_linear=0\nshrinkage=0.0526316\n\n\nTree=136\nnum_leaves=3\nnum_cat=0\nsplit_feature=1 1\nsplit_gain=8.08336 29.5367\nthreshold=0.56344221105527648 0.55967336683417102\ndecision_type=2 2\nleft_child=1 -1\nright_child=-2 -3\nleaf_value=-0.0018186439443493019 0.00065883101787704232 -0.030395236968276302\nleaf_weight=3259.0151862914208 4864.1287002973258 103.37023854861036\nleaf_count=132233 90331 2580\ninternal_value=-0.000712855 -0.00269718\ninternal_weight=8226.51 3362.39\ninternal_count=225144 134813\nis_linear=0\nshrinkage=0.0526316\n\n\nTree=137\nnum_leaves=3\nnum_cat=0\nsplit_feature=2 45\nsplit_gain=8.42416 64.7544\nthreshold=1.0000000180025095e-35 1.0000000180025095e-35\ndecision_type=2 2\nleft_child=1 -1\nright_child=-2 -3\nleaf_value=-0.0052326772337422996 0.00022574449876588821 0.045259972178859936\nleaf_weight=2139.858188694343 6014.16387778637 72.748658155556768\nleaf_count=45550 178005 1639\ninternal_value=-0.000795803 -0.00357251\ninternal_weight=8226.77 2212.61\ninternal_count=225194 47189\nis_linear=0\nshrinkage=0.0526316\n\n\nTree=138\nnum_leaves=3\nnum_cat=0\nsplit_feature=33 32\nsplit_gain=8.50523 24.6951\nthreshold=1.0000000180025095e-35 1.0000000180025095e-35\ndecision_type=2 2\nleft_child=-1 -2\nright_child=1 -3\nleaf_value=-0.0018435557014492962 0.0024054656023896259 -0.049006402056293807\nleaf_weight=5774.8858525517862 2424.8592720422894 26.159929231274873\nleaf_count=153216 70743 1219\ninternal_value=-0.000741002 0.00185674\ninternal_weight=8225.91 2451.02\ninternal_count=225178 71962\nis_linear=0\nshrinkage=0.0526316\n\n\nTree=139\nnum_leaves=3\nnum_cat=0\nsplit_feature=61 1\nsplit_gain=7.82551 22.7415\nthreshold=1.0000000180025095e-35 0.48304020100502526\ndecision_type=2 2\nleft_child=-1 -2\nright_child=1 -3\nleaf_value=-0.00087030769969129607 -0.04465360034346303 0.035592572571279429\nleaf_weight=8167.3757341662422 12.434347912203519 45.874126420821995\nleaf_count=223320 613 1232\ninternal_value=-0.000733141 0.0184797\ninternal_weight=8225.68 58.3085\ninternal_count=225165 1845\nis_linear=0\nshrinkage=0.0526316\n\n\nTree=140\nnum_leaves=3\nnum_cat=0\nsplit_feature=24 41\nsplit_gain=9.10445 29.5414\nthreshold=1.0000000180025095e-35 1.0000000180025095e-35\ndecision_type=2 2\nleft_child=-1 -2\nright_child=1 -3\nleaf_value=0.00087680974144880306 -0.0041176925515887652 0.013248397398085801\nleaf_weight=4694.0684923196677 3234.6687698932365 296.18942050309852\nleaf_count=131028 87981 6163\ninternal_value=-0.00064189 -0.00266092\ninternal_weight=8224.93 3530.86\ninternal_count=225172 94144\nis_linear=0\nshrinkage=0.0526316\n\n\nTree=141\nnum_leaves=3\nnum_cat=0\nsplit_feature=44 3\nsplit_gain=7.84401 20.4662\nthreshold=1.0000000180025095e-35 0.23684210526315791\ndecision_type=2 2\nleft_child=-1 -2\nright_child=1 -3\nleaf_value=-0.0035808521382490713 0.0046946661992962541 -0.043873970132735376\nleaf_weight=7630.66474777041 575.48955066082999 25.080917178653181\nleaf_count=212600 12025 582\ninternal_value=-0.00312504 0.00266632\ninternal_weight=8231.24 600.57\ninternal_count=225207 12607\nis_linear=0\nshrinkage=0.0526316\n\n\nTree=142\nnum_leaves=3\nnum_cat=0\nsplit_feature=24 3\nsplit_gain=7.58413 26.2108\nthreshold=1.0000000180025095e-35 0.078947368421052641\ndecision_type=2 2\nleft_child=1 -1\nright_child=-2 -3\nleaf_value=0.005766957186522057 -0.0039652856794970583 -0.0031149557939419768\nleaf_weight=1257.0195110621862 3530.3714382736944 3436.5202025445178\nleaf_count=34210 94135 96818\ninternal_value=-0.00212239 -0.000736207\ninternal_weight=8223.91 4693.54\ninternal_count=225163 131028\nis_linear=0\nshrinkage=0.0526316\n\n\nTree=143\nnum_leaves=3\nnum_cat=0\nsplit_feature=27 21\nsplit_gain=7.59237 20.0951\nthreshold=1.0000000180025095e-35 1.0000000180025095e-35\ndecision_type=2 2\nleft_child=-1 -2\nright_child=1 -3\nleaf_value=-0.0010464526629485264 -0.0085692313138485011 0.036244137812070185\nleaf_weight=7509.8895884840749 680.32236655801535 28.895486279390752\nleaf_count=202268 20887 2057\ninternal_value=-0.00153804 -0.00674339\ninternal_weight=8219.11 709.218\ninternal_count=225212 22944\nis_linear=0\nshrinkage=0.0526316\n\n\nTree=144\nnum_leaves=3\nnum_cat=0\nsplit_feature=4 4\nsplit_gain=8.31257 14.3957\nthreshold=0.025942498996043496 0.022418682198874242\ndecision_type=2 2\nleft_child=1 -1\nright_child=-2 -3\nleaf_value=-0.0011594734894523268 -0.014350409668931514 0.028243655469420231\nleaf_weight=8040.8031459460035 131.10692145349458 46.391414989251643\nleaf_count=217218 5509 2445\ninternal_value=-0.00120393 -0.000990803\ninternal_weight=8218.3 8087.19\ninternal_count=225172 219663\nis_linear=0\nshrinkage=0.0526316\n\n\nTree=145\nnum_leaves=3\nnum_cat=0\nsplit_feature=3 1\nsplit_gain=7.92691 27.1097\nthreshold=0.28947368421052638 0.39133165829145738\ndecision_type=2 2\nleft_child=-1 -2\nright_child=1 -3\nleaf_value=-0.0011653749227942707 0.093724827863947993 0.0049750339047105524\nleaf_weight=8009.6954014974181 10.02356320992112 195.29542775638402\nleaf_count=220928 462 3795\ninternal_value=-0.000903615 0.00930783\ninternal_weight=8215.01 205.319\ninternal_count=225185 4257\nis_linear=0\nshrinkage=0.0526316\n\n\nTree=146\nnum_leaves=3\nnum_cat=0\nsplit_feature=6 4\nsplit_gain=8.13199 30.5495\nthreshold=1.0000000180025095e-35 0.0022881115297027346\ndecision_type=2 2\nleft_child=-1 -2\nright_child=1 -3\nleaf_value=0.00014258262690706582 0.0082568704712049391 -0.0076541608429271856\nleaf_weight=6382.539225847926 439.84630511980504 1392.6545671275817\nleaf_count=187758 7958 29429\ninternal_value=-0.000744704 -0.0038351\ninternal_weight=8215.04 1832.5\ninternal_count=225145 37387\nis_linear=0\nshrinkage=0.0526316\n\n\nTree=147\nnum_leaves=3\nnum_cat=0\nsplit_feature=6 4\nsplit_gain=7.25432 26.1243\nthreshold=1.0000000180025095e-35 0.0022881115297027346\ndecision_type=2 2\nleft_child=-1 -2\nright_child=1 -3\nleaf_value=0.00020580847289768198 0.0076265545746456304 -0.0070847256237081407\nleaf_weight=6381.6590553475544 440.07347784610465 1392.1853546581697\nleaf_count=187750 7957 29435\ninternal_value=-0.00063229 -0.00355135\ninternal_weight=8213.92 1832.26\ninternal_count=225142 37392\nis_linear=0\nshrinkage=0.0526316\n\n\nTree=148\nnum_leaves=3\nnum_cat=0\nsplit_feature=2 61\nsplit_gain=7.99503 27.6011\nthreshold=1.0000000180025095e-35 1.0000000180025095e-35\ndecision_type=2 2\nleft_child=1 -1\nright_child=-2 -3\nleaf_value=-0.0037190970747879169 0.00039770493660334737 0.080324076130757829\nleaf_weight=2198.4465322168544 6005.4102449433412 10.878210829105226\nleaf_count=46897 177981 290\ninternal_value=-0.000598198 -0.00330528\ninternal_weight=8214.73 2209.32\ninternal_count=225168 47187\nis_linear=0\nshrinkage=0.0526316\n\n\nTree=149\nnum_leaves=3\nnum_cat=0\nsplit_feature=2 22\nsplit_gain=7.59001 27.717\nthreshold=1.0000000180025095e-35 1.0000000180025095e-35\ndecision_type=2 2\nleft_child=-1 -2\nright_child=1 -3\nleaf_value=-0.0032754066463893694 -0.001628107055027015 0.006853203391694462\nleaf_weight=2209.1015018583275 4616.7310270552989 1388.3417366635986\nleaf_count=47169 150450 27575\ninternal_value=-0.000637636 0.000332725\ninternal_weight=8214.17 6005.07\ninternal_count=225194 178025\nis_linear=0\nshrinkage=0.0526316\n\n\nTree=150\nnum_leaves=3\nnum_cat=0\nsplit_feature=1 4\nsplit_gain=7.4978 12.6574\nthreshold=0.82600502512562846 0.0032143202274087413\ndecision_type=2 2\nleft_child=-1 -2\nright_child=1 -3\nleaf_value=-0.00081662011090403346 -0.0059127082689427709 0.028262997808438401\nleaf_weight=8093.0715933004394 56.02542148064822 64.669683452695608\nleaf_count=223188 874 1146\ninternal_value=-0.000622427 0.0123989\ninternal_weight=8213.77 120.695\ninternal_count=225208 2020\nis_linear=0\nshrinkage=0.0526316\n\n\nTree=151\nnum_leaves=3\nnum_cat=0\nsplit_feature=4 4\nsplit_gain=7.6483 14.391\nthreshold=0.016449362126930957 0.015163499055942704\ndecision_type=2 2\nleft_child=1 -1\nright_child=-2 -3\nleaf_value=-0.00045751767779447696 -0.008106331585414071 0.022868358727158929\nleaf_weight=7780.2673317019362 357.78571834042668 73.963357434142381\nleaf_count=204304 17183 3684\ninternal_value=-0.000580676 -0.000237856\ninternal_weight=8212.02 7854.23\ninternal_count=225171 207988\nis_linear=0\nshrinkage=0.0526316\n\n\nTree=152\nnum_leaves=3\nnum_cat=0\nsplit_feature=32 4\nsplit_gain=7.42635 17.9044\nthreshold=1.0000000180025095e-35 5.1663383077251652e-05\ndecision_type=2 2\nleft_child=-1 -2\nright_child=1 -3\nleaf_value=-0.00039223871804800061 0.068003966250007833 -0.016518188450021825\nleaf_weight=8065.1121893892996 7.3049705363810054 139.86252576019615\nleaf_count=219331 420 5440\ninternal_value=-0.000606039 -0.0123226\ninternal_weight=8212.28 147.167\ninternal_count=225191 5860\nis_linear=0\nshrinkage=0.0526316\n\n\nTree=153\nnum_leaves=3\nnum_cat=0\nsplit_feature=24 3\nsplit_gain=6.99036 20.6244\nthreshold=1.0000000180025095e-35 0.078947368421052641\ndecision_type=2 2\nleft_child=1 -1\nright_child=-2 -3\nleaf_value=0.0065794480193032438 -0.0022944101081351339 -0.0013044290797817977\nleaf_weight=1255.6135102859698 3525.0762001206167 3430.29379517911\nleaf_count=34197 94131 96811\ninternal_value=-0.000523847 0.000808094\ninternal_weight=8210.98 4685.91\ninternal_count=225139 131008\nis_linear=0\nshrinkage=0.0526316\n\n\nTree=154\nnum_leaves=3\nnum_cat=0\nsplit_feature=32 1\nsplit_gain=7.45605 18.2464\nthreshold=1.0000000180025095e-35 0.4591708542713569\ndecision_type=2 2\nleft_child=-1 -2\nright_child=1 -3\nleaf_value=-0.00034001410206944987 -0.0002873050881788296 -0.040902690339154127\nleaf_weight=8062.3838915461674 103.63535929052159 43.501578654628247\nleaf_count=219306 4478 1381\ninternal_value=-0.000554291 -0.0122955\ninternal_weight=8209.52 147.137\ninternal_count=225165 5859\nis_linear=0\nshrinkage=0.0526316\n\n\nTree=155\nnum_leaves=3\nnum_cat=0\nsplit_feature=61 1\nsplit_gain=8.63449 21.0631\nthreshold=1.0000000180025095e-35 0.48304020100502526\ndecision_type=2 2\nleft_child=-1 -2\nright_child=1 -3\nleaf_value=-0.0006414870303310358 -0.041071542735989695 0.036386662537417673\nleaf_weight=8149.7395496161189 12.37798652006313 45.36648703366518\nleaf_count=223282 612 1230\ninternal_value=-0.00049779 0.0197826\ninternal_weight=8207.48 57.7445\ninternal_count=225124 1842\nis_linear=0\nshrinkage=0.0526316\n\n\nTree=156\nnum_leaves=3\nnum_cat=0\nsplit_feature=6 4\nsplit_gain=7.98524 25.2711\nthreshold=1.0000000180025095e-35 0.0022881115297027346\ndecision_type=2 2\nleft_child=-1 -2\nright_child=1 -3\nleaf_value=0.00032494847302318912 0.0073716344958227823 -0.0070930814687463041\nleaf_weight=6380.0513798440807 440.42350425804034 1392.1634582516272\nleaf_count=187784 7956 29440\ninternal_value=-0.000554617 -0.00361678\ninternal_weight=8212.64 1832.59\ninternal_count=225180 37396\nis_linear=0\nshrinkage=0.0526316\n\n\nTree=157\nnum_leaves=3\nnum_cat=0\nsplit_feature=3 45\nsplit_gain=7.02485 25.1543\nthreshold=0.28947368421052638 1.0000000180025095e-35\ndecision_type=2 2\nleft_child=-1 -2\nright_child=1 -3\nleaf_value=-0.00078622732807609745 0.0025397130704206583 0.061074053174652962\nleaf_weight=8005.6867570627946 181.79996971320361 22.898451643064618\nleaf_count=220930 3831 426\ninternal_value=-0.000540052 0.0090877\ninternal_weight=8210.39 204.698\ninternal_count=225187 4257\nis_linear=0\nshrinkage=0.0526316\n\n\nTree=158\nnum_leaves=3\nnum_cat=0\nsplit_feature=33 2\nsplit_gain=7.87037 22.6968\nthreshold=1.0000000180025095e-35 0.19230769230769235\ndecision_type=2 2\nleft_child=-1 -2\nright_child=1 -3\nleaf_value=-0.0016100790853421688 0.0031490898208938979 -0.019513171890113475\nleaf_weight=5759.3990363357589 2318.5392147428356 129.24354577763006\nleaf_count=153178 65925 6044\ninternal_value=-0.000547539 0.00195251\ninternal_weight=8207.18 2447.78\ninternal_count=225147 71969\nis_linear=0\nshrinkage=0.0526316\n\n\nTree=159\nnum_leaves=3\nnum_cat=0\nsplit_feature=2 22\nsplit_gain=7.05537 28.7561\nthreshold=1.0000000180025095e-35 1.0000000180025095e-35\ndecision_type=2 2\nleft_child=-1 -2\nright_child=1 -3\nleaf_value=-0.0031193238808746443 -0.0016386289706420169 0.006998954890070571\nleaf_weight=2207.6741821905598 4613.197453731671 1389.1833394118585\nleaf_count=47181 150414 27569\ninternal_value=-0.000575263 0.00036044\ninternal_weight=8210.05 6002.38\ninternal_count=225164 177983\nis_linear=0\nshrinkage=0.0526316\n\n\nTree=160\nnum_leaves=3\nnum_cat=0\nsplit_feature=44 4\nsplit_gain=7.20997 30.4926\nthreshold=1.0000000180025095e-35 0.0065339389852334109\ndecision_type=2 2\nleft_child=-1 -2\nright_child=1 -3\nleaf_value=-0.00095911923310834874 0.0082297413198186634 -0.039020005505766307\nleaf_weight=7612.5075339588802 559.35135257896036 40.579251687508076\nleaf_count=212577 10894 1721\ninternal_value=-0.00052133 0.00503375\ninternal_weight=8212.44 599.931\ninternal_count=225192 12615\nis_linear=0\nshrinkage=0.0526316\n\n\nTree=161\nnum_leaves=3\nnum_cat=0\nsplit_feature=27 41\nsplit_gain=7.23239 9.97737\nthreshold=1.0000000180025095e-35 1.0000000180025095e-35\ndecision_type=2 2\nleft_child=1 -1\nright_child=-2 -3\nleaf_value=-0.0028930433990265601 -0.0078783954496612282 0.0040614354636355826\nleaf_weight=6883.7936356184073 708.56681000511162 623.18318099807948\nleaf_count=188709 22935 13503\ninternal_value=-0.00279549 -0.00231572\ninternal_weight=8215.54 7506.98\ninternal_count=225147 202212\nis_linear=0\nshrinkage=0.0526316\n\n\nTree=162\nnum_leaves=3\nnum_cat=0\nsplit_feature=1 1\nsplit_gain=7.75077 25.1134\nthreshold=0.56344221105527648 0.55967336683417102\ndecision_type=2 2\nleft_child=1 -1\nright_child=-2 -3\nleaf_value=-0.0029263964667511399 -0.00044607270932893011 -0.029352414762881234\nleaf_weight=3252.366305003874 4854.1087455754168 102.76520398166031\nleaf_count=132253 90303 2579\ninternal_value=-0.0017906 -0.00373581\ninternal_weight=8209.24 3355.13\ninternal_count=225135 134832\nis_linear=0\nshrinkage=0.0526316\n\n\nTree=163\nnum_leaves=3\nnum_cat=0\nsplit_feature=32 33\nsplit_gain=6.53586 14.1768\nthreshold=1.0000000180025095e-35 1.0000000180025095e-35\ndecision_type=2 2\nleft_child=-1 -2\nright_child=1 -3\nleaf_value=-0.0011923415507822063 -0.0048086688144486755 -0.047633952335287805\nleaf_weight=8062.0927485753782 120.89315081480891 26.022000254597515\nleaf_count=219331 4636 1217\ninternal_value=-0.00139282 -0.0123941\ninternal_weight=8209.01 146.915\ninternal_count=225184 5853\nis_linear=0\nshrinkage=0.0526316\n\n\nTree=164\nnum_leaves=3\nnum_cat=0\nsplit_feature=4 1\nsplit_gain=7.17706 16.1455\nthreshold=0.016449362126930957 0.32851758793969854\ndecision_type=2 2\nleft_child=-1 -2\nright_child=1 -3\nleaf_value=-0.00065679764256973059 -0.1069571311721093 -0.0070128977106113603\nleaf_weight=7846.233776077861 4.534946239553391 353.16834592539817\nleaf_count=207961 590 16592\ninternal_value=-0.000989183 -0.00828003\ninternal_weight=8203.94 357.703\ninternal_count=225143 17182\nis_linear=0\nshrinkage=0.0526316\n\n\nTree=165\nnum_leaves=3\nnum_cat=0\nsplit_feature=1 1\nsplit_gain=7.02224 24.0752\nthreshold=0.56344221105527648 0.55967336683417102\ndecision_type=2 2\nleft_child=1 -1\nright_child=-2 -3\nleaf_value=-0.0018610531854430616 0.00047764808708331398 -0.027723729430453026\nleaf_weight=3249.7334469391499 4852.6777081810869 102.86077538831159\nleaf_count=132263 90335 2579\ninternal_value=-0.000802135 -0.00265455\ninternal_weight=8205.27 3352.59\ninternal_count=225177 134842\nis_linear=0\nshrinkage=0.0526316\n\n\nTree=166\nnum_leaves=3\nnum_cat=0\nsplit_feature=6 41\nsplit_gain=7.2013 9.22875\nthreshold=1.0000000180025095e-35 1.0000000180025095e-35\ndecision_type=2 2\nleft_child=1 -1\nright_child=-2 -3\nleaf_value=-0.00041995777296166298 -0.0035305000898499359 0.0065340556929715243\nleaf_weight=5789.1919304830953 1830.4367433472071 581.77043448062614\nleaf_count=174132 37401 13636\ninternal_value=-0.000620901 0.000215052\ninternal_weight=8201.4 6370.96\ninternal_count=225169 187768\nis_linear=0\nshrinkage=0.0526316\n\n\nTree=167\nnum_leaves=3\nnum_cat=0\nsplit_feature=32 4\nsplit_gain=7.27122 16.2009\nthreshold=1.0000000180025095e-35 5.1663383077251652e-05\ndecision_type=2 2\nleft_child=-1 -2\nright_child=1 -3\nleaf_value=-0.00036585054482231983 0.064138625071319927 -0.016188745083868663\nleaf_weight=8055.5699529205449 7.3199912579730144 139.51589278830215\nleaf_count=219293 421 5435\ninternal_value=-0.000577419 -0.0121842\ninternal_weight=8202.41 146.836\ninternal_count=225149 5856\nis_linear=0\nshrinkage=0.0526316\n\n\nTree=168\nnum_leaves=3\nnum_cat=0\nsplit_feature=24 41\nsplit_gain=6.98297 28.3009\nthreshold=1.0000000180025095e-35 1.0000000180025095e-35\ndecision_type=2 2\nleft_child=-1 -2\nright_child=1 -3\nleaf_value=0.00087160858801899543 -0.0036603594995560161 0.013357934307933965\nleaf_weight=4680.8635366386734 3223.7924480116926 295.49372817762196\nleaf_count=131048 87981 6169\ninternal_value=-0.000460131 -0.00223143\ninternal_weight=8200.15 3519.29\ninternal_count=225198 94150\nis_linear=0\nshrinkage=0.0526316\n\n\nTree=169\nnum_leaves=3\nnum_cat=0\nsplit_feature=1 4\nsplit_gain=6.99 13.9671\nthreshold=0.82600502512562846 0.0032143202274087413\ndecision_type=2 2\nleft_child=-1 -2\nright_child=1 -3\nleaf_value=-0.0005860120911795084 -0.0070091012719019742 0.028960294457381019\nleaf_weight=8077.9270637140144 55.990934983827174 64.183297520503402\nleaf_count=223157 877 1142\ninternal_value=-0.000398561 0.0122015\ninternal_weight=8198.1 120.174\ninternal_count=225176 2019\nis_linear=0\nshrinkage=0.0526316\n\n\nTree=170\nnum_leaves=3\nnum_cat=0\nsplit_feature=24 41\nsplit_gain=7.10828 26.4319\nthreshold=1.0000000180025095e-35 1.0000000180025095e-35\ndecision_type=2 2\nleft_child=-1 -2\nright_child=1 -3\nleaf_value=0.00091701833796790238 -0.0035958541654933294 0.012838463074931345\nleaf_weight=4681.5045974752866 3223.2844919702038 295.98662270698696\nleaf_count=131013 87979 6168\ninternal_value=-0.000426471 -0.00221365\ninternal_weight=8200.78 3519.27\ninternal_count=225160 94147\nis_linear=0\nshrinkage=0.0526316\n\n\nTree=171\nnum_leaves=3\nnum_cat=0\nsplit_feature=3 1\nsplit_gain=6.81157 22.9118\nthreshold=0.28947368421052638 0.39133165829145738\ndecision_type=2 2\nleft_child=-1 -2\nright_child=1 -3\nleaf_value=-0.00059740100115528703 0.086691475804019064 0.0051275266045547746\nleaf_weight=7992.2857950590551 10.031003836542366 194.98046276858076\nleaf_count=220930 463 3799\ninternal_value=-0.000354409 0.00911845\ninternal_weight=8197.3 205.011\ninternal_count=225192 4262\nis_linear=0\nshrinkage=0.0526316\n\n\nTree=172\nnum_leaves=3\nnum_cat=0\nsplit_feature=1 45\nsplit_gain=7.32931 19.1671\nthreshold=0.32600502512562829 1.0000000180025095e-35\ndecision_type=2 2\nleft_child=1 -1\nright_child=-2 -3\nleaf_value=-0.03113746968485348 -0.00022857654885098888 0.13916843223030831\nleaf_weight=37.80298184370622 8160.5132195975166 1.9237146899104107\nleaf_count=4350 220594 239\ninternal_value=-0.000338365 -0.0228902\ninternal_weight=8200.24 39.7267\ninternal_count=225183 4589\nis_linear=0\nshrinkage=0.0526316\n\n\nTree=173\nnum_leaves=3\nnum_cat=0\nsplit_feature=6 4\nsplit_gain=7.01472 21.1938\nthreshold=1.0000000180025095e-35 0.0022881115297027346\ndecision_type=2 2\nleft_child=-1 -2\nright_child=1 -3\nleaf_value=0.00033324450780063803 0.0067055251539722546 -0.006553691031767543\nleaf_weight=6371.4158909036778 439.6677274745889 1388.6306173992343\nleaf_count=187814 7953 29425\ninternal_value=-0.000491381 -0.00336512\ninternal_weight=8199.71 1828.3\ninternal_count=225192 37378\nis_linear=0\nshrinkage=0.0526316\n\n\nTree=174\nnum_leaves=3\nnum_cat=0\nsplit_feature=2 45\nsplit_gain=6.47915 51.3333\nthreshold=1.0000000180025095e-35 1.0000000180025095e-35\ndecision_type=2 2\nleft_child=1 -1\nright_child=-2 -3\nleaf_value=-0.0043260710550145787 0.00049198095615885559 0.040673434308456387\nleaf_weight=2132.7827913523652 5995.3758537927642 72.613273399416357\nleaf_count=45545 178010 1639\ninternal_value=-0.000405266 -0.00284444\ninternal_weight=8200.77 2205.4\ninternal_count=225194 47184\nis_linear=0\nshrinkage=0.0526316\n\n\nTree=175\nnum_leaves=3\nnum_cat=0\nsplit_feature=2 61\nsplit_gain=6.8926 24.1982\nthreshold=1.0000000180025095e-35 1.0000000180025095e-35\ndecision_type=2 2\nleft_child=1 -1\nright_child=-2 -3\nleaf_value=-0.0033023449613627993 0.00052756665591375228 0.075401410610921107\nleaf_weight=2193.5783359981142 5997.0384085224941 10.875086077023296\nleaf_count=46892 178057 290\ninternal_value=-0.000397499 -0.00291407\ninternal_weight=8201.49 2204.45\ninternal_count=225239 47182\nis_linear=0\nshrinkage=0.0526316\n\n\nTree=176\nnum_leaves=3\nnum_cat=0\nsplit_feature=1 1\nsplit_gain=6.661 20.8189\nthreshold=0.56344221105527648 0.55967336683417102\ndecision_type=2 2\nleft_child=1 -1\nright_child=-2 -3\nleaf_value=-0.0014161122761414009 0.00089792698537636607 -0.025490202827205617\nleaf_weight=3246.998807542026 4849.2008379269391 102.65238892519847\nleaf_count=132273 90326 2582\ninternal_value=-0.000348892 -0.00215388\ninternal_weight=8198.85 3349.65\ninternal_count=225181 134855\nis_linear=0\nshrinkage=0.0526316\n\n\nTree=177\nnum_leaves=3\nnum_cat=0\nsplit_feature=4 4\nsplit_gain=6.51065 13.176\nthreshold=0.025942498996043496 0.022418682198874242\ndecision_type=2 2\nleft_child=1 -1\nright_child=-2 -3\nleaf_value=-0.00045189118725404468 -0.012120809598760253 0.027754012605019657\nleaf_weight=8019.6683582367841 130.95502161933109 46.140914206858724\nleaf_count=217220 5511 2447\ninternal_value=-0.000479543 -0.000290536\ninternal_weight=8196.76 8065.81\ninternal_count=225178 219667\nis_linear=0\nshrinkage=0.0526316\n\n\nTree=178\nnum_leaves=3\nnum_cat=0\nsplit_feature=24 41\nsplit_gain=6.30934 25.4378\nthreshold=1.0000000180025095e-35 1.0000000180025095e-35\ndecision_type=2 2\nleft_child=-1 -2\nright_child=1 -3\nleaf_value=0.00086562288070885353 -0.0034384715077941477 0.012702742710704248\nleaf_weight=4679.0045197745785 3223.719830957707 295.22597561962903\nleaf_count=131030 87979 6161\ninternal_value=-0.000400613 -0.00208428\ninternal_weight=8197.95 3518.95\ninternal_count=225170 94140\nis_linear=0\nshrinkage=0.0526316\n\n\nTree=179\nnum_leaves=3\nnum_cat=0\nsplit_feature=61 1\nsplit_gain=6.58192 16.492\nthreshold=1.0000000180025095e-35 0.5345477386934675\ndecision_type=2 2\nleft_child=-1 -2\nright_child=1 -3\nleaf_value=-0.00056741385381082088 -0.016289662003703992 0.040678742582874759\nleaf_weight=8138.6050662379712 23.938232042826712 34.168903748970479\nleaf_count=223292 967 871\ninternal_value=-0.000441391 0.0172094\ninternal_weight=8196.71 58.1071\ninternal_count=225130 1838\nis_linear=0\nshrinkage=0.0526316\n\n\nTree=180\nnum_leaves=3\nnum_cat=0\nsplit_feature=1 45\nsplit_gain=6.83097 17.6255\nthreshold=0.32600502512562829 1.0000000180025095e-35\ndecision_type=2 2\nleft_child=1 -1\nright_child=-2 -3\nleaf_value=-0.030026148977719862 -0.00020964357078596539 0.13312581581341079\nleaf_weight=37.754444114398211 8159.1047397456132 1.9278412964195002\nleaf_count=4341 220589 240\ninternal_value=-0.000315593 -0.0220995\ninternal_weight=8198.79 39.6823\ninternal_count=225170 4581\nis_linear=0\nshrinkage=0.0526316\n\n\nTree=181\nnum_leaves=3\nnum_cat=0\nsplit_feature=1 1\nsplit_gain=7.97369 21.0945\nthreshold=0.56344221105527648 0.53580402010050265\ndecision_type=2 2\nleft_child=1 -1\nright_child=-2 -3\nleaf_value=-0.0026193206759822394 -0.001284609022771512 -0.013324579015552205\nleaf_weight=2724.1283647031523 4849.5340748545714 627.29423060407862\nleaf_count=118014 90308 16812\ninternal_value=-0.00264891 -0.00462306\ninternal_weight=8200.96 3351.42\ninternal_count=225134 134826\nis_linear=0\nshrinkage=0.0526316\n\n\nTree=182\nnum_leaves=3\nnum_cat=0\nsplit_feature=3 45\nsplit_gain=6.82806 21.6057\nthreshold=0.28947368421052638 1.0000000180025095e-35\ndecision_type=2 2\nleft_child=-1 -2\nright_child=1 -3\nleaf_value=-0.0020399654777927688 0.0016333425698452082 0.055895771747894542\nleaf_weight=7992.9911446128972 182.29655118985102 22.877550449687988\nleaf_count=220898 3831 426\ninternal_value=-0.00179661 0.00768385\ninternal_weight=8198.17 205.174\ninternal_count=225155 4257\nis_linear=0\nshrinkage=0.0526316\n\n\nTree=183\nnum_leaves=3\nnum_cat=0\nsplit_feature=32 1\nsplit_gain=6.85668 15.49\nthreshold=1.0000000180025095e-35 0.4591708542713569\ndecision_type=2 2\nleft_child=-1 -2\nright_child=1 -3\nleaf_value=-0.00088260809396656858 -0.0012902749381313392 -0.038754106682964119\nleaf_weight=8049.1237790179439 103.4912788476795 43.389708465896547\nleaf_count=219335 4481 1380\ninternal_value=-0.00108825 -0.0123575\ninternal_weight=8196 146.881\ninternal_count=225196 5861\nis_linear=0\nshrinkage=0.0526316\n\n\nTree=184\nnum_leaves=3\nnum_cat=0\nsplit_feature=6 33\nsplit_gain=7.12654 20.2177\nthreshold=1.0000000180025095e-35 1.0000000180025095e-35\ndecision_type=2 2\nleft_child=-1 -2\nright_child=1 -3\nleaf_value=-8.30213983321502e-05 -0.0072894012571695505 0.0050111297260830865\nleaf_weight=6365.7754287030548 1309.7572097142693 515.9642349826172\nleaf_count=187727 25859 11532\ninternal_value=-0.000914397 -0.00381316\ninternal_weight=8191.5 1825.72\ninternal_count=225118 37391\nis_linear=0\nshrinkage=0.0526316\n\n\nTree=185\nnum_leaves=3\nnum_cat=0\nsplit_feature=2 45\nsplit_gain=7.23644 42.5229\nthreshold=1.0000000180025095e-35 1.0000000180025095e-35\ndecision_type=2 2\nleft_child=1 -1\nright_child=-2 -3\nleaf_value=-0.0046274723554204662 0.00024977114158946821 0.03632839156178224\nleaf_weight=2131.1497636227868 5986.1821324569173 72.616348312236369\nleaf_count=45540 177989 1637\ninternal_value=-0.000699466 -0.00327793\ninternal_weight=8189.95 2203.77\ninternal_count=225166 47177\nis_linear=0\nshrinkage=0.0526316\n\n\nTree=186\nnum_leaves=3\nnum_cat=0\nsplit_feature=3 1\nsplit_gain=7.04204 19.3387\nthreshold=0.28947368421052638 0.39133165829145738\ndecision_type=2 2\nleft_child=-1 -2\nright_child=1 -3\nleaf_value=-0.00079306810980152688 0.080327638031454887 0.0054191279426979511\nleaf_weight=7985.8790280204266 10.039085711352525 194.70742891123518\nleaf_count=220926 463 3793\ninternal_value=-0.00054596 0.0090921\ninternal_weight=8190.63 204.747\ninternal_count=225182 4256\nis_linear=0\nshrinkage=0.0526316\n\n\nTree=187\nnum_leaves=3\nnum_cat=0\nsplit_feature=2 45\nsplit_gain=6.90995 36.7911\nthreshold=1.0000000180025095e-35 1.0000000180025095e-35\ndecision_type=2 2\nleft_child=1 -1\nright_child=-2 -3\nleaf_value=-0.0042148036518700896 0.00048895596879271826 0.03394488682983992\nleaf_weight=2128.3280675928108 5986.9003017207142 72.368092529010028\nleaf_count=45539 178005 1634\ninternal_value=-0.000438052 -0.00295995\ninternal_weight=8187.6 2200.7\ninternal_count=225178 47173\nis_linear=0\nshrinkage=0.0526316\n\n\nTree=188\nnum_leaves=3\nnum_cat=0\nsplit_feature=41 2\nsplit_gain=6.02829 52.1062\nthreshold=1.0000000180025095e-35 0.26923076923076933\ndecision_type=2 2\nleft_child=-1 -2\nright_child=1 -3\nleaf_value=-0.0009266734055686476 0.0019948299355231772 0.098492936095660066\nleaf_weight=7492.0422924654558 679.78445032052696 15.862173450179396\nleaf_count=209772 15019 375\ninternal_value=-0.000491503 0.00419521\ninternal_weight=8187.69 695.647\ninternal_count=225166 15394\nis_linear=0\nshrinkage=0.0526316\n\n\nTree=189\nnum_leaves=3\nnum_cat=0\nsplit_feature=6 33\nsplit_gain=6.5871 18.0808\nthreshold=1.0000000180025095e-35 1.0000000180025095e-35\ndecision_type=2 2\nleft_child=-1 -2\nright_child=1 -3\nleaf_value=0.00050048901035871878 -0.0063744272441407972 